-5.391382053494453430e-02
-2.750648185610771179e-03
2.008855901658535004e-02
1.606961190700531006e-01
-1.060659959912300110e-01
-1.232200115919113159e-01
-6.895098835229873657e-03
-1.220006421208381653e-01
-1.603371053934097290e-01
-1.277589332312345505e-02
-2.850766479969024658e-02
-1.572773307561874390e-01
5.892413109540939331e-02
4.922839626669883728e-02
1.792715638875961304e-01
-8.674316108226776123e-02
3.686204552650451660e-02
2.898126095533370972e-02
2.291564345359802246e-01
-7.548648118972778320e-02
-1.437270641326904297e-01
-1.414572745561599731e-01
-5.410839617252349854e-02
6.813957542181015015e-02
1.990776136517524719e-02
-3.124876320362091064e-02
6.488024443387985229e-02
9.102347493171691895e-02
3.599171340465545654e-02
-1.590962335467338562e-02
7.693906128406524658e-02
9.299010038375854492e-02
-1.860088523244485259e-04
3.271108865737915039e-01
-5.465776473283767700e-02
-4.698420315980911255e-02
-1.560977697372436523e-01
2.204463481903076172e-01
1.368510872125625610e-01
-6.209933012723922729e-02
-8.143541961908340454e-02
-2.820766158401966095e-02
1.278025954961776733e-01
3.617958724498748779e-02
2.085836231708526611e-02
-9.029100835323333740e-02
-1.635093055665493011e-02
1.005028680083341897e-04
9.490774828009307384e-04
-7.743675261735916138e-02
-6.386467814445495605e-02
1.722454838454723358e-02
1.398159749805927277e-02
-5.722573027014732361e-02
-4.104764759540557861e-02
1.322766840457916260e-01
-4.319022595882415771e-02
-2.105784229934215546e-02
7.929673790931701660e-02
-1.546489894390106201e-01
-1.095248293131589890e-02
-2.427305877208709717e-01
-8.032558858394622803e-02
-2.117414325475692749e-01
