-8.204660261981189251e-04
-1.105859782546758652e-02
2.832451649010181427e-02
8.901540189981460571e-02
-4.997495189309120178e-02
-1.705206558108329773e-02
1.195820420980453491e-01
1.635572058148682117e-03
2.571563795208930969e-02
6.564489006996154785e-02
5.273394286632537842e-02
-8.230872452259063721e-02
-2.445955574512481689e-02
2.510446310043334961e-02
-5.115845054388046265e-02
4.726908169686794281e-03
-5.892334133386611938e-02
-1.226871740072965622e-02
-2.343923319131135941e-03
-7.116952911019325256e-03
2.642742823809385300e-03
6.384972482919692993e-02
1.738630048930644989e-02
1.078338101506233215e-01
-1.238272152841091156e-02
-5.914254859089851379e-02
-6.898678839206695557e-02
-3.175354003906250000e-02
8.058471232652664185e-02
-4.260148853063583374e-03
-7.272446155548095703e-02
5.317710712552070618e-02
-4.298615083098411560e-02
5.769434198737144470e-02
4.163710772991180420e-02
1.276778727769851685e-01
-1.655130274593830109e-02
3.116516768932342529e-02
-2.400638349354267120e-02
4.795933607965707779e-03
3.382679075002670288e-02
-5.428603664040565491e-02
-1.391950435936450958e-02
-1.184683106839656830e-02
-2.606829255819320679e-02
-6.018051877617835999e-03
-3.341649845242500305e-02
4.477514326572418213e-02
6.782448291778564453e-02
-1.092932671308517456e-01
-4.989384114742279053e-02
-1.140847220085561275e-03
5.878263339400291443e-02
-1.784220710396766663e-02
9.343728423118591309e-03
5.930466111749410629e-03
-7.226739078760147095e-02
7.339742151089012623e-04
-5.005030333995819092e-02
1.083372160792350769e-03
-3.182659391313791275e-03
-2.289875224232673645e-02
-5.624474585056304932e-02
8.804301731288433075e-03
-9.357712417840957642e-02
3.008545190095901489e-02
-2.004791982471942902e-03
-1.006795559078454971e-02
-3.318510204553604126e-02
-8.851702325046062469e-03
1.714606583118438721e-02
-7.677382975816726685e-02
-1.937317848205566406e-02
-4.899922758340835571e-02
-5.521444603800773621e-02
-5.496622994542121887e-02
-4.995109979063272476e-03
-3.079545125365257263e-02
7.750571519136428833e-02
2.179571986198425293e-02
8.128900080919265747e-02
-1.187960151582956314e-02
-2.013021148741245270e-03
-2.699231170117855072e-02
-4.271858558058738708e-02
-9.623813093639910221e-04
-5.238909274339675903e-02
3.987557720392942429e-03
-2.905322425067424774e-02
-7.897883653640747070e-02
7.076906040310859680e-03
1.553565380163490772e-04
1.817095465958118439e-02
3.624962642788887024e-02
6.186523661017417908e-02
9.824258834123611450e-02
5.309550836682319641e-02
1.408118638209998608e-03
-6.857692729681730270e-03
-3.096354566514492035e-02
5.163253471255302429e-02
-7.472830265760421753e-02
-6.778158992528915405e-02
7.634824607521295547e-03
-2.150048688054084778e-02
-6.733512971550226212e-03
-7.216397672891616821e-02
2.229064144194126129e-02
-1.474025007337331772e-02
-7.758575677871704102e-02
-1.803957112133502960e-02
-6.168422847986221313e-02
-2.343992143869400024e-02
-9.713866747915744781e-04
-1.996934041380882263e-02
6.026879884302616119e-03
2.995166741311550140e-02
-2.504819072782993317e-02
2.492904197424650192e-03
2.879730612039566040e-02
-2.514610439538955688e-02
-4.390034452080726624e-02
3.404266759753227234e-02
-3.957481682300567627e-02
-1.106113195419311523e-02
-2.639254741370677948e-02
2.879298105835914612e-02
3.490300849080085754e-02
7.004579156637191772e-02
-3.214044962078332901e-03
4.239100217819213867e-02
3.151112236082553864e-03
2.618414536118507385e-02
-2.711259573698043823e-02
-3.648081794381141663e-02
-1.976535655558109283e-02
9.015028178691864014e-02
-8.436623960733413696e-03
-4.678303375840187073e-02
-1.569138467311859131e-02
-4.716501012444496155e-02
-2.511518262326717377e-02
-1.737813279032707214e-02
-5.501957237720489502e-02
1.036704704165458679e-01
5.398472025990486145e-02
-2.129021473228931427e-02
-8.922525681555271149e-03
3.770919283851981163e-03
4.035401344299316406e-02
-9.487675875425338745e-02
-6.559246778488159180e-02
1.328478218056261539e-03
3.427701070904731750e-03
-2.516582235693931580e-02
6.400656700134277344e-02
-6.228967756032943726e-02
-1.097413897514343262e-02
7.575338333845138550e-02
6.198151409626007080e-02
3.568059578537940979e-02
3.300308808684349060e-02
-7.830024510622024536e-02
-3.440830484032630920e-02
2.776895835995674133e-02
-6.547602266073226929e-02
-2.008388750255107880e-03
-6.701205670833587646e-02
2.066541695967316628e-03
5.521759390830993652e-02
7.686771452426910400e-02
2.371114119887351990e-02
4.983604326844215393e-02
-8.236779272556304932e-02
-2.720282971858978271e-02
-3.507878258824348450e-02
6.816411763429641724e-02
5.575232952833175659e-02
-7.796243578195571899e-02
2.936033904552459717e-02
1.245816517621278763e-02
-1.654355227947235107e-02
2.601530216634273529e-02
-1.515966467559337616e-02
-1.977642625570297241e-02
-1.005350425839424133e-01
-7.941855490207672119e-02
2.502723783254623413e-02
-8.603391470387578011e-04
1.106909587979316711e-01
-5.588494613766670227e-02
2.108859568834304810e-01
