-2.090394124388694763e-02
-4.717505350708961487e-02
-2.797950990498065948e-03
1.054408587515354156e-02
-7.524531683884561062e-04
6.973357871174812317e-03
2.955521689727902412e-03
-3.258516313508152962e-03
-2.250316180288791656e-02
-1.213578693568706512e-02
-1.732166670262813568e-02
-8.974604308605194092e-03
1.991033181548118591e-02
1.222745631821453571e-03
-5.691796541213989258e-03
-4.823452234268188477e-02
-5.365147814154624939e-02
-1.634504273533821106e-02
-1.033082325011491776e-02
2.183859795331954956e-02
-6.760776741430163383e-04
-2.372178062796592712e-02
-2.779364027082920074e-02
-2.078581973910331726e-02
-1.809259690344333649e-02
-5.703561007976531982e-02
-1.567733474075794220e-02
-2.027740143239498138e-02
-2.146147377789020538e-02
-3.840390965342521667e-02
-3.745927289128303528e-02
-8.620005100965499878e-03
-1.616061106324195862e-02
1.123648043721914291e-02
7.110104430466890335e-03
-1.362235005944967270e-02
-1.011392194777727127e-02
5.867956206202507019e-04
3.939641756005585194e-04
3.430864214897155762e-02
2.814090345054864883e-03
-1.186249032616615295e-02
2.373378537595272064e-02
1.906529814004898071e-02
-4.863179754465818405e-03
1.595719158649444580e-02
4.282093048095703125e-02
2.640877105295658112e-02
3.929520491510629654e-03
-1.643398031592369080e-02
-1.708493568003177643e-02
-8.385327528230845928e-04
-7.002596743404865265e-03
8.904715068638324738e-04
-9.724474512040615082e-03
-8.550519123673439026e-03
2.802340686321258545e-02
2.553232945501804352e-02
3.359675779938697815e-02
2.775282599031925201e-02
8.585127070546150208e-03
4.231180530041456223e-03
-3.448621369898319244e-03
7.701772265136241913e-04
4.143768176436424255e-02
1.803953386843204498e-02
2.598761953413486481e-02
8.033295744098722935e-04
-5.606133490800857544e-04
1.754228142090141773e-03
-6.832072976976633072e-03
4.855481907725334167e-02
8.739076554775238037e-03
1.632989756762981415e-02
-1.121818087995052338e-02
-1.723399385809898376e-02
-1.018524263054132462e-02
1.544596347957849503e-02
1.180470734834671021e-02
-6.445642095059156418e-03
-7.529777940362691879e-04
3.998235799372196198e-03
-7.169114542193710804e-04
2.920688129961490631e-02
6.930040195584297180e-03
-1.710652001202106476e-02
-1.573185436427593231e-04
-2.695557661354541779e-03
-8.122044615447521210e-03
-5.960004637017846107e-04
1.189651992172002792e-02
5.578116048127412796e-03
-6.483035976998507977e-04
-1.276588812470436096e-02
4.088344518095254898e-03
7.753778249025344849e-03
-1.057959068566560745e-02
7.858511060476303101e-03
-9.394935332238674164e-03
8.319055661559104919e-03
-8.364649489521980286e-03
-9.260705672204494476e-03
-1.112848054617643356e-02
-1.667453348636627197e-02
7.346194237470626831e-03
1.465735025703907013e-02
-3.662003437057137489e-03
-1.776591502130031586e-02
1.236535608768463135e-02
2.395234443247318268e-02
1.467971783131361008e-02
2.429266087710857391e-02
2.132670953869819641e-02
1.726564578711986542e-02
2.882156288251280785e-03
3.187956660985946655e-02
4.218099638819694519e-02
3.896868228912353516e-02
4.074791073799133301e-02
1.523989904671907425e-02
1.280654035508632660e-02
1.528494991362094879e-02
3.915502876043319702e-02
2.160324715077877045e-02
5.217965319752693176e-02
4.681300371885299683e-02
1.939872093498706818e-02
2.421769686043262482e-02
-1.370428223162889481e-02
-4.725132137537002563e-03
1.514255162328481674e-02
7.035664282739162445e-03
6.809290498495101929e-03
6.525325588881969452e-03
-1.184345316141843796e-02
-4.483414068818092346e-02
-1.130168233066797256e-02
1.768064685165882111e-02
-8.395179174840450287e-03
-1.377503108233213425e-02
-2.947331778705120087e-02
-3.314038366079330444e-02
-2.494326233863830566e-02
-1.424777973443269730e-02
-2.047150023281574249e-02
3.005626378580927849e-03
1.778572052717208862e-02
-9.308879263699054718e-03
-4.374317824840545654e-03
-7.416361011564731598e-03
2.806327211146708578e-05
-8.628295734524726868e-03
-7.343526813201606274e-04
2.298462204635143280e-03
-1.485163904726505280e-02
-1.839498989284038544e-02
-8.568172343075275421e-03
3.320380114018917084e-03
9.702460840344429016e-03
1.805116981267929077e-02
-1.488108001649379730e-02
-6.732289679348468781e-03
7.457287982106208801e-03
-2.374707488343119621e-03
1.594914123415946960e-02
2.298808097839355469e-02
8.076351368799805641e-04
-7.688568439334630966e-03
-5.056310910731554031e-03
-2.894685789942741394e-02
-1.906278729438781738e-02
5.003982223570346832e-03
6.163765210658311844e-03
2.193354815244674683e-02
7.846376858651638031e-03
-1.015517953783273697e-02
7.942515425384044647e-03
2.883679931983351707e-03
1.988051272928714752e-02
2.179725561290979385e-03
5.210042931139469147e-03
-1.140151731669902802e-02
-6.233863998204469681e-03
3.675040323287248611e-03
1.484363432973623276e-02
7.236683275550603867e-03
-1.294324919581413269e-02
-7.694773841649293900e-03
-1.887260732473805547e-04
1.603654772043228149e-02
1.456940732896327972e-02
1.977440528571605682e-02
1.126464549452066422e-02
8.087778463959693909e-03
6.412217393517494202e-03
1.493907254189252853e-02
-2.468598075211048126e-02
-1.526438910514116287e-02
-8.953429758548736572e-03
1.166487112641334534e-03
3.465097164735198021e-03
-7.240787614136934280e-03
3.170462325215339661e-03
-1.861849054694175720e-02
-2.601867017801851034e-04
-2.226463984698057175e-04
1.581089571118354797e-02
9.611126966774463654e-03
1.681471243500709534e-02
-5.887003135285340250e-05
-3.991793096065521240e-02
-1.652020774781703949e-02
-1.727959327399730682e-02
9.294051676988601685e-03
-4.284770693629980087e-03
2.617330849170684814e-02
1.006534439511597157e-03
-2.417916432023048401e-02
-3.852581372484564781e-03
-2.126335538923740387e-02
-3.110736049711704254e-02
3.348374739289283752e-03
3.304662555456161499e-02
2.759265154600143433e-02
-1.037769950926303864e-02
2.209894591942429543e-03
2.292349934577941895e-02
-2.513357065618038177e-02
-2.751071564853191376e-02
3.041953779757022858e-02
3.068956173956394196e-02
6.032869219779968262e-03
9.829104878008365631e-03
1.077556330710649490e-02
2.645643893629312515e-03
-1.259678136557340622e-02
2.554564736783504486e-02
2.456907369196414948e-02
4.043657705187797546e-02
7.302575279027223587e-03
1.042768452316522598e-02
2.032076008617877960e-02
3.320509940385818481e-02
1.611223258078098297e-02
2.879117056727409363e-02
-1.011187909170985222e-03
-6.183361634612083435e-03
-6.185132078826427460e-03
-3.105666721239686012e-03
-1.604923047125339508e-02
-1.071918755769729614e-02
2.290805336087942123e-03
-7.855231873691082001e-03
-1.732889562845230103e-02
-5.406151525676250458e-03
1.161982305347919464e-02
-6.635626312345266342e-03
-1.325297635048627853e-02
2.227588323876261711e-03
-2.262718230485916138e-02
-4.716775566339492798e-02
-2.458220906555652618e-02
-2.269244566559791565e-02
7.719305343925952911e-03
1.405344810336828232e-03
-1.620212011039257050e-02
-9.889242239296436310e-03
-4.180749505758285522e-02
-1.397146936506032944e-02
6.635455880314111710e-03
1.556066516786813736e-02
-1.835599541664123535e-03
-4.435703158378601074e-03
4.950479604303836823e-03
-1.750582270324230194e-02
-1.447551697492599487e-02
3.757084487006068230e-03
6.077919155359268188e-03
4.782261326909065247e-03
-7.367050740867853165e-03
5.190582014620304108e-03
-2.405367325991392136e-03
-1.108666229993104935e-02
-1.536349579691886902e-02
-8.754257112741470337e-03
-5.886524450033903122e-03
-4.483882221393287182e-04
-6.482867989689111710e-03
8.738728240132331848e-03
4.570399876683950424e-03
1.287633460015058517e-02
3.867505490779876709e-02
2.691151015460491180e-02
7.048632483929395676e-03
7.438705652020871639e-04
-2.040048129856586456e-02
-1.261238288134336472e-02
2.061063423752784729e-02
-4.076445475220680237e-03
1.077512372285127640e-02
-1.725536189042031765e-03
7.706752512603998184e-03
-5.656908266246318817e-03
-1.779962703585624695e-02
-1.022735517472028732e-02
-8.656078949570655823e-03
1.495269034057855606e-02
1.229022629559040070e-02
-1.978068612515926361e-02
-2.635818161070346832e-02
-3.322319686412811279e-02
-5.368442833423614502e-02
-1.504247821867465973e-02
-2.859315834939479828e-03
1.766984350979328156e-02
-1.861493661999702454e-02
2.523958915844559669e-03
1.911121048033237457e-02
2.308312244713306427e-02
-4.682054277509450912e-03
-2.974744187667965889e-03
-1.233711000531911850e-02
7.914374582469463348e-03
6.953856442123651505e-03
-5.141424946486949921e-03
1.041819248348474503e-02
-1.785560697317123413e-02
-1.517334859818220139e-02
2.227754145860671997e-02
-6.976822391152381897e-03
6.098565645515918732e-03
1.115756295621395111e-02
1.042694412171840668e-02
-1.742208935320377350e-02
-8.361591957509517670e-03
9.282804094254970551e-03
9.451235644519329071e-03
2.585009485483169556e-02
8.430910296738147736e-03
2.213998138904571533e-02
1.403073500841856003e-02
3.004484623670578003e-02
-2.218334469944238663e-03
-9.049008600413799286e-03
-2.151100337505340576e-02
-2.767567150294780731e-02
-1.380191277712583542e-02
-2.872195281088352203e-02
-1.217074599117040634e-02
-1.219472941011190414e-02
1.055965200066566467e-02
2.827097661793231964e-03
1.729093305766582489e-02
1.997451484203338623e-02
1.469166763126850128e-02
7.019142154604196548e-03
6.022223387844860554e-04
-1.743184402585029602e-02
1.834421977400779724e-02
-2.188552916049957275e-02
-1.116042584180831909e-02
-1.520649623125791550e-02
-1.556175481528043747e-02
6.092941388487815857e-03
6.694440264254808426e-03
3.154366090893745422e-02
-1.437505893409252167e-02
1.558194588869810104e-02
3.431995632126927376e-03
-3.285012021660804749e-02
-7.755540311336517334e-03
-1.566761755384504795e-03
-2.284433459863066673e-03
-1.151396613568067551e-02
-1.016599498689174652e-02
2.482207259163260460e-03
-1.680875755846500397e-02
-1.117967185564339161e-03
1.676790602505207062e-02
-1.168989855796098709e-02
1.774808950722217560e-02
-1.408893335610628128e-02
1.204734295606613159e-02
1.356220059096813202e-02
1.698568090796470642e-02
1.847654767334461212e-02
5.936331581324338913e-04
3.494248166680335999e-02
-6.751746870577335358e-03
7.465559523552656174e-03
6.929672323167324066e-03
9.831197559833526611e-03
-1.674093538895249367e-03
-2.062707906588912010e-03
2.368126151850447059e-04
1.312348432838916779e-02
-2.538508502766489983e-03
-1.623989269137382507e-02
-7.958724163472652435e-03
-7.418519817292690277e-03
2.464475482702255249e-02
7.400874979794025421e-03
3.063240274786949158e-02
1.385946013033390045e-02
2.212272584438323975e-02
8.908134885132312775e-03
1.405963092111051083e-03
3.277721256017684937e-02
1.900210743770003319e-03
2.388802543282508850e-02
1.651537790894508362e-02
2.730402536690235138e-02
3.030516393482685089e-02
-8.055718615651130676e-03
1.441386714577674866e-02
1.374872401356697083e-03
-6.824645679444074631e-03
-1.395656727254390717e-03
7.749902084469795227e-03
-1.328203943558037281e-03
-9.384614531882107258e-05
3.381143687875010073e-05
-1.500891428440809250e-02
-7.734748534858226776e-03
-1.413801591843366623e-02
1.688470598310232162e-03
2.587023889645934105e-03
1.300946902483701706e-02
-8.198192343115806580e-03
-8.795765228569507599e-03
1.371113676577806473e-02
-1.370093878358602524e-02
-6.588704418390989304e-03
1.802850700914859772e-02
3.960912115871906281e-03
-1.802284456789493561e-02
-1.550305075943470001e-02
7.655722554773092270e-03
-4.996571689844131470e-03
-8.310821838676929474e-03
-1.420037541538476944e-02
-1.422514324076473713e-04
-2.423119731247425079e-02
-1.548549532890319824e-02
-1.652504876255989075e-02
-3.902175230905413628e-03
-5.590430926531553268e-03
3.271435620263218880e-03
-7.552093593403697014e-04
-3.317080438137054443e-02
-1.068178657442331314e-02
-2.363148331642150879e-02
-4.953041207045316696e-03
-1.054220646619796753e-02
1.259254850447177887e-02
-2.255625464022159576e-02
-1.526193600147962570e-02
6.957005243748426437e-04
-1.438100636005401611e-02
-2.385241352021694183e-02
-2.513758093118667603e-02
-1.478103082627058029e-02
-1.381999161094427109e-02
-1.025215443223714828e-02
-2.229367755353450775e-02
-1.021644659340381622e-02
-4.031455144286155701e-02
-1.589662209153175354e-02
1.578653231263160706e-03
-8.232682012021541595e-04
-2.127076685428619385e-02
-1.251746993511915207e-02
3.007272025570273399e-03
-2.911105751991271973e-02
-2.296253293752670288e-02
-1.826403895393013954e-03
-2.380797173827886581e-03
9.218906052410602570e-03
-7.669354323297739029e-03
-1.065396051853895187e-02
-2.139253774657845497e-03
6.053859367966651917e-03
-5.464819725602865219e-03
1.841695979237556458e-02
3.876548958942294121e-03
-1.417399477213621140e-02
-1.649973168969154358e-02
-1.627514138817787170e-02
-1.519340183585882187e-02
2.386501757428050041e-03
7.324432954192161560e-03
-4.628351889550685883e-03
-2.810902660712599754e-03
-2.588620409369468689e-03
-8.603421971201896667e-03
-7.089105434715747833e-03
-1.695225574076175690e-02
-5.907946615479886532e-04
-5.002464633435010910e-03
2.620184328407049179e-03
2.027640584856271744e-03
1.750355120748281479e-03
-1.156907714903354645e-02
-1.703287661075592041e-02
1.252277754247188568e-03
-1.884869299829006195e-02
-8.872793056070804596e-03
-5.172822158783674240e-03
5.271254107356071472e-03
3.338905051350593567e-03
-6.080339080654084682e-04
6.608523894101381302e-03
4.585802555084228516e-03
-1.613745838403701782e-02
-8.729625493288040161e-03
7.881047204136848450e-03
-3.845084283966571093e-04
-7.550189271569252014e-03
2.081155544146895409e-03
2.431554021313786507e-03
-8.520401082932949066e-03
-5.752230645157396793e-04
2.120638452470302582e-02
1.363774295896291733e-02
1.251415070146322250e-02
1.192377787083387375e-02
-1.133669633418321609e-02
-6.690330803394317627e-03
-1.251043006777763367e-02
-1.603374606929719448e-03
-5.132333375513553619e-03
-1.702181412838399410e-03
6.917063146829605103e-03
1.497608842328190804e-03
7.565266452729701996e-03
3.590911219362169504e-04
-7.039350457489490509e-03
-1.753859221935272217e-02
-2.579869888722896576e-02
1.026727142743766308e-03
-2.182559669017791748e-02
-3.382844105362892151e-02
-2.736701443791389465e-02
-2.725132368505001068e-02
-7.856050506234169006e-03
-3.437724953982979059e-04
7.168161217123270035e-03
-3.729092655703425407e-03
-3.042399883270263672e-02
-3.756015375256538391e-02
-2.503228001296520233e-02
-3.166411444544792175e-02
-1.450725272297859192e-02
3.063393756747245789e-02
4.064343497157096863e-02
5.337422247976064682e-03
-1.449517905712127686e-02
1.737642800435423851e-03
6.210842635482549667e-03
5.833539762534201145e-04
3.499379009008407593e-02
2.159760519862174988e-02
1.160152535885572433e-02
2.564034052193164825e-02
1.214263960719108582e-02
1.184638589620590210e-02
1.714676804840564728e-02
5.132542457431554794e-03
1.149367541074752808e-02
4.019480571150779724e-02
2.790505252778530121e-02
5.135528743267059326e-03
-2.051333338022232056e-02
-1.071771513670682907e-02
-1.075473986566066742e-02
1.810552738606929779e-02
2.326767146587371826e-02
2.010610140860080719e-02
1.297543570399284363e-02
-1.758168637752532959e-02
5.929853068664669991e-04
-1.454421132802963257e-02
-7.155712693929672241e-03
-2.023819647729396820e-02
-2.596782287582755089e-03
-1.389056723564863205e-02
-2.674556896090507507e-02
5.741105414927005768e-03
2.730794250965118408e-03
-1.483849249780178070e-02
-1.271402230486273766e-03
7.759577594697475433e-03
-1.203038729727268219e-03
2.982452511787414551e-03
1.491677295416593552e-02
1.551579032093286514e-02
-4.793765954673290253e-03
-6.872865487821400166e-04
3.889626357704401016e-03
-1.155092264525592327e-03
-1.641674712300300598e-02
1.946081221103668213e-02
1.788932830095291138e-02
-8.830937556922435760e-03
-2.423660829663276672e-02
-6.112950388342142105e-03
-2.833653427660465240e-02
8.064174093306064606e-03
8.081582374870777130e-03
1.211483310908079147e-02
2.219990594312548637e-03
-7.435056380927562714e-03
-3.152748337015509605e-03
1.112156827002763748e-02
1.003676559776067734e-02
6.801120936870574951e-03
1.033966988325119019e-02
-2.487662248313426971e-02
-2.886825613677501678e-02
-2.345306798815727234e-02
-7.666672114282846451e-03
5.186447524465620518e-04
2.130175940692424774e-02
9.584001265466213226e-03
1.811003545299172401e-03
-7.451470475643873215e-03
-1.775985816493630409e-03
8.448852226138114929e-03
1.077795214951038361e-02
2.130935341119766235e-02
-7.883337326347827911e-03
6.191405002027750015e-03
1.891235820949077606e-02
1.655349880456924438e-02
8.589481934905052185e-03
1.651811599731445312e-02
1.491016149520874023e-02
1.040688017383217812e-03
9.035252034664154053e-03
-2.682397607713937759e-03
-6.324237328954041004e-04
-5.185464397072792053e-03
-5.451716948300600052e-03
-1.142205204814672470e-03
6.352132186293601990e-03
9.092865511775016785e-03
-2.347448468208312988e-02
-7.367516867816448212e-03
-4.974706564098596573e-03
7.580365985631942749e-03
9.793757926672697067e-04
6.243815645575523376e-03
3.874990623444318771e-03
-5.278824828565120697e-03
-4.511565202847123146e-04
1.451770425774157047e-03
-4.708439111709594727e-03
2.516785403713583946e-03
-7.049948442727327347e-03
2.773157786577939987e-03
-1.620209426619112492e-03
-5.462575936689972878e-04
1.004768908023834229e-02
-4.377756267786026001e-03
-7.877882570028305054e-03
-2.287302538752555847e-02
-4.543452057987451553e-03
3.027891740202903748e-03
-7.635039743036031723e-03
7.245503365993499756e-04
1.064078975468873978e-02
-8.565834723412990570e-03
-1.124536967836320400e-03
9.228056878782808781e-04
-1.837626472115516663e-02
-2.503762021660804749e-03
-1.031244988553225994e-03
1.582697406411170959e-02
-4.415024537593126297e-03
-6.560079753398895264e-03
4.829238168895244598e-03
-1.247678138315677643e-02
-1.009042095392942429e-02
-9.120287140831351280e-04
5.107292439788579941e-03
9.974036220228299499e-05
4.498597234487533569e-03
-1.016740128397941589e-02
1.132229901850223541e-02
5.508125293999910355e-03
-1.528016664087772369e-02
5.265405401587486267e-03
3.365716198459267616e-03
7.737312931567430496e-03
5.745558533817529678e-03
1.440775487571954727e-02
-2.090883441269397736e-02
-1.411367021501064301e-02
-2.012518048286437988e-02
-9.358529001474380493e-03
1.697831228375434875e-02
-9.060958400368690491e-03
-1.848639547824859619e-02
-3.250652924180030823e-02
-1.146050542593002319e-02
-6.947099231183528900e-03
1.936300657689571381e-03
3.846829384565353394e-02
2.102343365550041199e-02
-1.117006782442331314e-02
-2.328485064208507538e-02
3.687105374410748482e-03
-1.573844626545906067e-02
7.895380258560180664e-03
2.866292186081409454e-02
3.319992916658520699e-03
-1.362645067274570465e-02
-2.213179878890514374e-02
1.970823854207992554e-03
-6.538373418152332306e-03
-9.338846430182456970e-03
3.297024965286254883e-02
3.094560932368040085e-03
2.452578628435730934e-03
-1.857114769518375397e-02
-1.094611361622810364e-03
-6.992064882069826126e-03
5.349297542124986649e-03
2.785878628492355347e-02
7.524596992880105972e-03
-1.218682713806629181e-02
-2.484425203874707222e-04
-4.492512904107570648e-03
5.756207974627614021e-04
6.350818148348480463e-05
4.813473671674728394e-03
-1.698268763720989227e-02
2.898555481806397438e-03
2.270384877920150757e-02
1.159475743770599365e-02
-2.215954446000978351e-04
-1.241745613515377045e-02
3.481190651655197144e-02
3.165729809552431107e-03
1.195445191115140915e-02
2.143798954784870148e-02
1.366767194122076035e-02
3.098359145224094391e-02
-4.307166207581758499e-03
8.899924345314502716e-03
2.826726809144020081e-02
1.053000707179307938e-02
1.714311726391315460e-02
1.075506862252950668e-02
-3.567503392696380615e-02
-1.244713179767131805e-02
2.785228134598582983e-04
-1.903873751871287823e-03
-2.005543746054172516e-02
-1.288367528468370438e-02
-9.604132734239101410e-03
-4.060594365000724792e-02
-7.920292206108570099e-03
5.090892780572175980e-03
-4.386089742183685303e-02
-3.781879320740699768e-02
-3.350350260734558105e-02
6.277713924646377563e-03
-2.383095212280750275e-02
6.311060278676450253e-04
1.264839991927146912e-02
-3.544664755463600159e-02
-3.238154575228691101e-02
-3.735613450407981873e-02
-1.674055866897106171e-02
-2.582811936736106873e-02
-9.619733318686485291e-03
-1.751095429062843323e-02
-2.532758936285972595e-02
-3.385706618428230286e-02
1.817126176320016384e-04
-2.765282429754734039e-02
-8.354288525879383087e-03
-2.875338122248649597e-02
-1.220293622463941574e-02
-2.649136260151863098e-02
-1.005984842777252197e-02
-2.638811618089675903e-02
-1.047458685934543610e-02
-4.151923209428787231e-02
-3.468336164951324463e-02
-8.938569575548171997e-03
-6.496218033134937286e-03
-2.921837754547595978e-02
-2.381877228617668152e-02
-1.576168835163116455e-02
-1.396984979510307312e-02
-9.557029232382774353e-03
-1.031870837323367596e-03
-9.648909792304039001e-03
-3.687975555658340454e-02
1.713649742305278778e-02
-1.252832729369401932e-02
-4.656119644641876221e-02
-2.697886340320110321e-02
-9.080494637601077557e-04
-2.031354978680610657e-02
-3.790021315217018127e-02
-5.494297947734594345e-03
-4.863530397415161133e-02
-1.050703506916761398e-02
2.742585726082324982e-03
8.031629025936126709e-03
1.658523338846862316e-03
-1.586283743381500244e-02
-3.356790170073509216e-03
-1.913264207541942596e-02
-1.962807588279247284e-02
-1.250972226262092590e-02
2.543314360082149506e-02
-9.648078121244907379e-03
-2.598227374255657196e-02
-6.189282052218914032e-03
-5.233198404312133789e-03
-2.373767644166946411e-02
-1.707660406827926636e-02
-6.779620307497680187e-04
-2.853691391646862030e-02
-1.359205972403287888e-02
-2.779401093721389771e-02
-3.049895726144313812e-02
-1.860130205750465393e-02
-8.001163951121270657e-04
5.127981770783662796e-03
-7.811394520103931427e-03
-2.307916618883609772e-02
-1.651314646005630493e-02
-1.273859292268753052e-02
-1.615365408360958099e-02
-1.177830155938863754e-02
-1.395892538130283356e-02
-2.542579604778438807e-04
-2.883811714127659798e-03
-8.854095824062824249e-03
-1.706473715603351593e-02
-1.417140848934650421e-02
-1.703667268157005310e-02
-6.118531338870525360e-03
-1.092883106321096420e-02
-1.328928302973508835e-02
-7.284161169081926346e-03
8.330768905580043793e-04
8.548092097043991089e-03
-7.287864107638597488e-03
-3.518626093864440918e-03
-1.377162523567676544e-02
-1.633917167782783508e-02
4.540398716926574707e-02
4.907057061791419983e-02
2.481156773865222931e-02
-2.696630731225013733e-02
7.749670185148715973e-03
-2.421322278678417206e-03
-2.979143895208835602e-02
3.523216024041175842e-02
3.305247426033020020e-02
1.408362440997734666e-04
9.141859598457813263e-03
-1.053511351346969604e-02
-1.568684168159961700e-02
1.065272185951471329e-02
5.488955229520797729e-02
1.817990466952323914e-02
-5.375715903937816620e-03
-6.854061037302017212e-03
5.857818759977817535e-03
1.979135535657405853e-02
-5.225108005106449127e-03
2.023269608616828918e-02
2.800511382520198822e-02
-3.870229935273528099e-03
-6.557331886142492294e-03
-2.994264289736747742e-02
-4.878270998597145081e-02
-3.427978605031967163e-02
-1.183018274605274200e-02
-6.770884152501821518e-03
-1.174526661634445190e-02
-2.961649745702743530e-02
-9.355470538139343262e-03
-2.052858471870422363e-02
-4.503428936004638672e-02
-7.106319069862365723e-03
2.582731889560818672e-03
-1.997803896665573120e-02
-1.388924103230237961e-02
-1.234177965670824051e-02
-8.035980165004730225e-03
-4.277729894965887070e-03
2.204131893813610077e-02
3.829449042677879333e-02
-1.080146804451942444e-02
-2.410300821065902710e-02
-8.125518448650836945e-03
-3.681328147649765015e-02
-1.234278455376625061e-02
2.537416107952594757e-02
2.864937111735343933e-02
-1.004144176840782166e-02
-2.524196542799472809e-02
1.762585830874741077e-03
-2.221180498600006104e-02
-4.177605733275413513e-03
3.535017371177673340e-02
1.331334188580513000e-02
-1.871803961694240570e-02
9.220132604241371155e-03
2.024083212018013000e-02
-1.525647821836173534e-03
-1.026710774749517441e-02
2.790349349379539490e-02
-4.255040083080530167e-03
9.650797583162784576e-03
-1.162957865744829178e-02
6.975227966904640198e-03
3.678970504552125931e-03
-1.154997851699590683e-03
5.558402277529239655e-03
6.764392368495464325e-03
4.385460342746227980e-04
-1.855678972788155079e-03
-1.957632601261138916e-03
7.244838867336511612e-03
4.712628200650215149e-03
-1.134599326178431511e-03
-2.494452055543661118e-03
-1.459426945075392723e-03
2.476337831467390060e-03
4.334253724664449692e-03
-5.904282908886671066e-03
1.841222634539008141e-03
-4.477460868656635284e-03
-6.299267988651990891e-03
-3.893651301041245461e-03
-9.131642989814281464e-03
4.343265667557716370e-03
8.107272908091545105e-03
5.905540660023689270e-03
-7.641612552106380463e-03
-8.495151996612548828e-03
1.852003624662756920e-03
5.347738508135080338e-03
-2.732759341597557068e-03
4.974652547389268875e-03
1.265790080651640892e-03
-1.118940487504005432e-02
-4.276177845895290375e-03
-3.194885561242699623e-03
-3.347491146996617317e-03
9.402391500771045685e-03
8.423374034464359283e-03
-1.856111222878098488e-03
-8.643208071589469910e-03
-7.696767570450901985e-04
-7.700545713305473328e-03
5.503186548594385386e-05
-5.739384330809116364e-03
6.598030216991901398e-03
-1.059389833244495094e-04
9.715696796774864197e-03
1.196931698359549046e-03
-4.739943426102399826e-03
-4.557686392217874527e-03
9.041115641593933105e-03
3.220003098249435425e-03
1.175158750265836716e-02
-6.962910760194063187e-03
1.356731634587049484e-03
-5.052239168435335159e-03
-3.683601273223757744e-03
-3.724455134943127632e-03
-5.507629830390214920e-03
-8.226839709095656872e-04
4.153474234044551849e-03
-1.038075238466262817e-02
-2.317444421350955963e-02
-4.241263493895530701e-03
5.886929575353860855e-03
-1.688343822024762630e-03
-2.406306192278862000e-02
3.232696093618869781e-03
-2.857903018593788147e-02
-1.284917723387479782e-02
5.326576530933380127e-03
1.463930867612361908e-02
-6.932900287210941315e-03
-3.913856297731399536e-02
-3.848461806774139404e-02
-1.727003790438175201e-02
-1.164680719375610352e-02
1.457540877163410187e-02
1.800303719937801361e-02
-3.073216648772358894e-03
-6.635422259569168091e-02
-2.556104958057403564e-02
-2.643380686640739441e-02
1.676031760871410370e-02
1.352265756577253342e-02
3.006855770945549011e-02
2.247558347880840302e-02
-6.374102085828781128e-02
-6.321787368506193161e-03
-2.125165611505508423e-02
7.290456444025039673e-03
2.677405998110771179e-02
3.689149022102355957e-02
1.130172703415155411e-02
-2.268903702497482300e-02
4.268201591912657022e-04
-2.068645699182525277e-04
-1.141792070120573044e-02
-8.278710767626762390e-03
1.930455677211284637e-02
-4.513622727245092392e-03
1.586741209030151367e-02
3.023811057209968567e-02
4.790027160197496414e-03
-8.944822475314140320e-03
-9.490578435361385345e-03
-1.787577522918581963e-03
1.348978187888860703e-02
8.348518051207065582e-03
-3.885502461344003677e-03
-1.280639320611953735e-02
4.519191570580005646e-03
-1.044710353016853333e-02
-4.595748148858547211e-03
-1.303544361144304276e-02
-7.660087663680315018e-03
2.229477977380156517e-03
-2.128353528678417206e-02
-6.582243368029594421e-03
-1.820620708167552948e-02
-4.365642555058002472e-03
1.134839025326073170e-03
-1.275512948632240295e-02
8.341738022863864899e-03
7.613935507833957672e-03
-1.395787578076124191e-02
2.749089151620864868e-03
2.827912382781505585e-02
-4.304070957005023956e-03
-2.710248716175556183e-02
-2.687324956059455872e-02
3.123766044154763222e-03
2.125587314367294312e-02
1.975494809448719025e-02
6.228356622159481049e-03
-3.116022236645221710e-02
4.398185759782791138e-03
2.210741676390171051e-02
3.880843287333846092e-03
1.894661970436573029e-02
6.014951504766941071e-03
3.184766741469502449e-03
-2.093160338699817657e-02
4.044152423739433289e-02
2.118166908621788025e-02
-3.105181083083152771e-02
-1.501065492630004883e-02
-8.561743423342704773e-03
1.255269721150398254e-02
1.966579351574182510e-03
2.173549681901931763e-02
2.000121586024761200e-02
2.591796219348907471e-02
1.737345755100250244e-02
1.724007166922092438e-02
-7.587634492665529251e-03
-1.250584051012992859e-02
-1.214287523180246353e-02
-1.414571143686771393e-02
-3.838918870314955711e-03
-1.660716161131858826e-02
-1.746481657028198242e-02
6.188867148011922836e-03
1.735005527734756470e-02
-3.678086679428815842e-03
3.902939381077885628e-03
-1.072967145591974258e-02
1.585342735052108765e-02
-1.019459683448076248e-02
-3.307061269879341125e-03
2.491306699812412262e-02
2.317083626985549927e-02
3.045662492513656616e-02
8.302203379571437836e-03
-2.582160523161292076e-04
-5.577171687036752701e-03
1.971953606698662043e-04
2.728028222918510437e-02
3.082637302577495575e-02
2.346967346966266632e-02
-8.316131308674812317e-03
-2.017676364630460739e-03
-1.702504581771790981e-03
1.544474251568317413e-02
2.680332399904727936e-02
1.609616540372371674e-02
3.279824927449226379e-02
1.514313742518424988e-02
7.894534617662429810e-03
2.706303494051098824e-03
5.152403842657804489e-03
2.342326007783412933e-02
3.087040595710277557e-02
3.042764961719512939e-02
-2.971147745847702026e-02
-2.321882173418998718e-02
-8.622723631560802460e-03
1.794891804456710815e-02
1.745453663170337677e-02
2.528596110641956329e-02
2.634538523852825165e-02
3.137721214443445206e-03
-2.439592778682708740e-02
-8.541746065020561218e-03
-8.719281177036464214e-04
-6.462265737354755402e-03
-2.561734290793538094e-03
-3.874584799632430077e-03
2.829483896493911743e-02
1.728800684213638306e-02
-1.945430645719170570e-03
-1.177164632827043533e-02
-2.770427381619811058e-03
-8.126062341034412384e-03
-7.035090588033199310e-03
5.096058361232280731e-03
3.067640587687492371e-02
2.849844750016927719e-03
2.145293401554226875e-03
9.723692201077938080e-03
7.478705607354640961e-03
6.361189763993024826e-03
3.959946334362030029e-03
4.938286915421485901e-02
5.154903512448072433e-03
1.644589193165302277e-02
2.812976576387882233e-02
-1.955018565058708191e-02
-2.535585500299930573e-02
3.379079047590494156e-03
4.750883951783180237e-02
1.329636014997959137e-02
2.918965648859739304e-03
-4.779701586812734604e-03
-9.789881296455860138e-03
-3.873848542571067810e-02
-9.159098379313945770e-03
-1.755467732436954975e-03
-1.220687665045261383e-02
1.377543713897466660e-02
4.107230529189109802e-02
1.221608649939298630e-02
1.022850535809993744e-02
8.399254642426967621e-03
2.815810963511466980e-03
-2.904286375269293785e-03
1.358392369002103806e-02
1.197336614131927490e-02
1.445411611348390579e-02
3.145556524395942688e-02
1.939560286700725555e-02
2.776268520392477512e-04
-1.194626092910766602e-02
3.735284088179469109e-03
-3.437208011746406555e-03
-6.673408672213554382e-03
1.062968838959932327e-02
7.103617303073406219e-03
-7.953455671668052673e-03
-3.697837702929973602e-03
1.387957134284079075e-03
7.193775381892919540e-03
1.632988802157342434e-03
-3.754225559532642365e-03
3.803802828770130873e-04
-6.001557689160108566e-03
1.012525055557489395e-02
-1.436726190149784088e-02
-1.698953472077846527e-02
-1.626767031848430634e-02
-1.045314408838748932e-02
6.171461660414934158e-03
-1.410762406885623932e-02
1.130940020084381104e-02
-4.005664959549903870e-03
-7.186263799667358398e-03
-1.148071326315402985e-02
-1.185753475874662399e-02
1.090748328715562820e-02
-1.379075832664966583e-02
1.493265200406312943e-02
-2.044491935521364212e-03
-4.111726302653551102e-03
2.665779553353786469e-03
-5.631374660879373550e-03
2.510769991204142570e-03
-7.333271671086549759e-03
8.589603239670395851e-04
6.476083304733037949e-03
-8.036796934902667999e-03
-3.223668318241834641e-03
4.587081726640462875e-03
-1.983803696930408478e-02
-1.709695346653461456e-02
-7.520959479734301567e-04
1.339795906096696854e-02
6.405960884876549244e-04
4.309820476919412613e-03
-4.559901077300310135e-03
-7.589256390929222107e-03
-1.604456827044487000e-02
-3.913666587322950363e-03
-6.737501826137304306e-03
3.775503486394882202e-03
6.967545952647924423e-03
5.915399524383246899e-04
4.812252242118120193e-03
-8.990997448563575745e-03
-3.318005707114934921e-03
-1.391057297587394714e-02
6.972059491090476513e-04
-1.952675287611782551e-03
-1.358591392636299133e-02
-4.656851815525442362e-04
-7.174992933869361877e-03
-7.691135630011558533e-03
-3.109155921265482903e-03
-5.249328445643186569e-03
3.450867719948291779e-03
2.108701039105653763e-03
-3.138527972623705864e-03
4.632075782865285873e-03
-5.607210565358400345e-03
-1.177766453474760056e-02
-1.028617098927497864e-02
1.980874920263886452e-03
-5.391092505306005478e-03
-2.247712016105651855e-02
-2.807507850229740143e-02
-1.397931575775146484e-02
-4.960249643772840500e-03
-5.409692414104938507e-03
-9.234537370502948761e-03
1.483757700771093369e-02
-5.031754262745380402e-03
-4.891647957265377045e-03
-4.727520514279603958e-03
8.874726481735706329e-03
-1.082571316510438919e-02
-2.962026977911591530e-03
-1.644649729132652283e-02
-2.398287504911422729e-02
-1.525546796619892120e-02
-1.428182702511548996e-02
-1.267151534557342529e-02
-1.689839735627174377e-02
-8.670010603964328766e-03
-1.652662269771099091e-02
-1.945986226201057434e-02
-1.042949594557285309e-02
-7.025605533272027969e-03
-8.332430385053157806e-03
-3.016232047230005264e-03
-9.446278214454650879e-03
1.187065150588750839e-02
2.589030191302299500e-02
2.403407171368598938e-02
1.839694939553737640e-02
5.345916841179132462e-03
-7.776751182973384857e-03
5.085182841867208481e-03
-5.800333805382251740e-03
-6.047651637345552444e-03
-2.508654817938804626e-02
1.117893774062395096e-02
-1.317863073199987411e-02
9.699639049358665943e-04
1.365207508206367493e-02
2.094193734228610992e-02
2.589802723377943039e-03
-1.384340319782495499e-02
-2.766194380819797516e-02
-8.086840622127056122e-03
2.174263633787631989e-02
4.638059809803962708e-02
1.109906565397977829e-02
6.591376848518848419e-03
-6.585869472473859787e-03
-1.487855426967144012e-02
2.092167362570762634e-02
1.902852393686771393e-02
3.181845694780349731e-02
4.838120564818382263e-02
1.994582638144493103e-02
3.202110296115279198e-03
2.019083686172962189e-02
2.193725667893886566e-02
1.835115067660808563e-02
2.209383528679609299e-03
3.033674089238047600e-03
1.645499491132795811e-03
1.732811704277992249e-02
2.010762877762317657e-02
1.485783886164426804e-02
3.420680761337280273e-02
1.500305533409118652e-02
-7.077748159645125270e-05
-8.001450449228286743e-03
-8.914721198379993439e-03
9.383547119796276093e-03
-3.149032359942793846e-03
-4.204946570098400116e-03
-1.114315167069435120e-02
8.331366814672946930e-03
9.604969527572393417e-04
-7.426663767546415329e-03
-1.162151060998439789e-02
-5.034262314438819885e-03
-2.416047034785151482e-03
1.041336264461278915e-02
3.348575904965400696e-03
-3.605290083214640617e-03
3.155147889629006386e-03
7.600956130772829056e-03
8.257810026407241821e-03
-3.409702703356742859e-02
3.130440833047032356e-03
1.473411172628402710e-02
1.297441660426557064e-03
1.529994513839483261e-02
2.348924987018108368e-02
-5.355344619601964951e-03
-3.865764290094375610e-02
-1.015018951147794724e-02
2.693065255880355835e-02
4.556176427286118269e-04
1.125167030841112137e-02
2.175910584628582001e-02
-3.187526948750019073e-03
-1.351320743560791016e-02
4.887712653726339340e-03
5.979661643505096436e-02
2.520545199513435364e-02
1.220834627747535706e-02
1.854360289871692657e-02
-1.020404603332281113e-02
1.637174189090728760e-02
3.257200494408607483e-02
4.040531814098358154e-02
1.019561383873224258e-02
2.068804763257503510e-02
1.408072002232074738e-02
-1.538821030408143997e-02
-6.816138979047536850e-03
5.320643074810504913e-03
1.954140514135360718e-02
2.970311790704727173e-03
-1.542080473154783249e-02
-5.876641720533370972e-03
-1.116054877638816833e-02
-2.939555607736110687e-02
-1.634348370134830475e-02
-2.442857064306735992e-02
5.938293179497122765e-04
-2.279300428926944733e-02
-1.042928639799356461e-02
-1.092263869941234589e-02
-8.323105983436107635e-03
-9.423331357538700104e-03
1.964996196329593658e-02
1.504762750118970871e-02
1.051273779012262821e-03
-2.744318684563040733e-03
-1.160433609038591385e-02
1.760828867554664612e-02
-5.186416208744049072e-03
2.700161421671509743e-03
1.888366602361202240e-02
1.434139907360076904e-02
6.370393559336662292e-03
-9.539534337818622589e-03
1.892830990254878998e-02
1.854234375059604645e-02
3.995606675744056702e-03
4.245899152010679245e-03
2.148557454347610474e-02
2.348127774894237518e-02
2.882301621139049530e-02
1.427919138222932816e-02
5.024975165724754333e-03
3.871501609683036804e-02
2.005374804139137268e-02
2.822013339027762413e-03
5.398294888436794281e-03
5.458571016788482666e-02
3.815082833170890808e-02
4.737503826618194580e-03
1.378333382308483124e-02
4.503401927649974823e-03
1.013574656099081039e-02
1.856175810098648071e-02
5.297055095434188843e-02
1.618591137230396271e-02
1.486097183078527451e-02
3.642619028687477112e-02
2.672066353261470795e-02
3.162002190947532654e-02
3.276075050234794617e-02
5.310169421136379242e-03
-6.135622039437294006e-03
1.955302432179450989e-02
-6.041294895112514496e-03
1.658765412867069244e-02
1.123570650815963745e-02
-8.486913517117500305e-03
1.026038895361125469e-03
-1.017812080681324005e-02
-1.546754688024520874e-02
-1.822911389172077179e-02
5.352203734219074249e-04
1.672462001442909241e-02
1.056884136050939560e-02
5.225931759923696518e-03
-1.047248253598809242e-03
9.021434001624584198e-03
2.249136008322238922e-02
1.064497604966163635e-02
5.692921578884124756e-03
-8.239951916038990021e-03
1.725184358656406403e-02
1.793245412409305573e-02
9.557154960930347443e-03
1.743427291512489319e-02
-6.647370290011167526e-03
-3.902239724993705750e-02
-2.356100268661975861e-02
4.180815070867538452e-03
-9.838243713602423668e-04
-7.881658384576439857e-04
8.666414767503738403e-03
-1.511500123888254166e-02
-3.293017670512199402e-02
-2.578582498244941235e-04
-8.984969928860664368e-03
2.971605770289897919e-02
2.161173336207866669e-02
1.294446922838687897e-02
1.184507645666599274e-02
9.812564589083194733e-03
-1.419209036976099014e-02
-1.865571481175720692e-03
-1.567867293488234282e-04
8.724363520741462708e-03
8.009713143110275269e-03
-3.737349063158035278e-03
5.904245190322399139e-04
1.275922916829586029e-02
1.522134058177471161e-02
-3.336883615702390671e-03
1.996793551370501518e-03
1.940022781491279602e-02
2.053724229335784912e-02
3.203162178397178650e-02
2.838408015668392181e-02
-1.614737440831959248e-03
-1.233133953064680099e-02
-9.107781224884092808e-04
1.376556511968374252e-02
2.436239086091518402e-02
4.406866431236267090e-02
2.975470386445522308e-02
-1.108568720519542694e-02
-1.238340884447097778e-02
-2.224095631390810013e-03
-1.670950092375278473e-02
1.712993346154689789e-02
3.295127674937248230e-02
-9.482880122959613800e-03
-7.885454222559928894e-03
-1.130454801023006439e-02
6.527995225042104721e-03
9.866558015346527100e-03
6.559818517416715622e-03
5.611023399978876114e-03
-1.280358713120222092e-02
-1.006767340004444122e-02
-1.385389827191829681e-02
-1.255698781460523605e-02
-1.646491291467100382e-04
9.886150248348712921e-03
-2.271602489054203033e-02
-2.101564034819602966e-02
-1.648106798529624939e-02
2.235271036624908447e-03
-7.457964122295379639e-03
-4.391940310597419739e-02
-1.424820162355899811e-02
-4.168481379747390747e-02
-4.121255874633789062e-02
-2.826152835041284561e-03
1.761449500918388367e-03
-1.540489308536052704e-02
-4.057625308632850647e-02
-3.177623078227043152e-02
-4.407783970236778259e-02
-7.911269553005695343e-03
-9.122743271291255951e-03
-1.834691502153873444e-02
-1.041524950414896011e-02
1.533331000246107578e-03
-1.378538180142641068e-02
1.482470193877816200e-03
-3.302396275103092194e-03
6.229870021343231201e-03
-2.244065701961517334e-02
-1.221611816436052322e-02
-3.095849184319376945e-03
-5.753161385655403137e-04
-2.119701355695724487e-02
-1.050028204917907715e-02
-1.114943064749240875e-02
-2.240085043013095856e-02
-6.665405817329883575e-03
2.121602743864059448e-02
-9.278548532165586948e-04
-1.981821842491626740e-02
-4.965350776910781860e-02
-2.005421090871095657e-03
-8.957343176007270813e-03
3.041611984372138977e-03
1.850435696542263031e-02
1.281123328953981400e-02
-8.566627278923988342e-03
4.809341393411159515e-03
1.272305380553007126e-02
2.751155383884906769e-02
2.404530532658100128e-02
4.677995294332504272e-02
1.009956002235412598e-02
-4.717809148132801056e-03
-1.478018984198570251e-02
1.678508520126342773e-02
-8.505107834935188293e-03
-1.330739818513393402e-02
3.764900192618370056e-02
-1.660520769655704498e-02
-6.146664172410964966e-02
-2.744019404053688049e-02
-3.687467891722917557e-03
-9.049334912560880184e-04
1.979336142539978027e-03
-9.705759584903717041e-03
3.295928239822387695e-03
-2.115919627249240875e-02
-3.068906813859939575e-02
-1.719122170470654964e-03
-9.596332907676696777e-03
-6.375451572239398956e-03
-4.128618631511926651e-03
-8.895049802958965302e-03
-2.787845209240913391e-03
-1.385417673736810684e-02
-7.321901619434356689e-03
9.193791775032877922e-04
-3.202280262485146523e-03
1.341792475432157516e-02
-1.131426193751394749e-03
-1.432957220822572708e-02
-1.011221390217542648e-02
-5.332566797733306885e-03
1.354993227869272232e-02
1.899816095829010010e-02
1.896572532132267952e-03
-6.220408715307712555e-03
-3.117358498275279999e-02
-5.456865299493074417e-03
-1.749372924678027630e-03
6.702672690153121948e-03
1.399835571646690369e-02
2.946111373603343964e-02
3.799429163336753845e-02
-4.523443989455699921e-03
5.928523838520050049e-03
-1.465486176311969757e-02
-2.413653954863548279e-02
-2.874275669455528259e-02
-1.900403946638107300e-02
2.451444743201136589e-03
1.748493313789367676e-02
2.934827469289302826e-02
-3.014598041772842407e-03
-1.263487339019775391e-02
-3.228188026696443558e-03
1.384157035499811172e-02
1.097267959266901016e-02
2.142273262143135071e-02
1.192685309797525406e-02
7.035207003355026245e-03
6.605672650039196014e-03
8.510725572705268860e-03
-2.755725756287574768e-03
-1.244782470166683197e-02
-1.749334973283112049e-03
9.365124627947807312e-03
7.857055403292179108e-03
3.646223340183496475e-03
-1.238116645254194736e-03
2.200892660766839981e-03
-5.239933729171752930e-03
-7.158383727073669434e-03
6.453495938330888748e-03
7.375750690698623657e-03
-1.973215863108634949e-02
3.563792211934924126e-03
-2.501869341358542442e-03
1.265303604304790497e-02
9.750408120453357697e-03
-4.139633849263191223e-03
3.923826385289430618e-03
6.780493073165416718e-03
1.000643055886030197e-02
8.427652530372142792e-03
-8.348668925464153290e-04
-5.038492847234010696e-03
-1.230708416551351547e-02
2.141218632459640503e-02
6.427173037081956863e-03
5.474708974361419678e-03
-4.581136163324117661e-03
7.646770682185888290e-03
-2.794783795252442360e-03
-1.730750873684883118e-02
3.386947559192776680e-03
-1.351661235094070435e-02
1.893869135528802872e-03
-1.037581730633974075e-02
-3.137796884402632713e-03
1.039191801100969315e-02
-2.014597691595554352e-02
6.622310262173414230e-03
7.921905256807804108e-03
7.202825509011745453e-03
1.008538808673620224e-02
-1.365926861763000488e-02
4.957923665642738342e-03
7.602100726217031479e-03
-2.241451665759086609e-02
-9.619642049074172974e-03
-1.361222565174102783e-02
2.138382755219936371e-03
-6.588649936020374298e-03
-2.249939553439617157e-02
-1.413393672555685043e-02
-3.891658270731568336e-03
-2.311304956674575806e-02
-9.454700164496898651e-03
1.163894403725862503e-02
4.913848824799060822e-03
-1.169394003227353096e-03
-5.822589155286550522e-03
4.531482234597206116e-03
1.562395785003900528e-02
1.580535806715488434e-02
1.460063154809176922e-03
-1.102395728230476379e-02
-7.859463803470134735e-03
-4.539285786449909210e-03
2.408224157989025116e-02
4.361934959888458252e-02
3.631061688065528870e-02
-8.093215525150299072e-03
-3.962976392358541489e-03
-1.121828891336917877e-02
-1.444712374359369278e-02
2.293558418750762939e-02
2.798021584749221802e-02
3.491290658712387085e-02
-4.381780046969652176e-03
-1.198687404394149780e-02
5.232108756899833679e-03
-8.380208164453506470e-03
6.567636039108037949e-03
-1.907671615481376648e-02
1.431183423846960068e-02
7.919644936919212341e-03
7.118350826203823090e-03
-2.100104466080665588e-02
4.418781958520412445e-03
-1.111905206926167011e-03
3.731366596184670925e-04
1.457598432898521423e-02
1.866451464593410492e-02
1.702364161610603333e-02
-1.673797261901199818e-03
3.567937994375824928e-03
6.006601732224225998e-03
2.289110422134399414e-02
6.492456886917352676e-03
2.376260422170162201e-02
1.444927044212818146e-02
-7.277465891093015671e-03
-7.613556459546089172e-03
2.745750593021512032e-03
2.063065534457564354e-03
-7.982934825122356415e-03
-2.099017612636089325e-03
-1.771203801035881042e-02
-2.325591631233692169e-02
-4.960004705935716629e-03
6.106508430093526840e-03
1.204975228756666183e-02
1.042155828326940536e-02
6.746819708496332169e-03
-2.786815166473388672e-03
-1.858470402657985687e-02
-4.190426785498857498e-03
3.146797651425004005e-03
3.190736984834074974e-03
1.592062786221504211e-02
1.847604103386402130e-02
-1.594350906088948250e-03
-7.624185178428888321e-03
1.674727536737918854e-03
5.638568662106990814e-03
6.879444234073162079e-03
1.089006755501031876e-02
1.724500907585024834e-03
7.987558841705322266e-03
-8.245920762419700623e-03
-5.026045255362987518e-03
8.077872917056083679e-03
-2.675677882507443428e-03
1.161190215498209000e-02
8.759737946093082428e-03
2.628809772431850433e-02
-9.672111482359468937e-04
-1.082688197493553162e-02
1.704769954085350037e-02
1.566026359796524048e-02
8.740743622183799744e-03
6.253782194107770920e-03
-7.636970258317887783e-04
1.094338577240705490e-02
2.912710420787334442e-03
3.318216418847441673e-03
1.221119798719882965e-02
2.137805335223674774e-02
9.688326157629489899e-03
-1.051243767142295837e-02
-5.961412098258733749e-03
2.549220516812056303e-04
-1.691586337983608246e-03
-4.860050044953823090e-03
-7.478185463696718216e-03
1.163240242749452591e-02
-5.143167916685342789e-03
-2.379024773836135864e-02
-7.259758189320564270e-03
-1.549842418171465397e-04
2.708147838711738586e-02
1.392298657447099686e-02
1.513471361249685287e-02
-1.592947170138359070e-02
8.125880849547684193e-04
-3.309345990419387817e-02
-1.454646326601505280e-02
-9.333591908216476440e-03
-1.232736371457576752e-02
-1.957937143743038177e-02
-2.173676900565624237e-02
-2.143779955804347992e-02
-2.526337653398513794e-02
-6.790863815695047379e-03
-2.178332768380641937e-03
8.742368780076503754e-03
-2.591161429882049561e-02
1.503359544585691765e-05
-1.592541299760341644e-02
1.117977430112659931e-03
-9.863415732979774475e-03
3.999145235866308212e-03
2.566257305443286896e-02
-4.638634156435728073e-03
-1.047649304382503033e-03
-3.473934158682823181e-02
-3.009577281773090363e-02
1.930514234118163586e-03
-2.779773809015750885e-02
6.820825859904289246e-03
-3.809567540884017944e-03
-1.498124748468399048e-02
-1.207725983113050461e-02
-2.383575402200222015e-02
1.337246317416429520e-02
-7.495744153857231140e-03
-1.237264252267777920e-03
-9.723122231662273407e-03
-1.400571130216121674e-02
-1.893039233982563019e-02
-1.605034992098808289e-02
1.041036751121282578e-02
-5.545186577364802361e-04
-1.826123148202896118e-02
-1.460268069058656693e-02
4.441435739863663912e-04
-9.003623388707637787e-03
-1.223985454998910427e-03
1.282429730053991079e-04
-1.048162672668695450e-02
-9.967814199626445770e-03
1.035039965063333511e-02
8.479757234454154968e-03
-3.605883393902331591e-04
1.783502870239317417e-03
-8.221309632062911987e-03
1.153725665062665939e-03
8.158238604664802551e-03
6.690735463052988052e-04
5.787532310932874680e-03
1.124028675258159637e-02
7.292156107723712921e-03
-4.382942570373415947e-04
-7.897335104644298553e-03
2.125097438693046570e-02
6.055912002921104431e-02
2.332438528537750244e-02
1.812357828021049500e-02
9.777887724339962006e-03
1.036773202940821648e-03
-3.824584558606147766e-02
2.995240734890103340e-03
2.740431018173694611e-02
2.360047399997711182e-02
2.899590181186795235e-04
1.188186090439558029e-02
-1.793060079216957092e-02
-2.186546102166175842e-02
8.643535897135734558e-03
1.970068737864494324e-02
6.993445567786693573e-03
-3.574430011212825775e-03
-2.182561438530683517e-03
-2.066778251901268959e-03
-1.103636063635349274e-02
-1.661603897809982300e-02
-1.673331856727600098e-02
-1.153483148664236069e-02
-5.123569164425134659e-03
-6.110105314292013645e-04
-1.320108119398355484e-02
-3.895384818315505981e-02
-4.443768039345741272e-02
-2.524149417877197266e-02
-2.814112789928913116e-02
-4.342692717909812927e-02
-2.197391353547573090e-02
-7.270145229995250702e-03
-2.521151909604668617e-03
-1.582898758351802826e-02
-2.206734381616115570e-02
-9.918053634464740753e-03
-2.444444596767425537e-02
-1.284372713416814804e-02
-9.565497748553752899e-03
-7.309551350772380829e-03
-5.864360369741916656e-03
-1.574520021677017212e-02
-4.796430468559265137e-03
-2.876459434628486633e-02
-1.949932053685188293e-02
-1.555839274078607559e-02
-1.818232424557209015e-02
5.479467567056417465e-03
8.158863522112369537e-03
1.531197689473628998e-02
-2.580136060714721680e-02
4.836031876038759947e-04
2.046222425997257233e-02
-5.139060318470001221e-03
8.670783601701259613e-03
1.452114060521125793e-02
4.725566832348704338e-04
-1.341119594871997833e-02
9.390356950461864471e-03
9.635633789002895355e-03
1.055649947375059128e-02
2.557050436735153198e-02
1.317843981087207794e-02
1.094242651015520096e-02
2.603732608258724213e-02
2.550821006298065186e-02
8.950503543019294739e-03
4.399746656417846680e-03
5.759999621659517288e-03
3.852803492918610573e-03
1.091398950666189194e-02
-3.790499642491340637e-03
1.766236266121268272e-03
6.535254418849945068e-03
2.432716864859685302e-04
2.246604673564434052e-02
6.319413427263498306e-03
6.291459780186414719e-03
-2.246198942884802818e-03
-3.141912166029214859e-03
-7.657985202968120575e-03
5.418174434453248978e-03
3.754695411771535873e-03
-1.277043949812650681e-02
-9.360681287944316864e-04
4.045962821692228317e-03
1.226990716531872749e-03
5.927090533077716827e-03
1.729594077914953232e-03
-1.921975612640380859e-02
-4.464001860469579697e-03
-1.655984111130237579e-02
-1.323073171079158783e-02
3.614588873460888863e-03
-7.273217779584228992e-04
-9.417632594704627991e-03
-1.122092828154563904e-02
-4.217395558953285217e-02
-4.739297926425933838e-02
-1.557814795523881912e-02
2.928887028247117996e-03
1.982955494895577431e-03
-1.369294431060552597e-02
-3.034537471830844879e-02
-1.761325262486934662e-02
-1.328031625598669052e-02
-2.703277766704559326e-02
1.664769370108842850e-03
5.962988361716270447e-04
-1.669550687074661255e-02
-3.031735308468341827e-03
-5.888581275939941406e-03
-2.089299820363521576e-02
-4.165893048048019409e-02
-4.969923291355371475e-03
-3.823320847004652023e-03
6.788395345211029053e-03
8.308394812047481537e-03
-2.425441751256585121e-03
-1.291367225348949432e-02
-3.860772354528307915e-03
1.926957070827484131e-02
-1.292039919644594193e-02
-1.107026822865009308e-02
-1.265179645270109177e-02
-4.897640086710453033e-03
1.645176485180854797e-02
-8.690190501511096954e-03
4.453855566680431366e-03
-1.369504816830158234e-02
-5.222996696829795837e-03
1.816076785326004028e-02
2.484627626836299896e-02
-4.080195911228656769e-03
8.930584881454706192e-04
4.166163504123687744e-03
-3.334031999111175537e-02
-2.093805186450481415e-02
-1.002811361104249954e-02
-7.651453837752342224e-03
8.863274008035659790e-03
-2.687845553737133741e-04
-1.485809683799743652e-02
-2.957177720963954926e-02
-1.465642731636762619e-02
-3.378417342901229858e-02
-1.293754111975431442e-02
2.557126991450786591e-02
1.930963830091059208e-03
-4.666512832045555115e-03
-3.995357255917042494e-04
-9.451121091842651367e-03
1.144582871347665787e-02
2.073945477604866028e-03
-2.867898531258106232e-02
-1.263365428894758224e-02
-2.532528154551982880e-02
-1.572314300574362278e-03
2.696061506867408752e-03
-1.260198303498327732e-03
-2.480265311896800995e-02
-3.367956727743148804e-02
-3.233795985579490662e-02
-1.191385742276906967e-02
1.419405173510313034e-02
2.907808125019073486e-02
2.963626012206077576e-02
-1.784120104275643826e-04
-9.061293676495552063e-03
1.144607667811214924e-03
1.266410108655691147e-03
-9.671961888670921326e-03
-1.099188439548015594e-02
-5.841456004418432713e-04
6.672678980976343155e-03
-7.190248579718172550e-04
3.789475187659263611e-03
-2.441185526549816132e-02
1.221222989261150360e-02
1.234430074691772461e-02
8.791961707174777985e-03
2.084002643823623657e-02
-1.581792719662189484e-03
-1.021675707306712866e-04
-3.697202075272798538e-03
1.559232082217931747e-02
1.171292364597320557e-02
-3.131364658474922180e-02
4.825939424335956573e-03
-7.091140840202569962e-03
-1.576178707182407379e-02
-1.480672881007194519e-02
1.396046206355094910e-02
-1.211479399353265762e-02
-4.504439234733581543e-02
-3.376847878098487854e-02
7.032573921605944633e-04
-2.533359453082084656e-02
-1.024466939270496368e-02
2.292247489094734192e-02
1.302738208323717117e-02
-3.304051980376243591e-02
-1.702355034649372101e-02
-1.253206282854080200e-02
-1.572170108556747437e-02
-6.194604560732841492e-03
1.014455035328865051e-02
2.035755664110183716e-02
-1.905225031077861786e-02
1.261328905820846558e-02
-8.683259598910808563e-03
-1.346610020846128464e-02
-2.001998759806156158e-02
2.082530595362186432e-02
8.934171870350837708e-03
-9.228637209162116051e-04
1.031766273081302643e-02
-1.299327425658702850e-02
5.487100686877965927e-03
-1.381349004805088043e-02
-3.332408517599105835e-02
-2.517514675855636597e-02
-1.541114039719104767e-02
-1.608111895620822906e-02
-5.912472959607839584e-03
-9.036622010171413422e-03
-2.230874635279178619e-02
-3.151850402355194092e-02
-1.707256771624088287e-02
-3.188881324604153633e-03
-5.478178150951862335e-03
1.717222854495048523e-02
-4.334407392889261246e-03
-1.026824675500392914e-02
-1.756424270570278168e-02
-7.972608320415019989e-03
8.721486665308475494e-03
-1.813818328082561493e-02
4.852290730923414230e-03
-5.423367256298661232e-04
-4.885235335677862167e-03
-1.060388889163732529e-02
-2.031875075772404671e-03
2.548131719231605530e-02
-7.219230174086987972e-04
-8.631363511085510254e-03
9.048692882061004639e-03
-1.548900175839662552e-02
-3.182189539074897766e-02
1.657094107940793037e-04
9.431432932615280151e-03
1.034273765981197357e-02
7.658617570996284485e-03
-6.386169698089361191e-03
-3.323864890262484550e-03
-2.248928509652614594e-02
-2.968378132209181786e-03
6.355938501656055450e-03
1.941549219191074371e-02
8.351896889507770538e-03
-3.990869037806987762e-03
-1.052882708609104156e-02
3.829306224361062050e-03
4.811377730220556259e-03
-1.135580125264823437e-03
1.113529899157583714e-03
-2.938273129984736443e-03
-2.544412761926651001e-02
1.290713623166084290e-02
5.311192478984594345e-03
1.171057205647230148e-02
4.960624501109123230e-03
-7.559890858829021454e-03
-9.995711297960951924e-05
-7.519128732383251190e-03
7.265147753059864044e-03
-2.769288767012767494e-05
4.601528868079185486e-03
1.262844773009419441e-03
2.103115431964397430e-03
-9.519440121948719025e-03
5.388722755014896393e-03
1.321501471102237701e-02
-2.747748512774705887e-03
3.790650749579071999e-03
7.723058573901653290e-03
-9.153206832706928253e-03
-1.220758073031902313e-02
-1.855810405686497688e-03
6.145004183053970337e-03
-4.691993817687034607e-03
5.063429009169340134e-03
-1.125310081988573074e-02
-4.705382976680994034e-03
-3.846777137368917465e-03
-6.589699070900678635e-03
2.387866610661149025e-03
-9.485693881288170815e-04
-2.156343776732683182e-03
-1.247630687430500984e-03
5.369921680539846420e-03
3.117430955171585083e-03
-8.930672891438007355e-03
3.531858092173933983e-03
5.573438946157693863e-03
9.005616302601993084e-04
1.763118314556777477e-03
1.026459410786628723e-02
-9.702185634523630142e-04
-8.176187053322792053e-03
6.641391199082136154e-03
-1.557723991572856903e-02
-8.418030105531215668e-03
-1.345057738944888115e-03
1.183575717732310295e-03
2.929057693108916283e-03
-5.170681513845920563e-03
-4.831477068364620209e-03
1.179663743823766708e-02
-7.583256345242261887e-03
-6.240891292691230774e-03
9.863073006272315979e-03
6.073462776839733124e-03
-5.196888465434312820e-03
-3.156824735924601555e-03
1.623203133931383491e-04
-2.385408879490569234e-04
5.892802029848098755e-03
5.404880736023187637e-03
-1.173609402030706406e-02
2.391262166202068329e-02
3.300150623545050621e-03
4.689018242061138153e-03
-1.456534769386053085e-02
2.711922861635684967e-03
-1.301534939557313919e-03
7.508177310228347778e-03
1.002619881182909012e-02
9.095294401049613953e-03
1.034207269549369812e-02
-1.587800867855548859e-02
5.504797212779521942e-03
6.921537686139345169e-03
-9.627677500247955322e-03
-4.464838188141584396e-03
1.228882744908332825e-02
-4.993323236703872681e-03
-2.230309136211872101e-02
1.341305859386920929e-02
-1.178882643580436707e-02
2.301694359630346298e-03
-3.862837096676230431e-03
-3.843609942123293877e-03
-1.513412036001682281e-02
-1.076256390661001205e-02
-7.986051030457019806e-03
3.495772602036595345e-03
8.285142481327056885e-03
-6.257946370169520378e-04
-1.303322962485253811e-03
5.590147338807582855e-03
-7.714807987213134766e-03
-1.161882095038890839e-02
-5.386352539062500000e-03
1.763593219220638275e-02
2.537355758249759674e-02
-1.370045822113752365e-03
-2.046282030642032623e-02
-1.686041429638862610e-02
-6.750585045665502548e-03
3.193690907210111618e-03
-1.672642421908676624e-03
-1.172302197664976120e-02
-4.096890985965728760e-02
-4.343084059655666351e-03
-8.388705551624298096e-03
4.326264187693595886e-02
3.621621429920196533e-02
2.527945442125201225e-03
-9.108018130064010620e-03
-1.059983670711517334e-02
4.724891390651464462e-03
1.891208626329898834e-02
4.258554056286811829e-02
1.782297343015670776e-02
-2.324333600699901581e-02
1.740726269781589508e-02
-1.661715656518936157e-02
-1.056489627808332443e-02
1.502855401486158371e-02
1.791715994477272034e-02
4.091596975922584534e-02
1.737707061693072319e-03
-5.052729044109582901e-03
-4.809495527297258377e-03
-3.080906718969345093e-02
2.019292488694190979e-02
-2.173899672925472260e-02
1.710336655378341675e-02
-1.462909765541553497e-02
-1.314998790621757507e-02
-1.388669828884303570e-03
-1.085961051285266876e-02
4.789037164300680161e-03
-1.952133327722549438e-02
4.776202607899904251e-03
-9.945345111191272736e-03
1.007809070870280266e-03
2.148706093430519104e-02
2.208163728937506676e-03
-7.869910448789596558e-03
-8.374393917620182037e-03
9.914210997521877289e-03
-8.110754191875457764e-03
3.301432821899652481e-03
-7.846835069358348846e-03
-2.354996092617511749e-02
-1.725311204791069031e-02
-8.321170025737956166e-05
-9.203807450830936432e-03
-8.339268155395984650e-03
5.665707867592573166e-03
-4.131404682993888855e-03
4.027223214507102966e-03
-1.912769116461277008e-02
7.662008982151746750e-03
2.846861444413661957e-02
1.791835948824882507e-02
2.506826072931289673e-02
1.175865903496742249e-02
-6.230001803487539291e-03
-9.609554894268512726e-03
3.105853684246540070e-03
2.457778528332710266e-02
8.911166340112686157e-03
6.581413093954324722e-03
1.262321043759584427e-02
-1.175438798964023590e-02
-1.137554552406072617e-02
-2.888869261369109154e-03
-9.271305170841515064e-04
-1.723733358085155487e-02
-2.951423451304435730e-02
1.504554226994514465e-02
5.682521034032106400e-03
4.386181477457284927e-03
-1.093017030507326126e-02
1.114108413457870483e-02
-9.233858436346054077e-03
3.263165010139346123e-03
-6.383514031767845154e-03
3.821915388107299805e-02
4.931656643748283386e-03
-3.565019927918910980e-03
1.894862018525600433e-02
7.488119881600141525e-03
-1.850504428148269653e-02
4.004026297479867935e-03
2.284830249845981598e-02
-1.545289298519492149e-03
-9.424719959497451782e-03
-6.228763610124588013e-03
-2.823616145178675652e-03
-1.512051373720169067e-02
-4.477807786315679550e-03
8.466377621516585350e-04
-7.036564871668815613e-03
-6.542390212416648865e-03
-6.489881314337253571e-03
-2.919259667396545410e-02
-3.069670312106609344e-02
-1.801066845655441284e-02
2.332920441403985023e-03
2.439006348140537739e-04
2.342173643410205841e-02
-1.462671812623739243e-02
-3.798423567786812782e-03
-1.115740626119077206e-03
7.370525505393743515e-03
2.203110419213771820e-02
-5.343080963939428329e-03
-8.434155955910682678e-03
-1.657189801335334778e-02
2.010342897847294807e-03
-4.933525808155536652e-03
2.050224505364894867e-02
2.379452995955944061e-02
7.349113002419471741e-03
-1.202765852212905884e-02
-1.173232775181531906e-02
5.396357737481594086e-03
-3.103438066318631172e-03
1.744153164327144623e-02
1.946611702442169189e-02
-6.363491062074899673e-03
-7.612119894474744797e-03
7.215725723654031754e-03
3.103111684322357178e-02
-1.692542806267738342e-02
-4.157288465648889542e-03
-1.206844346597790718e-03
-5.333161447197198868e-03
4.349604714661836624e-03
-6.516894791275262833e-03
-7.524165790528059006e-03
-1.995498500764369965e-02
-1.531304512172937393e-02
1.815255917608737946e-02
1.184643339365720749e-02
-7.527911104261875153e-03
-1.895655994303524494e-03
-1.120994612574577332e-02
-1.077965367585420609e-02
-9.467415511608123779e-03
-9.850928559899330139e-03
-1.894940249621868134e-02
-4.753796965815126896e-04
-8.398191072046756744e-03
-1.411163248121738434e-02
-8.625271730124950409e-03
-1.901438087224960327e-02
-1.621046476066112518e-02
2.176014008000493050e-03
-1.446226146072149277e-03
-9.207569062709808350e-03
-8.872923441231250763e-03
-1.583942770957946777e-02
-4.064878914505243301e-03
-1.690933108329772949e-02
1.407914608716964722e-02
8.162881247699260712e-03
-2.958402736112475395e-03
-7.183410227298736572e-03
-2.541954442858695984e-02
-8.048254065215587616e-03
-4.948737565428018570e-03
-4.040594212710857391e-03
1.767518185079097748e-02
1.945828273892402649e-02
-2.759575471282005310e-02
-1.106391008943319321e-02
7.028573891147971153e-04
1.408896176144480705e-03
2.149328589439392090e-02
3.693061321973800659e-02
6.168677937239408493e-03
-1.334862317889928818e-02
-1.243772916495800018e-02
-5.897046532481908798e-03
-1.057015266269445419e-02
3.052040003240108490e-02
1.628841087222099304e-02
-1.276266388595104218e-02
1.999255083501338959e-02
8.692280389368534088e-03
1.359600864816457033e-04
2.278043888509273529e-03
1.889241486787796021e-02
1.789547502994537354e-02
1.621067523956298828e-03
3.103522816672921181e-03
8.853893727064132690e-03
1.662277057766914368e-02
-8.816188201308250427e-03
2.115472778677940369e-02
2.730894088745117188e-02
1.370087265968322754e-02
1.386429835110902786e-02
7.930831983685493469e-03
1.918145455420017242e-03
1.124337594956159592e-02
2.524076029658317566e-02
2.913098316639661789e-03
-1.048362441360950470e-02
8.201537653803825378e-03
2.700254507362842560e-02
-8.920807391405105591e-03
9.390269406139850616e-03
3.088118880987167358e-02
1.776256226003170013e-02
2.027458697557449341e-02
2.724940888583660126e-02
4.565591365098953247e-02
-1.693534068181179464e-05
-5.690728779882192612e-03
-1.030462607741355896e-02
3.358528017997741699e-03
-1.086635515093803406e-02
-1.765731163322925568e-02
4.559543915092945099e-03
6.847520358860492706e-03
-2.776209451258182526e-02
-5.141991376876831055e-02
-2.530552446842193604e-02
-1.100697834044694901e-02
-2.260460145771503448e-02
2.089077979326248169e-02
4.217484965920448303e-03
-2.394169755280017853e-02
-2.223394066095352173e-02
-1.742639020085334778e-02
-4.033763334155082703e-02
-2.496149390935897827e-02
-9.957299567759037018e-03
-3.707980271428823471e-03
-1.455768384039402008e-02
-1.656317152082920074e-02
-2.035564556717872620e-02
-1.586017198860645294e-03
-9.016380645334720612e-03
-8.722145110368728638e-03
1.340939383953809738e-02
-2.157098799943923950e-02
-2.013695798814296722e-02
-1.250729430466890335e-02
-2.079566940665245056e-02
-8.581013418734073639e-03
-1.153080444782972336e-02
-5.714947823435068130e-03
-1.740819215774536133e-02
-3.526182845234870911e-03
-6.124618928879499435e-03
1.310528162866830826e-02
6.091658957302570343e-03
-7.218650076538324356e-03
-1.664067967794835567e-03
1.584238605573773384e-03
-6.115697789937257767e-03
6.126658990979194641e-03
-1.506623439490795135e-02
-7.843906641937792301e-04
-3.096031956374645233e-03
4.471791442483663559e-03
1.464403327554464340e-02
2.098194090649485588e-03
-8.090043440461158752e-03
-6.421496625989675522e-03
-5.093288607895374298e-03
-9.681680239737033844e-04
-5.846415646374225616e-03
-8.599159307777881622e-03
-1.654077507555484772e-02
4.391546826809644699e-03
1.753094792366027832e-02
-1.482832524925470352e-02
-1.690619438886642456e-02
-2.455874811857938766e-03
-5.749547271989285946e-04
-8.139817975461483002e-03
3.541665384545922279e-03
-4.552344791591167450e-03
-1.461011916399002075e-02
-1.585960388183593750e-02
9.680405259132385254e-03
5.680091679096221924e-03
-1.196845341473817825e-02
-1.359278336167335510e-02
-8.057631552219390869e-03
-7.522715721279382706e-03
-1.743849739432334900e-02
-1.209652051329612732e-02
9.729632874950766563e-04
-1.847461098805069923e-03
1.796494796872138977e-02
1.328798569738864899e-02
3.867736319079995155e-03
2.194355241954326630e-03
-4.103347659111022949e-03
-1.975350547581911087e-03
2.039139717817306519e-02
-4.699449986219406128e-03
4.029252566397190094e-03
2.658221125602722168e-02
3.710649907588958740e-02
3.054156713187694550e-02
1.295962929725646973e-02
4.105338826775550842e-02
-2.137102652341127396e-03
-1.312490925192832947e-02
1.926584914326667786e-02
5.399588495492935181e-02
9.838381782174110413e-03
-7.442260626703500748e-03
-2.407577633857727051e-02
-8.797724731266498566e-03
-1.848310232162475586e-02
-1.682080142199993134e-02
1.055513322353363037e-02
1.449407450854778290e-02
-2.778065204620361328e-02
-2.415600605309009552e-02
-3.592378273606300354e-02
-1.713262498378753662e-02
-4.559881240129470825e-02
-4.089513048529624939e-02
-1.325343828648328781e-02
-6.558156106621026993e-03
-4.632273688912391663e-02
-3.289908543229103088e-02
-1.854714751243591309e-02
-3.145086020231246948e-02
-4.462448880076408386e-02
8.339559659361839294e-03
4.048686940222978592e-03
-1.863216981291770935e-02
-1.001272816210985184e-02
-4.005457274615764618e-03
-3.057322651147842407e-02
-1.241345144808292389e-02
3.355690045282244682e-03
-4.085506312549114227e-03
1.377455890178680420e-03
2.830122597515583038e-03
-7.747462484985589981e-03
-7.695558480918407440e-03
6.165374070405960083e-04
-1.304155867546796799e-02
1.659838482737541199e-03
-2.517959335818886757e-03
-8.375721983611583710e-03
-1.082490198314189911e-02
5.328202620148658752e-03
-3.068853868171572685e-03
-5.366835277527570724e-03
-2.311761491000652313e-03
-3.130113473162055016e-03
-7.900242693722248077e-03
9.846324101090431213e-03
1.879906398244202137e-03
-5.779101047664880753e-03
-5.442542489618062973e-03
-4.408512730151414871e-03
-8.294935687445104122e-04
-6.177185423439368606e-05
5.949848797172307968e-03
4.442698322236537933e-03
-5.848104599863290787e-03
1.870408304966986179e-03
9.858363308012485504e-03
1.215008646249771118e-02
-1.971065299585461617e-03
-1.139909774065017700e-02
-3.064099873881787062e-04
7.273737341165542603e-03
-1.027671713382005692e-02
-6.619164254516363144e-03
-2.974136499688029289e-03
-5.836127093061804771e-04
-6.499051582068204880e-03
9.937921538949012756e-03
-6.441302597522735596e-03
-6.759665440768003464e-03
2.555765444412827492e-03
-4.794043488800525665e-03
7.634766865521669388e-03
5.987826152704656124e-04
-3.229944966733455658e-03
-3.916334360837936401e-03
-4.397083073854446411e-03
-2.266770415008068085e-02
-7.420784328132867813e-03
-1.066896412521600723e-02
-8.215568959712982178e-03
-2.282598055899143219e-02
-6.049544084817171097e-03
-2.692156285047531128e-02
1.727828569710254669e-02
1.827807538211345673e-02
1.553522236645221710e-02
6.318262312561273575e-03
3.023019246757030487e-02
3.083310835063457489e-02
-8.818789385259151459e-03
5.531914904713630676e-02
2.850786037743091583e-02
1.585314050316810608e-02
-1.245942525565624237e-02
-3.160860855132341385e-03
-2.811817452311515808e-02
-3.754770755767822266e-02
2.545276097953319550e-02
2.447694912552833557e-02
-2.148718945682048798e-02
1.334038283675909042e-02
-7.139407563954591751e-03
-1.537269167602062225e-02
-3.717504814267158508e-02
7.818519137799739838e-03
2.040782943367958069e-02
1.358168665319681168e-03
1.393619179725646973e-02
-5.602644756436347961e-03
-5.496488418430089951e-03
-9.111973457038402557e-03
-4.741969984024763107e-03
2.327585965394973755e-02
6.492343265563249588e-03
-9.001796133816242218e-03
-1.735263317823410034e-02
3.137279767543077469e-03
1.271324581466615200e-03
-2.460999973118305206e-02
3.044927306473255157e-02
1.271901465952396393e-02
-2.053621225059032440e-03
-4.396103613544255495e-04
2.243774011731147766e-03
-1.443818677216768265e-02
-2.324112318456172943e-02
-1.167816575616598129e-02
5.717147607356309891e-03
1.184934377670288086e-02
-4.552499391138553619e-03
-8.798472583293914795e-03
-8.109827176667749882e-04
1.810838654637336731e-02
6.077545229345560074e-03
-9.405519813299179077e-03
9.043737314641475677e-03
1.590012386441230774e-02
2.882452914491295815e-03
1.591511629521846771e-02
4.175954032689332962e-03
9.917363524436950684e-03
-2.063190040644258261e-04
6.523317657411098480e-03
3.204669058322906494e-02
1.601278223097324371e-02
2.131194993853569031e-02
1.835948973894119263e-02
5.809559021145105362e-03
1.227381080389022827e-02
1.655605447012931108e-04
-1.373986434191465378e-02
9.659600444138050079e-03
2.028022333979606628e-02
-2.267609816044569016e-03
-3.355778288096189499e-03
1.264835055917501450e-02
1.581753045320510864e-02
-1.542294491082429886e-02
-2.108084969222545624e-02
-1.457371283322572708e-02
7.432451471686363220e-03
4.881060522166080773e-05
4.772142041474580765e-03
1.185285300016403198e-02
1.933069713413715363e-02
-2.550775371491909027e-02
-6.836110725998878479e-03
1.844162307679653168e-02
-1.167857646942138672e-02
-3.809498157352209091e-04
-1.660543261095881462e-03
9.182590059936046600e-03
-9.626092389225959778e-03
4.345310386270284653e-03
-3.294148715212941170e-03
3.691791323944926262e-03
7.824604399502277374e-03
1.216245628893375397e-02
1.155121158808469772e-02
-6.607894192711682990e-06
9.884310566121712327e-05
-1.435729581862688065e-02
-6.334014236927032471e-03
4.251264967024326324e-03
1.380860526114702225e-02
3.041785396635532379e-02
8.220804855227470398e-03
1.095470390282571316e-03
1.116559747606515884e-02
-6.062910426408052444e-03
-1.560228969901800156e-02
2.209489606320858002e-02
2.491746470332145691e-02
1.026380574330687523e-03
-1.463032793253660202e-03
2.358201891183853149e-02
-1.189827080816030502e-02
-3.479890525341033936e-02
-5.954422522336244583e-03
2.386010624468326569e-02
1.418849080801010132e-02
1.167031563818454742e-02
-1.022938545793294907e-02
-1.506219338625669479e-02
-1.016789022833108902e-02
-1.127054914832115173e-02
1.681551709771156311e-02
9.076889604330062866e-03
-7.018218282610177994e-03
1.342573482543230057e-02
-1.515949983149766922e-02
-7.227183319628238678e-03
-1.749515533447265625e-02
-2.512494660913944244e-02
-9.421304799616336823e-03
2.380697755143046379e-03
1.277928799390792847e-02
1.112391892820596695e-02
-3.552289912477135658e-03
-5.990164820104837418e-03
1.048450591042637825e-03
-2.723578363656997681e-04
-7.218887098133563995e-03
-4.529054567683488131e-04
-1.914055645465850830e-02
2.092175418511033058e-03
5.800024606287479401e-03
2.523767761886119843e-03
2.798599016387015581e-04
-5.166078335605561733e-04
1.377998013049364090e-02
-3.189117182046175003e-03
-6.234223488718271255e-03
-1.275519002228975296e-02
-1.282718963921070099e-02
2.990694949403405190e-03
-1.600767858326435089e-02
1.687843725085258484e-02
1.691933372057974339e-03
-3.819676814600825310e-03
-1.922534778714179993e-02
-6.364649161696434021e-03
-2.130520762875676155e-03
-1.563185453414916992e-02
1.273365877568721771e-02
3.847804851830005646e-03
-1.752665452659130096e-02
-1.700576394796371460e-03
1.237832847982645035e-02
1.312554068863391876e-02
9.738830849528312683e-03
-9.443755261600017548e-04
-2.544458210468292236e-02
-9.917157702147960663e-03
-2.642099559307098389e-02
-1.393777225166559219e-02
-1.875348389148712158e-02
6.907412782311439514e-03
3.476614877581596375e-02
-3.995318897068500519e-03
-2.403158508241176605e-02
-1.591684669256210327e-02
-7.432105951011180878e-03
-1.480477768927812576e-02
9.906564839184284210e-03
1.355402357876300812e-02
5.860248114913702011e-03
-1.480059931054711342e-03
1.034834329038858414e-02
-8.496467955410480499e-03
-1.776558719575405121e-02
-2.640152350068092346e-03
3.811916569247841835e-03
2.255344390869140625e-02
-9.511834010481834412e-03
-1.279243081808090210e-02
6.873860023915767670e-03
-3.042392805218696594e-02
-6.499573588371276855e-03
3.445304930210113525e-03
1.781370677053928375e-02
1.502077281475067139e-02
1.292059756815433502e-02
6.737983319908380508e-03
3.234783886000514030e-03
4.620614461600780487e-03
3.232474252581596375e-02
-5.049428436905145645e-03
-1.235789712518453598e-02
1.421047374606132507e-02
1.464503444731235504e-02
-1.743669994175434113e-02
-1.230874750763177872e-02
2.463376335799694061e-02
2.457393705844879150e-02
4.535984247922897339e-03
2.357100881636142731e-02
-2.163077704608440399e-02
-2.297537028789520264e-02
-1.450973656028509140e-02
1.231018453836441040e-02
1.881752721965312958e-02
-2.052768133580684662e-02
5.132747441530227661e-02
1.756601408123970032e-02
-1.416779495775699615e-02
-3.193974029272794724e-03
1.394547289237380028e-03
-1.138007361441850662e-02
-1.119402144104242325e-02
1.277134474366903305e-02
4.841156303882598877e-02
2.754702232778072357e-02
7.629891479155048728e-05
-1.908408105373382568e-02
-2.101442217826843262e-02
-2.317032963037490845e-02
-2.352623455226421356e-02
2.098380774259567261e-02
1.712535321712493896e-02
2.216724678874015808e-02
1.055108942091464996e-02
-1.267670560628175735e-02
-8.800958283245563507e-03
-5.642807576805353165e-03
-2.959537785500288010e-03
-1.074366550892591476e-02
1.323016919195652008e-02
-1.715876860544085503e-03
-1.389732584357261658e-02
1.559142395853996277e-02
-2.142140176147222519e-03
-7.986489683389663696e-03
-7.477697363356128335e-05
1.367057021707296371e-02
-1.344087999314069748e-02
-2.184890210628509521e-02
5.520542152225971222e-03
-1.736345142126083374e-02
-7.481930311769247055e-03
7.085938705131411552e-04
-5.668343044817447662e-03
-1.157617755234241486e-02
-2.442159689962863922e-02
-2.063932642340660095e-02
-2.888976968824863434e-02
4.963855724781751633e-03
-4.820642061531543732e-03
2.628844976425170898e-02
-1.392002403736114502e-02
-2.399922534823417664e-02
-4.921272862702608109e-03
-1.571474969387054443e-02
-4.697233904153108597e-03
-2.485613524913787842e-02
4.294521175324916840e-03
1.123467739671468735e-02
1.488665118813514709e-02
8.238120935857295990e-03
1.519478298723697662e-02
1.267566159367561340e-02
-2.090205671265721321e-03
1.137322280555963516e-02
-1.351168844848871231e-02
2.307181945070624352e-03
4.764897748827934265e-03
5.504893488250672817e-05
-3.951600228901952505e-04
-1.336780283600091934e-02
-9.352180175483226776e-03
4.361858125776052475e-03
-1.065103989094495773e-02
-2.693786285817623138e-02
1.256775576621294022e-03
-2.001723088324069977e-02
-3.653682768344879150e-02
-2.287619980052113533e-03
-6.862573325634002686e-03
-1.343728415668010712e-02
-2.588546276092529297e-02
-8.599491789937019348e-03
-3.243941068649291992e-02
-3.372146189212799072e-02
-5.075176246464252472e-03
2.395742572844028473e-02
-1.882630516774952412e-03
-1.779409311711788177e-02
-4.123451653867959976e-03
1.494108326733112335e-02
-4.429409652948379517e-02
-8.390349335968494415e-03
1.541660912334918976e-02
-1.156816538423299789e-02
-3.474574163556098938e-02
-3.293035924434661865e-02
-1.878490671515464783e-02
-9.229664690792560577e-03
-4.127059131860733032e-03
2.048208005726337433e-02
-3.069452568888664246e-02
-4.319821484386920929e-03
-2.029491588473320007e-02
6.296735256910324097e-03
1.910191494971513748e-03
-1.227132417261600494e-02
-8.665164932608604431e-03
-8.251842111349105835e-03
-7.672157604247331619e-03
4.740739706903696060e-03
-2.153207734227180481e-02
1.229220628738403320e-02
-1.804910227656364441e-02
-1.517455931752920151e-02
-8.083160035312175751e-03
-7.230121176689863205e-03
-1.237879600375890732e-02
-2.377423457801342010e-02
-3.888082457706332207e-03
-1.344992686063051224e-02
3.093578387051820755e-03
-2.021355088800191879e-03
1.751893432810902596e-03
6.551884871441870928e-05
-9.003954008221626282e-03
6.166753359138965607e-03
-3.992191981524229050e-03
-1.946953008882701397e-03
3.237440250813961029e-04
-3.967270255088806152e-03
-2.663709921762347221e-03
-4.619635175913572311e-03
9.835414588451385498e-03
5.473983939737081528e-03
1.836027577519416809e-02
2.966698957607150078e-03
-1.914257928729057312e-02
5.255514290183782578e-03
-7.831011898815631866e-03
6.809148937463760376e-03
7.886546663939952850e-03
1.792708225548267365e-02
2.990436507388949394e-03
-2.380826137959957123e-02
-8.648197399452328682e-04
1.889695995487272739e-03
-1.242225151509046555e-02
6.619318854063749313e-03
6.886972580105066299e-03
1.188791356980800629e-02
-1.493903063237667084e-02
-5.411168560385704041e-03
1.078095473349094391e-02
-1.295972522348165512e-02
2.354911994189023972e-04
2.910047955811023712e-02
1.056740991771221161e-02
-2.253789134556427598e-04
-4.087785258889198303e-03
4.050696734338998795e-03
-2.497212588787078857e-02
-5.299233365803956985e-03
9.329159744083881378e-03
-5.349163897335529327e-03
5.953616462647914886e-03
2.625300548970699310e-03
-1.702995412051677704e-02
-1.867847633548080921e-03
-2.337081823498010635e-03
-6.462093442678451538e-03
1.005639601498842239e-02
-1.400538161396980286e-02
6.730284541845321655e-03
-1.299994625151157379e-02
4.190317820757627487e-03
-1.557327434420585632e-02
9.018647484481334686e-03
1.516105048358440399e-02
1.543977390974760056e-02
8.970325812697410583e-03
-5.947570782154798508e-03
7.554814801551401615e-04
-1.434089243412017822e-02
1.054624468088150024e-02
3.028948325663805008e-03
3.030989132821559906e-02
6.426599342375993729e-03
1.170536037534475327e-02
-6.625710055232048035e-03
-1.481936406344175339e-02
-3.950981888920068741e-03
2.497047884389758110e-03
-7.005737163126468658e-03
1.195804495364427567e-02
1.449082978069782257e-02
1.083615701645612717e-02
-6.801506038755178452e-03
3.925205674022436142e-03
-3.937580436468124390e-02
-2.069482393562793732e-02
6.369388196617364883e-03
1.297068223357200623e-02
9.635218884795904160e-04
-3.143063979223370552e-03
-3.111593425273895264e-03
-1.849188096821308136e-02
-3.997767344117164612e-03
2.623984031379222870e-02
1.812541484832763672e-02
3.728123009204864502e-02
1.193477306514978409e-02
-2.188386581838130951e-02
-1.157366950064897537e-02
2.075365930795669556e-02
5.087223369628190994e-03
8.797054179012775421e-03
6.570246070623397827e-03
1.724673807621002197e-02
7.673827931284904480e-03
1.738816034048795700e-03
6.164572667330503464e-03
-1.047958061099052429e-02
-2.309589413926005363e-03
-5.170784061192534864e-05
-1.863682991825044155e-03
1.765617355704307556e-02
2.457906678318977356e-02
1.813392853364348412e-03
4.209365695714950562e-03
3.493101801723241806e-03
-6.365871522575616837e-03
1.148456428200006485e-02
7.427255157381296158e-03
1.373463403433561325e-02
6.404629442840814590e-03
-1.216747332364320755e-02
1.058774068951606750e-02
2.237824024632573128e-03
7.024933584034442902e-03
2.415338903665542603e-02
5.008506122976541519e-03
2.848227508366107941e-03
-2.527423016726970673e-02
-1.996733620762825012e-02
-5.388509016484022141e-03
-9.948669932782649994e-03
5.544406361877918243e-03
-7.853720337152481079e-03
-1.976931095123291016e-02
-1.596182584762573242e-02
-2.768187224864959717e-02
-1.818808354437351227e-02
-4.136128816753625870e-03
2.098030410706996918e-02
-1.320650894194841385e-02
-4.145878367125988007e-03
-5.009355954825878143e-03
8.507647551596164703e-03
-1.926414086483418941e-03
1.823760685510933399e-04
1.353647932410240173e-02
-6.232856307178735733e-03
2.342772670090198517e-03
-3.462651875452138484e-05
-6.750566884875297546e-03
-9.238301776349544525e-03
-8.956532692536711693e-04
4.136428236961364746e-03
-3.463276475667953491e-02
-2.035713940858840942e-02
-2.355896122753620148e-02
-1.302930805832147598e-02
-2.312512695789337158e-02
5.559453275054693222e-03
1.824275217950344086e-02
-2.341067977249622345e-02
-2.061159163713455200e-02
-4.201443493366241455e-02
-3.108974359929561615e-02
-1.752694696187973022e-02
1.309916283935308456e-02
2.627623034641146660e-03
-2.629709802567958832e-02
-1.364929974079132080e-02
-8.741987869143486023e-03
-4.169513005763292313e-03
5.636332090944051743e-03
1.632666972000151873e-04
1.503261644393205643e-02
1.977349817752838135e-02
-1.088732574135065079e-02
2.268579602241516113e-02
1.276060752570629120e-02
-2.104977518320083618e-02
2.916650846600532532e-02
1.462243031710386276e-03
8.361092768609523773e-03
1.915008388459682465e-02
2.417404577136039734e-02
-7.745799608528614044e-03
-3.083421476185321808e-02
-1.242498308420181274e-02
2.114547183737158775e-03
6.437906995415687561e-04
2.688670530915260315e-03
-1.218658965080976486e-02
-3.610955318436026573e-03
-1.481058355420827866e-02
-2.298492938280105591e-03
-5.765518173575401306e-03
-9.594525909051299095e-04
1.428912300616502762e-02
1.046488527208566666e-02
3.673812141641974449e-03
-9.026615880429744720e-03
1.272135507315397263e-02
1.817969791591167450e-02
3.477488877251744270e-03
-5.711650941520929337e-03
8.599232882261276245e-03
-4.253112245351076126e-03
-1.249310467392206192e-02
-2.792829880490899086e-03
5.796314217150211334e-03
-1.437430037185549736e-03
-1.363130472600460052e-02
-2.950484678149223328e-02
-2.863112092018127441e-02
-1.529523078352212906e-02
-6.365999113768339157e-03
1.069181039929389954e-02
-8.596938103437423706e-03
1.926377601921558380e-02
-5.100489128381013870e-03
-3.267875686287879944e-02
1.361761533189564943e-04
2.217225264757871628e-04
-2.590526454150676727e-02
-9.274487383663654327e-03
1.375993527472019196e-02
-8.549494086764752865e-04
-3.924157936125993729e-03
-9.416898712515830994e-03
-3.496800316497683525e-03
-2.352804131805896759e-02
-1.264131534844636917e-02
9.001689963042736053e-03
-9.013622999191284180e-03
7.811496499925851822e-03
-1.506141107529401779e-02
5.471568088978528976e-03
6.087575107812881470e-03
-2.335406281054019928e-02
2.067816210910677910e-03
-1.372167840600013733e-02
-7.326976396143436432e-03
-1.207103859633207321e-02
-5.854459013789892197e-03
2.433359390124678612e-03
1.937661087140440941e-03
-6.317218299955129623e-03
-1.176469377242028713e-03
-9.130276739597320557e-03
-6.702534737996757030e-04
1.136790611781179905e-03
-1.720710541121661663e-03
-5.653178319334983826e-03
1.157737150788307190e-02
-3.637900343164801598e-03
9.549204260110855103e-03
1.047937385737895966e-02
1.294508483260869980e-02
4.769806284457445145e-03
-2.156957983970642090e-03
7.154351565986871719e-03
-1.248066872358322144e-02
6.154935806989669800e-03
-1.045141019858419895e-03
-9.569029323756694794e-03
1.536645088344812393e-02
-1.411940343677997589e-02
-8.090414106845855713e-03
-5.272820126265287399e-03
-4.211279097944498062e-03
-6.360244587995111942e-04
9.727749857120215893e-04
8.550916798412799835e-03
4.983263555914163589e-03
4.605295136570930481e-03
-8.972897194325923920e-03
2.142104640370234847e-04
-2.146244951291009784e-04
-4.753583110868930817e-03
1.548931282013654709e-02
-4.370479146018624306e-04
-4.044470842927694321e-03
-2.122817002236843109e-02
-2.199361333623528481e-03
1.219810335896909237e-03
-5.632274318486452103e-03
7.726277690380811691e-03
2.642889693379402161e-02
1.131805498152971268e-02
-6.113327573984861374e-03
-6.045690737664699554e-03
-2.408395148813724518e-02
4.943069536238908768e-03
2.797650173306465149e-03
1.209875755012035370e-02
3.070208244025707245e-03
1.885643694549798965e-03
2.484519733116030693e-03
1.414850703440606594e-03
-2.696381881833076477e-03
7.044390775263309479e-03
-9.968467988073825836e-03
1.468637771904468536e-02
1.595045067369937897e-02
1.293686218559741974e-02
3.933413699269294739e-02
1.744888164103031158e-02
2.338336315006017685e-03
-2.833329886198043823e-02
-7.101023569703102112e-03
7.927594706416130066e-03
1.444023754447698593e-02
4.362118896096944809e-03
-1.329463324509561062e-03
-2.258662134408950806e-02
-2.082396857440471649e-02
1.857418939471244812e-02
9.193605743348598480e-03
-1.447841874323785305e-03
1.626067236065864563e-02
3.661150811240077019e-03
4.662951920181512833e-03
-7.354188710451126099e-03
3.731925413012504578e-02
1.458703074604272842e-02
7.971299812197685242e-03
2.346301823854446411e-02
8.720080368220806122e-03
1.308063883334398270e-02
-6.815516971983015537e-04
-2.607215195894241333e-03
1.788170821964740753e-02
6.254714448004961014e-03
-2.035509236156940460e-02
2.998518384993076324e-02
2.085140720009803772e-02
1.955052837729454041e-02
1.258702483028173447e-03
1.067596860229969025e-02
1.529936771839857101e-02
1.121283415704965591e-02
1.188585185445845127e-03
8.047744631767272949e-03
1.650750637054443359e-02
2.971439622342586517e-02
5.944725591689348221e-03
-3.301054472103714943e-03
-1.489638932980597019e-03
1.002750266343355179e-02
1.446404028683900833e-03
-1.305052079260349274e-02
-1.283775363117456436e-02
-7.102915551513433456e-03
6.431603804230690002e-03
-3.566043684259057045e-03
-7.301416713744401932e-03
5.296882707625627518e-03
1.320753130130469799e-03
-2.123572118580341339e-02
-1.160740666091442108e-02
-4.476711619645357132e-03
-2.933394862338900566e-03
-1.436271052807569504e-02
-1.238177623599767685e-02
1.123994495719671249e-02
3.280805423855781555e-02
-2.703846665099263191e-03
2.442693896591663361e-02
1.483784895390272141e-02
-7.423247443512082100e-04
-7.633071509189903736e-04
2.659071004018187523e-03
-1.582363434135913849e-02
7.545542716979980469e-02
7.450663484632968903e-03
-2.315350342541933060e-03
-1.103281043469905853e-02
-2.442437224090099335e-02
-2.953932061791419983e-02
-3.240525349974632263e-02
1.835492067039012909e-02
-3.526821732521057129e-03
-8.367456612177193165e-04
3.689677454531192780e-03
-1.446676068007946014e-02
-1.897483132779598236e-02
6.062902510166168213e-03
-2.439494943246245384e-03
1.102995593100786209e-02
4.208327457308769226e-02
9.821618907153606415e-03
2.533268881961703300e-03
-1.721455901861190796e-02
5.899929441511631012e-03
1.338674593716859818e-02
-5.550679750740528107e-03
-1.895114220678806305e-02
5.740045569837093353e-03
-2.955538406968116760e-02
-4.225437715649604797e-02
2.431152155622839928e-03
7.903370074927806854e-03
3.072237223386764526e-02
9.090338833630084991e-03
1.963384449481964111e-02
-9.738236665725708008e-03
-1.254609692841768265e-02
-3.665939345955848694e-02
-1.502621173858642578e-02
3.455157577991485596e-02
3.496516495943069458e-02
2.735039405524730682e-02
-1.383113395422697067e-02
-8.907625451683998108e-03
-1.556591596454381943e-02
-3.150082379579544067e-02
2.577113732695579529e-02
3.642794862389564514e-02
4.820125550031661987e-02
-1.894868165254592896e-02
-1.826784387230873108e-02
-1.401825994253158569e-02
-3.284868225455284119e-02
-6.752491928637027740e-03
-4.022058099508285522e-03
4.897261410951614380e-02
-6.244941614568233490e-03
-1.185179781168699265e-02
-6.426558643579483032e-02
-3.765187039971351624e-02
1.806387118995189667e-02
-7.221796549856662750e-03
3.587732091546058655e-02
-2.022200077772140503e-02
1.072781719267368317e-02
-3.955920226871967316e-03
-5.766267422586679459e-03
8.085514418780803680e-03
-1.865315996110439301e-02
1.960802450776100159e-02
6.681207567453384399e-03
3.196054312866181135e-04
-2.905630681198090315e-04
3.921048250049352646e-03
-1.484101451933383942e-02
-1.830954104661941528e-02
1.799342036247253418e-02
9.577403776347637177e-03
2.261713892221450806e-02
1.550014689564704895e-02
-1.064532552845776081e-03
1.915351487696170807e-02
3.463280573487281799e-02
-7.744607049971818924e-03
-3.536828095093369484e-03
-2.119478769600391388e-02
-1.918433420360088348e-02
-2.647324837744235992e-02
3.791192080825567245e-03
3.762374632060527802e-03
1.687335968017578125e-02
-4.160443693399429321e-02
-1.403437834233045578e-02
-6.881469860672950745e-03
6.026133522391319275e-02
2.174054086208343506e-02
4.733833298087120056e-02
-3.613899461925029755e-03
-3.501551970839500427e-02
-3.913168236613273621e-02
5.614231154322624207e-02
7.268550992012023926e-02
4.848121106624603271e-02
3.533594682812690735e-02
-2.959716133773326874e-03
-3.348650038242340088e-02
-6.711204349994659424e-02
-3.461024165153503418e-02
2.548966743052005768e-02
5.111064296215772629e-03
-3.262411337345838547e-03
1.412326097488403320e-02
-2.599184215068817139e-02
-9.879373945295810699e-03
-1.660780794918537140e-02
-2.251469157636165619e-02
-4.649468697607517242e-03
-2.552798017859458923e-02
-2.669542096555233002e-02
-2.143770689144730568e-03
-3.618264105170965195e-03
2.284315600991249084e-02
2.647702023386955261e-02
1.267135981470346451e-02
-2.007954195141792297e-02
-1.827425323426723480e-02
4.791329149156808853e-03
5.958725698292255402e-03
-1.111790630966424942e-02
-1.374324597418308258e-02
-9.971154853701591492e-03
-3.809219971299171448e-02
-3.933181241154670715e-02
4.058204591274261475e-03
2.303848974406719208e-02
-2.592247677966952324e-03
2.574279159307479858e-02
-1.178242638707160950e-02
-2.932986058294773102e-02
-1.961652562022209167e-02
1.312854327261447906e-02
2.856684103608131409e-02
2.171448618173599243e-02
6.356079131364822388e-03
3.221752122044563293e-02
-1.417223364114761353e-02
2.375211101025342941e-03
9.890763089060783386e-03
3.029987029731273651e-02
2.986926585435867310e-02
6.046758964657783508e-03
4.664465319365262985e-03
-2.515037916600704193e-02
-3.304226323962211609e-02
2.141555538401007652e-03
-9.088710881769657135e-03
1.392944529652595520e-02
1.632033288478851318e-02
1.163500919938087463e-02
-4.424981772899627686e-02
-4.388292133808135986e-02
1.252774032764136791e-03
-2.014499343931674957e-02
1.935228705406188965e-03
-8.166989311575889587e-03
4.361433442682027817e-03
3.875182010233402252e-03
1.381311682052910328e-03
1.447487995028495789e-02
-1.527597848325967789e-02
-1.683216542005538940e-02
-1.245546247810125351e-02
-9.945798665285110474e-03
-1.466123154386878014e-03
-6.570401601493358612e-03
1.785036176443099976e-03
-1.790002733469009399e-02
-1.689982041716575623e-02
-5.897513125091791153e-03
-3.020291216671466827e-02
-3.010016307234764099e-02
-1.697544194757938385e-02
-1.981666125357151031e-02
-1.756753213703632355e-02
-2.698843553662300110e-02
-2.139165997505187988e-02
3.510463517159223557e-03
-4.731189459562301636e-03
-1.203921530395746231e-02
9.230885654687881470e-03
1.266995258629322052e-02
1.482819113880395889e-02
-3.681835159659385681e-02
1.393714221194386482e-03
1.502122171223163605e-02
4.172836896032094955e-03
-1.216462347656488419e-02
-3.821893781423568726e-02
4.576219711452722549e-03
6.609987001866102219e-03
9.804585017263889313e-03
-1.243092957884073257e-02
-4.553777631372213364e-03
-6.751627661287784576e-04
-3.113549388945102692e-02
2.191990613937377930e-02
-2.115889266133308411e-02
2.466651797294616699e-02
-2.959804609417915344e-02
-3.810868412256240845e-02
1.070369966328144073e-02
1.491727307438850403e-03
3.288639709353446960e-02
-5.805112887173891068e-03
1.817834749817848206e-02
2.966200746595859528e-02
-4.727804567664861679e-03
3.183725103735923767e-02
3.522684331983327866e-03
7.328071165829896927e-03
-8.320762775838375092e-03
8.398802950978279114e-03
-1.065253280103206635e-02
-8.209420368075370789e-03
1.986918272450566292e-03
-3.761668456718325615e-03
-6.907476577907800674e-03
-1.211126800626516342e-03
1.118248421698808670e-02
5.108749959617853165e-03
-7.830598391592502594e-03
-4.012373276054859161e-03
2.796773565933108330e-03
1.284572575241327286e-02
3.870447166264057159e-03
5.872740410268306732e-03
-1.443284004926681519e-02
-1.598501391708850861e-02
-5.111705046147108078e-03
-2.897137543186545372e-03
-1.569839008152484894e-02
4.806937649846076965e-03
1.926727220416069031e-02
1.066022668965160847e-03
-1.147133484482765198e-02
8.870498277246952057e-03
-5.098926369100809097e-03
1.353459805250167847e-02
1.038910448551177979e-02
7.399192079901695251e-03
-1.220515184104442596e-02
-1.402556244283914566e-02
1.034352835267782211e-02
-9.579984471201896667e-03
-1.113881450146436691e-02
2.150818007066845894e-03
3.724717535078525543e-03
-1.232612691819667816e-02
-1.040759123861789703e-02
-7.195768877863883972e-03
-2.522596856579184532e-03
-6.328085437417030334e-03
-2.006639726459980011e-02
-3.272279351949691772e-02
-1.539751701056957245e-02
1.008708309382200241e-02
-5.079631227999925613e-03
7.240974809974431992e-03
4.146474879235029221e-03
1.147335162386298180e-03
-1.323685608804225922e-02
-2.247169800102710724e-02
4.036561585962772369e-03
9.380921721458435059e-03
-7.261068560183048248e-03
-1.356987166218459606e-03
-8.392591029405593872e-03
-2.840163419023156166e-03
2.974486444145441055e-03
5.783584434539079666e-03
1.484337914735078812e-02
-8.499972522258758545e-03
-5.028224084526300430e-03
-1.817090809345245361e-02
6.968436646275222301e-04
-1.049212366342544556e-02
1.188174064736813307e-05
9.155896492302417755e-03
-8.123015053570270538e-03
-6.120567675679922104e-03
-1.768361963331699371e-02
-2.157878689467906952e-02
2.064974047243595123e-03
1.565923169255256653e-02
-1.816659001633524895e-03
-4.684159066528081894e-03
-1.603707671165466309e-02
-2.661974728107452393e-02
-3.475173143669962883e-03
-1.666648127138614655e-02
7.809158414602279663e-04
1.432036794722080231e-02
-1.600910094566643238e-03
-1.639814674854278564e-02
-7.131403312087059021e-03
-2.085480093955993652e-02
-7.901725359261035919e-03
5.232571274973452091e-04
2.578250691294670105e-02
1.167004555463790894e-02
3.823209786787629128e-03
9.721052832901477814e-03
-1.733689568936824799e-02
5.594364833086729050e-03
-3.953019913751631975e-04
1.269215159118175507e-02
-5.022794473916292191e-03
-8.943992666900157928e-03
-1.322900317609310150e-02
2.274263650178909302e-03
-7.920607924461364746e-03
5.808526650071144104e-03
-2.940394729375839233e-02
-2.222860977053642273e-02
-1.503106672316789627e-02
-1.545134838670492172e-02
-5.674734245985746384e-03
-3.427952900528907776e-02
-2.448363602161407471e-02
-6.123997736722230911e-03
-3.307580947875976562e-02
-2.597821876406669617e-02
-2.463880367577075958e-02
4.972662776708602905e-03
-1.538960076868534088e-02
-2.609002590179443359e-02
-9.415760636329650879e-03
-1.651964522898197174e-02
-1.192983007058501244e-03
-1.821575802750885487e-03
7.664944510906934738e-03
-5.944067379459738731e-04
-5.899241194128990173e-03
2.348089357838034630e-03
-3.178424015641212463e-02
-1.437201444059610367e-02
6.404632586054503918e-04
1.807851158082485199e-02
1.393439527601003647e-02
-2.747157821431756020e-03
-1.045919023454189301e-02
-9.626072831451892853e-03
3.914033062756061554e-03
4.316471517086029053e-02
2.433850802481174469e-02
9.841039776802062988e-03
-1.113195251673460007e-02
-9.380496107041835785e-03
1.621219678781926632e-03
3.075975552201271057e-02
3.665569424629211426e-02
1.580202952027320862e-02
-3.406704636290669441e-03
-1.295599527657032013e-02
1.805780827999114990e-02
3.692550584673881531e-03
1.540975179523229599e-02
2.505235746502876282e-02
1.534398365765810013e-02
7.113324943929910660e-03
3.500150050967931747e-03
-9.011166170239448547e-03
-7.059872150421142578e-03
3.872305678669363260e-04
-1.693725772202014923e-02
-5.469167605042457581e-03
-1.346345152705907822e-02
-2.664678497239947319e-03
6.882560439407825470e-03
1.158362347632646561e-02
-3.596860449761152267e-03
-5.562186706811189651e-03
-6.253493484109640121e-03
2.024272084236145020e-02
2.466847561299800873e-02
-8.813424501568078995e-04
2.113707130774855614e-03
-5.642304196953773499e-03
4.281053319573402405e-02
-2.069934271275997162e-04
3.032489307224750519e-02
2.472823020070791245e-03
1.034402847290039062e-02
3.311353549361228943e-02
-5.254536867141723633e-03
-9.457155130803585052e-03
2.349996939301490784e-02
2.856935746967792511e-02
1.795040071010589600e-02
7.828711532056331635e-03
-1.416102983057498932e-02
-1.702058501541614532e-02
-2.456433139741420746e-03
2.084579132497310638e-02
1.565011218190193176e-02
1.423296984285116196e-02
2.494073472917079926e-02
-6.626971997320652008e-03
2.248424105346202850e-02
2.578585781157016754e-02
9.484631940722465515e-03
-8.285549469292163849e-03
-7.379868067800998688e-03
2.616289071738719940e-03
-5.902439821511507034e-03
1.470307353883981705e-02
1.604952476918697357e-02
1.039397437125444412e-03
-1.057531312108039856e-02
3.209229325875639915e-03
-8.913262747228145599e-03
-2.085503190755844116e-02
-1.936874538660049438e-02
-8.148241788148880005e-03
5.642916075885295868e-03
7.493463810533285141e-03
-5.805214866995811462e-03
-1.893929205834865570e-02
-1.933034323155879974e-02
-3.090049605816602707e-03
5.626064725220203400e-03
2.194223925471305847e-02
-1.323790103197097778e-02
-6.102455314248800278e-03
-3.485929220914840698e-02
-4.496715590357780457e-02
-2.278889343142509460e-02
-1.532313041388988495e-02
-5.310360575094819069e-04
1.734106615185737610e-02
-9.911033324897289276e-03
-1.243138872087001801e-02
-2.186437323689460754e-02
-2.328167296946048737e-02
1.030512992292642593e-02
1.484898850321769714e-03
-1.776304468512535095e-02
-9.360104799270629883e-03
-1.158671686425805092e-03
-9.529622271656990051e-03
-7.378870621323585510e-03
1.144779380410909653e-02
-5.363144911825656891e-03
-1.994956843554973602e-02
-6.639725528657436371e-03
1.989134028553962708e-02
2.560821129009127617e-03
2.460476942360401154e-02
1.086592674255371094e-02
1.556989084929227829e-02
-2.502010669559240341e-03
1.471615675836801529e-02
-3.010332875419408083e-04
2.115605585277080536e-02
1.819406077265739441e-02
3.172313421964645386e-02
1.201138086616992950e-02
1.414069812744855881e-02
8.463200181722640991e-03
1.561103109270334244e-02
1.557856518775224686e-02
8.154564537107944489e-03
8.667774498462677002e-03
1.373145356774330139e-02
1.191475661471486092e-03
7.554515730589628220e-03
1.531360857188701630e-02
2.380551770329475403e-02
-5.786723922938108444e-04
-1.141298469156026840e-02
-5.064310971647500992e-03
1.395065686665475368e-03
2.772193402051925659e-03
1.142550352960824966e-02
8.612774312496185303e-03
8.329202421009540558e-03
-1.064208429306745529e-02
-3.470283746719360352e-02
-6.616201251745223999e-03
8.649292401969432831e-03
3.183695720508694649e-03
-5.952158942818641663e-03
-3.621115908026695251e-02
-3.746245428919792175e-02
-4.546614363789558411e-02
-2.451460622251033783e-02
1.067006029188632965e-02
1.046860590577125549e-02
-2.177217975258827209e-02
-2.585537545382976532e-02
-1.377846300601959229e-02
-2.706846222281455994e-02
-3.235070407390594482e-02
8.186133578419685364e-03
3.104099305346608162e-03
-7.317343261092901230e-03
-1.582602784037590027e-02
-8.934539742767810822e-03
-2.539339102804660797e-02
-2.415115386247634888e-02
5.524053238332271576e-03
7.914197631180286407e-03
-1.189400907605886459e-02
-1.392665691673755646e-02
-6.476867012679576874e-03
-5.367843434214591980e-03
7.840833859518170357e-04
1.570944860577583313e-02
1.765340752899646759e-02
-9.262865060009062290e-04
-1.489364774897694588e-03
1.226109080016613007e-02
1.190467085689306259e-02
1.679499517194926739e-03
9.521962143480777740e-03
9.592908156719204271e-08
-8.466977742500603199e-04
-6.084072403609752655e-03
4.404673352837562561e-03
8.782320655882358551e-03
-6.572880316525697708e-03
-6.563147995620965958e-03
-9.823037311434745789e-03
-1.021574810147285461e-02
-4.551263409666717052e-04
2.146156318485736847e-02
-1.869823411107063293e-02
-1.997518539428710938e-02
3.396231681108474731e-03
6.298579275608062744e-03
1.626242138445377350e-02
-2.045014128088951111e-02
-1.368048042058944702e-02
-1.541295461356639862e-02
2.761309267953038216e-03
1.224552839994430542e-02
6.194298621267080307e-03
2.113000955432653427e-03
-4.333806782960891724e-02
-2.589300274848937988e-02
-2.597974799573421478e-02
-3.721791133284568787e-02
-1.024408824741840363e-02
1.538756676018238068e-02
1.079388521611690521e-02
1.577494665980339050e-02
3.545924648642539978e-02
-1.847636769525706768e-03
-1.117889396846294403e-02
-5.050031002610921860e-03
5.929616745561361313e-03
4.498708993196487427e-03
1.244120672345161438e-02
1.374438311904668808e-02
-2.025031112134456635e-02
-1.430513896048069000e-02
9.005180560052394867e-03
-2.466066740453243256e-02
-2.439386025071144104e-02
-3.329476341605186462e-03
-1.375991292297840118e-02
-8.763322257436811924e-04
-1.687357388436794281e-02
-2.684360183775424957e-02
-1.225534733384847641e-02
-4.148066416382789612e-02
-2.128672786056995392e-02
1.433877181261777878e-02
3.000396676361560822e-02
1.878655632026493549e-03
-2.320871222764253616e-03
-1.818098127841949463e-02
-2.387229911983013153e-02
3.615838661789894104e-02
2.515804395079612732e-02
-1.026184414513409138e-03
1.898880116641521454e-02
5.953966174274682999e-03
-3.825383633375167847e-02
-5.692243576049804688e-03
-2.030330523848533630e-02
1.678419671952724457e-02
1.718176156282424927e-02
1.406685728579759598e-02
3.844639053568243980e-03
-9.541797451674938202e-03
1.692317798733711243e-02
-2.401419915258884430e-02
4.515527188777923584e-02
1.043641101568937302e-02
-1.978167146444320679e-02
-1.422991510480642319e-02
-3.314595669507980347e-03
2.374015003442764282e-02
-1.910119433887302876e-03
4.581706970930099487e-02
1.379303517751395702e-03
-2.602791786193847656e-02
-1.945198886096477509e-02
2.491098828613758087e-02
-3.309842140879482031e-04
