2.576084062457084656e-02
1.980768889188766479e-02
-2.532276557758450508e-03
-6.249412894248962402e-02
4.186312109231948853e-02
-8.116005361080169678e-02
-6.812394410371780396e-02
-3.560785204172134399e-02
1.371300593018531799e-02
8.662646636366844177e-03
-3.762924298644065857e-02
-5.051015317440032959e-02
4.756490513682365417e-02
1.057189404964447021e-01
1.071248799562454224e-01
9.621274657547473907e-03
-3.617718443274497986e-02
-1.386309624649584293e-03
2.333400771021842957e-02
-9.660637937486171722e-03
-1.428115367889404297e-02
-8.662213571369647980e-03
1.556561619509011507e-04
-1.976766064763069153e-02
-1.063567236997187138e-03
4.537779372185468674e-03
6.438107229769229889e-03
-1.537148281931877136e-02
-1.145596895366907120e-02
7.055243011564016342e-03
9.127526544034481049e-03
8.840611204504966736e-03
1.633897423744201660e-02
-1.082968246191740036e-02
-3.167860954999923706e-02
1.665199734270572662e-02
3.623316995799541473e-03
-5.385151132941246033e-03
-2.432462386786937714e-02
2.432614797726273537e-03
-1.486424822360277176e-03
-2.838359959423542023e-02
-4.429108928889036179e-03
-5.359543021768331528e-03
2.422500774264335632e-02
-1.929824240505695343e-02
-1.157872006297111511e-02
2.509335801005363464e-02
1.467812340706586838e-02
1.159187220036983490e-02
-6.370836868882179260e-03
-6.965731736272573471e-03
-2.083678264170885086e-03
2.729341504164040089e-04
2.111002616584300995e-02
1.038473471999168396e-02
1.576940156519412994e-02
-1.878012344241142273e-02
2.101960219442844391e-02
2.603230997920036316e-03
-3.291954519227147102e-03
4.724848549813032150e-03
1.418028306216001511e-02
-1.025836542248725891e-02
-2.089106710627675056e-03
-1.755622774362564087e-02
-4.248252883553504944e-02
-5.357523914426565170e-04
-5.148253589868545532e-02
-2.695597708225250244e-02
4.621276259422302246e-02
-2.144642733037471771e-02
2.496636211872100830e-01
-3.482795134186744690e-02
-7.169401738792657852e-03
-3.050548722967505455e-03
-8.630093187093734741e-02
-8.173857629299163818e-02
5.639482289552688599e-02
-4.808233305811882019e-02
5.959661211818456650e-03
1.490830816328525543e-02
-4.408494383096694946e-02
-4.955343902111053467e-02
-9.053222835063934326e-03
-3.212236985564231873e-02
-4.481483995914459229e-02
1.243945211172103882e-02
5.800493090646341443e-05
-4.925492405891418457e-02
-9.528051130473613739e-03
-6.723473314195871353e-03
-4.351777955889701843e-02
3.783180378377437592e-03
-1.540445070713758469e-02
-3.794017434120178223e-02
-2.374418638646602631e-02
-9.427558630704879761e-03
-4.620423167943954468e-02
2.498723194003105164e-02
7.818219065666198730e-02
-4.171827435493469238e-02
-5.590002611279487610e-02
4.217035323381423950e-02
5.031972657889127731e-03
-6.764895748347043991e-03
-1.625270396471023560e-02
-1.229458954185247421e-02
-6.042235530912876129e-03
6.511171907186508179e-02
-3.270175680518150330e-02
-3.732807189226150513e-02
7.477361243218183517e-03
2.285306155681610107e-02
-1.960843103006482124e-03
1.315150037407875061e-02
1.111943367868661880e-02
2.649497799575328827e-02
4.029079154133796692e-02
-1.483219303190708160e-02
1.358602475374937057e-02
-8.603800088167190552e-03
1.701894216239452362e-03
1.809612289071083069e-02
1.473360322415828705e-02
-2.969377860426902771e-02
-2.813412807881832123e-02
3.229909390211105347e-02
-8.573858439922332764e-02
-8.884163945913314819e-02
-1.831122674047946930e-02
4.789305478334426880e-02
-1.042579784989356995e-01
-5.354578047990798950e-02
4.593322798609733582e-02
-1.392421126365661621e-02
-8.616287261247634888e-02
-1.273157075047492981e-02
-4.270166903734207153e-02
-7.320342957973480225e-02
2.255361713469028473e-02
-3.120531328022480011e-02
2.339122816920280457e-02
-6.288866698741912842e-02
4.327680915594100952e-03
1.518503949046134949e-02
2.121535595506429672e-03
-1.679479493759572506e-03
-5.285712424665689468e-03
-7.553058676421642303e-03
1.818941347301006317e-02
-8.470697328448295593e-03
-9.402713738381862640e-03
-1.450246199965476990e-02
8.983185514807701111e-03
2.242250600829720497e-03
8.750168606638908386e-03
-4.167420417070388794e-02
-1.604707725346088409e-02
-2.061549015343189240e-02
-3.148850426077842712e-02
-2.576158568263053894e-02
-1.780374534428119659e-02
-2.283140458166599274e-02
-1.847619563341140747e-02
-2.437412040308117867e-03
3.396372310817241669e-03
-9.329207241535186768e-03
-7.733759004622697830e-03
-1.877287030220031738e-02
7.821084000170230865e-03
-6.375007797032594681e-03
8.480508811771869659e-03
-1.488580834120512009e-02
-5.790139548480510712e-04
-9.761137887835502625e-03
5.943682417273521423e-02
-1.807707548141479492e-02
-1.427829731255769730e-02
1.741374284029006958e-02
-1.852842979133129120e-03
-4.883495345711708069e-02
3.383290767669677734e-02
6.147373002022504807e-03
1.523245498538017273e-02
3.211844339966773987e-02
2.175066620111465454e-02
2.991865761578083038e-02
-2.641099505126476288e-02
-5.745922215282917023e-03
3.864267468452453613e-02
8.482628501951694489e-03
-2.784146182239055634e-02
-2.112831454724073410e-03
-3.887969255447387695e-02
4.006802104413509369e-03
4.003045707941055298e-02
1.873845793306827545e-02
2.819692529737949371e-02
4.041390866041183472e-02
1.034135073423385620e-01
1.188164483755826950e-02
-5.037473887205123901e-02
-3.793529421091079712e-02
5.101280659437179565e-02
-2.255422077723778784e-05
-3.671316802501678467e-02
-5.578458681702613831e-02
3.136277943849563599e-02
1.271491404622793198e-02
-1.389953028410673141e-02
1.212126482278108597e-02
-1.923498697578907013e-02
2.310409024357795715e-02
2.075802721083164215e-02
-1.167744863778352737e-02
-1.521948352456092834e-02
-2.924952714238315821e-04
-1.660874299705028534e-02
-5.102671310305595398e-02
1.500872708857059479e-02
-2.749329619109630585e-02
-6.358239054679870605e-02
-4.707545787096023560e-02
-1.120233163237571716e-02
1.384624745696783066e-03
-1.063397247344255447e-02
2.274445025250315666e-03
-3.431513439863920212e-03
-2.255708165466785431e-02
-7.962561212480068207e-03
-1.167225185781717300e-02
5.957939662039279938e-03
1.997288130223751068e-02
-4.585948307067155838e-03
-5.684582516551017761e-03
9.674928733147680759e-04
-8.070030249655246735e-03
1.031196303665637970e-02
1.016352209262549877e-03
5.730240140110254288e-03
2.238879911601543427e-02
8.979770354926586151e-03
3.207989409565925598e-02
-3.274995833635330200e-02
5.085833370685577393e-02
1.834832876920700073e-02
-2.664968930184841156e-02
3.101561032235622406e-02
-4.047675989568233490e-03
-2.049431018531322479e-02
-3.328420221805572510e-02
-1.034865807741880417e-02
9.138549678027629852e-03
2.989006927236914635e-03
8.320410735905170441e-03
4.479199647903442383e-02
6.195027008652687073e-02
2.625639922916889191e-02
9.730929508805274963e-03
3.315988555550575256e-02
2.621491067111492157e-02
-3.607458621263504028e-02
-3.342897072434425354e-02
1.326435618102550507e-02
1.874374412000179291e-02
-5.226600542664527893e-02
-5.676959455013275146e-02
5.015110969543457031e-02
3.790952265262603760e-02
-1.607725583016872406e-02
-2.121576573699712753e-03
-1.167354080826044083e-02
2.598853036761283875e-02
6.030329503118991852e-03
1.594908302649855614e-03
2.283499948680400848e-02
-1.035852264612913132e-02
-2.363084442913532257e-02
-6.966789253056049347e-03
4.395197704434394836e-02
5.215995758771896362e-02
4.804927483201026917e-02
1.582611910998821259e-02
-3.861131519079208374e-02
-2.540105953812599182e-02
-3.756134537979960442e-04
-9.521109983325004578e-03
-1.876825094223022461e-02
-2.423574775457382202e-02
-1.083305291831493378e-02
-2.900470863096415997e-04
-5.447567673400044441e-04
-4.479511175304651260e-03
7.510316558182239532e-03
3.255990566685795784e-03
6.250839214771986008e-03
-5.568033549934625626e-03
-6.642714608460664749e-03
-1.951946318149566650e-02
-1.931500248610973358e-02
-8.025259710848331451e-03
-1.162794418632984161e-02
3.291932167485356331e-03
-2.492712624371051788e-02
-3.944722563028335571e-02
-1.743138208985328674e-02
-1.971977390348911285e-02
-2.833594940602779388e-02
-3.450926020741462708e-02
-2.086517959833145142e-02
-3.221210464835166931e-02
1.353523228317499161e-02
-2.762012369930744171e-02
-3.792362287640571594e-02
-3.994834050536155701e-02
8.160777390003204346e-03
-1.658976264297962189e-02
-4.943185020238161087e-03
-3.527386114001274109e-02
-3.220061957836151123e-02
-3.949558828026056290e-03
-6.576595455408096313e-02
-5.116306617856025696e-02
3.241038694977760315e-02
3.361658751964569092e-02
7.248658221215009689e-03
9.563975967466831207e-03
-5.287760496139526367e-02
-2.267568744719028473e-02
3.159596025943756104e-02
1.097125373780727386e-02
2.613299712538719177e-02
2.769244369119405746e-03
-2.586513198912143707e-02
2.169906161725521088e-02
-6.237069144845008850e-02
-3.766816854476928711e-02
-3.880555042997002602e-03
-7.215136196464300156e-03
-9.710756130516529083e-03
-1.972635090351104736e-02
-4.797997325658798218e-02
-6.521694362163543701e-02
1.896045170724391937e-02
2.127673849463462830e-02
2.153463847935199738e-02
1.000130921602249146e-02
4.475811030715703964e-03
2.264653332531452179e-03
4.678827151656150818e-02
6.329967081546783447e-02
-4.164206981658935547e-02
-3.542155772447586060e-02
7.648994028568267822e-02
1.951467478647828102e-03
-6.318608298897743225e-03
-2.097511291503906250e-02
3.307113051414489746e-02
3.092258609831333160e-02
-6.439689546823501587e-02
-4.047050699591636658e-02
3.151870146393775940e-02
1.430922187864780426e-02
-2.872778289020061493e-02
-3.032007068395614624e-02
-3.858419135212898254e-02
-5.509355664253234863e-02
1.441477425396442413e-02
-1.067672967910766602e-01
-5.364709347486495972e-02
2.909071370959281921e-02
-6.344084441661834717e-02
-7.421469688415527344e-02
-4.394232481718063354e-02
4.298087675124406815e-03
-1.860692049376666546e-03
-4.599534720182418823e-02
-5.847972631454467773e-02
-3.535014763474464417e-02
9.728223830461502075e-02
3.080895915627479553e-02
1.342958863824605942e-02
-1.058355271816253662e-01
-3.806168213486671448e-03
3.137081861495971680e-02
8.911202661693096161e-03
-2.461354248225688934e-03
-3.796307370066642761e-02
3.135456517338752747e-02
-6.470475345849990845e-03
-3.967127203941345215e-02
6.762062013149261475e-02
2.450928837060928345e-02
8.488111197948455811e-03
-7.034774869680404663e-02
5.159439146518707275e-02
-2.555767074227333069e-02
-5.794689804315567017e-02
-1.145040094852447510e-01
-1.245659217238426208e-02
-2.332422882318496704e-02
-5.333981942385435104e-03
3.995768725872039795e-03
-1.869329280452802777e-04
-8.157673291862010956e-03
2.511004917323589325e-03
-1.917307265102863312e-02
-1.150896679610013962e-02
1.998119056224822998e-03
9.517582133412361145e-03
1.924915006384253502e-03
-1.563750579953193665e-02
8.366588503122329712e-03
-6.968636531382799149e-03
5.764003843069076538e-03
-4.803438205271959305e-03
1.119542773813009262e-02
-2.330346964299678802e-03
-2.067710459232330322e-02
2.688330411911010742e-02
-1.218290906399488449e-02
-1.966181583702564240e-02
-5.850747693330049515e-03
-7.784643676131963730e-03
-4.188566282391548157e-02
-4.430264607071876526e-02
2.617101185023784637e-03
8.816842455416917801e-05
1.937631750479340553e-03
2.199706248939037323e-02
1.917889341711997986e-02
-8.232068270444869995e-02
-4.093961417675018311e-02
-4.286614060401916504e-02
-1.272168457508087158e-01
-3.617110103368759155e-02
1.930047385394573212e-02
-8.460751734673976898e-03
4.989215172827243805e-03
-1.369825284928083420e-02
1.290616486221551895e-02
5.816978961229324341e-02
5.326279997825622559e-02
-4.234705120325088501e-03
9.754258207976818085e-03
5.604038480669260025e-03
-1.716124452650547028e-02
-5.324658006429672241e-03
-4.961890354752540588e-02
-2.141202241182327271e-02
-3.485649824142456055e-02
4.368531703948974609e-02
3.126821666955947876e-02
6.241052877157926559e-03
7.190903183072805405e-03
5.080865696072578430e-02
5.049537122249603271e-02
5.709325522184371948e-02
1.805366016924381256e-02
2.629299461841583252e-02
-1.703631132841110229e-02
-3.293016925454139709e-02
2.641808055341243744e-02
-6.990041583776473999e-02
-2.942161448299884796e-02
3.819999843835830688e-02
-1.726730726659297943e-02
-7.678162306547164917e-02
-2.135898685082793236e-03
5.344958975911140442e-02
2.639525383710861206e-02
-7.715225964784622192e-02
3.044278360903263092e-02
5.316283926367759705e-02
3.400059789419174194e-02
4.439156502485275269e-03
1.154874451458454132e-02
-1.764286425895988941e-03
-2.091812528669834137e-02
2.387041226029396057e-02
6.398438662290573120e-02
-5.078525748103857040e-03
-1.733401045203208923e-02
5.791623145341873169e-03
-2.966325916349887848e-02
-5.250858888030052185e-02
3.660221351310610771e-03
-1.664281450212001801e-02
-6.321293185465037823e-04
-6.511530280113220215e-02
-6.556526571512222290e-02
3.284316509962081909e-02
4.564730823040008545e-02
2.893141284584999084e-02
3.777472302317619324e-02
2.056344039738178253e-02
-2.701626857742667198e-03
-7.346944510936737061e-02
-5.663195252418518066e-02
2.174146100878715515e-02
1.890750043094158173e-02
-5.583988875150680542e-02
-1.144040841609239578e-02
2.052354998886585236e-02
-4.956338554620742798e-02
-1.050833389163017273e-01
-1.191085111349821091e-02
3.433607518672943115e-02
-3.684684634208679199e-02
-2.269942872226238251e-02
2.060102857649326324e-02
-1.165024004876613617e-02
-5.664353445172309875e-02
-7.532966881990432739e-02
5.274530965834856033e-03
-4.348612390458583832e-03
-8.633243292570114136e-02
-3.614948317408561707e-02
4.199960734695196152e-03
-4.939647391438484192e-02
-2.818640135228633881e-02
1.022289507091045380e-02
5.435197055339813232e-02
5.683238804340362549e-02
-3.282791003584861755e-02
-4.376259073615074158e-02
8.930664509534835815e-02
5.987885873764753342e-03
1.073605730198323727e-03
1.092888787388801575e-02
-4.277517087757587433e-03
7.104760967195034027e-03
2.754586515948176384e-03
3.356914676260203123e-04
1.015941519290208817e-02
-6.452106405049562454e-03
-8.514070650562644005e-04
-7.694701198488473892e-03
8.915954269468784332e-03
-5.227828398346900940e-03
6.032259203493595123e-03
-8.471339009702205658e-03
4.310045042075216770e-04
-2.434684894979000092e-03
1.345830783247947693e-02
-4.076102282851934433e-03
8.307000622153282166e-03
1.212396100163459778e-02
2.063377015292644501e-02
2.565010823309421539e-02
1.536195122753269970e-05
6.643150467425584793e-03
2.457548864185810089e-02
6.597446277737617493e-03
-1.210428681224584579e-02
3.381992504000663757e-02
1.453006453812122345e-02
-4.381394758820533752e-02
3.683983348309993744e-03
-7.954802364110946655e-03
-2.356793731451034546e-02
-3.150874981656670570e-03
-8.394110016524791718e-03
2.229098044335842133e-02
1.909578777849674225e-02
2.090868540108203888e-02
1.947527937591075897e-02
1.611303724348545074e-02
1.620690454728901386e-03
1.628007739782333374e-02
5.467719864100217819e-03
2.568302489817142487e-02
3.615781664848327637e-03
-1.359539339318871498e-03
5.780301871709525585e-04
-1.045017316937446594e-02
2.021008171141147614e-02
1.535057381261140108e-04
-1.013188436627388000e-02
1.447052881121635437e-02
1.563510112464427948e-02
1.901051774621009827e-02
-1.686914078891277313e-02
-1.517441123723983765e-02
3.719367086887359619e-03
-2.863468835130333900e-03
-7.947206497192382812e-03
-1.128199324011802673e-02
-1.575826667249202728e-02
-4.475953523069620132e-03
-8.287868462502956390e-03
3.949833568185567856e-03
-5.504788830876350403e-03
-5.346639663912355900e-04
5.143424961715936661e-03
1.014708541333675385e-02
-7.316815201193094254e-03
-7.377016358077526093e-03
2.599637722596526146e-03
-9.432415477931499481e-03
-5.658958572894334793e-03
-4.091869108378887177e-03
2.028738893568515778e-02
2.537885494530200958e-02
-1.224074698984622955e-02
8.922047913074493408e-03
8.336334489285945892e-03
-1.913356594741344452e-02
1.701761782169342041e-02
1.591575704514980316e-02
-8.026354014873504639e-03
-2.773490035906434059e-03
-7.826481014490127563e-03
2.792655257508158684e-03
6.717386655509471893e-03
-7.981849834322929382e-03
-1.414242759346961975e-02
4.746059887111186981e-03
-2.253561280667781830e-02
-3.896200796589255333e-03
-5.176744423806667328e-03
5.779767874628305435e-03
-2.272340934723615646e-03
-8.838836103677749634e-02
-1.390400994569063187e-02
-5.114439129829406738e-02
1.896117627620697021e-02
-4.520725458860397339e-02
-7.309906184673309326e-02
-1.141221895813941956e-01
3.770031780004501343e-02
-1.084552258253097534e-01
-1.644647866487503052e-01
-1.808276325464248657e-01
-1.171451061964035034e-02
-6.344051659107208252e-02
-1.663822233676910400e-01
-1.748756170272827148e-01
-2.218654612079262733e-03
-3.418702259659767151e-02
-4.356952384114265442e-02
-2.605207823216915131e-02
-2.135696448385715485e-02
-5.267011001706123352e-02
-4.396074265241622925e-02
-7.467940449714660645e-02
-3.739921748638153076e-02
-5.855006352066993713e-02
3.102521412074565887e-02
3.304819390177726746e-02
7.824398577213287354e-03
-4.035913571715354919e-02
1.778362435288727283e-03
1.028963997960090637e-01
-3.512176219373941422e-03
-3.705912269651889801e-03
-6.869391538202762604e-03
2.055305521935224533e-03
-8.880018256604671478e-03
-1.558425743132829666e-02
-1.500568236224353313e-03
8.639285340905189514e-03
-1.774312928318977356e-02
-9.129510261118412018e-03
-4.350387491285800934e-03
8.340394124388694763e-03
8.888251148164272308e-03
-1.860181428492069244e-02
-1.004589535295963287e-02
4.715059883892536163e-03
5.200425628572702408e-03
-2.089259400963783264e-02
-1.363414712250232697e-02
-1.202787458896636963e-02
1.112282462418079376e-02
-1.376261934638023376e-03
1.639679074287414551e-03
4.272319376468658447e-03
-1.037316955626010895e-02
-5.403936840593814850e-03
3.008725121617317200e-03
-6.605666130781173706e-04
-1.861017197370529175e-03
-3.630630299448966980e-02
-1.198389846831560135e-02
-3.198912367224693298e-02
-1.109191961586475372e-02
-6.352764321491122246e-04
-3.363640233874320984e-02
-5.183363333344459534e-02
-2.738233469426631927e-02
-1.167966146022081375e-02
-4.999830946326255798e-02
-8.531532436609268188e-02
-2.749016508460044861e-02
8.375197649002075195e-03
2.971727401018142700e-03
-5.672836303710937500e-02
-5.418817698955535889e-02
4.495571553707122803e-02
4.409027099609375000e-02
6.242683902382850647e-02
3.240326792001724243e-02
4.293791949748992920e-02
2.146460302174091339e-02
2.179035358130931854e-02
3.571848385035991669e-03
4.311876837164163589e-03
-9.017701447010040283e-02
-2.837278507649898529e-02
3.643452003598213196e-02
2.430927939713001251e-02
8.879806264303624630e-04
5.134086310863494873e-02
4.199465364217758179e-02
7.950285077095031738e-02
2.602196857333183289e-02
3.827382624149322510e-02
7.787726074457168579e-02
-3.726352471858263016e-03
2.956384560093283653e-03
3.227693960070610046e-02
8.749630302190780640e-03
-8.656129240989685059e-03
4.531197715550661087e-03
-1.364142540842294693e-02
4.143841579207219183e-05
7.765844464302062988e-03
-2.098161913454532623e-02
-7.028360851109027863e-03
-1.320011727511882782e-02
8.758637122809886932e-03
-1.392733398824930191e-02
-8.854412473738193512e-03
-1.464052591472864151e-03
1.331573445349931717e-02
1.570747420191764832e-02
1.502318773418664932e-02
8.690624497830867767e-03
2.455571852624416351e-02
4.436286538839340210e-02
3.504541143774986267e-02
3.467364981770515442e-02
5.671225488185882568e-03
1.864285394549369812e-02
-4.989965353161096573e-03
2.003764919936656952e-02
9.552530944347381592e-03
-2.100980468094348907e-02
-2.818675152957439423e-02
-1.286780927330255508e-02
-1.516307471320033073e-03
1.928838714957237244e-02
-2.958750817924737930e-03
-7.353947032243013382e-03
1.441270671784877777e-02
2.686908701434731483e-03
7.487286813557147980e-03
-1.974263228476047516e-02
2.838067710399627686e-02
3.799387952312827110e-03
-1.497090794146060944e-02
-7.618662901222705841e-03
9.820239618420600891e-03
-5.382534116506576538e-03
1.009842148050665855e-03
-6.660915096290409565e-04
4.757937043905258179e-03
-7.449844852089881897e-03
-4.230031743645668030e-03
-8.430769667029380798e-03
5.168780218809843063e-03
3.552848473191261292e-03
-2.465487457811832428e-03
-1.526869740337133408e-02
-3.509508911520242691e-03
-5.964226555079221725e-03
9.692673571407794952e-03
1.162880938500165939e-02
-1.074280962347984314e-02
-5.633211694657802582e-03
9.875419549643993378e-03
1.395911537110805511e-02
-3.966875374317169189e-03
-5.934259295463562012e-02
-7.885070145130157471e-02
1.902845129370689392e-02
4.869570955634117126e-02
9.593797847628593445e-03
-2.174466662108898163e-02
3.335380554199218750e-02
-1.995801739394664764e-02
-2.085031941533088684e-02
-8.200878277420997620e-03
-1.977932639420032501e-02
-4.685142077505588531e-03
-1.568717509508132935e-02
-2.280665747821331024e-02
-1.650022901594638824e-02
6.624101661145687103e-03
1.255839969962835312e-02
6.852731108665466309e-03
1.121268514543771744e-02
-4.109078645706176758e-02
3.867930918931961060e-02
3.312654793262481689e-02
1.606128644198179245e-04
2.832552231848239899e-02
5.213591456413269043e-02
1.887244544923305511e-02
-6.569726247107610106e-05
6.312465667724609375e-02
3.991531208157539368e-02
8.866610005497932434e-03
-8.919846266508102417e-03
8.351691067218780518e-03
3.009500540792942047e-02
-2.665982395410537720e-02
2.990758046507835388e-03
1.009019836783409119e-02
3.261910751461982727e-02
7.423303555697202682e-03
-1.200951519422233105e-03
-7.157493382692337036e-03
-3.967752307653427124e-02
-5.365447700023651123e-02
1.293217949569225311e-02
8.804734796285629272e-03
9.526935406029224396e-03
-1.082041952759027481e-02
3.444723039865493774e-02
2.187985368072986603e-02
-4.596988204866647720e-03
-1.753339357674121857e-02
-4.127096757292747498e-02
-3.872372582554817200e-02
-9.323379397392272949e-02
-5.277766287326812744e-02
-9.185968898236751556e-03
-5.594231188297271729e-02
-3.619157150387763977e-02
-1.456435886211693287e-03
-5.866685137152671814e-02
-2.035647630691528320e-02
-2.504804730415344238e-02
-7.166811823844909668e-02
-5.022107809782028198e-02
-3.776749223470687866e-02
2.653896436095237732e-02
-4.172754287719726562e-02
2.990839071571826935e-02
-4.062629863619804382e-02
-2.558043040335178375e-02
-7.859988510608673096e-02
-1.940055191516876221e-02
3.038564324378967285e-02
-7.526274304836988449e-03
-1.634827256202697754e-02
-2.778196893632411957e-02
-1.932802982628345490e-02
-1.358767319470643997e-02
-9.399577975273132324e-03
-2.048171497881412506e-02
-8.158197160810232162e-04
-1.886697113513946533e-02
-1.996341906487941742e-02
7.065263111144304276e-03
-8.351380005478858948e-03
-8.777319453656673431e-03
6.517319940030574799e-03
6.640164181590080261e-03
-1.019658148288726807e-02
-1.709731295704841614e-02
-1.729618012905120850e-02
1.037765480577945709e-02
-9.219203144311904907e-03
9.591147681931033731e-05
5.492098163813352585e-03
1.394442506352788769e-06
6.832022219896316528e-02
-1.766051724553108215e-02
-1.707729999907314777e-03
5.128736421465873718e-02
-1.553469244390726089e-02
-7.135642226785421371e-03
-6.238988414406776428e-02
-7.400662451982498169e-02
-4.445757344365119934e-02
-6.171856820583343506e-02
-7.167457789182662964e-02
-3.281348198652267456e-02
-1.305218879133462906e-02
-1.973222382366657257e-02
1.483284533023834229e-01
1.327654123306274414e-01
2.848516218364238739e-02
-1.516897231340408325e-02
4.733635485172271729e-02
3.387626260519027710e-02
-2.341078966856002808e-02
2.651622146368026733e-02
4.267109185457229614e-02
-1.297325175255537033e-02
-4.433855786919593811e-02
-3.291802480816841125e-02
4.953896999359130859e-02
5.348781123757362366e-02
-1.446033548563718796e-02
7.762526161968708038e-03
2.200018055737018585e-02
5.517995730042457581e-02
-5.244109779596328735e-02
5.148307234048843384e-02
-1.057221926748752594e-02
-2.103382907807826996e-02
6.118369288742542267e-03
8.058948069810867310e-02
1.900735124945640564e-02
-1.662219129502773285e-02
-2.086880803108215332e-02
-6.825803220272064209e-02
-1.024972647428512573e-02
-6.256138533353805542e-02
-2.778656780719757080e-02
-1.093884855508804321e-01
-5.469083786010742188e-02
-5.538880825042724609e-02
-5.701110884547233582e-02
-2.909853123128414154e-02
-3.768951445817947388e-02
6.216868758201599121e-03
-4.720955714583396912e-02
-7.558520883321762085e-02
-3.530339896678924561e-02
-8.261736482381820679e-02
-3.613347187638282776e-03
-1.085609756410121918e-02
-1.269794628024101257e-02
-6.248513981699943542e-02
-5.968728568404912949e-03
2.273776941001415253e-02
8.274469524621963501e-03
-4.743636585772037506e-03
3.113505244255065918e-02
-1.138029173016548157e-01
-8.180379122495651245e-02
6.860397756099700928e-02
3.142433986067771912e-02
-2.684545889496803284e-02
-3.733249753713607788e-02
3.242811188101768494e-03
-7.507333904504776001e-02
2.380406111478805542e-02
-4.998900368809700012e-02
8.287703618407249451e-03
-4.881056398153305054e-02
7.709026802331209183e-03
3.323557972908020020e-02
2.096286974847316742e-02
8.672139607369899750e-03
1.023614429868757725e-03
1.021290197968482971e-02
1.388840377330780029e-02
-6.255852058529853821e-03
-9.883554652333259583e-03
-1.583610102534294128e-02
-3.511093789711594582e-03
-2.880693413317203522e-03
8.329470641911029816e-03
-7.059092167764902115e-03
-7.206641603261232376e-03
1.336291618645191193e-02
-4.776541143655776978e-02
-4.772898182272911072e-02
-7.986396551132202148e-02
-3.662963863462209702e-03
9.840673767030239105e-03
5.642788950353860855e-03
-2.281476929783821106e-02
2.027286915108561516e-03
-1.761871390044689178e-02
1.549499924294650555e-03
5.065055564045906067e-03
-2.240439690649509430e-02
1.087080594152212143e-02
-1.148955058306455612e-02
-8.983393199741840363e-03
-1.549505512230098248e-03
-3.950465004891157150e-03
-2.813435625284910202e-03
4.130620509386062622e-03
7.582030445337295532e-02
9.493685327470302582e-03
-8.673870004713535309e-03
4.080135002732276917e-02
3.676658868789672852e-02
-9.251426905393600464e-03
-3.075174055993556976e-02
-1.988246478140354156e-02
1.183347310870885849e-02
-3.179451916366815567e-03
-2.341837808489799500e-02
-8.560820482671260834e-03
-1.056478172540664673e-02
2.985232323408126831e-02
3.082340024411678314e-02
-3.428246825933456421e-02
1.758684590458869934e-02
-7.160656619817018509e-03
-2.222116477787494659e-02
1.069688517600297928e-02
1.699137687683105469e-02
3.333229571580886841e-02
5.716004595160484314e-02
-1.131102535873651505e-02
3.246226534247398376e-02
4.775113612413406372e-02
3.067140839993953705e-02
-5.817174445837736130e-03
3.107966855168342590e-02
-3.942220658063888550e-02
-5.107929557561874390e-02
2.463977970182895660e-02
-9.313616156578063965e-02
-2.756026107817888260e-03
-9.593638591468334198e-03
7.475013844668865204e-03
-5.415923148393630981e-02
-5.611238069832324982e-03
-6.238943897187709808e-03
5.857565999031066895e-02
4.174287617206573486e-02
8.237821049988269806e-03
2.169081941246986389e-02
2.949799224734306335e-02
1.614512875676155090e-02
8.012562990188598633e-02
1.988749485462903976e-03
1.694137044250965118e-02
-3.960864618420600891e-03
1.185027416795492172e-02
2.006804756820201874e-02
6.310349795967340469e-03
-5.433978512883186340e-03
5.731140077114105225e-02
2.356255054473876953e-02
-6.915385369211435318e-03
4.020587727427482605e-02
5.165816098451614380e-02
8.386884815990924835e-03
2.038557268679141998e-02
2.563130855560302734e-02
6.000272557139396667e-02
-3.679352113977074623e-03
1.976013369858264923e-02
-6.910049356520175934e-03
-5.525034852325916290e-03
-1.625716127455234528e-02
4.616849869489669800e-02
4.239702224731445312e-02
-4.838062077760696411e-02
-7.584257982671260834e-03
5.278979986906051636e-02
3.878425061702728271e-02
-5.066247191280126572e-03
-1.654855348169803619e-02
-5.773834418505430222e-04
1.567036844789981842e-03
-6.136595830321311951e-02
-8.460845798254013062e-02
9.072718210518360138e-03
-7.475773803889751434e-03
-1.578762568533420563e-02
4.750462714582681656e-03
-5.401880946010351181e-03
2.890675561502575874e-03
6.661831401288509369e-03
-7.157951127737760544e-03
-3.063122043386101723e-03
-1.855617575347423553e-02
-1.197244133800268173e-02
7.035588379949331284e-03
-1.887539587914943695e-02
3.014978487044572830e-03
1.791888207662850618e-04
7.684280630201101303e-03
-8.243917487561702728e-03
1.646116748452186584e-02
2.152926661074161530e-02
3.125898912549018860e-02
6.324969977140426636e-02
-1.001333072781562805e-02
-9.233600459992885590e-03
1.995774917304515839e-02
3.070376254618167877e-02
-2.453366853296756744e-02
-1.261476427316665649e-03
-4.534604772925376892e-02
1.587541773915290833e-02
9.431598708033561707e-03
-2.099115168675780296e-03
1.213924810290336609e-01
-5.095236003398895264e-02
1.054745819419622421e-02
6.029618671163916588e-04
2.798336930572986603e-02
4.664326552301645279e-03
1.444885879755020142e-02
1.541803404688835144e-02
5.131850764155387878e-02
-9.257315541617572308e-04
-1.011091843247413635e-02
-3.213023766875267029e-02
3.270943090319633484e-02
2.110662870109081268e-02
1.199641730636358261e-02
-1.959022507071495056e-02
9.133274666965007782e-03
6.934469938278198242e-02
5.994405597448348999e-02
-3.056409396231174469e-02
2.818116545677185059e-02
-1.006526686251163483e-02
6.249908357858657837e-02
-6.954569369554519653e-02
-7.680893689393997192e-02
-7.661203294992446899e-02
1.391526870429515839e-02
-8.176409453153610229e-02
-2.554585412144660950e-02
-7.758488878607749939e-03
4.474857077002525330e-02
2.569818682968616486e-02
1.174056436866521835e-02
-2.896344102919101715e-02
-4.435203969478607178e-02
1.256649661809206009e-02
7.725473493337631226e-03
-8.172493427991867065e-02
1.167102754116058350e-01
-4.300567507743835449e-02
3.027668781578540802e-02
-7.057304680347442627e-02
2.189877070486545563e-02
-6.835920363664627075e-02
1.672520115971565247e-02
-5.323034152388572693e-02
-7.423230260610580444e-02
-6.781180948019027710e-02
8.980542421340942383e-03
-3.629148006439208984e-02
-2.397157996892929077e-02
-4.857926443219184875e-02
-2.871709503233432770e-02
-4.380829259753227234e-02
-2.798497304320335388e-02
-7.123202085494995117e-02
-2.948607876896858215e-02
-4.151390865445137024e-02
5.148109048604965210e-02
6.084205582737922668e-02
4.750789143145084381e-03
-7.300958503037691116e-03
1.054587662220001221e-01
5.407137423753738403e-02
7.240345329046249390e-02
5.199435353279113770e-02
-1.530251502990722656e-01
-1.569719165563583374e-01
-4.755270481109619141e-02
-1.122191548347473145e-01
3.428931906819343567e-02
-6.572332233190536499e-02
1.050848886370658875e-02
-2.406121231615543365e-02
1.027713716030120850e-02
4.444359242916107178e-02
1.745418645441532135e-02
-4.422706365585327148e-02
-5.909509211778640747e-02
-4.367450624704360962e-02
-1.525137200951576233e-02
-3.161694854497909546e-02
4.898968618363142014e-03
-2.641292661428451538e-02
-1.745629683136940002e-02
-6.273356080055236816e-02
1.142042353749275208e-01
-4.005646705627441406e-02
-4.631605744361877441e-02
-7.546087354421615601e-02
2.169768698513507843e-02
7.941042073071002960e-03
-8.735122159123420715e-03
-9.042783081531524658e-02
-1.132813468575477600e-02
-3.335543349385261536e-02
-3.831076435744762421e-03
-1.348809222690761089e-03
1.605699583888053894e-02
3.460890427231788635e-02
1.298912521451711655e-02
-2.873690612614154816e-02
-3.118659183382987976e-02
-1.457885559648275375e-02
6.193144246935844421e-03
-1.400165818631649017e-02
-1.475812587887048721e-02
2.360538346692919731e-03
5.012568086385726929e-02
-5.874725989997386932e-03
5.604343861341476440e-02
4.726100340485572815e-02
4.540940746665000916e-02
5.787044763565063477e-02
-3.253196552395820618e-02
5.087299644947052002e-02
9.890737012028694153e-03
6.707771867513656616e-02
-5.928645282983779907e-02
2.509388327598571777e-02
2.370623842580243945e-04
7.133473455905914307e-02
-1.095350366085767746e-02
-2.233854867517948151e-02
-3.465040773153305054e-02
-1.501951087266206741e-02
-2.344027161598205566e-02
-1.807443052530288696e-02
-6.752374116331338882e-03
2.305964194238185883e-02
1.235199440270662308e-02
-3.537022508680820465e-03
-2.584424102678894997e-03
-6.683369632810354233e-03
-6.977119948714971542e-03
-1.868852414190769196e-02
2.089382521808147430e-02
7.218993268907070160e-03
-1.280493754893541336e-02
1.647358410991728306e-03
-7.765560876578092575e-03
1.003863289952278137e-02
-5.359617993235588074e-03
-3.932280465960502625e-03
8.496164344251155853e-03
4.854190163314342499e-03
9.924204088747501373e-03
-4.476736485958099365e-02
-5.599724128842353821e-02
-4.273876920342445374e-02
-1.905860193073749542e-02
3.793974965810775757e-02
8.321831410285085440e-05
7.341154664754867554e-02
6.963208317756652832e-03
-2.463698573410511017e-02
-3.319658339023590088e-02
-2.100917324423789978e-02
4.767531529068946838e-03
-2.536625368520617485e-03
-2.431641099974513054e-03
-5.848397687077522278e-02
-6.757433712482452393e-02
-6.303355842828750610e-02
-8.775756508111953735e-02
-4.578625410795211792e-02
-4.054080694913864136e-02
-1.029664799571037292e-01
-5.569563433527946472e-02
-3.832133859395980835e-02
-8.151098154485225677e-04
5.799643229693174362e-03
3.742147237062454224e-02
7.537975325249135494e-04
1.134768594056367874e-02
4.801155254244804382e-02
4.881512001156806946e-02
5.632544681429862976e-02
7.994201034307479858e-03
-1.029926352202892303e-02
1.681066118180751801e-03
-5.405285861343145370e-03
1.805624575354158878e-03
6.374836899340152740e-03
-6.389820948243141174e-03
1.250658463686704636e-02
-1.656123995780944824e-02
-1.162575371563434601e-02
5.838133860379457474e-03
-1.211894210427999496e-02
2.265820465981960297e-02
-1.710933260619640350e-02
-7.234401535242795944e-03
8.628200739622116089e-03
-5.506639555096626282e-02
-1.711666933260858059e-03
-4.371907934546470642e-02
4.751347005367279053e-02
2.900368720293045044e-02
6.446584314107894897e-02
6.305225938558578491e-02
4.597666487097740173e-02
5.130138620734214783e-02
6.394456326961517334e-02
8.563982695341110229e-02
7.217849488370120525e-04
-6.009443476796150208e-02
-5.914701893925666809e-02
-1.994259282946586609e-02
-9.341266006231307983e-02
-1.663350732997059822e-03
-1.665757736191153526e-03
-2.763677621260285378e-04
-6.885488983243703842e-03
-2.949041314423084259e-03
-1.991714350879192352e-02
2.120248973369598389e-02
1.884305849671363831e-02
-1.017870008945465088e-02
2.740607038140296936e-02
2.153847180306911469e-02
9.345613420009613037e-03
-1.147366315126419067e-02
2.824077755212783813e-02
1.890528574585914612e-02
-1.284718699753284454e-02
-5.925409961491823196e-03
-1.576538570225238800e-02
2.579241525381803513e-03
-1.536635495722293854e-02
-1.854705251753330231e-02
5.509965587407350540e-03
-1.531795691698789597e-02
-8.355381898581981659e-03
-1.016596611589193344e-02
2.925300039350986481e-03
-1.121520414017140865e-03
7.943832315504550934e-03
-1.502016466110944748e-02
1.172735122963786125e-03
1.148208742961287498e-03
1.687351614236831665e-03
-4.462425410747528076e-02
-6.710745394229888916e-02
-4.963802173733711243e-02
-9.539382159709930420e-02
2.158552780747413635e-02
4.097044840455055237e-02
-8.624794281786307693e-05
2.514452114701271057e-02
-4.904218018054962158e-02
-8.869676967151463032e-04
5.525515601038932800e-02
2.190072555094957352e-03
-2.721570245921611786e-02
4.434687644243240356e-02
4.742453992366790771e-02
1.077444758266210556e-02
2.986740134656429291e-02
-1.380127039737999439e-03
1.173139456659555435e-02
-9.697904810309410095e-03
1.293814368546009064e-02
-1.144879870116710663e-02
8.766532875597476959e-03
-3.524595813360065222e-04
-6.467138882726430893e-03
-2.061090804636478424e-02
-2.781307324767112732e-03
-1.323525235056877136e-02
3.883077297359704971e-03
2.331481128931045532e-02
-7.232959847897291183e-03
-1.973897777497768402e-02
1.260126242414116859e-03
-1.766432449221611023e-02
-9.101617150008678436e-03
4.976433236151933670e-03
-7.910282351076602936e-03
2.289197873324155807e-03
-1.149644050747156143e-02
-1.972022093832492828e-02
-1.558967027813196182e-02
-2.147975005209445953e-02
-3.837651107460260391e-03
2.756928093731403351e-03
-1.408486161381006241e-02
-1.661355374380946159e-03
8.708867244422435760e-03
-8.994637173600494862e-04
-1.022349521517753601e-01
-4.955161362886428833e-02
-3.943560272455215454e-02
-8.778457343578338623e-02
-2.271752990782260895e-02
-5.540328100323677063e-02
7.084661163389682770e-03
4.060358926653862000e-02
6.165775284171104431e-02
-1.643032394349575043e-02
-2.156537398695945740e-02
3.217023611068725586e-02
-1.191075518727302551e-01
-5.055747553706169128e-02
-2.767281606793403625e-02
-1.003585532307624817e-01
4.177350085228681564e-03
-1.796606369316577911e-02
-2.686236053705215454e-02
-1.015249919146299362e-02
-1.819267123937606812e-02
-1.969472691416740417e-02
-2.262106724083423615e-02
3.330052597448229790e-03
-1.430433988571166992e-02
-1.315002236515283585e-02
-8.582938462495803833e-03
-1.450145058333873749e-02
7.585022132843732834e-03
-7.489824667572975159e-03
-8.525144308805465698e-03
1.257455907762050629e-02
9.738001972436904907e-02
7.156378030776977539e-02
-7.980267517268657684e-03
7.288621366024017334e-02
5.829576402902603149e-02
-1.713306456804275513e-02
-1.916060596704483032e-02
4.661100916564464569e-03
-3.998081758618354797e-02
-3.270632401108741760e-02
-2.172704972326755524e-02
-4.656791314482688904e-02
-1.170775666832923889e-01
-5.240157991647720337e-02
6.691081076860427856e-02
-3.443619236350059509e-02
6.685214466415345669e-04
-2.317749522626399994e-02
1.282658340642228723e-04
-2.591782249510288239e-02
1.425379142165184021e-02
-1.939558610320091248e-02
-5.739827174693346024e-03
-1.209876872599124908e-02
-7.147596334107220173e-04
3.521361155435442924e-03
-1.717286743223667145e-02
-1.547824312001466751e-02
-9.985063225030899048e-03
9.868660941720008850e-03
3.330558771267533302e-03
-3.097559325397014618e-03
-5.543423444032669067e-02
-5.940750241279602051e-02
-5.027821660041809082e-02
-2.511383406817913055e-02
-2.854019962251186371e-02
-6.197252124547958374e-02
-4.463464766740798950e-02
-4.060633480548858643e-02
-3.293751925230026245e-02
-3.415524959564208984e-02
-3.499077633023262024e-02
-3.417146205902099609e-02
-4.421962052583694458e-02
-9.408850222826004028e-02
-5.904385447502136230e-02
-6.385219097137451172e-02
-1.103945076465606689e-02
-4.914178699254989624e-02
-6.066231057047843933e-02
-8.150181919336318970e-02
2.225473290309309959e-03
-5.098612233996391296e-02
1.180391665548086166e-02
-3.053029812872409821e-02
-3.477777168154716492e-02
1.773847383446991444e-03
3.224408254027366638e-02
-1.698053441941738129e-02
-2.795076556503772736e-02
-1.749664545059204102e-02
-2.041927911341190338e-02
9.528000839054584503e-03
8.258127607405185699e-03
3.276488557457923889e-02
3.708687610924243927e-03
8.732756227254867554e-02
-6.368422508239746094e-02
4.786315932869911194e-02
8.534745126962661743e-02
1.149575039744377136e-01
-2.474252507090568542e-02
3.279273584485054016e-02
7.705786265432834625e-03
-2.760148234665393829e-02
4.931019991636276245e-02
5.633088201284408569e-02
1.870833151042461395e-02
-1.863238662481307983e-01
3.865869343280792236e-02
1.353798713535070419e-02
-1.457322668284177780e-02
-2.381777390837669373e-02
4.905614256858825684e-02
1.534853503108024597e-02
1.581372506916522980e-02
3.088151104748249054e-02
3.521964699029922485e-02
3.749864548444747925e-02
3.338768333196640015e-02
-1.669131888775154948e-04
-1.116377580910921097e-02
-2.626207098364830017e-02
-4.450031742453575134e-02
-2.431844919919967651e-02
-1.898987218737602234e-02
8.178135380148887634e-03
-2.951616980135440826e-02
4.972812905907630920e-02
-3.116565989330410957e-03
3.539371490478515625e-02
-9.206332266330718994e-03
6.701590865850448608e-02
-3.766858717426657677e-03
-2.245143841719254851e-04
5.085273296572268009e-04
6.556361168622970581e-02
2.761678583920001984e-02
-6.906574964523315430e-02
-1.725990697741508484e-02
4.861322790384292603e-02
-1.843275688588619232e-02
1.868501678109169006e-02
2.219961769878864288e-02
-1.123685948550701141e-02
7.538203150033950806e-03
3.929108381271362305e-02
4.458168521523475647e-02
-1.752454042434692383e-02
2.933308109641075134e-02
2.868039719760417938e-02
3.650259971618652344e-02
-1.614809781312942505e-02
-5.767948459833860397e-03
4.278239328414201736e-03
-1.518580783158540726e-02
1.706550247035920620e-04
1.085370220243930817e-02
-1.080772839486598969e-02
9.187422692775726318e-03
-1.763041689991950989e-02
7.451919373124837875e-03
-1.975016930373385549e-04
-1.166491582989692688e-02
-5.814299802295863628e-04
4.108893219381570816e-03
-1.522561721503734589e-02
-7.288882043212652206e-03
-1.852158270776271820e-02
-2.825578488409519196e-02
-8.665154688060283661e-03
-3.682817798107862473e-03
-2.453639358282089233e-02
1.576893590390682220e-02
7.470288983313366771e-05
1.698565855622291565e-02
1.090021920390427113e-03
8.587132208049297333e-03
1.873037591576576233e-02
-7.012811023741960526e-03
-5.320947617292404175e-03
9.869948960840702057e-03
2.117343991994857788e-02
1.701374351978302002e-02
1.277443580329418182e-02
-1.839775359258055687e-03
1.361090596765279770e-02
1.654849620535969734e-03
7.161717861890792847e-03
-1.182880345731973648e-02
8.484394289553165436e-03
8.326812647283077240e-03
5.416446831077337265e-03
1.221911888569593430e-02
-7.412587758153676987e-03
-3.838641801849007607e-03
-9.859535843133926392e-03
1.210705749690532684e-02
-4.595205653458833694e-03
-6.848718505352735519e-03
-1.404595375061035156e-02
5.545393563807010651e-03
2.173841465264558792e-03
-1.651732064783573151e-02
-1.511116977781057358e-02
8.608267642557621002e-03
-3.545588254928588867e-02
1.307263877242803574e-02
-1.176995597779750824e-02
6.203145254403352737e-03
-8.691770024597644806e-03
-1.646248623728752136e-02
2.643829770386219025e-02
2.439764095470309258e-03
2.479083463549613953e-02
9.410505183041095734e-03
5.481172818690538406e-03
2.559252828359603882e-02
-3.479907521978020668e-03
-1.465398725122213364e-02
6.938299164175987244e-03
-6.393605843186378479e-03
-8.001416176557540894e-02
-3.762514796108007431e-03
-3.770831599831581116e-02
-1.504021417349576950e-02
-1.783554442226886749e-02
-9.044773876667022705e-02
-1.029389277100563049e-01
-1.284786994801834226e-04
-1.023516152054071426e-02
-1.684997044503688812e-02
-4.740862920880317688e-02
1.796968281269073486e-02
5.329443886876106262e-02
8.380000293254852295e-02
5.251645669341087341e-02
6.833583582192659378e-03
-1.715356297791004181e-02
2.962216502055525780e-03
8.723746053874492645e-03
4.515623208135366440e-03
-2.333929575979709625e-02
-4.283854737877845764e-03
2.111937617883086205e-03
8.676433935761451721e-03
-7.839550264179706573e-03
-5.076141096651554108e-03
-1.321998890489339828e-02
3.367883618921041489e-03
-2.426495542749762535e-03
-1.696000806987285614e-02
-3.183846361935138702e-03
-1.214931719005107880e-02
-1.165106054395437241e-02
-1.059232931584119797e-02
-1.556317042559385300e-02
7.454256992787122726e-03
-4.590472672134637833e-03
-6.121745798736810684e-03
-2.304857224225997925e-02
-9.060693904757499695e-03
-1.657495647668838501e-02
1.245908252894878387e-02
-1.554379053413867950e-02
8.744421647861599922e-04
-5.921967793256044388e-03
4.385272506624460220e-03
1.074361708015203476e-02
1.641537807881832123e-02
-3.313029929995536804e-02
-7.263317238539457321e-03
-3.217129781842231750e-02
1.190411113202571869e-02
-3.968540579080581665e-02
-1.271029468625783920e-02
3.073749318718910217e-02
4.680335056036710739e-03
2.158653456717729568e-03
-3.329978510737419128e-02
-6.309639662504196167e-03
3.000602312386035919e-02
-1.452146470546722412e-02
8.157580159604549408e-03
-9.241306688636541367e-04
7.468545809388160706e-04
8.384307846426963806e-03
-1.922519877552986145e-02
4.151763394474983215e-03
1.294123567640781403e-02
-5.394054576754570007e-03
-1.566130231367424130e-04
1.173841208219528198e-02
1.313786208629608154e-02
1.513409893959760666e-03
8.228820748627185822e-03
2.080219984054565430e-02
-1.558133121579885483e-02
-5.441990680992603302e-03
-3.291519125923514366e-03
-9.913801215589046478e-03
6.278244312852621078e-03
-3.688368201255798340e-02
-3.591769561171531677e-02
-3.552999347448348999e-02
2.914361841976642609e-02
-9.019816666841506958e-02
-9.124311804771423340e-02
-2.849050238728523254e-02
6.843979656696319580e-02
3.167915716767311096e-02
3.377614310011267662e-03
1.507612690329551697e-02
4.135328158736228943e-02
-3.001077473163604736e-02
-2.567097358405590057e-02
-1.071533840149641037e-02
1.618801965378224850e-03
-2.755724452435970306e-02
-6.988742388784885406e-03
-2.778550609946250916e-03
-3.890195628628134727e-03
-1.732710003852844238e-02
6.122567225247621536e-03
2.822132594883441925e-02
-3.662969218567013741e-03
-1.674553565680980682e-02
-7.464712951332330704e-03
-2.203651890158653259e-02
1.705894619226455688e-02
1.951382309198379517e-02
-2.260222658514976501e-02
-1.474932115525007248e-02
-7.900406606495380402e-03
-1.157455239444971085e-02
-1.773622073233127594e-02
3.271579369902610779e-02
1.297291647642850876e-02
-6.594831123948097229e-03
-7.725480198860168457e-02
-1.368111930787563324e-02
6.426280830055475235e-03
-2.594627626240253448e-02
-2.491119084879755974e-03
-6.072073429822921753e-02
-6.034840829670429230e-03
-6.545970588922500610e-02
6.601540371775627136e-03
1.633509248495101929e-02
1.414513494819402695e-02
6.811229139566421509e-02
1.374342013150453568e-02
9.989488869905471802e-02
1.179197151213884354e-02
8.796250447630882263e-03
-7.058907300233840942e-02
5.719275679439306259e-03
2.556950971484184265e-02
-7.186371833086013794e-02
-6.849833577871322632e-02
-1.809120178222656250e-02
-8.218090981245040894e-02
-4.924052208662033081e-02
1.491533778607845306e-02
-9.250154346227645874e-02
-3.035119362175464630e-02
-3.225845098495483398e-02
1.357140205800533295e-02
-2.847331203520298004e-02
1.060167327523231506e-02
1.512499619275331497e-02
-1.261564809828996658e-02
1.377270743250846863e-02
3.127193450927734375e-02
4.593211412429809570e-02
4.334587976336479187e-02
2.842826955020427704e-02
-4.969146102666854858e-03
-2.268685027956962585e-02
6.822463590651750565e-03
7.144270092248916626e-02
1.174508724943734705e-05
-2.775337360799312592e-02
-1.597319915890693665e-02
-4.865644965320825577e-03
3.034644993022084236e-03
-1.915009506046772003e-02
-2.086658962070941925e-02
-9.786258451640605927e-03
4.596506245434284210e-03
-2.533117868006229401e-02
9.853712981566786766e-04
2.961089834570884705e-03
-4.366916604340076447e-03
9.138585999608039856e-03
3.213004767894744873e-02
-2.541866898536682129e-02
-1.637644320726394653e-02
-2.844764618203043938e-03
-1.228963583707809448e-02
-2.211070619523525238e-02
-1.196084823459386826e-02
6.039256229996681213e-03
-3.834342584013938904e-03
-5.146319745108485222e-04
1.322673354297876358e-02
5.212096031755208969e-03
-3.423849353566765785e-03
-7.829769514501094818e-03
-1.311403606086969376e-02
7.878391072154045105e-03
-1.303469203412532806e-02
-6.093536037951707840e-03
-1.418835483491420746e-02
3.553861752152442932e-03
-1.264480315148830414e-02
-7.433428894728422165e-03
1.216823980212211609e-02
-7.230026647448539734e-03
-1.144438982009887695e-02
-1.060529984533786774e-02
9.746029973030090332e-03
-1.707605784758925438e-03
4.026580601930618286e-03
-5.604772362858057022e-03
-4.030497744679450989e-03
-1.547502726316452026e-02
-1.123128645122051239e-02
-3.118363581597805023e-02
9.551528841257095337e-03
-1.214222423732280731e-02
-6.348535418510437012e-03
3.177708549628732726e-06
5.370075814425945282e-03
-7.877848111093044281e-03
-1.959728635847568512e-02
9.775713086128234863e-03
-2.603893540799617767e-02
9.718613000586628914e-04
1.123332791030406952e-02
1.863831840455532074e-02
3.014026908203959465e-03
-1.421456597745418549e-02
1.852773129940032959e-04
-9.519014507532119751e-03
1.724362932145595551e-02
-3.879580646753311157e-03
-8.329194784164428711e-02
-4.037681594491004944e-02
5.641697440296411514e-03
-7.015658915042877197e-02
-1.351004838943481445e-01
-6.198298186063766479e-02
-8.818058669567108154e-02
-2.888595685362815857e-02
-5.349449813365936279e-02
-3.879733756184577942e-02
-8.099750429391860962e-02
-3.929875325411558151e-03
-1.844301261007785797e-02
-1.161668635904788971e-02
2.387707494199275970e-02
3.179636225104331970e-02
2.607049793004989624e-02
1.606104150414466858e-02
1.593504450283944607e-03
1.985444873571395874e-02
2.596290223300457001e-02
2.161415293812751770e-02
-9.141498245298862457e-03
3.195897489786148071e-02
2.592928335070610046e-02
-5.574917886406183243e-03
1.927909068763256073e-02
-1.273734960705041885e-02
-2.089313231408596039e-03
2.328838966786861420e-02
6.424797698855400085e-03
-1.272576954215764999e-02
9.785007685422897339e-03
3.265328938141465187e-03
-1.248984783887863159e-02
3.969916142523288727e-03
-1.052526757121086121e-02
-1.007574237883090973e-02
-1.120989397168159485e-02
1.003909856081008911e-02
-1.963561214506626129e-02
-8.581106550991535187e-03
-6.001612637192010880e-03
-2.051661349833011627e-02
-4.136331379413604736e-03
-1.742287911474704742e-02
4.413096979260444641e-02
1.374670956283807755e-02
-2.073623053729534149e-02
-1.946959644556045532e-02
-8.389934897422790527e-03
1.638004370033740997e-02
6.943184137344360352e-02
-1.833365671336650848e-02
2.299021743237972260e-02
3.941828012466430664e-02
1.248384267091751099e-02
-1.881315745413303375e-02
1.238026749342679977e-02
-1.155365072190761566e-02
2.237363019958138466e-03
1.459307689219713211e-02
-7.432872895151376724e-03
7.741191075183451176e-05
-4.068179696332663298e-04
8.318314328789710999e-03
-4.791674204170703888e-03
4.031600430607795715e-03
-2.019790466874837875e-03
-1.292122993618249893e-02
-3.354056272655725479e-03
6.372187053784728050e-04
-6.835279520601034164e-03
-1.934512332081794739e-02
1.919334195554256439e-02
5.677622742950916290e-03
-1.870059757493436337e-03
-4.986187908798456192e-03
-1.667870394885540009e-02
-1.965527795255184174e-02
-3.873852547258138657e-03
-4.748601932078599930e-03
4.327078815549612045e-03
-2.530956640839576721e-02
2.174779539927840233e-03
-7.045795209705829620e-03
-2.081189071759581566e-03
1.318308291956782341e-03
6.234477274119853973e-03
-1.530869980342686176e-03
1.345013733953237534e-02
1.976290158927440643e-02
-2.399843558669090271e-02
1.757360622286796570e-02
-1.021866053342819214e-01
-5.536552146077156067e-02
-1.027416810393333435e-01
-1.470393538475036621e-01
-1.494589820504188538e-02
-4.874695092439651489e-02
-8.056427538394927979e-02
-4.658070206642150879e-02
-2.656333707273006439e-02
2.154492586851119995e-02
-1.166784390807151794e-02
-4.196926206350326538e-02
-3.657208383083343506e-02
-4.758801311254501343e-02
-7.048448920249938965e-02
-3.149468824267387390e-02
-1.049904525279998779e-02
5.179912596940994263e-02
1.291930396109819412e-02
-5.479030660353600979e-04
-4.084295406937599182e-02
4.281438887119293213e-02
4.158850014209747314e-02
-1.539100706577301025e-02
2.032970637083053589e-02
2.875765971839427948e-02
4.908924177289009094e-02
3.485365305095911026e-03
2.321256697177886963e-02
1.380428764969110489e-02
3.413426876068115234e-02
-2.121952595189213753e-03
7.114209700375795364e-03
5.220858752727508545e-02
1.812595501542091370e-02
-2.340522408485412598e-02
1.077654026448726654e-02
5.018866807222366333e-02
-3.845426440238952637e-02
2.576672658324241638e-02
9.646718390285968781e-03
-1.505037117749452591e-02
-1.631103269755840302e-02
1.557853445410728455e-02
6.482647359371185303e-02
-7.124616205692291260e-02
5.048138648271560669e-02
1.139642000198364258e-01
1.452286727726459503e-02
2.044217474758625031e-02
2.749268524348735809e-02
5.604625865817070007e-02
2.902363194152712822e-03
2.270788699388504028e-02
3.906885161995887756e-02
3.532641753554344177e-02
1.825271546840667725e-02
3.193750279024243355e-03
-8.492278866469860077e-03
8.612179197371006012e-03
4.033928737044334412e-02
3.483486175537109375e-02
2.491232566535472870e-02
2.490740967914462090e-03
-1.823022030293941498e-02
9.014729410409927368e-03
2.154005318880081177e-02
-5.118296016007661819e-03
1.109329145401716232e-02
1.691077277064323425e-02
4.627251997590065002e-02
4.340595006942749023e-02
-5.756044294685125351e-03
4.310876131057739258e-03
2.445460297167301178e-03
1.414863392710685730e-02
1.410951092839241028e-02
1.537498831748962402e-02
-1.269593462347984314e-02
-2.405515126883983612e-02
-1.206616405397653580e-03
-4.679823759943246841e-03
-2.986376173794269562e-02
-2.884248644113540649e-02
-2.018054015934467316e-02
-2.891674451529979706e-02
-5.355380102992057800e-02
3.141051391139626503e-03
-2.968574501574039459e-02
-1.943777315318584442e-02
2.273774892091751099e-02
-1.122934627346694469e-03
7.686036406084895134e-04
1.151023339480161667e-02
-5.117243155837059021e-03
-4.249227233231067657e-03
8.269721642136573792e-03
-1.681826077401638031e-02
1.293348148465156555e-02
-1.918541034683585167e-03
3.188180923461914062e-02
4.548683017492294312e-02
2.974631264805793762e-02
8.810011669993400574e-03
-1.610830612480640411e-02
-7.020492106676101685e-03
-4.655131697654724121e-02
-2.657543309032917023e-02
1.298483181744813919e-02
-7.263016421347856522e-03
-3.224898129701614380e-03
-1.831068098545074463e-02
-1.651805453002452850e-02
-1.755213364958763123e-02
-2.160366997122764587e-02
-5.837396252900362015e-03
8.890847675502300262e-03
6.337293889373540878e-03
7.298031356185674667e-03
1.728382147848606110e-02
-1.015876326709985733e-02
1.152822934091091156e-02
1.729613402858376503e-03
-1.443511061370372772e-02
1.169978408142924309e-03
-1.085686031728982925e-03
9.502318687736988068e-03
-3.977839369326829910e-03
-5.688079819083213806e-02
-1.683140844106674194e-01
-1.110256239771842957e-01
-6.122266873717308044e-02
7.381709665060043335e-02
-6.317820399999618530e-02
-4.930979106575250626e-03
1.308570988476276398e-02
1.768720685504376888e-03
-3.686607349663972855e-03
5.438432563096284866e-03
-3.453169390559196472e-02
2.859756816178560257e-03
3.071142174303531647e-02
-8.058336563408374786e-03
-3.664126619696617126e-02
5.070502310991287231e-02
4.630812630057334900e-02
1.498852670192718506e-02
4.478555638343095779e-03
-4.061804618686437607e-03
2.436844073235988617e-02
-3.113484196364879608e-02
-4.569296166300773621e-02
-8.605196326971054077e-02
-7.687906920909881592e-02
-3.501999378204345703e-02
2.356132492423057556e-02
-5.549218971282243729e-03
3.660183772444725037e-02
-4.858463071286678314e-04
2.012614719569683075e-02
-8.464648388326168060e-03
-2.831692341715097427e-03
-4.470846150070428848e-03
-3.700274974107742310e-03
-1.392631325870752335e-02
-1.628256775438785553e-02
-9.744372800923883915e-05
8.216513087972998619e-04
-1.889912039041519165e-02
-1.757109770551323891e-03
-9.130682796239852905e-03
-4.437676165252923965e-03
-1.578252017498016357e-02
-3.724005073308944702e-03
-2.206262387335300446e-02
-4.939725622534751892e-04
-1.818590797483921051e-02
1.238393946550786495e-03
4.537368658930063248e-03
-4.564711824059486389e-03
8.295980282127857208e-03
1.589707913808524609e-03
-1.602309755980968475e-02
-4.275912791490554810e-02
1.489199581556022167e-03
-1.127855759114027023e-02
7.396721775876358151e-05
-3.403459489345550537e-02
-9.398222900927066803e-03
6.531342864036560059e-03
5.641031078994274139e-03
-3.101909346878528595e-02
2.893878892064094543e-02
3.028326109051704407e-02
1.799149252474308014e-02
1.686887443065643311e-02
2.336822822690010071e-02
3.777487576007843018e-02
2.710282057523727417e-02
2.627037279307842255e-02
3.736867383122444153e-02
6.445249915122985840e-02
4.722101613879203796e-02
2.999090217053890228e-02
5.146212130784988403e-02
4.766128957271575928e-02
4.969888180494308472e-02
2.530882135033607483e-02
-3.245515516027808189e-03
1.290859002619981766e-02
2.039813250303268433e-02
1.989389769732952118e-02
6.933221593499183655e-03
4.258541017770767212e-02
-6.383311119861900806e-04
-3.821555757895112038e-03
-1.396046765148639679e-02
-2.567710541188716888e-02
-3.188962116837501526e-02
4.932261258363723755e-02
2.406379394233226776e-02
-1.828327402472496033e-02
-3.477608412504196167e-02
4.379188269376754761e-02
-1.563350297510623932e-02
3.268583491444587708e-02
1.241337135434150696e-02
-8.585534244775772095e-02
3.760010376572608948e-02
2.986711822450160980e-02
1.583193615078926086e-02
-2.417695149779319763e-02
-7.037002127617597580e-03
3.953735157847404480e-02
-5.348954000510275364e-04
-5.633626505732536316e-02
-1.889303512871265411e-02
-1.309264637529850006e-02
8.700853213667869568e-03
7.817352563142776489e-02
6.524067372083663940e-03
-2.057229168713092804e-02
7.910489104688167572e-03
1.322972821071743965e-03
1.034013647586107254e-02
6.069738883525133133e-03
2.727474831044673920e-02
1.191398687660694122e-02
-7.385184871964156628e-04
1.912265084683895111e-02
2.104647271335124969e-02
1.176384394057095051e-03
3.214685246348381042e-02
1.033311523497104645e-02
1.717619970440864563e-02
1.702147722244262695e-02
3.556310385465621948e-02
4.512999579310417175e-02
2.018722519278526306e-02
2.180953137576580048e-02
1.086904667317867279e-02
8.626747876405715942e-03
2.729761879891157150e-03
1.256270147860050201e-02
-1.330013107508420944e-02
-5.544066894799470901e-03
9.189047850668430328e-03
3.383523225784301758e-02
8.903089910745620728e-03
6.618311628699302673e-03
3.024889342486858368e-02
1.762205362319946289e-02
-4.412931203842163086e-02
2.626814320683479309e-02
5.366737395524978638e-02
1.162971556186676025e-02
-2.979106642305850983e-02
1.338259130716323853e-02
1.277379039674997330e-02
-1.746411621570587158e-02
-2.383638545870780945e-02
-2.744829840958118439e-02
-9.128275327384471893e-03
-2.283307025209069252e-03
1.372523792088031769e-02
-4.991803690791130066e-02
1.790628582239151001e-02
8.312243223190307617e-02
-7.050598040223121643e-03
-1.099081709980964661e-02
1.148578943684697151e-03
1.002832688391208649e-02
1.496311277151107788e-02
1.059610955417156219e-02
-6.660042330622673035e-03
-5.520852282643318176e-03
3.334829583764076233e-03
-8.644692599773406982e-03
-9.338596835732460022e-03
-1.381101831793785095e-02
1.054958719760179520e-02
6.947837769985198975e-03
-4.459655843675136566e-03
-1.022046431899070740e-03
-8.634202182292938232e-02
-2.813314273953437805e-02
1.559149753302335739e-02
2.890914678573608398e-02
-9.871314465999603271e-02
-3.670714050531387329e-02
-9.175007790327072144e-02
2.059726510196924210e-03
1.147776376456022263e-02
-3.075602650642395020e-02
4.019250627607107162e-03
-5.281919613480567932e-02
-1.805769279599189758e-02
-7.425589859485626221e-02
-8.884752541780471802e-02
-1.351373083889484406e-02
2.456418611109256744e-02
1.968331634998321533e-02
3.059843555092811584e-02
4.797861725091934204e-02
3.439172171056270599e-03
-2.166129881516098976e-03
-2.889271080493927002e-02
3.089423105120658875e-02
-2.588549628853797913e-02
-1.579370163381099701e-02
-1.128509640693664551e-02
-5.642106756567955017e-03
3.331157192587852478e-02
3.988461568951606750e-03
1.188728865236043930e-02
2.129808440804481506e-02
4.208636283874511719e-02
4.245318099856376648e-02
4.158829152584075928e-02
-4.775257315486669540e-03
4.923176392912864685e-02
-3.162601962685585022e-02
7.935884408652782440e-03
2.212853636592626572e-03
5.554871633648872375e-02
-2.099938690662384033e-02
-2.226534485816955566e-02
-2.467745542526245117e-02
-2.047265879809856415e-02
3.578615933656692505e-02
1.041220650076866150e-01
7.403397466987371445e-03
1.027376204729080200e-02
1.900321058928966522e-02
-8.593097329139709473e-02
-2.482591755688190460e-02
8.438307791948318481e-02
-3.328900784254074097e-02
5.409252271056175232e-02
5.009473860263824463e-02
-1.909048855304718018e-02
5.105786025524139404e-03
4.378607627586461604e-05
4.197074100375175476e-02
-5.120757594704627991e-02
-2.969288267195224762e-02
-3.208481892943382263e-02
-2.215225063264369965e-02
5.748709663748741150e-03
1.833821879699826241e-04
-5.060347262769937515e-03
-1.294664805755019188e-03
-1.074244454503059387e-02
-1.172985974699258804e-02
-1.903039589524269104e-02
-1.225877460092306137e-02
-3.622507676482200623e-02
-2.520739333704113960e-03
-2.014060318470001221e-02
-2.519556321203708649e-03
-1.323167700320482254e-02
1.231851428747177124e-02
-1.790070161223411560e-02
-6.609066389501094818e-03
-4.774438217282295227e-02
-2.048610895872116089e-02
-1.993869198486208916e-03
-7.106225937604904175e-02
-5.191813688725233078e-03
-9.220165014266967773e-02
-1.282691806554794312e-01
-8.101361989974975586e-02
2.740038093179464340e-03
-1.957781799137592316e-02
-1.771765761077404022e-02
-1.048314869403839111e-01
-6.829562038183212280e-02
-4.969763383269309998e-02
-2.007026970386505127e-02
-1.547270920127630234e-02
-9.053400717675685883e-03
-4.035810381174087524e-02
-3.312435373663902283e-02
-2.490320615470409393e-02
-3.781241830438375473e-03
-2.696092985570430756e-02
-2.329954877495765686e-02
-2.617830783128738403e-02
7.464879192411899567e-03
2.407346107065677643e-02
-1.176411751657724380e-03
-4.098755307495594025e-03
-2.316908445209264755e-03
4.224467556923627853e-03
2.066531591117382050e-02
-3.618324920535087585e-02
-9.601338766515254974e-03
1.128368172794580460e-02
-7.608463987708091736e-03
1.361938379704952240e-02
-3.989336546510457993e-03
2.756571862846612930e-03
-9.174115024507045746e-03
-8.052375167608261108e-03
-2.734177513048052788e-03
2.598254568874835968e-02
1.645481772720813751e-02
-1.288107875734567642e-02
4.711468704044818878e-03
4.481124633457511663e-04
-1.575669087469577789e-02
-2.557975798845291138e-02
-3.338645771145820618e-02
-1.490268041379749775e-03
6.513610482215881348e-03
4.869920201599597931e-03
-5.784880369901657104e-02
-5.347582697868347168e-02
2.823684597387909889e-03
-3.813112899661064148e-02
-3.005882352590560913e-02
2.419978007674217224e-02
1.732150651514530182e-02
2.011849358677864075e-02
4.711796715855598450e-02
5.391616374254226685e-02
1.008668169379234314e-01
4.966029524803161621e-02
-3.950623795390129089e-02
-6.490900367498397827e-02
-8.230920135974884033e-02
-4.466948658227920532e-02
9.954102337360382080e-03
-1.403727978467941284e-01
-1.167827546596527100e-01
-1.688391901552677155e-02
2.317037433385848999e-02
-8.582964539527893066e-02
-2.921701967716217041e-02
-4.092454910278320312e-02
9.059810638427734375e-02
1.961187086999416351e-02
-6.998533755540847778e-02
-1.086966842412948608e-01
-6.748750805854797363e-03
9.590297937393188477e-03
1.585683040320873260e-02
1.999104581773281097e-02
1.555833732709288597e-03
5.537608265876770020e-02
-3.389933146536350250e-03
-8.790592104196548462e-02
3.553406149148941040e-02
3.013596637174487114e-03
-2.489612065255641937e-02
-2.481364831328392029e-02
-4.116052389144897461e-02
-1.031399611383676529e-02
-1.073025818914175034e-02
-8.210249990224838257e-02
-6.063703447580337524e-03
-1.202421914786100388e-02
-3.354923101142048836e-03
1.797206886112689972e-02
-3.795177489519119263e-02
-2.961843833327293396e-02
7.622065953910350800e-03
3.548948466777801514e-02
-4.093056544661521912e-02
-5.487574264407157898e-02
4.138847067952156067e-02
3.616946190595626831e-02
-1.391239836812019348e-02
-4.095353186130523682e-02
-1.913333311676979065e-02
-4.598487168550491333e-03
-1.665262132883071899e-02
-1.474557258188724518e-02
-5.162509623914957047e-03
-2.102031558752059937e-02
-5.236688628792762756e-02
-3.029129875358194113e-04
-4.286291368771344423e-04
2.690720837563276291e-03
1.910815574228763580e-02
1.086810324341058731e-02
1.586255617439746857e-02
2.912742318585515022e-03
-3.069464000873267651e-04
-2.332588657736778259e-02
3.733027353882789612e-02
-1.596475392580032349e-02
-1.253758370876312256e-02
-3.220957703888416290e-03
-1.314650010317564011e-02
7.306871004402637482e-03
1.960940100252628326e-02
-2.980317175388336182e-02
-2.922052145004272461e-02
-4.270628094673156738e-03
8.034124970436096191e-02
1.837943121790885925e-02
2.519374340772628784e-02
4.087623581290245056e-02
1.580528542399406433e-02
-5.113702639937400818e-02
-7.863899692893028259e-03
4.505740106105804443e-02
3.446094691753387451e-02
1.750839501619338989e-02
-7.851533591747283936e-03
9.248283691704273224e-03
-1.037687882781028748e-01
-6.256189942359924316e-02
-6.929204612970352173e-02
-1.449168846011161804e-02
-8.271298371255397797e-03
8.043213747441768646e-03
-7.770439982414245605e-02
-1.031410228461027145e-02
2.520488388836383820e-02
4.398969188332557678e-02
3.419145569205284119e-02
6.255610287189483643e-02
4.472583159804344177e-02
2.788156084716320038e-02
4.752274230122566223e-02
3.887357562780380249e-02
4.794389754533767700e-02
-1.226532366126775742e-02
3.344703465700149536e-02
1.221895311027765274e-02
1.104394719004631042e-02
-2.291663363575935364e-02
-3.060604818165302277e-02
2.739489637315273285e-02
4.263740777969360352e-02
6.709130108356475830e-02
-4.581596329808235168e-02
4.654926434159278870e-02
-1.282174140214920044e-03
-5.911870300769805908e-02
-4.783344268798828125e-02
3.527704626321792603e-02
-1.567713357508182526e-02
-7.135223597288131714e-03
5.487963557243347168e-02
3.460314124822616577e-02
-6.778371334075927734e-02
-8.986815810203552246e-02
-8.804223686456680298e-02
-4.409777373075485229e-02
-1.990844681859016418e-02
5.266476422548294067e-02
-2.102856151759624481e-02
-8.877047896385192871e-02
-2.601541811600327492e-03
-1.426417287439107895e-02
-8.367644622921943665e-03
-7.604257669299840927e-03
-7.655075751245021820e-03
-7.894655689597129822e-03
-4.016758408397436142e-03
-1.960733532905578613e-02
-1.071367040276527405e-02
-3.325516358017921448e-03
-2.762541640549898148e-03
1.030116691254079342e-04
2.022622153162956238e-03
7.064523524604737759e-04
7.614107336848974228e-03
-2.554457169026136398e-03
-3.590183705091476440e-02
-3.706267848610877991e-02
-4.657381772994995117e-02
-2.721157111227512360e-02
-2.931985817849636078e-02
-1.305478438735008240e-02
-3.438826277852058411e-02
-3.149225562810897827e-02
-3.665823116898536682e-02
-4.719034954905509949e-02
-3.713107109069824219e-02
-1.801480166614055634e-02
-4.024146497249603271e-02
-1.723665557801723480e-02
-3.167707845568656921e-02
-5.969939008355140686e-02
-4.405164346098899841e-02
-3.395408391952514648e-02
-1.508961152285337448e-02
-8.307374082505702972e-03
-3.993764519691467285e-02
-4.637545719742774963e-02
2.697550877928733826e-02
6.448146700859069824e-02
-3.180065006017684937e-02
3.145679086446762085e-02
3.698359802365303040e-02
2.987536042928695679e-02
-7.675911299884319305e-03
3.750943765044212341e-02
3.083216026425361633e-02
1.789726689457893372e-02
-2.495972625911235809e-02
-1.413926333189010620e-01
-7.118035107851028442e-02
-9.665831178426742554e-02
4.146140813827514648e-02
-3.725893096998333931e-03
-3.516959259286522865e-04
-3.011015243828296661e-02
-1.173015870153903961e-02
-3.964298218488693237e-02
-3.350982815027236938e-02
-4.010501503944396973e-02
2.747031301259994507e-02
4.203108325600624084e-02
-3.712697885930538177e-03
-2.177604287862777710e-02
-1.835100352764129639e-02
1.018488314002752304e-02
-1.460516732186079025e-02
-1.433629821985960007e-02
1.068778149783611298e-02
-1.921936683356761932e-02
-9.721816517412662506e-03
-7.729890290647745132e-03
-7.268829736858606339e-03
-1.371551956981420517e-02
-2.510023536160588264e-03
-1.325405202805995941e-02
-7.400114089250564575e-03
-1.929872110486030579e-02
-1.915144175291061401e-02
9.015979245305061340e-03
1.004850938916206360e-01
6.181290745735168457e-02
-9.134423919022083282e-03
2.206162735819816589e-02
7.303211092948913574e-02
-2.397025004029273987e-02
-1.056969612836837769e-01
-2.610605210065841675e-03
-7.316973060369491577e-02
-7.536292076110839844e-02
-2.176275243982672691e-03
3.697025775909423828e-02
-5.162123963236808777e-02
-5.478041246533393860e-02
1.139916852116584778e-01
6.183928996324539185e-02
-2.277579717338085175e-02
3.054978325963020325e-02
1.621729508042335510e-02
-1.129871234297752380e-02
-1.823257538489997387e-03
1.056852471083402634e-02
-2.694889903068542480e-02
-7.000918686389923096e-02
4.418019205331802368e-03
-3.547197580337524414e-02
-3.417146950960159302e-02
-1.251408755779266357e-01
1.719860360026359558e-02
5.343197379261255264e-03
-2.000626549124717712e-02
-6.609992682933807373e-02
7.014038972556591034e-03
1.098347827792167664e-03
6.125387735664844513e-03
1.090285088866949081e-02
2.681528450921177864e-03
2.974411472678184509e-03
-3.865005681291222572e-03
-8.978584781289100647e-03
1.318612787872552872e-02
-1.092731580138206482e-02
-1.425010524690151215e-02
-1.738789118826389313e-02
-1.061781961470842361e-02
-1.298385206609964371e-02
-1.160947140306234360e-02
3.025699697900563478e-04
-1.285098027437925339e-02
-3.641734132543206215e-03
-5.262507591396570206e-03
-1.726075890474021435e-03
4.233471583575010300e-03
-1.706630364060401917e-02
-3.208627225831151009e-03
-9.134350344538688660e-03
9.580443613231182098e-03
-8.195060305297374725e-03
1.434259209781885147e-02
-5.049090366810560226e-03
-8.774221874773502350e-03
-5.652000196278095245e-03
2.007658965885639191e-02
1.772572286427021027e-03
5.575384944677352905e-03
3.240130096673965454e-02
3.403840959072113037e-02
-2.042165212333202362e-02
-2.257270924746990204e-02
3.566727414727210999e-02
1.292103342711925507e-02
-2.532969042658805847e-02
9.441020898520946503e-03
6.449177116155624390e-02
-5.434629973024129868e-03
-1.675415039062500000e-02
5.132235586643218994e-02
5.362611636519432068e-02
3.874219208955764771e-02
3.925560414791107178e-02
5.450960993766784668e-02
7.051404565572738647e-02
-2.879375219345092773e-02
5.052619148045778275e-03
-3.392723575234413147e-02
-1.927459985017776489e-02
-6.356160622090101242e-03
8.304570801556110382e-03
2.373918890953063965e-02
-1.159671414643526077e-02
-2.797698788344860077e-02
-2.447498217225074768e-02
-1.317651104182004929e-02
-1.450560707598924637e-02
2.547665312886238098e-02
5.309951025992631912e-03
1.623345911502838135e-02
-6.406353414058685303e-02
-7.176431827247142792e-03
4.056935757398605347e-02
-2.310427837073802948e-02
-4.004773497581481934e-02
-6.609629839658737183e-02
7.067748159170150757e-02
-8.569294214248657227e-02
-2.190802395343780518e-01
-2.797523513436317444e-02
6.147752702236175537e-02
-4.537254944443702698e-02
-1.259530242532491684e-02
5.482349172234535217e-02
-5.977495759725570679e-02
-1.727538998238742352e-03
-1.168224960565567017e-02
1.690976694226264954e-02
-4.244302399456501007e-03
5.266595259308815002e-02
1.330849826335906982e-01
9.727813303470611572e-03
-5.228521674871444702e-02
8.839200437068939209e-02
1.112057715654373169e-01
4.599819332361221313e-02
1.081619760952889919e-03
5.237222090363502502e-02
1.003074273467063904e-01
3.976963460445404053e-02
-4.932897165417671204e-02
7.769864983856678009e-03
5.424310918897390366e-03
3.083810396492481232e-02
-9.875022806227207184e-04
-1.946991868317127228e-02
1.342963054776191711e-02
-2.061260398477315903e-03
6.342676281929016113e-02
-4.797659814357757568e-02
-8.084216713905334473e-02
-3.652182593941688538e-02
5.926435440778732300e-02
7.769202347844839096e-03
-5.145613476634025574e-02
-4.158857837319374084e-02
2.400485798716545105e-02
-7.295817136764526367e-03
4.557599779218435287e-03
2.921279519796371460e-04
1.167109515517950058e-02
-6.433825939893722534e-03
9.738733991980552673e-03
-1.724907755851745605e-02
-7.712886435911059380e-04
-8.068205788731575012e-03
-4.040140658617019653e-03
9.931400418281555176e-03
-4.651308525353670120e-03
1.401065289974212646e-02
8.524358272552490234e-03
-8.974826778285205364e-05
-1.234100759029388428e-02
-8.937899023294448853e-03
-4.355544224381446838e-03
-1.870347745716571808e-02
-2.669775858521461487e-02
7.361648604273796082e-03
-1.648489199578762054e-02
-1.838656887412071228e-02
-1.472371630370616913e-03
-1.197088696062564850e-02
-2.139729820191860199e-02
-7.752836216241121292e-03
-3.491094801574945450e-03
-3.869302803650498390e-03
7.320581469684839249e-03
-8.299998589791357517e-04
1.330621191300451756e-03
1.386654004454612732e-02
-3.890777379274368286e-02
4.021612182259559631e-02
2.728440985083580017e-02
1.901400834321975708e-02
7.451847940683364868e-02
3.937488794326782227e-02
6.712745875120162964e-02
2.725916542112827301e-02
1.114795580506324768e-01
-2.664103545248508453e-02
-6.462530582211911678e-04
3.028112091124057770e-02
2.297242544591426849e-02
5.049426481127738953e-02
-6.717327237129211426e-02
-1.137123480439186096e-01
6.684414111077785492e-03
-1.502649951726198196e-02
1.711164973676204681e-02
2.690738253295421600e-02
4.756077006459236145e-02
3.141257911920547485e-02
6.328638643026351929e-02
4.257228225469589233e-02
5.053896456956863403e-02
-2.756255492568016052e-02
-3.989024087786674500e-02
-5.490700155496597290e-02
-5.157049745321273804e-02
-3.401329740881919861e-02
-5.458148196339607239e-02
-6.681105121970176697e-03
1.354529988020658493e-02
-4.738868772983551025e-02
1.568910852074623108e-02
3.880336880683898926e-02
5.151553452014923096e-02
2.391532808542251587e-02
5.629473179578781128e-02
1.264517307281494141e-01
5.789042264223098755e-02
-2.659927122294902802e-02
-4.183882474899291992e-02
3.217989951372146606e-02
6.103433296084403992e-02
3.124583046883344650e-03
-6.907873600721359253e-02
-5.683659389615058899e-02
1.431624405086040497e-02
1.666886731982231140e-02
-1.498124655336141586e-02
5.609772726893424988e-02
-4.160194098949432373e-02
-1.351951621472835541e-02
-6.589739024639129639e-02
3.223126381635665894e-02
8.637345395982265472e-03
4.886085540056228638e-02
-1.240178123116493225e-01
-3.065271116793155670e-02
-3.018806688487529755e-02
8.800516277551651001e-02
4.345197230577468872e-02
-3.298575058579444885e-03
-9.155232459306716919e-03
-1.334168203175067902e-02
6.947677116841077805e-03
5.220828577876091003e-03
-3.572663292288780212e-03
1.348242536187171936e-02
-2.314738463610410690e-03
9.354475769214332104e-04
-1.440910063683986664e-02
3.396959975361824036e-03
1.489271316677331924e-02
-1.264242362231016159e-02
1.570773194544017315e-03
7.844689534977078438e-04
-2.539540641009807587e-03
-2.850349061191082001e-03
1.125584263354539871e-02
-3.812495269812643528e-04
-2.413945505395531654e-03
1.883671432733535767e-02
7.352584972977638245e-03
2.672934206202626228e-03
6.677561905235052109e-03
-9.755499660968780518e-03
2.509129233658313751e-03
1.088105142116546631e-02
1.480069570243358612e-02
-8.093100972473621368e-03
1.438914565369486809e-03
-5.318897310644388199e-04
3.276814939454197884e-03
2.346569672226905823e-02
2.415649406611919403e-02
1.673697866499423981e-02
7.607194595038890839e-03
-8.606498129665851593e-03
-5.389117286540567875e-04
-2.996289730072021484e-02
1.771883573383092880e-03
-7.864092290401458740e-02
-2.273416146636009216e-02
-4.234809800982475281e-02
-1.122477115131914616e-03
-4.355197027325630188e-02
-1.742113381624221802e-02
-3.903304040431976318e-02
3.487795963883399963e-02
-7.545360177755355835e-02
-1.292094290256500244e-01
-4.871730133891105652e-02
-6.312844157218933105e-02
3.318255022168159485e-02
-1.258181501179933548e-02
1.721332781016826630e-02
-5.219126492738723755e-02
2.151338569819927216e-02
7.203707098960876465e-02
4.338645562529563904e-02
-1.033254992216825485e-02
3.843847196549177170e-03
-2.679012157022953033e-02
2.176868962123990059e-03
-6.025339826010167599e-04
4.073869902640581131e-03
-2.513453923165798187e-02
-3.187158331274986267e-02
-6.867950409650802612e-02
-4.752968251705169678e-02
-1.943079754710197449e-02
-5.993155017495155334e-02
-8.028531074523925781e-02
-7.111172378063201904e-02
-8.422388136386871338e-02
-3.891179710626602173e-02
-8.155737072229385376e-02
6.102096289396286011e-02
4.171721264719963074e-02
-1.080262381583452225e-02
-4.429147765040397644e-02
1.511443592607975006e-02
-2.332228235900402069e-02
-2.625963278114795685e-02
1.214496605098247528e-02
-2.318524569272994995e-02
-2.567234914749860764e-03
3.162594139575958252e-02
1.958816079422831535e-03
-4.760983213782310486e-02
-2.484795451164245605e-02
2.276875264942646027e-02
6.108644232153892517e-02
6.084781140089035034e-03
-6.307531148195266724e-02
-6.247128918766975403e-02
1.669994741678237915e-02
-7.748582283966243267e-04
5.369530245661735535e-02
2.390546910464763641e-02
5.166175775229930878e-03
-1.710082031786441803e-02
3.488485142588615417e-02
8.479783311486244202e-03
-7.610703259706497192e-02
1.910196244716644287e-02
4.486634954810142517e-02
-3.299555554986000061e-02
-4.882038384675979614e-02
4.892879351973533630e-02
9.177672117948532104e-02
3.200878575444221497e-02
4.304951988160610199e-03
7.658371236175298691e-03
-9.402083232998847961e-03
6.203955039381980896e-03
1.106837112456560135e-02
4.422819241881370544e-03
6.320195738226175308e-03
-4.926965921185910702e-04
-9.685562923550605774e-03
9.372241795063018799e-03
-2.333301119506359100e-03
1.765619404613971710e-02
-1.377334073185920715e-02
-1.210575085133314133e-02
1.851083710789680481e-02
-2.549193566665053368e-03
2.638945356011390686e-02
7.809337694197893143e-03
-1.821557991206645966e-02
3.387545794248580933e-02
-1.449263188987970352e-03
1.740382431307807565e-04
1.109912712126970291e-02
-6.914462894201278687e-02
-1.614297367632389069e-02
3.312793001532554626e-02
1.899358630180358887e-02
4.020074754953384399e-02
-4.891515150666236877e-02
-4.336145892739295959e-02
-5.633205920457839966e-02
-8.739677071571350098e-02
-2.320471964776515961e-02
1.086862641386687756e-03
-5.068093538284301758e-03
9.873183444142341614e-03
-1.395478495396673679e-03
-5.279225762933492661e-03
-2.738549001514911652e-02
-1.073472201824188232e-02
-5.049965344369411469e-03
3.103165328502655029e-02
-3.437720239162445068e-03
5.458169616758823395e-04
-8.964454755187034607e-03
3.581441007554531097e-03
-2.029068535193800926e-03
2.309663966298103333e-02
3.645990043878555298e-03
-2.893209457397460938e-03
5.417417734861373901e-03
1.373798772692680359e-02
5.713678896427154541e-03
1.124010607600212097e-02
1.177790947258472443e-02
-1.508673094213008881e-02
1.409596204757690430e-02
-5.731146782636642456e-03
1.754683256149291992e-02
-5.866170977242290974e-04
-2.566389739513397217e-03
-1.766590587794780731e-02
1.175310276448726654e-02
-1.493939198553562164e-02
-1.722027920186519623e-02
-1.487249042838811874e-02
-5.997232627123594284e-03
8.306704461574554443e-03
5.512390285730361938e-03
3.158010542392730713e-03
6.128292065113782883e-03
6.631054449826478958e-03
-1.196556910872459412e-02
-8.211744949221611023e-03
-9.481620974838733673e-03
-1.824574358761310577e-02
-1.822100393474102020e-02
-1.440229825675487518e-02
-2.325241453945636749e-03
1.327542355284094810e-03
-1.379113644361495972e-02
1.621707528829574585e-02
4.015443846583366394e-02
-1.235759910196065903e-02
5.127354711294174194e-02
3.453042730689048767e-02
7.400732487440109253e-02
6.248774472624063492e-03
-4.928502440452575684e-02
2.819167636334896088e-02
1.008753944188356400e-02
-6.113671883940696716e-02
-2.054485678672790527e-02
3.124064765870571136e-02
8.381534367799758911e-03
-6.878513842821121216e-02
2.378409728407859802e-02
3.188604861497879028e-02
2.891535172238945961e-03
1.791256363503634930e-03
1.730882003903388977e-02
-3.790531540289521217e-03
5.392604973167181015e-03
1.876328699290752411e-02
2.720995619893074036e-02
-2.498220838606357574e-02
2.221207134425640106e-02
-9.893542155623435974e-04
-2.146144770085811615e-02
-8.553410880267620087e-03
2.409363863989710808e-03
4.967667534947395325e-02
4.179218038916587830e-02
-2.860108390450477600e-02
-1.202438119798898697e-02
-6.221407279372215271e-02
-5.020571500062942505e-02
-3.730952739715576172e-02
-6.190109997987747192e-02
-3.533359989523887634e-02
-1.937711238861083984e-02
1.181942317634820938e-02
4.527801647782325745e-02
1.339921727776527405e-03
7.488432456739246845e-04
3.099773637950420380e-02
5.631339177489280701e-02
2.737438492476940155e-02
5.509416386485099792e-02
-2.560714073479175568e-02
2.827506512403488159e-02
-1.620480418205261230e-02
3.175564482808113098e-02
-7.615759968757629395e-02
2.426073700189590454e-02
2.232900448143482208e-02
4.014439135789871216e-02
4.546043276786804199e-02
4.005411267280578613e-02
6.210616603493690491e-02
-1.797472499310970306e-02
1.266471855342388153e-02
1.517313299700617790e-03
-4.246356431394815445e-03
1.959000714123249054e-02
-1.283987518399953842e-02
-3.334818035364151001e-02
1.596221700310707092e-02
8.957183361053466797e-02
-1.868385821580886841e-02
-6.271626800298690796e-02
5.592577625066041946e-03
9.935080073773860931e-03
-2.214020490646362305e-02
-6.915781181305646896e-03
1.875119842588901520e-02
5.248587578535079956e-02
-2.002657577395439148e-02
6.148543674498796463e-03
-5.424414994195103645e-04
-3.647401899797841907e-05
3.107900917530059814e-02
1.550048030912876129e-02
5.054846405982971191e-02
4.929000139236450195e-02
-1.271199248731136322e-02
-5.020980536937713623e-02
6.193942949175834656e-02
9.852812439203262329e-02
-8.333066850900650024e-02
-8.740028738975524902e-02
1.198540069162845612e-02
6.329407542943954468e-02
-2.389826253056526184e-02
-6.334766745567321777e-03
-3.575168922543525696e-02
3.384914249181747437e-02
-2.423512563109397888e-02
9.882119484245777130e-04
-2.341124927625060081e-03
-5.684632062911987305e-02
-2.390871755778789520e-03
2.063066512346267700e-02
-6.645011249929666519e-03
-2.764208801090717316e-02
-4.326584190130233765e-02
-1.106441114097833633e-02
1.037897542119026184e-02
-1.272958144545555115e-02
-7.097697351127862930e-03
-4.129607975482940674e-02
6.712072994560003281e-03
4.294921085238456726e-02
1.752708223648369312e-03
6.247164215892553329e-03
-4.275949671864509583e-02
-2.441855706274509430e-02
5.257246270775794983e-02
-1.256818789988756180e-02
-3.192050382494926453e-02
-9.717827662825584412e-03
6.118443608283996582e-02
4.476307332515716553e-02
-3.933703061193227768e-03
1.719323173165321350e-02
-1.551008783280849457e-02
-3.663870319724082947e-02
-3.571249172091484070e-02
8.868394419550895691e-03
-1.322088483721017838e-02
7.534284144639968872e-02
-4.814309533685445786e-03
4.614800214767456055e-02
2.067470364272594452e-02
-1.716285198926925659e-02
4.565551877021789551e-03
5.173816159367561340e-02
4.528671130537986755e-02
-9.453888051211833954e-03
-3.448785096406936646e-02
1.413886435329914093e-02
-7.982978224754333496e-02
1.317955669946968555e-03
-2.179340086877346039e-02
-4.916663095355033875e-02
9.456442669034004211e-03
2.663563354872167110e-04
3.311178414151072502e-03
7.412154227495193481e-03
1.791004836559295654e-02
-3.812758484855294228e-03
1.466625370085239410e-02
-2.389102615416049957e-02
2.832306735217571259e-02
7.381562609225511551e-03
9.889681823551654816e-03
-6.791939586400985718e-02
-1.913918880745768547e-03
1.346942875534296036e-02
1.536122057586908340e-03
2.547287568449974060e-02
2.676182240247726440e-02
1.991981640458106995e-02
4.309139400720596313e-02
6.854733824729919434e-02
-2.287844382226467133e-02
-4.014402627944946289e-02
-6.142204627394676208e-02
2.708708867430686951e-02
-5.195112153887748718e-02
1.588552072644233704e-02
2.659450285136699677e-02
-1.331027597188949585e-01
-2.330814860761165619e-02
9.614960290491580963e-03
2.094331569969654083e-02
-2.922555990517139435e-02
4.323772620409727097e-03
1.492951437830924988e-02
3.716271370649337769e-02
-1.168568735010921955e-03
-1.394420862197875977e-02
2.990847267210483551e-02
2.261437661945819855e-02
2.564807981252670288e-02
-2.099938131868839264e-02
1.142169162631034851e-02
4.397989716380834579e-03
-1.937165111303329468e-02
-2.364048501476645470e-03
2.974927984178066254e-02
5.709263496100902557e-03
-6.329558673314750195e-04
-8.431999012827873230e-03
4.153282195329666138e-02
-1.984410686418414116e-03
1.974067836999893188e-02
-1.656453683972358704e-02
-1.268766541033983231e-02
3.287762776017189026e-02
4.181690886616706848e-02
1.067481003701686859e-02
1.227304991334676743e-02
-2.292028628289699554e-03
-1.210169307887554169e-02
-5.086397752165794373e-03
1.766519807279109955e-02
-5.063937976956367493e-03
-3.222833573818206787e-02
1.645747572183609009e-02
-1.757675595581531525e-02
1.414488768205046654e-03
2.751261927187442780e-03
7.003165036439895630e-02
2.145405858755111694e-02
-1.611351384781301022e-03
-3.644051775336265564e-02
5.658417940139770508e-02
5.295051634311676025e-02
1.867174170911312103e-02
-7.839416153728961945e-03
1.964470744132995605e-02
1.737656071782112122e-02
1.193506177514791489e-02
-1.259118434973061085e-03
-1.234308257699012756e-01
-1.103379949927330017e-01
-4.903149977326393127e-02
-9.305708110332489014e-02
1.401756796985864639e-02
1.537407096475362778e-02
-1.020607911050319672e-02
1.207559462636709213e-02
7.373224361799657345e-04
2.174002490937709808e-02
1.518435962498188019e-02
-8.855665102601051331e-03
-1.765884645283222198e-02
-3.256711363792419434e-02
-6.677626632153987885e-03
-2.789336489513516426e-03
-9.043657779693603516e-02
-1.001694705337285995e-02
6.197660043835639954e-02
4.991571232676506042e-02
-7.177226990461349487e-02
-1.391064468771219254e-02
-5.197837948799133301e-02
1.300646178424358368e-02
-2.942704968154430389e-02
-1.991938054561614990e-02
-1.116039697080850601e-02
-2.457563020288944244e-02
-1.844652555882930756e-02
-6.524952501058578491e-02
-6.510146707296371460e-02
1.072899904102087021e-02
5.453506484627723694e-03
2.356306649744510651e-03
-3.254896728321909904e-03
4.700711928308010101e-03
-3.008490311913192272e-04
-1.057981885969638824e-02
-8.307229727506637573e-04
-5.249942652881145477e-03
8.288569748401641846e-03
-1.448781113140285015e-03
-5.308227613568305969e-03
7.954246364533901215e-03
-1.533098611980676651e-02
8.012785576283931732e-03
8.674139156937599182e-03
-5.592292291112244129e-04
1.086028758436441422e-02
-1.942489668726921082e-02
-3.436113148927688599e-02
-3.639991208910942078e-02
5.760610103607177734e-03
1.131656672805547714e-02
-1.211772114038467407e-02
-1.195986662060022354e-02
5.129205062985420227e-02
1.007469147443771362e-01
2.546311542391777039e-02
-6.831560749560594559e-03
1.753230579197406769e-02
-7.106683682650327682e-03
2.654122188687324524e-02
1.183561235666275024e-02
1.747655769577249885e-04
-2.060933411121368408e-02
1.421801163814961910e-03
-6.424220278859138489e-03
-1.192808337509632111e-02
-2.107369713485240936e-02
6.489627994596958160e-03
-1.083165500313043594e-02
3.617937909439206123e-03
-1.873661205172538757e-02
5.895647220313549042e-03
-1.173561066389083862e-02
-1.393253356218338013e-02
-2.714478177949786186e-03
6.939665414392948151e-03
-9.072542190551757812e-03
-5.199777334928512573e-02
-9.525210410356521606e-02
1.004701573401689529e-02
-2.345347590744495392e-02
2.585578523576259613e-02
2.294569462537765503e-02
4.264276474714279175e-02
1.965433917939662933e-02
7.720129564404487610e-03
6.753839552402496338e-02
4.584557935595512390e-02
-3.325567347928881645e-03
-5.411181971430778503e-02
2.243101596832275391e-02
-4.015548620373010635e-04
-1.273286808282136917e-02
-3.589825239032506943e-03
3.812051191926002502e-02
3.054599091410636902e-02
-2.861891314387321472e-02
6.597473286092281342e-03
1.391919255256652832e-01
-2.034807763993740082e-02
1.404337026178836823e-02
4.090344533324241638e-02
1.381682008504867554e-01
-5.681686848402023315e-02
4.584455862641334534e-02
5.423376709222793579e-02
5.796711146831512451e-02
-4.476284608244895935e-03
2.911337465047836304e-02
-1.293011847883462906e-02
4.884695634245872498e-03
7.183379679918289185e-02
1.509934291243553162e-02
-2.542250789701938629e-03
-1.512910518795251846e-02
2.951906435191631317e-02
1.333703398704528809e-01
-1.161297038197517395e-01
1.161480415612459183e-02
-4.346485063433647156e-02
-1.890561170876026154e-02
3.988098725676536560e-02
5.294417217373847961e-02
-6.594455242156982422e-02
-3.977277129888534546e-02
7.884176075458526611e-02
7.046582549810409546e-02
1.888819411396980286e-02
-3.965512663125991821e-02
-3.212115168571472168e-02
2.237166836857795715e-02
-2.415023511275649071e-03
-5.604933574795722961e-02
-3.280302137136459351e-02
1.460053957998752594e-02
-6.783724296838045120e-03
-6.875849515199661255e-02
-8.641241490840911865e-02
-5.585431680083274841e-02
-5.080807581543922424e-02
-4.525680467486381531e-02
1.690923236310482025e-02
2.192766219377517700e-02
2.310488838702440262e-03
-1.825622748583555222e-04
1.972952857613563538e-03
-1.044303411617875099e-03
6.549051497131586075e-03
1.809193752706050873e-02
2.104677259922027588e-02
-4.410052206367254257e-03
2.497575944289565086e-03
5.954928230494260788e-03
1.425657141953706741e-02
6.563879083842039108e-03
2.628889400511980057e-03
-1.071220636367797852e-02
1.871368661522865295e-02
3.096111468039453030e-04
-1.222462393343448639e-03
-2.931237220764160156e-03
-7.434668019413948059e-03
3.495184937492012978e-03
-1.089221681468188763e-03
-2.283999463543295860e-03
-8.024368435144424438e-04
1.154420524835586548e-02
4.108152352273464203e-03
2.413481008261442184e-03
1.238187029957771301e-02
8.451897650957107544e-03
-1.088188402354717255e-02
8.086820133030414581e-03
-4.121531266719102859e-03
9.232668206095695496e-03
-1.325214398093521595e-03
2.199385780841112137e-03
1.527717895805835724e-02
-2.458789153024554253e-03
1.985012739896774292e-02
-3.561504418030381203e-03
-1.815795712172985077e-02
2.776530571281909943e-03
-1.662133261561393738e-02
2.384148165583610535e-02
-3.564374987035989761e-03
-8.355763740837574005e-03
-1.258256845176219940e-03
-1.316674984991550446e-02
7.232313603162765503e-02
-7.496161386370658875e-03
3.599449619650840759e-02
6.724148988723754883e-02
-1.797159016132354736e-02
-3.226678445935249329e-02
2.600611746311187744e-02
5.032970011234283447e-02
-3.228497132658958435e-02
-4.576066508889198303e-02
-7.117673009634017944e-02
7.480615749955177307e-03
-3.743803873658180237e-02
4.346917197108268738e-02
1.353502884740009904e-04
-3.724107891321182251e-02
1.667431351961567998e-04
2.463562414050102234e-03
4.472635686397552490e-03
2.768709138035774231e-02
-4.046436026692390442e-02
-1.233993098139762878e-02
3.031988069415092468e-02
5.685516074299812317e-02
-3.966299816966056824e-02
-2.841773629188537598e-02
4.705830011516809464e-03
5.684895813465118408e-02
2.438228763639926910e-02
7.313908543437719345e-03
-4.436173662543296814e-02
2.087220735847949982e-02
-1.689857430756092072e-02
4.107895866036415100e-02
-3.729965910315513611e-02
1.459310669451951981e-02
-2.896743081510066986e-02
-2.539914101362228394e-02
-4.524925351142883301e-02
5.502812564373016357e-02
-1.235209219157695770e-02
-6.986782886087894440e-03
3.744016587734222412e-02
3.199616074562072754e-02
-4.184820502996444702e-02
-1.601752452552318573e-02
-4.470369964838027954e-02
1.146947778761386871e-02
-1.882276311516761780e-02
9.579967707395553589e-03
-1.630823872983455658e-02
-1.285217795521020889e-02
-2.900244481861591339e-02
-1.454093307256698608e-02
-1.333329733461141586e-02
-4.954133182764053345e-04
-7.354560308158397675e-03
1.572904363274574280e-02
-1.125172246247529984e-03
9.213880985043942928e-04
-9.229680523276329041e-03
6.204834673553705215e-03
1.669248752295970917e-02
-3.735698759555816650e-03
1.103280019015073776e-02
-1.896954257972538471e-03
8.049145340919494629e-03
-7.002391852438449860e-03
-4.950037109665572643e-04
1.848600059747695923e-02
1.461933925747871399e-02
-1.442507654428482056e-02
4.709762870334088802e-04
-7.146786898374557495e-03
9.907893836498260498e-03
2.497267909348011017e-03
-1.146909222006797791e-02
7.195146754384040833e-03
-1.186946500092744827e-02
9.261367842555046082e-03
6.734222918748855591e-02
4.591549187898635864e-02
-3.043288365006446838e-02
4.499053210020065308e-02
-9.587536565959453583e-03
1.810445450246334076e-02
-1.129022240638732910e-01
-2.993629872798919678e-02
-6.513472646474838257e-02
-6.731957942247390747e-02
-1.136633902788162231e-01
-1.119879782199859619e-01
-9.898261167109012604e-03
5.764237791299819946e-02
1.595374196767807007e-02
-1.995268277823925018e-02
-6.149091292172670364e-03
-8.428185246884822845e-03
-4.459109902381896973e-02
-4.290394112467765808e-02
-6.433261185884475708e-02
-6.459292024374008179e-02
-1.079974044114351273e-02
4.286582767963409424e-02
-4.815519973635673523e-02
-7.717438787221908569e-02
-3.740606456995010376e-02
3.528670175001025200e-03
-4.324341192841529846e-02
-6.619393825531005859e-02
3.607238084077835083e-02
1.658380590379238129e-02
-1.692207902669906616e-02
-1.903819292783737183e-02
-8.586500585079193115e-02
-1.255291141569614410e-02
1.587894745171070099e-02
-6.848543882369995117e-02
-9.133853763341903687e-02
-4.057373851537704468e-02
-2.885999344289302826e-02
-7.184578478336334229e-02
-6.164768338203430176e-02
-3.569870442152023315e-02
-4.277021810412406921e-02
3.115863539278507233e-02
7.737106177955865860e-03
-1.678245887160301208e-02
1.247777510434389114e-02
2.404448390007019043e-02
-6.134237628430128098e-03
3.763047605752944946e-02
-3.576717153191566467e-02
-8.255155757069587708e-03
6.670318543910980225e-03
-1.389327459037303925e-02
-2.686317451298236847e-02
3.057686612010002136e-03
-1.058354740962386131e-03
5.225675646215677261e-03
1.137935649603605270e-02
-1.937803754117339849e-04
-8.600695058703422546e-03
-7.062930148094892502e-03
-1.326056756079196930e-02
-2.726202132180333138e-03
-5.150171462446451187e-03
4.036572948098182678e-02
-1.238443143665790558e-02
1.756403595209121704e-02
4.423648118972778320e-02
2.978779375553131104e-02
-2.352860197424888611e-02
5.972846876829862595e-03
7.819020189344882965e-03
3.221559897065162659e-02
-7.699491921812295914e-03
-4.621038679033517838e-03
1.187932211905717850e-02
2.529869042336940765e-02
2.336972765624523163e-02
8.928774297237396240e-02
-2.572536654770374298e-02
2.964419499039649963e-02
4.534195363521575928e-02
6.460607051849365234e-02
3.541300073266029358e-02
1.397388987243175507e-02
-7.852593064308166504e-02
-6.448423117399215698e-02
3.212094306945800781e-03
-2.120904624462127686e-02
-2.482054010033607483e-02
-2.513270126655697823e-03
-3.342719376087188721e-02
-2.885607071220874786e-02
-1.744122244417667389e-02
1.157104875892400742e-02
1.902527920901775360e-02
1.958247087895870209e-02
-4.504961147904396057e-02
-2.906787209212779999e-03
2.696773968636989594e-02
1.503590680658817291e-02
3.248612955212593079e-02
1.095759589225053787e-02
2.127612940967082977e-02
2.171077951788902283e-02
3.779058530926704407e-02
9.152912534773349762e-03
1.795486547052860260e-03
1.189221069216728210e-02
2.833286672830581665e-02
5.583966150879859924e-02
-1.341701578348875046e-02
-1.036170423030853271e-01
7.365514338016510010e-02
8.928848430514335632e-03
3.551277890801429749e-02
-1.208464987576007843e-02
4.687158763408660889e-02
1.042040064930915833e-03
1.579895615577697754e-02
-7.365387678146362305e-02
-4.628350958228111267e-03
-8.431462571024894714e-03
-2.828260324895381927e-02
-2.230927720665931702e-02
8.597332052886486053e-03
-3.187816217541694641e-02
-1.801255566533654928e-04
2.013493888080120087e-02
-3.971637040376663208e-02
-2.581064216792583466e-02
-2.171314880251884460e-02
4.500907659530639648e-02
-1.280840113759040833e-02
-5.461659654974937439e-02
-3.811486065387725830e-02
-5.444814916700124741e-03
-8.051595836877822876e-02
-1.339711714535951614e-03
-9.961830079555511475e-02
1.796589978039264679e-02
-1.816783100366592407e-02
-1.852443628013134003e-02
-1.581758446991443634e-02
-4.868367686867713928e-03
-7.683234289288520813e-03
-7.913273759186267853e-03
-2.769369166344404221e-03
-1.134524215012788773e-02
3.648884594440460205e-03
1.466436032205820084e-02
-4.307101946324110031e-03
5.954510532319545746e-03
-1.797516644001007080e-02
-4.367683082818984985e-03
2.017875388264656067e-02
4.633611533790826797e-04
1.341411750763654709e-02
-5.526908673346042633e-03
1.912099495530128479e-02
-6.659751292318105698e-03
-6.297229323536157608e-03
3.284693509340286255e-02
1.875657029449939728e-02
1.435753051191568375e-02
-3.733724122866988182e-03
2.650506421923637390e-02
1.927247084677219391e-02
3.698621690273284912e-02
-1.401025918312370777e-03
2.192399650812149048e-02
-1.057522930204868317e-02
2.961756847798824310e-02
-5.680934991687536240e-03
1.861090189777314663e-03
-1.863252557814121246e-02
-1.185149047523736954e-02
2.838367829099297523e-03
2.010767348110675812e-03
-1.764270290732383728e-02
-1.309041306376457214e-02
2.197734575020149350e-04
9.593271650373935699e-03
1.970091136172413826e-03
9.023400023579597473e-03
-3.712872741743922234e-03
-5.191825330257415771e-03
-7.828930392861366272e-04
3.519033081829547882e-03
-3.745583444833755493e-02
-1.441826671361923218e-02
-1.139285787940025330e-01
-3.902322426438331604e-02
-5.977062135934829712e-02
-4.355518892407417297e-02
-1.203234642744064331e-01
3.133738040924072266e-02
-3.611271083354949951e-02
-3.823050484061241150e-02
-3.205765783786773682e-02
-1.176028861664235592e-03
-6.958865374326705933e-02
-6.413388252258300781e-02
-8.040352165699005127e-02
6.232997868210077286e-03
2.223600074648857117e-02
3.408775106072425842e-02
-2.839753171429038048e-03
-7.325290143489837646e-02
6.538847927004098892e-03
5.789945862488821149e-05
5.176183301955461502e-03
-5.313732847571372986e-02
5.085621960461139679e-04
1.611680537462234497e-02
1.697876676917076111e-02
-4.664516821503639221e-02
8.458869159221649170e-02
5.890318006277084351e-02
1.061071157455444336e-01
1.038509886711835861e-02
-3.377440618351101875e-03
3.002975368872284889e-03
-1.977178617380559444e-04
-5.935531575232744217e-03
1.936756819486618042e-02
1.461775880306959152e-02
-8.033175952732563019e-03
6.998543161898851395e-03
1.301402598619461060e-02
-6.280296016484498978e-03
1.595063484273850918e-03
-7.325939368456602097e-03
1.095984596759080887e-02
3.352210856974124908e-03
-7.648423314094543457e-03
6.800980307161808014e-03
-1.908764801919460297e-02
-1.346073206514120102e-02
3.666258184239268303e-03
-2.254876494407653809e-02
9.180046617984771729e-03
-6.593021098524332047e-04
-6.883207242935895920e-03
-8.799477480351924896e-03
5.517089273780584335e-03
1.295533683151006699e-02
-1.306697819381952286e-02
-1.278840564191341400e-02
3.825882449746131897e-03
-1.325197238475084305e-02
-1.084645651280879974e-02
-2.029835991561412811e-02
-1.958637870848178864e-02
-4.924511071294546127e-03
-1.224333979189395905e-02
-2.746188640594482422e-02
9.076893329620361328e-03
2.108237147331237793e-02
-6.561768800020217896e-02
-9.190822392702102661e-02
-2.260832861065864563e-02
-3.840386494994163513e-02
-7.267259806394577026e-02
-8.083023875951766968e-02
4.246978834271430969e-02
2.639052225276827812e-03
-7.683424279093742371e-03
2.726861275732517242e-03
9.419798851013183594e-03
-7.499177008867263794e-03
1.361911930143833160e-02
1.031281985342502594e-02
-1.996551407501101494e-03
4.289751406759023666e-03
1.497991755604743958e-02
8.441868238151073456e-03
1.112831756472587585e-02
1.571938209235668182e-02
9.783720597624778748e-03
-6.556213484145700932e-04
1.499640755355358124e-02
-1.118347328156232834e-02
1.210335362702608109e-02
1.005649846047163010e-02
-1.597500964999198914e-02
-4.202379286289215088e-02
-3.127284720540046692e-02
1.139238476753234863e-02
1.377892866730690002e-02
8.496774360537528992e-03
2.748666331171989441e-02
-3.068049624562263489e-02
-2.066069655120372772e-02
1.807601889595389366e-03
2.264528907835483551e-02
-3.352745994925498962e-02
-4.386212676763534546e-02
-1.896209869300946593e-04
-3.090024180710315704e-02
-4.370721429586410522e-02
1.674384623765945435e-02
5.690901074558496475e-03
-5.941553972661495209e-03
1.196704106405377388e-03
1.258987747132778168e-02
-5.914755165576934814e-02
-6.783524528145790100e-03
3.292308654636144638e-03
-5.857958644628524780e-02
-3.259672969579696655e-02
-7.034238427877426147e-03
7.473135739564895630e-02
-2.271770127117633820e-02
5.190733820199966431e-03
5.572610348463058472e-02
1.575865969061851501e-02
2.508490812033414841e-03
2.726452983915805817e-02
2.191541902720928192e-02
1.707915402948856354e-02
-1.760286465287208557e-02
2.003283053636550903e-02
3.851813822984695435e-02
4.858396574854850769e-02
2.433268167078495026e-02
1.781564392149448395e-02
3.975102305412292480e-02
-1.010542642325162888e-02
4.841032251715660095e-02
1.753671839833259583e-02
1.546203251928091049e-02
1.198511291295289993e-02
-1.209425739943981171e-02
6.985680665820837021e-03
-9.095774730667471886e-04
-1.891142688691616058e-02
-5.539476405829191208e-04
-2.216242440044879913e-02
-2.141410484910011292e-02
-1.541991159319877625e-02
-1.571737043559551239e-02
-1.890440471470355988e-02
-3.807691857218742371e-03
-5.948404781520366669e-03
-1.592712663114070892e-02
-4.363414365798234940e-03
-9.977988665923476219e-04
-1.346379891037940979e-02
-1.322010625153779984e-02
-3.874093666672706604e-02
2.422017278149724007e-03
-2.285534283146262169e-03
2.445338759571313858e-03
1.319290418177843094e-02
2.543191425502300262e-03
4.022595286369323730e-02
-7.086506485939025879e-02
-5.096795409917831421e-02
-8.515812456607818604e-03
-2.893547713756561279e-02
2.725465688854455948e-03
-4.432040080428123474e-02
-2.979849278926849365e-02
-1.771226339042186737e-02
7.083480060100555420e-02
5.490859970450401306e-02
5.633643642067909241e-02
-5.343578383326530457e-02
7.776676863431930542e-02
1.045413408428430557e-02
4.349397867918014526e-02
-8.535597473382949829e-02
4.119390249252319336e-02
2.913809940218925476e-02
2.817562548443675041e-03
-5.473164841532707214e-03
-3.205226385034620762e-04
4.148014634847640991e-02
-3.004513494670391083e-02
9.622476994991302490e-03
-1.891130395233631134e-02
-1.642370037734508514e-02
-2.031299471855163574e-02
-2.212220244109630585e-02
-3.331143781542778015e-02
-4.169949144124984741e-02
1.082867942750453949e-02
-1.957994326949119568e-02
-6.139266770333051682e-03
-4.200976714491844177e-02
-2.139445394277572632e-02
