7.759860903024673462e-02
-5.672455951571464539e-02
2.371327951550483704e-02
7.278376817703247070e-02
8.345260471105575562e-02
-1.871820422820746899e-03
-4.072650521993637085e-02
1.018610075116157532e-01
-2.870837040245532990e-02
-1.563818380236625671e-02
3.050311841070652008e-02
1.740070432424545288e-02
3.247668594121932983e-02
-3.743532672524452209e-02
6.475011259317398071e-02
-6.200031563639640808e-02
5.905997753143310547e-02
-9.569697082042694092e-02
3.386977314949035645e-02
-3.433391824364662170e-02
3.504282236099243164e-02
3.238232061266899109e-02
6.103191524744033813e-02
-4.282895475625991821e-02
1.191541850566864014e-01
6.368026603013277054e-03
-3.691885247826576233e-02
-4.485334455966949463e-02
4.378624260425567627e-02
-4.824177920818328857e-02
2.864703908562660217e-02
-8.011187613010406494e-02
1.270658075809478760e-01
-1.843726262450218201e-02
4.348515346646308899e-02
7.288737833732739091e-05
8.312774449586868286e-02
5.615631118416786194e-02
7.123691588640213013e-02
-7.913834415376186371e-03
-4.012677073478698730e-02
-2.746308781206607819e-02
-1.229782700538635254e-01
3.464870527386665344e-02
6.635647267103195190e-02
2.137327380478382111e-02
4.652485251426696777e-02
5.775500088930130005e-02
7.654953747987747192e-02
5.721920635551214218e-03
-2.243044599890708923e-02
-1.048367694020271301e-01
-2.199825458228588104e-02
-1.920703947544097900e-01
-1.081838831305503845e-02
6.774602830410003662e-02
-2.757459692656993866e-02
-1.168893557041883469e-02
2.502631582319736481e-02
-4.001487791538238525e-02
-2.961033210158348083e-02
1.765545457601547241e-02
3.135667182505130768e-03
1.428785175085067749e-02
2.631576173007488251e-02
8.811811567284166813e-04
5.596906878054141998e-03
2.745458390563726425e-03
-5.335876718163490295e-02
-1.836006715893745422e-02
3.661790490150451660e-02
-4.641729220747947693e-02
9.308677166700363159e-02
1.351035479456186295e-02
-8.595643565058708191e-03
4.770141094923019409e-02
-2.080643549561500549e-02
2.499943971633911133e-02
1.212435867637395859e-02
-6.474532932043075562e-02
3.649324178695678711e-02
-1.207994879223406315e-03
-1.344521343708038330e-02
6.105797830969095230e-03
5.307368934154510498e-02
-2.312007173895835876e-02
-3.108277544379234314e-02
1.333529055118560791e-01
2.187683619558811188e-02
-3.502744249999523163e-03
-3.043472208082675934e-02
-5.363364145159721375e-02
1.697327382862567902e-02
-7.512806914746761322e-03
4.308718722313642502e-03
-1.024354808032512665e-02
5.428331438452005386e-03
3.596037998795509338e-02
-1.455205380916595459e-01
1.109498366713523865e-02
1.458717603236436844e-02
9.994539432227611542e-03
6.828102632425725460e-04
-2.623443724587559700e-03
4.569076374173164368e-02
2.028787694871425629e-02
-2.758769877254962921e-02
-3.852310590445995331e-03
1.972144655883312225e-02
8.425930142402648926e-02
-1.893297396600246429e-02
4.355179518461227417e-02
9.342856705188751221e-03
3.315092064440250397e-03
-4.951529204845428467e-02
7.470837794244289398e-03
4.083473607897758484e-02
-1.834482140839099884e-02
1.082685869187116623e-02
2.719746530055999756e-02
3.116804920136928558e-02
-2.247858047485351562e-02
4.099641740322113037e-02
1.625515148043632507e-02
-6.080446019768714905e-02
-7.527761906385421753e-02
-1.982405222952365875e-02
-9.148899116553366184e-04
2.609360590577125549e-02
7.814502716064453125e-02
1.417270489037036896e-02
1.194136310368776321e-02
1.117646694183349609e-02
-2.652173116803169250e-02
-1.957307197153568268e-02
6.010270491242408752e-02
-5.492911860346794128e-02
5.157452076673507690e-02
-5.609491374343633652e-03
3.214030712842941284e-02
-4.264321469236165285e-04
-2.874235622584819794e-02
-2.062329091131687164e-03
9.902126155793666840e-03
1.681453734636306763e-02
2.414518967270851135e-02
2.582113631069660187e-02
-1.294788718223571777e-02
7.020861655473709106e-02
-6.835839897394180298e-02
2.341742813587188721e-02
5.756484344601631165e-02
4.335322603583335876e-02
1.344321388751268387e-02
6.685916334390640259e-02
-2.720334380865097046e-02
3.503387048840522766e-02
-2.966641820967197418e-02
4.172625765204429626e-02
-2.433592453598976135e-02
1.672673672437667847e-01
-6.541196256875991821e-02
-2.483800612390041351e-02
2.936356514692306519e-02
5.939476657658815384e-03
-1.859194785356521606e-02
1.685919016599655151e-01
1.797607913613319397e-02
-1.813144981861114502e-02
1.610582694411277771e-02
3.196478635072708130e-02
-1.070448756217956543e-02
8.199000358581542969e-02
8.455546572804450989e-03
-1.697622239589691162e-02
4.747501388192176819e-02
3.225475922226905823e-02
1.223570778965950012e-01
-1.816261559724807739e-02
-1.260687015019357204e-03
-2.334025129675865173e-02
-9.062252193689346313e-02
1.021434664726257324e-01
4.062863066792488098e-02
3.386557102203369141e-02
-5.824385210871696472e-03
4.361658170819282532e-02
-7.733144331723451614e-03
-3.470111265778541565e-02
-3.520083799958229065e-02
-8.732023835182189941e-02
-3.105670772492885590e-02
-4.359603335615247488e-04
4.522904288023710251e-03
4.131248593330383301e-02
6.868592649698257446e-02
-3.041702089831233025e-03
4.255169257521629333e-02
2.199431695044040680e-02
3.484276682138442993e-02
4.038188606500625610e-02
-2.303735353052616119e-03
2.571972087025642395e-02
1.635007001459598541e-02
4.266841709613800049e-02
-7.893563597463071346e-04
7.187256217002868652e-02
-8.135526441037654877e-03
5.393622815608978271e-02
8.465269953012466431e-02
-4.628627374768257141e-02
-7.262624800205230713e-03
-8.523564785718917847e-02
6.148562952876091003e-02
-7.025855034589767456e-02
-9.043599665164947510e-02
-7.773652672767639160e-02
-6.223853304982185364e-02
-8.400124497711658478e-03
7.886541634798049927e-02
-1.819876767694950104e-02
-4.511401429772377014e-02
-3.874257206916809082e-02
-6.125597748905420303e-03
3.926514461636543274e-02
6.730683147907257080e-02
-1.690628193318843842e-02
-5.616383627057075500e-03
-1.494929790496826172e-01
5.759162083268165588e-02
-3.119008056819438934e-02
-7.811342831701040268e-03
1.528592221438884735e-02
8.432504534721374512e-02
1.563121937215328217e-02
-5.010994896292686462e-02
3.951621428132057190e-02
1.205905154347419739e-02
1.870722044259309769e-03
-6.980174686759710312e-03
3.782492876052856445e-02
8.015985041856765747e-02
7.526785135269165039e-02
-3.402010723948478699e-02
-1.849219575524330139e-02
1.480788178741931915e-02
1.019966155290603638e-01
3.230602294206619263e-02
2.266742289066314697e-02
2.059540152549743652e-02
2.438872680068016052e-02
2.516548614948987961e-03
6.400760612450540066e-04
6.545004434883594513e-03
1.281775906682014465e-02
-2.892485447227954865e-02
8.163370937108993530e-02
4.634472727775573730e-02
-6.909778714179992676e-02
5.536272004246711731e-02
3.738629817962646484e-02
-1.191524267196655273e-01
2.140686847269535065e-02
1.992980763316154480e-02
6.272751092910766602e-02
-2.343419566750526428e-02
2.119578607380390167e-02
-9.587921202182769775e-02
1.075447797775268555e-01
-1.127754710614681244e-02
3.207652643322944641e-02
-1.110795512795448303e-02
2.249105833470821381e-02
-4.736255854368209839e-03
-1.175210252404212952e-02
-4.527601972222328186e-02
-7.754640281200408936e-02
3.698473051190376282e-02
-5.342893674969673157e-02
3.034788928925991058e-02
6.984941661357879639e-02
-3.267290815711021423e-02
1.118110772222280502e-02
-5.479572713375091553e-02
2.643144689500331879e-02
-2.996424771845340729e-02
3.053929470479488373e-02
-1.286546047776937485e-02
3.266378119587898254e-02
-5.181887652724981308e-03
3.236912190914154053e-02
2.965379972010850906e-03
5.939705297350883484e-02
8.349031209945678711e-02
-3.727657720446586609e-02
-3.349097445607185364e-02
2.343455702066421509e-02
-5.763697996735572815e-02
2.541626337915658951e-03
3.348423540592193604e-02
6.882896181195974350e-03
6.563341617584228516e-02
1.250674109905958176e-02
9.242890775203704834e-02
-2.219775691628456116e-02
-1.613131351768970490e-02
1.223780494183301926e-02
-2.691160887479782104e-02
3.892796859145164490e-02
-8.353178272955119610e-04
4.189925268292427063e-02
-6.272391974925994873e-02
8.381650596857070923e-02
-4.978420678526163101e-03
3.280201181769371033e-02
-1.082965359091758728e-02
-2.837624587118625641e-02
1.308654546737670898e-01
4.306545853614807129e-02
9.437436610460281372e-02
5.419634981080889702e-04
9.362883120775222778e-02
6.367302499711513519e-03
-1.307983975857496262e-02
-3.650233894586563110e-02
2.831214852631092072e-02
4.554133862257003784e-02
-5.083987023681402206e-03
1.013984251767396927e-02
-3.903109580278396606e-02
-9.646584838628768921e-02
-2.717847190797328949e-02
1.752361655235290527e-02
-8.294107392430305481e-03
-3.607757762074470520e-02
2.175779640674591064e-02
-9.679983370006084442e-03
-3.213867917656898499e-02
1.914418116211891174e-02
-3.831285983324050903e-02
-1.118395850062370300e-01
6.561669707298278809e-02
2.404529135674238205e-03
-4.381402861326932907e-03
-6.653524935245513916e-02
-2.016871422529220581e-02
-8.840165287256240845e-02
7.475521415472030640e-02
8.827602863311767578e-02
9.336082637310028076e-02
2.343216352164745331e-02
-1.224641203880310059e-01
8.159434795379638672e-02
1.040736734867095947e-01
-4.073880147188901901e-03
-1.208494231104850769e-02
4.266542568802833557e-02
2.694390714168548584e-02
1.725541204214096069e-01
-1.115999557077884674e-02
5.910329055041074753e-03
5.541350226849317551e-03
1.139126904308795929e-02
-5.249906331300735474e-03
-9.295555949211120605e-02
2.718425355851650238e-02
-2.254498191177845001e-03
5.127979442477226257e-02
2.916071377694606781e-02
3.299047425389289856e-02
2.908609434962272644e-02
4.246236383914947510e-02
-2.615198679268360138e-02
2.692264737561345100e-03
2.447626367211341858e-02
7.074030581861734390e-03
7.498517632484436035e-03
4.108573496341705322e-02
5.207301303744316101e-02
9.332060813903808594e-02
-2.633324824273586273e-02
-6.745590828359127045e-03
-1.712391525506973267e-02
-2.197678573429584503e-02
