1.536675095558166504e-01
8.092035353183746338e-02
-9.213030338287353516e-02
-2.095075249671936035e-01
2.568366192281246185e-02
1.307926923036575317e-01
-1.745785027742385864e-02
-1.807241290807723999e-01
1.386305224150419235e-02
-7.308301329612731934e-02
3.753438964486122131e-02
3.173073381185531616e-02
1.103338226675987244e-01
1.842279136180877686e-01
4.703074228018522263e-03
1.218109950423240662e-01
-2.201940715312957764e-01
-1.183619871735572815e-01
-1.081719398498535156e-01
-9.321805089712142944e-02
-1.494247186928987503e-02
7.801339030265808105e-02
3.881404548883438110e-02
1.775543689727783203e-01
4.859193414449691772e-02
-1.303751319646835327e-01
4.236680269241333008e-02
-6.841748952865600586e-02
3.620337694883346558e-02
1.156160011887550354e-01
1.950440928339958191e-02
1.680993586778640747e-01
4.909038543701171875e-02
-2.231322377920150757e-01
-4.821214079856872559e-02
1.078650280833244324e-01
-1.182244792580604553e-01
3.737621754407882690e-02
5.990764871239662170e-02
-5.416151508688926697e-02
-1.743943244218826294e-01
-1.386070698499679565e-01
1.068590804934501648e-01
-8.725567720830440521e-03
9.723360091447830200e-02
-1.985370218753814697e-01
1.806676387786865234e-01
1.642714142799377441e-01
-2.378624826669692993e-01
1.847482621669769287e-01
1.241419389843940735e-01
-1.632385104894638062e-01
9.699735045433044434e-02
1.053472608327865601e-01
-9.924885630607604980e-02
1.766241043806076050e-01
-1.464402079582214355e-01
1.955141872167587280e-01
-1.307697445154190063e-01
-3.429015353322029114e-02
8.812351524829864502e-02
-9.720900654792785645e-02
-1.725912988185882568e-01
-7.914382964372634888e-02
6.402568425983190536e-03
-5.652570724487304688e-02
-9.299967437982559204e-02
-4.167512524873018265e-03
-1.897875517606735229e-01
-1.547134220600128174e-01
-1.448720693588256836e-01
4.652298241853713989e-02
-8.485083281993865967e-02
1.143455728888511658e-01
-1.319523751735687256e-01
-1.245095878839492798e-01
1.015541553497314453e-01
1.505494713783264160e-01
1.581898629665374756e-01
2.111180573701858521e-01
1.362189054489135742e-01
-2.462447285652160645e-01
5.538131296634674072e-02
5.717708542943000793e-02
-1.611301153898239136e-01
2.253950089216232300e-01
-8.541842550039291382e-02
-1.801510006189346313e-01
-4.289283230900764465e-02
1.608717888593673706e-01
-4.337771981954574585e-02
2.836253046989440918e-01
-1.361912637948989868e-01
6.072834879159927368e-02
3.089644014835357666e-02
-1.050983071327209473e-01
1.626518368721008301e-01
2.091631144285202026e-01
-1.230020746588706970e-01
1.055758371949195862e-01
-2.512102760374546051e-02
-1.420006901025772095e-01
-4.194873943924903870e-02
2.305292636156082153e-01
-7.455556839704513550e-02
-1.287189275026321411e-01
-1.380873024463653564e-01
4.861115291714668274e-02
1.017695888876914978e-01
-2.313572615385055542e-01
4.651890601962804794e-03
5.021569877862930298e-02
1.300286501646041870e-01
1.193372085690498352e-01
-9.408169239759445190e-02
-2.191241681575775146e-01
1.173026934266090393e-01
-3.504470363259315491e-02
-1.041275039315223694e-01
1.125845033675432205e-02
2.097658962011337280e-01
3.529945388436317444e-02
2.163623124361038208e-01
-3.223340958356857300e-02
-1.986424326896667480e-01
-1.276091635227203369e-01
-1.465908586978912354e-01
-1.350025236606597900e-01
6.809844076633453369e-02
2.220066487789154053e-01
1.058968007564544678e-01
-1.543660759925842285e-01
4.889147728681564331e-02
-8.195307105779647827e-02
9.286598861217498779e-02
2.091474384069442749e-01
1.128055676817893982e-01
-1.581171900033950806e-01
2.415728420019149780e-01
-6.647869199514389038e-02
-2.460567653179168701e-02
-1.171279996633529663e-01
-1.772743165493011475e-01
-8.800401538610458374e-02
2.991518378257751465e-02
-9.725736081600189209e-02
1.396319270133972168e-01
-9.525942057371139526e-02
1.611380726099014282e-01
-1.269174218177795410e-01
5.802087020128965378e-03
1.777504384517669678e-01
-9.467229247093200684e-02
-2.167787700891494751e-01
-1.278514564037322998e-01
1.360873878002166748e-01
-1.882761865854263306e-01
-8.356194011867046356e-03
1.032810807228088379e-01
4.109650105237960815e-02
1.477861851453781128e-01
1.959635019302368164e-01
7.366291829384863377e-04
1.825803667306900024e-01
1.129557639360427856e-01
-1.828139573335647583e-01
-3.017088584601879120e-02
6.215177103877067566e-02
-1.599477380514144897e-01
-1.168107315897941589e-01
-6.435031443834304810e-02
-3.662439808249473572e-02
2.018544524908065796e-01
1.477205008268356323e-01
1.523136794567108154e-01
-9.794409573078155518e-02
6.567555665969848633e-02
-9.029748290777206421e-02
-5.513096600770950317e-02
-1.810162514448165894e-01
1.105552315711975098e-01
7.521182298660278320e-03
1.503855586051940918e-01
-7.914225012063980103e-02
-4.287957400083541870e-02
7.948105782270431519e-02
-9.012512862682342529e-02
-8.659677952527999878e-02
-6.857531517744064331e-02
-8.285266906023025513e-02
-1.198483705520629883e-01
-5.091866850852966309e-02
9.184517711400985718e-02
-5.645904317498207092e-02
-2.459143474698066711e-02
5.475693941116333008e-02
2.143360823392868042e-01
6.519688665866851807e-02
2.441205233335494995e-01
2.157802134752273560e-01
3.716716542840003967e-02
-8.217120170593261719e-02
-1.989542543888092041e-01
-1.325228810310363770e-01
-1.179517358541488647e-01
-7.484444230794906616e-02
3.520899266004562378e-02
2.232579737901687622e-01
8.308961987495422363e-02
-1.262434422969818115e-01
-1.370280534029006958e-01
-1.373261492699384689e-02
-7.397211343050003052e-02
-4.798699542880058289e-02
1.979609578847885132e-01
-1.593651026487350464e-01
1.499852985143661499e-01
-1.810032427310943604e-01
7.105713337659835815e-02
-2.310426235198974609e-01
-7.507156580686569214e-02
-8.308844640851020813e-03
-1.388121396303176880e-01
1.976432204246520996e-01
2.264699339866638184e-01
1.147137489169836044e-02
-1.859517395496368408e-01
1.608248800039291382e-01
3.125727875158190727e-03
-1.470814924687147141e-02
1.674616485834121704e-01
-5.918168649077415466e-02
-6.140822917222976685e-02
-2.315286174416542053e-02
1.980600059032440186e-01
-7.717314362525939941e-02
-1.918096095323562622e-01
-3.846994042396545410e-02
3.312713699415326118e-03
8.906874805688858032e-02
-8.994277566671371460e-02
9.349014610052108765e-02
-1.761434227228164673e-02
-1.503796875476837158e-01
-9.253914654254913330e-02
-7.729756832122802734e-02
-1.161048263311386108e-01
-1.607169806957244873e-01
-1.029166057705879211e-01
-1.278748214244842529e-01
6.907607614994049072e-02
1.093190535902976990e-01
-1.588760316371917725e-01
1.820012032985687256e-01
-2.730469219386577606e-02
1.527934819459915161e-01
9.690574556589126587e-02
-1.559409499168395996e-01
7.519546151161193848e-02
-1.387359201908111572e-01
-1.532482653856277466e-01
1.821749508380889893e-01
1.888800226151943207e-02
1.858182549476623535e-01
1.863192915916442871e-01
-1.806602478027343750e-01
-6.557127833366394043e-02
-6.931170821189880371e-02
-1.006662696599960327e-01
1.271135509014129639e-01
-2.053984552621841431e-01
-1.899651587009429932e-01
-1.344596892595291138e-01
-1.780007928609848022e-01
4.276730865240097046e-02
2.090293914079666138e-02
3.909592330455780029e-02
5.689804255962371826e-02
1.648650914430618286e-01
-6.747790426015853882e-02
9.511500597000122070e-02
1.603532209992408752e-02
1.401124000549316406e-01
5.653879418969154358e-02
-1.615427583456039429e-01
2.681520208716392517e-02
-1.831351518630981445e-01
-9.712077677249908447e-02
1.125524863600730896e-01
1.224139481782913208e-01
-1.216846778988838196e-01
7.233856618404388428e-02
1.271133869886398315e-01
1.688696444034576416e-01
3.588368371129035950e-02
8.783797174692153931e-02
9.536211937665939331e-02
-9.313748776912689209e-02
5.190468207001686096e-02
5.900893360376358032e-02
-1.138793975114822388e-01
7.488037645816802979e-02
7.388131320476531982e-02
1.178095564246177673e-01
8.683380484580993652e-02
-1.545469760894775391e-01
1.375725865364074707e-01
1.183886453509330750e-01
-1.052289828658103943e-01
3.729723766446113586e-02
1.948786377906799316e-01
1.909279823303222656e-02
-1.699464023113250732e-01
-1.184210460633039474e-02
1.283387932926416397e-02
-1.850742846727371216e-01
2.126991748809814453e-01
-1.457278132438659668e-01
-1.226453036069869995e-01
-2.170246094465255737e-02
-1.519680917263031006e-01
-1.297122240066528320e-02
2.157483249902725220e-01
-1.102597191929817200e-01
-1.699886322021484375e-01
-1.648285835981369019e-01
-5.947029963135719299e-02
7.117962092161178589e-02
8.031579665839672089e-03
-1.110448762774467468e-01
2.289312332868576050e-02
2.524146735668182373e-01
-1.318229245953261852e-03
1.762615889310836792e-01
-1.021546944975852966e-01
3.080336190760135651e-02
-1.290226578712463379e-01
6.267449259757995605e-02
5.732337012887001038e-02
1.312333643436431885e-01
2.284552715718746185e-02
1.837305277585983276e-01
-7.627391070127487183e-02
-1.287333071231842041e-01
-3.727439418435096741e-02
-1.973078846931457520e-01
-1.963987946510314941e-02
-2.413810230791568756e-02
1.011946871876716614e-01
-3.314666391815990210e-04
1.443528234958648682e-01
-2.150086462497711182e-01
-3.668836504220962524e-02
1.732818335294723511e-01
9.144809842109680176e-02
2.623336911201477051e-01
-1.397337485104799271e-02
1.557606458663940430e-01
-1.371952742338180542e-01
-2.038344442844390869e-01
-1.604123227298259735e-02
-1.452800631523132324e-01
-6.711202114820480347e-02
3.152944147586822510e-02
1.339335739612579346e-01
-5.687854066491127014e-02
-1.074848994612693787e-01
1.167700812220573425e-01
-1.624748706817626953e-01
-1.536205708980560303e-01
1.109312921762466431e-01
8.827726542949676514e-02
-9.000732749700546265e-02
2.367484122514724731e-01
1.647437959909439087e-01
3.763014078140258789e-02
4.887763876467943192e-03
-1.611596941947937012e-01
-2.078112065792083740e-01
1.599781662225723267e-01
-3.671280667185783386e-02
6.004150584340095520e-02
-2.418883517384529114e-02
1.731525510549545288e-01
5.817202478647232056e-02
2.848212420940399170e-02
-1.536856442689895630e-01
-6.416992843151092529e-02
-1.947255730628967285e-01
-4.392460733652114868e-02
-5.614439025521278381e-02
-5.737245827913284302e-02
1.137528344988822937e-01
-7.630556076765060425e-02
6.803184002637863159e-02
9.053362905979156494e-02
-1.775882095098495483e-01
7.851283252239227295e-02
-1.598755270242691040e-02
-3.989879414439201355e-02
9.186045080423355103e-02
1.196665912866592407e-01
-1.149894595146179199e-01
1.964457780122756958e-01
9.721712023019790649e-02
-1.376068741083145142e-01
2.637172043323516846e-01
6.039860472083091736e-02
-1.014262959361076355e-01
-9.652080386877059937e-02
1.478979140520095825e-01
-1.892129331827163696e-01
-7.221224904060363770e-02
1.464390456676483154e-01
-1.209493651986122131e-01
-1.158169750124216080e-02
1.513964980840682983e-01
-2.051760256290435791e-01
-6.764175835996866226e-03
1.159789860248565674e-01
-1.314664334058761597e-01
7.001507282257080078e-02
-8.173591643571853638e-02
5.885370820760726929e-02
-2.211327478289604187e-02
-6.438587605953216553e-02
1.398303508758544922e-01
7.043938338756561279e-02
3.560423851013183594e-02
2.093297839164733887e-01
-1.137107387185096741e-01
-1.779153645038604736e-01
-2.751973457634449005e-02
-1.787973940372467041e-01
-9.544438868761062622e-02
-1.526386588811874390e-01
4.574794694781303406e-02
-2.051189839839935303e-01
-5.360285867936909199e-04
-2.197621911764144897e-01
1.065839007496833801e-01
1.075833588838577271e-01
1.401467919349670410e-01
8.094763010740280151e-02
8.258024603128433228e-02
1.780940406024456024e-02
-5.720323882997035980e-03
6.937862187623977661e-02
7.982444763183593750e-02
-1.179579496383666992e-01
6.266344338655471802e-02
1.409671902656555176e-01
-4.455826710909605026e-03
-4.889096319675445557e-02
1.338722109794616699e-01
-1.077922619879245758e-02
1.006436422467231750e-01
-1.001253053545951843e-01
9.953377395868301392e-02
1.120590884238481522e-02
1.009768247604370117e-01
2.546924911439418793e-02
1.247863844037055969e-01
-1.194877102971076965e-01
-1.280021071434020996e-01
-1.855889111757278442e-01
-8.090144395828247070e-02
-1.672385632991790771e-01
-2.798167057335376740e-02
1.655562967061996460e-01
-9.581996500492095947e-02
1.189059093594551086e-01
-3.468838054686784744e-03
-1.733795702457427979e-01
-3.011364676058292389e-02
-1.572139263153076172e-01
1.048249974846839905e-01
1.398704797029495239e-01
4.670794121921062469e-03
4.828440397977828979e-02
9.356800466775894165e-02
1.149435043334960938e-01
8.376285433769226074e-03
-7.167432457208633423e-02
1.374642401933670044e-01
-9.256396442651748657e-02
1.669586598873138428e-01
-1.318708211183547974e-01
1.895157545804977417e-01
-1.559988856315612793e-01
-1.459193676710128784e-01
-2.139274030923843384e-01
5.426537990570068359e-02
2.316462695598602295e-01
-1.435022801160812378e-01
2.168920636177062988e-02
1.569624394178390503e-01
4.698305390775203705e-03
-1.614090800285339355e-01
9.185667335987091064e-02
1.338694095611572266e-01
-5.935295671224594116e-02
1.285005211830139160e-01
-1.083996053785085678e-02
-3.976963087916374207e-02
-1.456660330295562744e-01
1.026852428913116455e-01
1.402060687541961670e-01
-1.383251994848251343e-01
-1.366938799619674683e-01
4.048761911690235138e-03
4.687881469726562500e-02
2.135389484465122223e-02
-1.058428362011909485e-01
6.592705100774765015e-02
-2.432222105562686920e-02
2.374967187643051147e-02
1.954552531242370605e-01
1.214767470955848694e-01
-1.599125117063522339e-01
-9.854637086391448975e-02
3.112446144223213196e-02
-1.632164567708969116e-01
2.276917099952697754e-01
-5.068245902657508850e-02
-1.590145826339721680e-01
1.485652178525924683e-01
7.296647876501083374e-02
-1.961134374141693115e-01
3.974966239184141159e-03
-1.460043638944625854e-01
-1.062711402773857117e-01
1.929606795310974121e-01
-1.709285825490951538e-01
9.481680579483509064e-03
7.698421925306320190e-02
-1.585496664047241211e-01
1.539665609598159790e-01
-1.508890092372894287e-02
-8.207975327968597412e-02
1.566702127456665039e-01
-7.634154707193374634e-02
-5.186125636100769043e-02
1.428683400154113770e-01
1.776331514120101929e-01
8.480655401945114136e-02
-1.355203539133071899e-01
1.734406352043151855e-01
-6.539613753557205200e-02
8.716788887977600098e-02
-1.156992614269256592e-01
-2.076133936643600464e-01
6.818123906850814819e-02
1.279499381780624390e-01
-7.038891781121492386e-04
-1.164449676871299744e-01
-5.519162490963935852e-02
8.995646983385086060e-02
1.328245922923088074e-02
-1.601066142320632935e-01
3.616207093000411987e-02
2.221462726593017578e-01
-3.567293751984834671e-03
-1.946371644735336304e-01
1.114858016371726990e-01
-1.126720756292343140e-01
4.974484816193580627e-02
-2.794951386749744415e-02
1.802527159452438354e-01
-1.126867458224296570e-01
7.290906459093093872e-02
-1.496737748384475708e-01
1.342947036027908325e-01
-1.054615676403045654e-01
1.838498264551162720e-01
8.061311393976211548e-02
-6.466919928789138794e-02
-1.601422131061553955e-01
2.530520856380462646e-01
-2.126092612743377686e-01
1.035996302962303162e-01
1.941921003162860870e-02
-1.402200758457183838e-01
-1.791515648365020752e-01
-5.460827797651290894e-02
7.026927918195724487e-02
-1.622938811779022217e-01
1.709901094436645508e-01
-1.220206841826438904e-01
-2.939441008493304253e-03
1.012079864740371704e-01
-8.040410280227661133e-02
-2.793546020984649658e-02
2.249447703361511230e-01
-1.048635840415954590e-01
7.666181027889251709e-02
-4.080942273139953613e-02
8.521991223096847534e-02
-1.441449671983718872e-02
-1.244968622922897339e-01
6.955601274967193604e-02
6.282584369182586670e-02
-1.893290281295776367e-01
1.806361377239227295e-01
-1.304562389850616455e-01
-2.220919542014598846e-02
1.875345595180988312e-02
1.539699882268905640e-01
-4.511409252882003784e-02
2.229804843664169312e-01
-1.004577502608299255e-01
-1.326796859502792358e-01
1.358404755592346191e-01
-1.224819049239158630e-01
-5.011062696576118469e-02
-1.441570371389389038e-01
1.829720586538314819e-01
-1.185942068696022034e-01
2.151703536510467529e-01
-3.510694578289985657e-02
-7.662034779787063599e-02
1.266474127769470215e-01
-3.939916938543319702e-02
-1.158863529562950134e-01
-1.481312662363052368e-01
1.465641111135482788e-01
-5.471772700548171997e-02
8.772692084312438965e-02
-1.863926500082015991e-01
-1.227787230163812637e-02
2.409811690449714661e-02
1.122039929032325745e-01
4.577426239848136902e-02
7.077036052942276001e-02
-7.853883504867553711e-02
1.531237363815307617e-01
-1.044953241944313049e-01
-1.020674407482147217e-01
4.703216627240180969e-02
1.072986647486686707e-01
3.129557892680168152e-02
-9.751578420400619507e-02
-8.131834864616394043e-02
3.037793561816215515e-02
-8.742295205593109131e-02
-1.192338168621063232e-01
1.293542683124542236e-01
1.498953253030776978e-01
-1.715996675193309784e-02
1.065303683280944824e-01
6.902149878442287445e-03
-9.712193161249160767e-02
-1.464229673147201538e-01
2.143814042210578918e-02
-2.339267916977405548e-02
2.314192056655883789e-02
-2.703079022467136383e-02
-1.750904172658920288e-01
-9.404174238443374634e-02
1.363903377205133438e-02
-9.439032524824142456e-03
-1.321988552808761597e-01
-1.599973589181900024e-01
1.970646530389785767e-01
2.347592413425445557e-01
1.601263433694839478e-01
-1.034982129931449890e-01
-9.075265377759933472e-02
-1.912893950939178467e-01
1.347887367010116577e-01
-9.773042052984237671e-02
9.553898125886917114e-02
1.115135699510574341e-01
1.560127735137939453e-01
2.760324254631996155e-02
-5.306235700845718384e-02
8.567245304584503174e-02
-1.653654873371124268e-01
-1.789323389530181885e-01
1.706701219081878662e-01
-1.238155588507652283e-01
4.348208010196685791e-02
8.963577449321746826e-02
-1.120580732822418213e-01
-2.238559350371360779e-02
2.218409627676010132e-01
-1.690485477447509766e-01
-2.604633942246437073e-02
1.180086210370063782e-01
-4.223585128784179688e-02
-2.018359154462814331e-01
5.020731315016746521e-02
-6.117640808224678040e-02
1.278423331677913666e-02
5.474600568413734436e-02
6.841340661048889160e-02
3.810531273484230042e-02
7.388521730899810791e-02
3.856392949819564819e-02
-5.065268650650978088e-02
1.549629122018814087e-01
4.609995707869529724e-02
-5.211088061332702637e-02
-8.781237900257110596e-02
1.542746871709823608e-01
-1.037389189004898071e-01
-1.089587807655334473e-01
-1.179439574480056763e-01
1.507898606359958649e-02
1.435156464576721191e-01
2.419446855783462524e-01
-1.293795555830001831e-01
-7.580614835023880005e-02
-1.625946015119552612e-01
-1.618954241275787354e-01
-1.385675370693206787e-01
2.121687307953834534e-02
2.299951910972595215e-01
5.383022129535675049e-02
6.184419151395559311e-03
1.697922348976135254e-01
8.444143831729888916e-02
8.082338422536849976e-02
4.774663597345352173e-02
1.883191615343093872e-01
-1.496984511613845825e-01
-5.076420307159423828e-02
-9.937255829572677612e-02
-1.882047951221466064e-02
1.162382867187261581e-02
2.811189182102680206e-02
2.066676132380962372e-02
-1.684640944004058838e-01
1.337554901838302612e-01
5.786803737282752991e-02
-1.798642426729202271e-01
5.344340205192565918e-02
5.807960033416748047e-02
9.729600697755813599e-02
-7.161115854978561401e-02
-1.052805632352828979e-01
-1.511832475662231445e-01
1.655542403459548950e-01
-3.309971466660499573e-02
1.540651768445968628e-01
3.180843964219093323e-02
-7.893911004066467285e-02
-1.464733928442001343e-01
-1.586055159568786621e-01
2.365618795156478882e-01
-7.109880447387695312e-02
1.175375431776046753e-01
-4.467824101448059082e-02
2.133486270904541016e-01
5.157748609781265259e-02
-1.401294767856597900e-01
4.463691636919975281e-02
1.641107052564620972e-01
-8.132217079401016235e-02
1.347066015005111694e-01
2.552156746387481689e-01
-4.522188380360603333e-02
1.749845221638679504e-02
4.605346918106079102e-02
7.027857750654220581e-02
-1.252383440732955933e-01
-1.667673438787460327e-01
-1.378100067377090454e-01
-1.045889407396316528e-01
-1.610183119773864746e-01
3.371586278080940247e-02
1.480111107230186462e-02
7.783386856317520142e-02
-2.438451722264289856e-02
7.299443334341049194e-02
4.742560535669326782e-02
1.153612881898880005e-01
-5.348683521151542664e-02
-2.047444283962249756e-01
5.720652639865875244e-02
1.454069931060075760e-02
-1.054111868143081665e-01
-1.199031099677085876e-01
2.086596935987472534e-01
7.953353226184844971e-02
1.435417830944061279e-01
-6.615383923053741455e-02
1.260752975940704346e-01
1.232342049479484558e-02
-1.665495783090591431e-01
-9.233183413743972778e-02
5.820954684168100357e-03
-1.049491316080093384e-01
-1.859133094549179077e-01
-3.173808380961418152e-02
-1.307300925254821777e-01
8.424559235572814941e-02
-1.236068680882453918e-01
-3.608650714159011841e-02
-7.099983096122741699e-02
-5.145465210080146790e-02
-7.571392226964235306e-03
1.352810561656951904e-01
-1.492448709905147552e-02
1.129154264926910400e-01
2.152285873889923096e-01
7.207000255584716797e-02
-1.482887715101242065e-01
7.702969014644622803e-02
-1.100802142173051834e-02
2.180524170398712158e-01
-1.237863153219223022e-01
-3.136730520054697990e-03
-8.462699502706527710e-02
-1.910778582096099854e-01
4.189030826091766357e-02
1.329152882099151611e-01
-1.297210305929183960e-01
2.285816669464111328e-01
2.492453455924987793e-01
-5.806558951735496521e-02
4.861237481236457825e-02
-8.005159348249435425e-02
-1.844679564237594604e-01
2.997396700084209442e-02
-1.775153428316116333e-01
3.133111866191029549e-03
-3.388812392950057983e-02
-5.602681636810302734e-02
-1.160710528492927551e-01
-1.297701895236968994e-01
4.007024317979812622e-02
-1.013620272278785706e-01
5.937426164746284485e-02
1.440051496028900146e-01
-6.467843055725097656e-02
3.620757907629013062e-02
-1.797649413347244263e-01
1.508830934762954712e-01
-2.603246271610260010e-02
5.395701620727777481e-03
5.675516650080680847e-02
9.800405800342559814e-02
7.427860051393508911e-02
-1.792163848876953125e-01
-5.781503021717071533e-02
-6.360545754432678223e-02
-9.214851260185241699e-02
3.180490806698799133e-02
4.859076440334320068e-02
-9.857691824436187744e-02
3.632622584700584412e-02
-1.814562827348709106e-01
-1.721377670764923096e-01
-1.108457520604133606e-01
2.157310098409652710e-01
-4.825835302472114563e-02
6.727296859025955200e-02
5.659795179963111877e-02
1.761610209941864014e-01
1.138192489743232727e-01
-4.064108058810234070e-02
1.828627288341522217e-01
4.806654527783393860e-02
1.940043084323406219e-02
9.475152939558029175e-02
-3.342839330434799194e-02
2.215903103351593018e-01
8.105905354022979736e-02
-3.059245180338621140e-03
-8.929298073053359985e-02
1.387672778218984604e-02
-2.253082692623138428e-01
-1.949139833450317383e-01
1.126776114106178284e-01
-1.249309815466403961e-02
3.009124100208282471e-02
4.271193966269493103e-02
-8.892633765935897827e-02
-9.447290003299713135e-02
-1.863381117582321167e-01
-4.345799610018730164e-02
9.842489659786224365e-02
8.332105726003646851e-02
-8.782826364040374756e-02
1.678445786237716675e-01
1.414380073547363281e-01
6.775126606225967407e-02
1.329231858253479004e-01
-1.925297677516937256e-01
-4.794628918170928955e-02
-1.210567774251103401e-03
-1.118533164262771606e-01
6.630688905715942383e-02
7.901798188686370850e-02
4.091446101665496826e-02
-1.470475196838378906e-01
5.898397415876388550e-03
4.058448970317840576e-02
9.554811567068099976e-02
-5.297062173485755920e-02
-9.658488631248474121e-02
4.544612392783164978e-02
6.095676124095916748e-02
-7.132219523191452026e-02
1.087216734886169434e-01
-7.204724103212356567e-02
-1.987640112638473511e-01
1.745074689388275146e-01
8.834705501794815063e-02
-7.777061313390731812e-02
2.152586132287979126e-01
-1.509054452180862427e-01
-1.207305118441581726e-01
2.504296302795410156e-01
-6.162477284669876099e-02
-1.149038001894950867e-01
2.152608707547187805e-02
1.780004054307937622e-01
-6.551843136548995972e-02
-7.554546464234590530e-03
1.197437047958374023e-01
-2.993429638445377350e-02
-2.329766601324081421e-01
1.593155860900878906e-01
1.831759214401245117e-01
-1.890832483768463135e-01
1.820799112319946289e-01
-1.727848947048187256e-01
-1.473167985677719116e-01
1.686711758375167847e-01
7.975814491510391235e-02
-2.198968380689620972e-01
-4.259696230292320251e-02
6.896504014730453491e-02
-6.052809953689575195e-02
-1.454303562641143799e-01
-6.851699668914079666e-03
-2.483997121453285217e-02
2.048089802265167236e-01
1.517137885093688965e-01
-2.062044739723205566e-01
2.302917838096618652e-02
1.130570843815803528e-01
-1.538669019937515259e-01
-1.450354158878326416e-01
4.475576803088188171e-03
-1.233465820550918579e-01
-5.916807055473327637e-02
9.677196294069290161e-02
5.827543511986732483e-02
-1.231291517615318298e-01
1.212137043476104736e-01
-2.044892013072967529e-01
7.855451107025146484e-02
1.378841698169708252e-01
-6.675852090120315552e-02
1.192158609628677368e-01
1.565014868974685669e-01
-1.814005374908447266e-01
1.361994743347167969e-01
2.119696289300918579e-01
-1.258539408445358276e-01
-1.252309381961822510e-01
1.396822482347488403e-01
6.441108137369155884e-02
-2.239305377006530762e-01
-4.316339641809463501e-02
-5.444196611642837524e-02
-4.867431148886680603e-02
1.504824161529541016e-01
3.617528080940246582e-02
1.626932621002197266e-01
-4.892251268029212952e-02
1.265251487493515015e-01
2.088140398263931274e-01
-1.749897450208663940e-01
-1.114864423871040344e-01
1.404910814017057419e-02
-8.196298778057098389e-02
-1.695804297924041748e-01
3.880139905959367752e-03
1.821572147309780121e-02
-9.704105556011199951e-02
2.085261344909667969e-01
-7.050143182277679443e-02
-9.082862734794616699e-02
1.309370547533035278e-01
-1.771059334278106689e-01
-1.226876527070999146e-01
1.596863418817520142e-01
2.376925759017467499e-02
2.139888331294059753e-02
-1.584710925817489624e-02
-5.864880047738552094e-03
-2.868493087589740753e-02
1.521246321499347687e-02
-1.510250866413116455e-01
1.763006448745727539e-01
-2.663326859474182129e-01
6.175763159990310669e-02
-5.174097046256065369e-02
1.188953667879104614e-01
1.331353932619094849e-01
-1.688390672206878662e-01
1.056337878108024597e-01
-5.554496124386787415e-02
-2.720169536769390106e-02
3.761960566043853760e-02
1.482413858175277710e-01
1.299707144498825073e-01
1.079138368368148804e-01
1.988959498703479767e-02
1.859819442033767700e-01
-1.412682533264160156e-01
1.662520915269851685e-01
1.596846729516983032e-01
-2.013643682003021240e-01
1.305694729089736938e-01
7.671169936656951904e-02
-9.595445543527603149e-02
-3.268036991357803345e-02
-4.173387587070465088e-02
3.642059117555618286e-02
-8.900810778141021729e-02
-1.616333276033401489e-01
-6.841687113046646118e-02
-1.849695444107055664e-01
-1.420132219791412354e-01
5.206505209207534790e-02
-5.698910355567932129e-02
-4.364125803112983704e-02
1.374110430479049683e-01
-9.899002313613891602e-02
1.559530347585678101e-01
1.296720355749130249e-01
1.510495841503143311e-01
1.500035375356674194e-01
-1.752595901489257812e-01
-1.428601592779159546e-01
-3.613200783729553223e-02
9.375445544719696045e-02
1.550143212080001831e-01
-4.235382191836833954e-03
1.203256323933601379e-01
6.147902086377143860e-02
6.840307265520095825e-02
-1.159952357411384583e-01
1.860060691833496094e-01
-4.275560751557350159e-02
-9.209367632865905762e-02
-4.493578895926475525e-02
-2.594232745468616486e-02
-3.055212460458278656e-02
8.170041441917419434e-02
-1.624450832605361938e-01
-1.438065897673368454e-03
2.009448856115341187e-01
-1.602281928062438965e-01
2.548502199351787567e-02
1.810831949114799500e-02
8.713724464178085327e-02
-1.605224907398223877e-01
-7.219743728637695312e-02
-1.760852336883544922e-01
1.421810835599899292e-01
1.450191736221313477e-01
-1.825145184993743896e-01
-9.610753506422042847e-02
8.506920933723449707e-02
1.419555693864822388e-01
1.928707957267761230e-01
-1.710772812366485596e-01
-1.716049164533615112e-01
1.246372610330581665e-01
2.355199158191680908e-01
4.324048012495040894e-02
-2.716691792011260986e-02
-9.141799062490463257e-02
5.162192881107330322e-02
-8.494202047586441040e-02
-6.472488492727279663e-02
-5.340024456381797791e-02
-2.381705120205879211e-02
1.037218943238258362e-01
1.155760139226913452e-01
2.043448239564895630e-01
-1.495745629072189331e-01
3.118134476244449615e-02
2.083593457937240601e-01
-8.657327294349670410e-02
1.563201993703842163e-01
-9.555665403604507446e-02
-7.336229085922241211e-02
-1.211768686771392822e-01
-1.978311873972415924e-02
-5.513695999979972839e-02
-6.120365113019943237e-02
-1.113318875432014465e-01
1.184949800372123718e-01
6.140341609716415405e-02
1.020061504095792770e-02
-1.344329118728637695e-01
-3.602865710854530334e-02
2.005403861403465271e-02
-4.650760442018508911e-02
1.235135793685913086e-01
1.337921023368835449e-01
-8.869870565831661224e-03
-9.776550531387329102e-02
-7.481692731380462646e-02
-1.933464431203901768e-03
-1.565959304571151733e-02
1.862872689962387085e-01
-2.046231478452682495e-01
-4.148625954985618591e-02
1.257830411195755005e-01
-1.394626945257186890e-01
1.700607538223266602e-01
6.278843432664871216e-02
1.763390190899372101e-02
5.290687456727027893e-02
3.077808395028114319e-02
-1.737788915634155273e-01
1.139368861913681030e-01
1.437606662511825562e-01
-1.756160110235214233e-01
-2.336537092924118042e-02
1.950873583555221558e-01
-6.978175789117813110e-02
-7.085746526718139648e-02
1.399091333150863647e-01
-6.012669950723648071e-02
-9.513214230537414551e-02
1.523475944995880127e-01
1.748427152633666992e-01
-6.986271589994430542e-02
-1.101933512836694717e-02
2.203388139605522156e-02
7.191605865955352783e-02
-1.291608065366744995e-01
-1.979658752679824829e-01
1.611158065497875214e-02
1.140578240156173706e-01
2.257903814315795898e-01
-1.836440414190292358e-01
-5.484545603394508362e-02
-1.839345097541809082e-01
1.079259812831878662e-02
5.524975061416625977e-02
-1.228647977113723755e-01
1.538624465465545654e-01
1.896828562021255493e-01
-7.832936942577362061e-02
-2.029901891946792603e-01
-6.046597287058830261e-02
1.028568670153617859e-01
1.225412338972091675e-01
-1.679293513298034668e-01
1.600044593214988708e-02
1.021429803222417831e-02
-1.819999814033508301e-01
1.361657232046127319e-01
-1.161635108292102814e-02
1.526740789413452148e-01
3.866962390020489693e-03
-1.060493588447570801e-01
2.182773873209953308e-02
-1.651141559705138206e-03
-6.624638102948665619e-03
-2.418477833271026611e-02
1.269582211971282959e-01
-1.359629929065704346e-01
2.077105939388275146e-01
1.179506480693817139e-01
-9.334761649370193481e-02
-1.673056334257125854e-01
1.180563867092132568e-01
-1.848410815000534058e-01
-2.185436710715293884e-02
9.987677633762359619e-02
4.024295508861541748e-02
1.504911780357360840e-01
5.014134943485260010e-02
-3.397380188107490540e-02
-6.012498587369918823e-02
-7.830092310905456543e-02
-9.531005471944808960e-02
-6.463021785020828247e-02
-1.976338624954223633e-01
1.470284909009933472e-01
-8.331594616174697876e-02
-9.025871753692626953e-02
-1.134925186634063721e-01
1.379188001155853271e-01
-4.245008900761604309e-02
1.603202372789382935e-01
-1.511076986789703369e-01
1.455591917037963867e-01
1.480550915002822876e-01
-1.862439662218093872e-01
-5.126010254025459290e-02
-2.036346048116683960e-01
1.323906928300857544e-01
-1.409995369613170624e-02
1.856906153261661530e-02
2.990384399890899658e-02
2.682722918689250946e-02
1.801925152540206909e-01
9.719918668270111084e-02
-4.981271177530288696e-02
-1.170229539275169373e-02
-3.680772334337234497e-02
1.067665740847587585e-01
8.452425152063369751e-02
5.079197511076927185e-02
1.200771033763885498e-01
1.093460712581872940e-03
7.792575657367706299e-02
-2.748379111289978027e-02
-1.593657284975051880e-01
1.145158633589744568e-01
1.568191312253475189e-02
-3.849496319890022278e-02
-1.059954389929771423e-01
1.374721229076385498e-01
-2.631195783615112305e-01
2.028055489063262939e-02
1.070387512445449829e-01
-9.277190268039703369e-02
6.231136247515678406e-02
1.240188479423522949e-01
-1.128256916999816895e-01
8.175832033157348633e-02
1.888126879930496216e-01
2.636390365660190582e-02
-1.492784768342971802e-01
1.996910721063613892e-01
-2.250473760068416595e-02
-1.296695768833160400e-01
5.906232818961143494e-02
-1.633913666009902954e-01
-9.146656841039657593e-02
2.262574583292007446e-01
-3.163405880331993103e-02
-6.686579436063766479e-02
-1.135398074984550476e-01
2.710016444325447083e-02
2.017254680395126343e-01
-2.513752877712249756e-01
1.280972212553024292e-01
-1.215018108487129211e-01
2.508632838726043701e-01
-1.646777689456939697e-01
7.227706722915172577e-03
1.996736414730548859e-02
3.135363804176449776e-03
-3.349516913294792175e-02
-7.594203948974609375e-02
8.092702180147171021e-02
-1.189416348934173584e-01
-2.916865609586238861e-02
6.205203011631965637e-02
1.140490099787712097e-01
3.048892691731452942e-02
-1.238747220486402512e-02
-1.835540309548377991e-02
-2.051166296005249023e-01
2.059251517057418823e-01
1.320003271102905273e-01
1.287579536437988281e-02
-1.884716562926769257e-02
1.498462352901697159e-02
1.219909712672233582e-01
-1.741367951035499573e-02
-1.936105638742446899e-01
-1.466910243034362793e-01
1.168238371610641479e-01
-1.233745664358139038e-01
1.422178596258163452e-01
-2.641989886760711670e-01
1.364864408969879150e-01
6.375325471162796021e-02
-1.354649960994720459e-01
-5.610871315002441406e-02
2.205950617790222168e-01
-1.247140541672706604e-01
5.631235241889953613e-02
1.985627561807632446e-01
-2.241589277982711792e-01
6.359431426972150803e-04
1.932526081800460815e-01
-9.818721562623977661e-02
7.574629783630371094e-02
9.575217217206954956e-02
-1.778373569250106812e-01
1.057091280817985535e-01
-1.518184095621109009e-01
-8.922380395233631134e-03
-6.313338130712509155e-02
-1.372283548116683960e-01
1.195010617375373840e-01
1.081570908427238464e-01
-2.268191277980804443e-01
-4.630132019519805908e-02
9.786109626293182373e-02
-1.743569821119308472e-01
5.606962740421295166e-02
1.347606182098388672e-01
-7.647610269486904144e-03
-5.614830926060676575e-02
4.175432398915290833e-02
-9.652710705995559692e-02
1.433146893978118896e-01
1.725118160247802734e-01
-1.255498677492141724e-01
-7.693652063608169556e-03
-4.184777662158012390e-02
1.201615557074546814e-01
-3.925915807485580444e-02
1.006090175360441208e-02
-1.067929640412330627e-01
1.935511529445648193e-01
-2.284905314445495605e-01
5.579312331974506378e-03
1.619206219911575317e-01
1.190016791224479675e-01
-1.151163801550865173e-01
9.245840460062026978e-02
1.198205202817916870e-01
-1.637205630540847778e-01
-7.492562383413314819e-02
-4.943790659308433533e-02
-6.201876699924468994e-02
5.130223557353019714e-02
1.209271028637886047e-01
5.112450197339057922e-02
-9.732537716627120972e-02
9.503319859504699707e-03
-1.157237067818641663e-01
-5.438705161213874817e-02
-3.068442642688751221e-01
3.031494095921516418e-02
9.841436892747879028e-02
9.711076319217681885e-02
1.473445594310760498e-01
9.365357458591461182e-02
1.893514245748519897e-01
7.552699744701385498e-02
-2.184495776891708374e-01
6.664586812257766724e-02
-1.872254163026809692e-01
3.309978917241096497e-02
-2.068013846874237061e-01
-1.446394473314285278e-01
1.397826820611953735e-01
-5.858085304498672485e-02
1.593183726072311401e-01
-6.156232208013534546e-03
-1.905590295791625977e-01
-1.537895947694778442e-01
1.273834854364395142e-01
1.028411686420440674e-01
-1.298559509450569749e-04
1.828643679618835449e-01
-1.002899184823036194e-01
5.698410794138908386e-02
7.563855499029159546e-02
2.238555625081062317e-02
9.731745347380638123e-03
-1.020396128296852112e-01
-3.941903263330459595e-02
8.367530256509780884e-02
4.196932539343833923e-02
5.185191705822944641e-02
-9.144442528486251831e-02
4.187171533703804016e-02
-1.505357213318347931e-02
-6.555165350437164307e-02
1.412701904773712158e-01
-2.103824019432067871e-01
2.285482361912727356e-02
8.933128416538238525e-02
1.461101174354553223e-01
2.223465405404567719e-02
1.883135288953781128e-01
-9.281360357999801636e-02
-9.959629923105239868e-02
1.299677640199661255e-01
4.098654165863990784e-02
-1.140225157141685486e-01
-1.975118517875671387e-01
-5.125809088349342346e-02
9.990160912275314331e-02
1.976652443408966064e-01
1.534309387207031250e-01
1.414006203413009644e-01
-7.076983153820037842e-02
1.081564426422119141e-01
3.629656881093978882e-02
-1.730201244354248047e-01
8.737889118492603302e-03
1.528794616460800171e-01
-1.703785061836242676e-01
1.666182428598403931e-01
-7.565032690763473511e-02
-1.634804010391235352e-01
-1.100114583969116211e-01
2.050455957651138306e-01
-1.998155564069747925e-01
5.936230719089508057e-02
4.716005176305770874e-02
-6.138871237635612488e-02
-1.771765351295471191e-01
-1.548541337251663208e-01
-1.142542883753776550e-01
1.015773275867104530e-03
1.502516567707061768e-01
-1.544086039066314697e-01
5.382218956947326660e-02
1.723340004682540894e-01
8.332179859280586243e-04
-4.856516420841217041e-02
-2.022211253643035889e-02
-7.531128078699111938e-02
9.894762933254241943e-02
-9.565770626068115234e-02
1.339553594589233398e-01
1.252216696739196777e-01
2.321819216012954712e-02
-1.296567916870117188e-01
-1.068636924028396606e-01
-1.484792828559875488e-01
1.488787531852722168e-01
-1.626115441322326660e-01
-3.204965591430664062e-02
4.469005763530731201e-02
-1.249034982174634933e-02
1.528005003929138184e-01
-1.703154891729354858e-01
4.879147186875343323e-02
1.108012348413467407e-01
-7.374067604541778564e-02
1.567995697259902954e-01
2.386670187115669250e-02
1.518063694238662720e-01
-1.124706119298934937e-01
9.330236166715621948e-02
7.528132200241088867e-02
1.381567269563674927e-01
2.250990830361843109e-02
-1.504795700311660767e-01
5.777636915445327759e-02
-1.159936860203742981e-01
-1.138900034129619598e-02
1.393504887819290161e-01
-1.330132186412811279e-01
-1.527408659458160400e-01
1.128174066543579102e-01
-1.100650755688548088e-03
7.581990212202072144e-02
1.039089635014533997e-01
3.617187216877937317e-02
5.273928493261337280e-02
7.473158091306686401e-02
-1.161185279488563538e-01
1.402970850467681885e-01
-2.903546392917633057e-02
4.633139818906784058e-02
-3.690687939524650574e-02
-1.128614172339439392e-01
1.150602176785469055e-01
9.095398336648941040e-02
-3.189811855554580688e-02
-1.058811042457818985e-02
1.215655654668807983e-01
4.425689950585365295e-02
8.151719719171524048e-02
1.691576391458511353e-01
-1.077236905694007874e-01
9.204695373773574829e-02
-2.082230001688003540e-01
-9.522802382707595825e-02
-1.356254518032073975e-01
1.467965915799140930e-02
1.962391138076782227e-01
1.723317243158817291e-02
3.869381919503211975e-02
1.325491517782211304e-01
9.994379431009292603e-02
1.109731942415237427e-01
1.112938392907381058e-02
-4.861336946487426758e-02
-1.519276648759841919e-01
-2.392610013484954834e-01
-1.814181208610534668e-01
-1.216382980346679688e-01
-5.846939608454704285e-02
-1.711221784353256226e-01
1.354110389947891235e-01
-2.112587913870811462e-03
1.612596400082111359e-02
-1.576363891363143921e-01
-1.571681201457977295e-01
5.307906493544578552e-02
4.821996018290519714e-02
2.415882796049118042e-02
1.914531886577606201e-01
1.225053369998931885e-01
2.732878550887107849e-02
1.569626331329345703e-01
-7.532461732625961304e-02
9.926702827215194702e-02
-1.514603495597839355e-01
3.614877536892890930e-02
8.072220534086227417e-02
-2.107964307069778442e-01
1.278591435402631760e-02
-1.807284541428089142e-02
2.419360168278217316e-02
1.259885728359222412e-01
4.532335791736841202e-03
9.058373421430587769e-02
-1.983860321342945099e-02
8.481921255588531494e-02
-6.266962736845016479e-02
5.636678263545036316e-02
-5.798429995775222778e-02
-2.146130651235580444e-01
1.525824069976806641e-01
1.341923698782920837e-02
-4.092362895607948303e-02
6.481004506349563599e-02
1.471762359142303467e-01
-1.354614198207855225e-01
-2.712587080895900726e-02
1.089839562773704529e-01
-1.899966746568679810e-01
8.663706481456756592e-02
8.302856236696243286e-03
1.967833936214447021e-01
1.933613866567611694e-01
-1.185572072863578796e-01
-6.055907905101776123e-02
-1.481217294931411743e-01
1.247134357690811157e-01
-1.212096661329269409e-01
-1.739794164896011353e-01
2.092288583517074585e-01
9.376478195190429688e-02
1.729800552129745483e-01
-1.736874431371688843e-01
-5.803210660815238953e-02
-1.535435020923614502e-01
-9.324802458286285400e-02
1.237093210220336914e-01
1.594996005296707153e-01
-1.294627487659454346e-01
-6.499955058097839355e-02
-8.964409679174423218e-02
8.085372298955917358e-02
8.111855387687683105e-02
-1.095701232552528381e-01
-1.115723773837089539e-01
2.363421767950057983e-01
-6.884045898914337158e-02
2.445287853479385376e-01
5.821083858609199524e-02
-5.163216963410377502e-02
1.221672222018241882e-01
-1.919376552104949951e-01
-1.924928724765777588e-01
-1.787662804126739502e-01
-1.405104994773864746e-01
1.874182224273681641e-01
1.035241931676864624e-01
-1.182122081518173218e-01
9.577042609453201294e-02
-1.308664232492446899e-01
-1.823178529739379883e-01
-9.783876687288284302e-02
8.873134851455688477e-02
-9.292168170213699341e-02
1.909488588571548462e-01
-1.051809266209602356e-01
1.402664780616760254e-01
-6.077169254422187805e-02
1.068681553006172180e-01
-6.171234697103500366e-02
-4.897134378552436829e-02
-2.271691709756851196e-02
-1.269714348018169403e-02
4.702060669660568237e-02
1.894258335232734680e-02
-4.089671000838279724e-02
8.899754285812377930e-02
1.554870009422302246e-01
-1.003578454256057739e-01
-2.165488153696060181e-01
-1.462963968515396118e-01
-1.287343818694353104e-02
2.106683999300003052e-01
1.764916032552719116e-01
-1.861506551504135132e-01
2.915769070386886597e-02
2.085364311933517456e-01
-4.182374849915504456e-02
-1.129191182553768158e-02
-1.521871704608201981e-02
-6.975179910659790039e-02
5.440551415085792542e-02
1.388486288487911224e-02
-1.540155857801437378e-01
-1.338807344436645508e-01
1.329367756843566895e-01
6.528463959693908691e-02
-9.698969870805740356e-02
-7.451383769512176514e-02
2.300321757793426514e-01
-8.782585710287094116e-02
1.584729701280593872e-01
6.813482195138931274e-02
1.096793562173843384e-01
-9.101814031600952148e-02
-1.934880167245864868e-01
4.456697031855583191e-02
-3.636942431330680847e-02
-2.603289112448692322e-02
-4.292972013354301453e-02
9.181070327758789062e-02
2.618795074522495270e-02
9.974593669176101685e-02
-1.499628573656082153e-01
-1.039696335792541504e-01
-2.044752985239028931e-01
-9.949273616075515747e-02
1.855188906192779541e-01
-9.659740328788757324e-02
1.488567590713500977e-01
-7.590270042419433594e-02
1.131905391812324524e-01
-1.253428757190704346e-01
-2.032136730849742889e-02
-6.869412958621978760e-02
2.366913408041000366e-01
-2.886864542961120605e-02
1.718993335962295532e-01
2.107228524982929230e-02
-1.865032613277435303e-01
-1.273506134748458862e-01
-1.685406714677810669e-01
-1.342377066612243652e-01
6.799393892288208008e-02
-2.013532370328903198e-01
-6.585198640823364258e-02
-3.028048947453498840e-02
1.008629202842712402e-01
-1.161415725946426392e-01
1.793641448020935059e-01
4.246404394507408142e-02
1.753486990928649902e-01
1.699997037649154663e-01
4.829187691211700439e-02
-5.102762579917907715e-02
-1.240124180912971497e-01
2.375542419031262398e-03
2.948166243731975555e-02
-1.157493516802787781e-01
7.776007801294326782e-02
-3.364487364888191223e-02
2.236560434103012085e-01
-1.742845475673675537e-01
-2.902190946042537689e-02
1.937189549207687378e-01
5.153345316648483276e-02
9.233568608760833740e-02
1.814783960580825806e-01
-1.249978467822074890e-01
-2.099834531545639038e-01
-3.569946438074111938e-02
-9.710653126239776611e-02
1.237409934401512146e-01
-2.264053523540496826e-01
-1.320211887359619141e-01
-2.281126566231250763e-02
-1.065499261021614075e-01
-4.280953481793403625e-02
1.278222650289535522e-01
1.554102003574371338e-01
-2.154617309570312500e-01
1.624345481395721436e-01
-9.991012513637542725e-02
-1.652093678712844849e-01
1.973812095820903778e-02
2.100052088499069214e-01
3.730509057641029358e-02
7.375414669513702393e-02
1.784561872482299805e-01
-5.694962665438652039e-02
1.619596630334854126e-01
1.811710447072982788e-01
1.338756382465362549e-01
-6.178305298089981079e-02
2.246972359716892242e-02
-2.050903066992759705e-02
1.397235095500946045e-01
-5.052373930811882019e-02
-1.932227313518524170e-01
1.465290784835815430e-01
-1.317984424531459808e-02
-1.111413836479187012e-01
-2.522958442568778992e-02
-1.925178468227386475e-01
-1.667983531951904297e-01
1.025609150528907776e-01
1.135420203208923340e-01
-1.615091562271118164e-01
9.787160158157348633e-02
-1.645426750183105469e-01
-2.476621977984905243e-02
1.951442956924438477e-01
-1.280430424958467484e-02
1.582871973514556885e-01
3.452211618423461914e-02
-1.671587228775024414e-01
1.169908419251441956e-01
2.054663002490997314e-02
-9.825597703456878662e-02
