2.487254515290260315e-02
7.317040115594863892e-03
3.115624189376831055e-02
-4.612339660525321960e-02
-5.675404146313667297e-02
-8.431236259639263153e-03
1.822516322135925293e-02
-6.299021095037460327e-02
1.444051973521709442e-02
-1.729793287813663483e-02
-4.761358723044395447e-02
-5.745168775320053101e-02
-3.813400864601135254e-02
-3.087995015084743500e-02
3.316062688827514648e-02
4.704691004008054733e-03
-5.757942050695419312e-02
-1.707556284964084625e-02
-5.660242959856987000e-02
-6.175513938069343567e-02
8.497759699821472168e-04
-4.093254730105400085e-02
4.255035147070884705e-02
-4.289740696549415588e-02
-1.205798052251338959e-02
3.803567960858345032e-02
-1.293803285807371140e-02
-1.962330564856529236e-02
3.038223274052143097e-02
-2.755578979849815369e-02
-2.142448443919420242e-03
-6.109279021620750427e-02
8.185795508325099945e-03
4.252207279205322266e-02
4.436204582452774048e-02
1.466499641537666321e-02
3.415106236934661865e-02
4.467359557747840881e-02
-2.084528841078281403e-02
2.058241330087184906e-02
2.643334120512008667e-02
2.877105213701725006e-02
-4.332156106829643250e-02
8.355266414582729340e-03
-3.182267770171165466e-02
-1.485511008650064468e-02
-4.931198898702859879e-03
-4.339087381958961487e-02
-3.066488169133663177e-02
-5.338750407099723816e-02
3.929061070084571838e-02
-1.768286526203155518e-02
4.601716995239257812e-03
-4.056644067168235779e-02
-4.874827340245246887e-02
-8.982965722680091858e-03
-5.552003532648086548e-02
2.271207282319664955e-03
1.702917553484439850e-02
-2.182723954319953918e-02
-3.064332529902458191e-02
7.336024194955825806e-03
7.762806955724954605e-03
-5.928215105086565018e-03
-2.959627658128738403e-03
-3.658683598041534424e-02
-2.706870622932910919e-02
5.478040780872106552e-03
2.254648506641387939e-02
1.142925233580172062e-03
-4.599009454250335693e-02
-3.842473030090332031e-02
1.695966115221381187e-03
1.117780059576034546e-02
1.549264881759881973e-02
3.318217396736145020e-02
4.173810407519340515e-02
4.434949904680252075e-02
-4.201086983084678650e-02
-1.665318850427865982e-03
-4.108907282352447510e-02
-9.046969003975391388e-03
-2.803993783891201019e-02
8.036548970267176628e-04
3.499432653188705444e-02
-3.584211319684982300e-02
3.837316110730171204e-02
-4.566096141934394836e-02
3.624367713928222656e-02
-3.680377081036567688e-02
3.443185612559318542e-02
4.259701073169708252e-02
-1.025493815541267395e-02
-1.646334677934646606e-02
-2.264602296054363251e-02
1.205096300691366196e-02
-1.441622897982597351e-02
3.019410744309425354e-02
-3.347176313400268555e-02
-6.349964998662471771e-03
-3.366453945636749268e-02
-5.269354581832885742e-02
3.801755979657173157e-02
3.259205073118209839e-02
-3.311148285865783691e-02
-1.103751827031373978e-02
-5.726692080497741699e-02
1.600475795567035675e-02
1.618729904294013977e-02
-1.615998707711696625e-02
6.565662100911140442e-03
-3.109095059335231781e-02
-1.784172095358371735e-02
-2.288212627172470093e-02
3.009555488824844360e-02
9.101443924009799957e-03
2.743432484567165375e-02
-5.474724248051643372e-02
2.578101120889186859e-02
-5.153417214751243591e-02
-5.417971312999725342e-02
-4.414658993482589722e-02
4.213733598589897156e-02
1.125288195908069611e-02
-4.945107921957969666e-02
-7.655882742255926132e-03
-2.209752099588513374e-03
1.220810599625110626e-02
-4.632709175348281860e-02
-2.885420620441436768e-02
1.440469734370708466e-02
3.728438913822174072e-02
2.966351062059402466e-02
2.915504015982151031e-02
-3.745656087994575500e-02
2.917124517261981964e-02
-4.176521208137273788e-03
7.712293416261672974e-03
1.258536521345376968e-02
3.683571517467498779e-02
-2.404444105923175812e-02
-1.600267365574836731e-02
2.318740589544177055e-03
5.000584572553634644e-02
-3.964396193623542786e-02
-3.128631785511970520e-02
-4.636804014444351196e-02
-4.328992217779159546e-02
-3.752581402659416199e-02
3.200647234916687012e-02
8.001624606549739838e-03
4.153074696660041809e-03
4.916286095976829529e-02
-1.572683453559875488e-02
8.250537794083356857e-04
-2.166734263300895691e-02
-8.169425651431083679e-03
-2.542821923270821571e-03
3.733073174953460693e-02
-6.686856504529714584e-03
4.415360465645790100e-02
-2.571549080312252045e-02
-2.295517548918724060e-02
1.764180138707160950e-02
-4.553588572889566422e-03
1.162557303905487061e-02
-4.106448590755462646e-02
9.844151325523853302e-03
5.300298333168029785e-02
9.561270475387573242e-03
4.986801370978355408e-02
9.741081856191158295e-03
-4.211000166833400726e-03
3.990558162331581116e-02
2.790430560708045959e-02
-2.106327749788761139e-02
3.493995219469070435e-02
-1.765841967426240444e-03
4.749956727027893066e-02
3.081538947299122810e-03
5.261442810297012329e-02
5.622206628322601318e-02
8.115898817777633667e-03
1.633041538298130035e-02
4.591077566146850586e-02
-4.039388522505760193e-02
2.932720072567462921e-02
3.911540657281875610e-02
3.418704122304916382e-02
5.089469999074935913e-02
1.883386820554733276e-02
-1.747989840805530548e-02
-2.709121443331241608e-02
-2.331974357366561890e-02
3.300644457340240479e-02
2.194271236658096313e-02
-8.342106826603412628e-03
8.433621376752853394e-03
1.092935632914304733e-02
-2.322963252663612366e-02
8.086320012807846069e-03
2.258655615150928497e-02
5.474463850259780884e-02
-1.134539954364299774e-03
6.551622645929455757e-04
1.144450064748525620e-02
3.453140333294868469e-02
3.931822627782821655e-02
5.420571542344987392e-04
3.746676072478294373e-02
2.961924299597740173e-02
-1.106497831642627716e-02
-4.424524307250976562e-02
-3.176900371909141541e-02
4.991769045591354370e-02
-2.638005651533603668e-02
8.010719902813434601e-03
-3.697110339999198914e-02
-2.673198841512203217e-02
-3.992290422320365906e-02
3.073014691472053528e-02
-1.444685272872447968e-03
1.260631904006004333e-02
-5.748476367443799973e-03
-2.515886910259723663e-02
4.541200771927833557e-02
1.485333684831857681e-02
-3.715605288743972778e-02
-3.299762681126594543e-02
4.682524129748344421e-02
2.571151964366436005e-02
-1.024738419800996780e-02
-3.361627832055091858e-02
-2.861869521439075470e-02
4.022138938307762146e-02
-4.678783193230628967e-02
5.037360638380050659e-02
1.843340881168842316e-02
-1.329576689749956131e-02
-2.383775822818279266e-02
3.754499182105064392e-02
4.424430802464485168e-02
3.020277619361877441e-02
2.069420181214809418e-03
3.615053370594978333e-02
-3.324308618903160095e-02
-9.648680686950683594e-03
1.401729695498943329e-02
-6.350836483761668205e-04
-4.628777876496315002e-02
-4.007900506258010864e-02
3.855210915207862854e-02
9.204799309372901917e-03
2.806261181831359863e-02
5.257128551602363586e-02
-1.638316735625267029e-02
2.657149918377399445e-02
-6.433568429201841354e-03
4.052086919546127319e-02
8.554548840038478374e-04
3.378386050462722778e-02
-1.113715395331382751e-02
-2.937952429056167603e-02
1.823129504919052124e-02
-2.657843194901943207e-02
-3.517654165625572205e-02
1.431705523282289505e-02
3.225187212228775024e-02
2.041425183415412903e-02
3.533004969358444214e-02
6.140051037073135376e-02
-3.157480061054229736e-02
2.924484759569168091e-02
4.913568869233131409e-02
3.752504661679267883e-02
-1.318595651537179947e-02
6.246670335531234741e-02
-3.486752882599830627e-02
-1.123940106481313705e-02
5.446371808648109436e-02
-1.241771783679723740e-02
6.206708773970603943e-02
2.398663386702537537e-02
3.131784871220588684e-02
-2.900058217346668243e-02
4.263820126652717590e-02
1.651720143854618073e-02
3.462136164307594299e-02
2.808057703077793121e-02
5.660498514771461487e-02
3.210303187370300293e-02
-3.080081194639205933e-02
1.537010632455348969e-02
1.640053093433380127e-02
-1.573346927762031555e-02
-1.768173649907112122e-02
4.764308035373687744e-02
-3.541902825236320496e-02
2.199422940611839294e-02
-1.037207338958978653e-02
-2.519272267818450928e-02
3.056735172867774963e-02
-1.637750864028930664e-02
-2.482436038553714752e-02
-2.117360942065715790e-02
-2.785846777260303497e-02
-3.523301705718040466e-02
-3.049707785248756409e-02
-1.734461635351181030e-02
4.541573673486709595e-02
3.756757825613021851e-02
3.815032541751861572e-02
-2.444121241569519043e-02
2.302489243447780609e-02
5.509776249527931213e-02
5.054339766502380371e-02
-1.854171603918075562e-02
-5.676477216184139252e-03
-1.498037017881870270e-02
-6.211120635271072388e-03
5.717857927083969116e-02
3.961311653256416321e-03
-2.345952205359935760e-02
6.187219545245170593e-02
4.313597455620765686e-02
-1.442231889814138412e-02
5.070201680064201355e-02
3.978217020630836487e-02
1.343522779643535614e-02
5.720408633351325989e-02
4.265026375651359558e-02
1.397437509149312973e-02
-8.080621249973773956e-03
4.325750097632408142e-02
4.828860610723495483e-02
-2.547510340809822083e-02
-2.597138471901416779e-02
3.323166444897651672e-02
4.751317948102951050e-02
8.108151145279407501e-03
-3.453733399510383606e-02
5.053959414362907410e-02
-3.692138195037841797e-02
-2.006504498422145844e-02
2.990150824189186096e-02
2.471943572163581848e-02
1.806131936609745026e-02
2.670836448669433594e-02
-1.759422942996025085e-02
2.817753329873085022e-02
2.575471438467502594e-02
5.135639756917953491e-02
-3.770455718040466309e-02
-3.999498113989830017e-02
-2.692361362278461456e-02
6.256236881017684937e-02
5.911184474825859070e-02
1.413000561296939850e-02
3.724268078804016113e-02
-3.786568343639373779e-02
5.291116610169410706e-02
3.473610058426856995e-02
-6.238973233848810196e-03
4.121822863817214966e-02
5.187133699655532837e-02
2.822574414312839508e-02
3.120602667331695557e-02
8.269623667001724243e-02
8.520373702049255371e-02
3.334842994809150696e-02
5.992782115936279297e-02
4.580937325954437256e-02
5.204693228006362915e-02
2.636131085455417633e-02
6.679344922304153442e-02
6.888573407195508480e-04
1.627838797867298126e-02
8.168394863605499268e-02
7.297330349683761597e-02
1.402860973030328751e-02
7.922915369272232056e-02
7.685823738574981689e-02
9.380690753459930420e-02
-8.714151568710803986e-03
-4.199766553938388824e-03
7.397086918354034424e-02
-9.159842506051063538e-03
3.799562528729438782e-02
2.791715227067470551e-02
-2.553813392296433449e-03
6.424599140882492065e-02
7.971051335334777832e-02
6.317396461963653564e-02
3.037778474390506744e-02
4.998845607042312622e-02
1.315166614949703217e-02
2.737615257501602173e-02
-7.182343862950801849e-03
6.482031196355819702e-02
1.304813660681247711e-02
2.161514200270175934e-02
5.204641073942184448e-02
4.691870883107185364e-02
2.978591062128543854e-02
4.249574989080429077e-02
4.732135683298110962e-02
4.241134226322174072e-02
-3.589260578155517578e-02
4.283061996102333069e-02
-1.794368587434291840e-02
-4.873278550803661346e-03
1.219898648560047150e-02
6.567262858152389526e-02
1.146614179015159607e-02
2.489342167973518372e-02
2.677867375314235687e-02
5.160449072718620300e-02
4.607554152607917786e-02
5.314596369862556458e-02
-4.130450263619422913e-02
1.900715008378028870e-02
2.296991646289825439e-02
3.946608304977416992e-02
-2.927482128143310547e-02
-3.484467044472694397e-03
3.885545954108238220e-02
3.866034559905529022e-03
-8.608402684330940247e-03
2.085779421031475067e-02
1.144889276474714279e-02
4.520917311310768127e-03
-3.210381045937538147e-02
1.714195311069488525e-02
-5.950171966105699539e-03
-5.530321970582008362e-02
-2.517709694802761078e-02
1.895413547754287720e-02
-2.464160323143005371e-02
-2.422831952571868896e-02
-5.935902893543243408e-02
2.000245079398155212e-02
-5.217187479138374329e-02
6.856546271592378616e-03
-4.956438019871711731e-02
-2.717169374227523804e-02
-1.507125096395611763e-03
6.939730141311883926e-03
-4.916986450552940369e-02
1.683333143591880798e-02
-3.214051201939582825e-02
-3.406074643135070801e-02
1.377275399863719940e-02
-6.311742961406707764e-02
-8.346400409936904907e-02
-9.010939300060272217e-02
-7.570075988769531250e-02
-8.490022271871566772e-02
-7.905885577201843262e-02
-7.683946937322616577e-02
-9.350650012493133545e-02
-4.036698024719953537e-03
-2.883814089000225067e-02
-2.688973769545555115e-02
-3.111865930259227753e-02
-6.079474836587905884e-02
-9.218738228082656860e-02
-8.990491181612014771e-02
-5.221546068787574768e-02
-3.324615210294723511e-02
-5.741767957806587219e-02
-8.703602850437164307e-02
-6.372233480215072632e-02
-5.465358123183250427e-02
-2.341593056917190552e-02
4.517800640314817429e-03
-3.182130679488182068e-02
-9.765555709600448608e-02
-9.619954973459243774e-02
-8.598724752664566040e-02
-5.728182941675186157e-02
-9.796541417017579079e-04
-6.137910485267639160e-02
-6.308939307928085327e-02
-2.761833183467388153e-02
5.246946215629577637e-02
-5.305116064846515656e-03
8.922291547060012817e-02
4.443488642573356628e-02
2.780405338853597641e-03
8.073997497558593750e-02
3.049558959901332855e-02
7.603728026151657104e-02
2.456912305206060410e-03
2.838881686329841614e-02
5.746557936072349548e-02
6.439395248889923096e-03
5.789496004581451416e-02
9.372732788324356079e-02
1.014196872711181641e-02
2.994553185999393463e-02
6.193188950419425964e-02
1.051872409880161285e-02
8.190588653087615967e-02
9.457624517381191254e-03
7.837922871112823486e-02
1.513195969164371490e-02
2.653221599757671356e-02
2.343538217246532440e-02
3.014059364795684814e-02
4.828153178095817566e-02
1.180222537368535995e-02
3.559809410944581032e-03
4.306340962648391724e-02
4.838252067565917969e-02
8.099943399429321289e-02
5.678544193506240845e-02
1.745777018368244171e-02
4.155502095818519592e-02
7.424314320087432861e-02
4.929879680275917053e-02
4.826660081744194031e-02
7.046624273061752319e-02
1.910037733614444733e-02
2.505720965564250946e-02
3.996735811233520508e-02
-8.046054281294345856e-03
6.616910547018051147e-02
5.067884549498558044e-02
5.136757716536521912e-02
6.041016429662704468e-02
-2.279498614370822906e-02
2.998575568199157715e-02
4.229661449790000916e-02
3.956266120076179504e-02
1.734039932489395142e-02
6.143010780215263367e-02
7.965919561684131622e-03
1.537653151899576187e-02
3.647696971893310547e-02
-4.065042361617088318e-02
2.595433220267295837e-02
-2.855833806097507477e-02
2.681952342391014099e-02
-2.097512409090995789e-02
3.913026303052902222e-03
1.431780401617288589e-02
2.602668292820453644e-02
-1.862416788935661316e-02
4.919720068573951721e-02
-1.823539100587368011e-02
1.659386977553367615e-02
-4.091722890734672546e-02
1.961392909288406372e-02
-5.406302586197853088e-02
1.685948483645915985e-02
-6.798723340034484863e-02
1.984213944524526596e-03
1.549101714044809341e-02
-4.924916476011276245e-02
1.630065031349658966e-02
-5.406311526894569397e-02
-4.090500995516777039e-02
-6.936748325824737549e-02
5.575737450271844864e-03
-2.073873020708560944e-02
-6.570089608430862427e-02
-4.218338057398796082e-03
-8.591832220554351807e-02
3.675444459076970816e-04
-8.960497565567493439e-03
-2.033231779932975769e-02
-6.713660806417465210e-02
-7.916218787431716919e-02
-6.441719084978103638e-02
-1.310844346880912781e-02
-3.246239572763442993e-02
-8.651722222566604614e-02
-7.744483649730682373e-02
-4.937496501952409744e-03
-7.280235737562179565e-02
-4.909831658005714417e-02
-5.189529806375503540e-02
-6.606636941432952881e-02
-3.316021291539072990e-03
-3.329512104392051697e-02
-9.415752440690994263e-02
-2.332966029644012451e-02
-5.585101246833801270e-02
-3.559034690260887146e-02
-6.721409969031810760e-03
-1.631916686892509460e-02
-9.691096097230911255e-02
-3.769860044121742249e-02
-7.671221345663070679e-02
-3.683290630578994751e-02
-4.655560478568077087e-02
-2.288585156202316284e-02
-1.369070447981357574e-02
-1.494507025927305222e-02
-5.529415234923362732e-02
-2.767081186175346375e-02
-5.442130565643310547e-02
-1.044848784804344177e-01
-6.752805411815643311e-02
-1.141202077269554138e-02
3.894913196563720703e-02
-2.012429758906364441e-02
4.981784150004386902e-02
4.234104603528976440e-02
6.787421554327011108e-02
4.160908982157707214e-02
1.772148883901536465e-03
2.999390102922916412e-02
1.587794721126556396e-02
2.289251238107681274e-02
-1.256259065121412277e-02
5.019170045852661133e-02
5.553161725401878357e-02
2.684853784739971161e-02
6.919318437576293945e-02
-3.390071797184646130e-04
8.609508723020553589e-02
7.570647448301315308e-02
1.841774024069309235e-02
7.094877213239669800e-02
5.710064992308616638e-02
6.309858709573745728e-02
5.883533880114555359e-02
-4.272592253983020782e-03
5.548535659909248352e-02
7.058349996805191040e-02
6.157046929001808167e-02
4.751456901431083679e-02
6.969487667083740234e-02
7.169634848833084106e-02
6.109309848397970200e-03
4.626721888780593872e-02
-1.211891602724790573e-02
2.467864379286766052e-02
-1.130839157849550247e-02
-2.542056143283843994e-03
-1.030147634446620941e-02
5.460999533534049988e-02
-5.099703092128038406e-03
4.598351940512657166e-02
4.618920385837554932e-03
5.344823747873306274e-02
1.267610117793083191e-02
1.693298108875751495e-02
-3.610295802354812622e-02
-3.586658462882041931e-02
7.715431042015552521e-03
-2.920166030526161194e-02
-2.646099077537655830e-03
6.369151920080184937e-02
5.511268228292465210e-02
5.648944899439811707e-02
3.806050121784210205e-02
6.764969322830438614e-03
3.540036082267761230e-02
-3.055099397897720337e-03
3.968795016407966614e-02
2.227511815726757050e-02
3.722888603806495667e-02
2.840999513864517212e-02
-3.742542117834091187e-02
2.517677657306194305e-02
3.762112930417060852e-02
4.330555722117424011e-02
-6.679820828139781952e-03
-3.512848541140556335e-02
-8.115269243717193604e-03
4.068242758512496948e-02
1.699016056954860687e-02
3.349841758608818054e-02
1.651974581182003021e-02
1.048794295638799667e-02
-4.285577312111854553e-02
2.110079303383827209e-02
-3.957862034440040588e-02
-6.354071199893951416e-02
3.956935927271842957e-02
-5.102560296654701233e-02
-3.536904975771903992e-02
-5.247439257800579071e-03
-4.484780132770538330e-02
-5.882335826754570007e-02
-7.033856213092803955e-02
-1.178695913404226303e-02
-7.565835025161504745e-03
-5.680532380938529968e-02
8.897457737475633621e-04
-3.071855567395687103e-02
-4.578126128762960434e-03
-5.037666484713554382e-02
-7.681339979171752930e-02
-8.833981305360794067e-02
-8.762023597955703735e-02
-1.097328215837478638e-02
-8.878459781408309937e-02
-3.007711144164204597e-03
-8.307747542858123779e-02
-6.050907075405120850e-02
-7.917572557926177979e-02
-7.144692540168762207e-02
-4.318949580192565918e-02
-4.516753833740949631e-03
-2.740479633212089539e-02
-3.718472272157669067e-02
-2.357426099479198456e-02
-4.096774011850357056e-02
-2.513108775019645691e-02
-3.361360356211662292e-02
-9.483835659921169281e-03
-3.191006928682327271e-02
1.429087761789560318e-02
-6.080956384539604187e-02
-6.836371123790740967e-02
-5.253571644425392151e-02
-7.252981513738632202e-02
-7.732844352722167969e-02
-4.935869202017784119e-02
-1.032958030700683594e-01
-2.721782214939594269e-02
-6.290031224489212036e-02
-1.351023837924003601e-02
-6.714520510286092758e-03
-4.837136715650558472e-02
-5.920996516942977905e-02
-1.170657351613044739e-01
-7.844121754169464111e-02
-1.114071831107139587e-01
-7.701317965984344482e-02
-5.519533902406692505e-02
-1.010963544249534607e-01
-1.116708368062973022e-01
-6.662815809249877930e-02
-7.473015040159225464e-02
-9.339034557342529297e-02
-6.289185583591461182e-02
-9.761077910661697388e-02
-1.028517708182334900e-01
-3.926317766308784485e-02
-1.143224984407424927e-01
-1.112070828676223755e-01
-8.727308362722396851e-02
-4.042291268706321716e-02
-6.985720247030258179e-02
-8.781336247920989990e-02
-7.363227009773254395e-02
-8.428291976451873779e-02
-6.332649290561676025e-02
-1.105518937110900879e-01
-5.912785604596138000e-02
-1.041400507092475891e-01
-1.813535206019878387e-02
-1.171710714697837830e-02
-3.073877282440662384e-02
5.156151484698057175e-03
-3.370797960087656975e-03
-4.244844429194927216e-03
-2.677562274038791656e-02
-7.728472352027893066e-02
-5.236123502254486084e-02
-6.179049238562583923e-02
-6.383805721998214722e-02
-5.311859026551246643e-02
-7.925888523459434509e-03
-8.197700232267379761e-02
6.639313884079456329e-03
1.406224165111780167e-02
-3.977914154529571533e-02
-6.786185503005981445e-02
-5.624134838581085205e-02
-1.745786890387535095e-02
-4.289559647440910339e-02
1.043081376701593399e-02
-2.298867143690586090e-02
2.288858965039253235e-02
-4.933824017643928528e-02
2.854808233678340912e-02
-3.202501684427261353e-02
4.795054346323013306e-02
4.711502697318792343e-03
2.628569677472114563e-02
-5.728467367589473724e-04
3.528813272714614868e-02
4.470621421933174133e-02
-1.238996535539627075e-02
5.459192022681236267e-02
-2.993622608482837677e-02
-4.449861880857497454e-04
-8.472336456179618835e-03
-7.139993365854024887e-03
6.798896938562393188e-02
2.708202786743640900e-02
-1.646239496767520905e-02
-2.119332639267668128e-04
1.114573329687118530e-02
2.736317925155162811e-02
6.813253462314605713e-02
8.637052960693836212e-03
5.379022657871246338e-02
3.700444847345352173e-02
7.188600301742553711e-02
3.770666662603616714e-03
5.817094445228576660e-02
7.124482095241546631e-02
6.100457906723022461e-02
6.375480443239212036e-02
6.146680098026990891e-03
1.896735280752182007e-02
8.138421922922134399e-03
8.815335482358932495e-02
7.244762964546680450e-03
1.076154410839080811e-01
2.290162071585655212e-02
8.490969985723495483e-02
2.199550345540046692e-02
6.950904428958892822e-02
9.648066014051437378e-02
8.029653131961822510e-02
1.056796684861183167e-01
1.038872376084327698e-01
1.026922240853309631e-01
5.796169862151145935e-02
5.642985925078392029e-02
1.083253920078277588e-01
2.088055014610290527e-02
9.511795639991760254e-02
8.217748999595642090e-02
5.202809348702430725e-02
1.076139584183692932e-01
3.992402553558349609e-02
3.578414022922515869e-02
2.799281105399131775e-02
2.569658868014812469e-02
4.323508590459823608e-02
1.224271953105926514e-01
6.120386719703674316e-02
8.669592440128326416e-02
9.292387962341308594e-02
1.094705313444137573e-01
6.674854457378387451e-02
6.042925268411636353e-02
6.763569265604019165e-02
7.696489989757537842e-02
-2.929169125854969025e-02
-8.356214314699172974e-02
-1.123471409082412720e-01
-7.792402803897857666e-02
-1.253225654363632202e-01
-1.155096888542175293e-01
-1.130351200699806213e-01
-1.213759854435920715e-01
-7.871706038713455200e-02
-2.366859465837478638e-02
-9.917131811380386353e-02
-4.147460684180259705e-02
-1.118897553533315659e-02
-9.013168513774871826e-02
-2.286715991795063019e-02
-1.176951751112937927e-01
-1.079437136650085449e-01
-9.389033168554306030e-02
-5.135760456323623657e-02
-2.526720426976680756e-02
-8.313977718353271484e-02
-5.334826931357383728e-02
-8.885262906551361084e-02
-7.131123542785644531e-02
-1.032108515501022339e-01
-7.024213671684265137e-02
-4.704401269555091858e-02
-7.500364631414413452e-02
-5.673401057720184326e-02
-3.977595269680023193e-02
-5.363340023905038834e-03
-9.887979924678802490e-02
-1.563370227813720703e-02
-7.073863595724105835e-02
-3.029271587729454041e-02
9.503756649792194366e-03
-1.888076402246952057e-02
-3.128138184547424316e-02
-2.265687845647335052e-02
-5.418933928012847900e-02
-8.719732612371444702e-02
-1.920473994687199593e-03
-7.530088722705841064e-02
-6.134446710348129272e-02
-1.878860220313072205e-02
-5.846805498003959656e-02
-6.018875539302825928e-02
2.081355825066566467e-02
-4.845474660396575928e-02
-5.629590898752212524e-02
-5.211703479290008545e-02
-2.001055888831615448e-02
2.368328161537647247e-02
-2.153608202934265137e-02
7.234410382807254791e-03
-2.709795953705906868e-03
1.046528294682502747e-02
-2.600288577377796173e-02
5.516880657523870468e-03
3.811192139983177185e-02
5.073455721139907837e-02
3.193662967532873154e-03
4.991492722183465958e-03
3.640682250261306763e-02
-1.356495823711156845e-02
-4.024111106991767883e-02
4.418853297829627991e-02
5.672196671366691589e-02
5.286703258752822876e-02
-2.561861462891101837e-02
6.877796724438667297e-03
4.061086848378181458e-02
8.493829518556594849e-03
4.991865903139114380e-02
6.027420237660408020e-02
5.641988292336463928e-02
5.715947598218917847e-02
-8.463693782687187195e-03
2.947531407698988914e-03
3.626566007733345032e-02
1.125694531947374344e-02
8.825980126857757568e-02
4.909049719572067261e-02
1.008683890104293823e-01
1.830895803868770599e-02
-3.894184483215212822e-03
6.766862422227859497e-02
4.258185625076293945e-02
4.621227830648422241e-02
2.224278822541236877e-02
3.830876573920249939e-02
2.952792309224605560e-02
9.902806580066680908e-02
3.501144424080848694e-02
1.010276600718498230e-01
3.007248602807521820e-02
4.231946170330047607e-02
8.257979527115821838e-03
4.480410367250442505e-02
4.550145938992500305e-02
3.158524632453918457e-02
9.406385011970996857e-03
4.261261224746704102e-02
6.578864902257919312e-02
8.832591027021408081e-02
3.297502174973487854e-02
6.623031198978424072e-02
8.816730976104736328e-02
5.428301170468330383e-02
6.731825321912765503e-02
6.040076166391372681e-02
7.744620740413665771e-02
4.229140281677246094e-02
1.107453927397727966e-01
9.427868574857711792e-02
8.089534938335418701e-02
1.142417117953300476e-01
3.843929618597030640e-02
1.600066386163234711e-02
8.148278295993804932e-02
5.527092143893241882e-02
-8.804376423358917236e-02
-1.033761203289031982e-01
-3.729124739766120911e-02
-8.225078135728836060e-02
-3.701017424464225769e-02
-1.223646476864814758e-01
-7.598865032196044922e-02
-2.656119689345359802e-02
-1.118808537721633911e-01
-3.346029296517372131e-02
-3.862267732620239258e-02
-7.261522859334945679e-02
-3.606336936354637146e-02
-1.104419827461242676e-01
-1.141839474439620972e-01
-4.350358247756958008e-02
-2.481541037559509277e-02
-4.980439320206642151e-02
-3.056251071393489838e-02
-1.018356606364250183e-01
-5.881121754646301270e-02
-2.337237074971199036e-02
9.630669839680194855e-03
-9.113731980323791504e-02
-6.945808976888656616e-02
-1.120584830641746521e-01
-2.260978706181049347e-02
-9.919517487287521362e-02
-1.969552226364612579e-02
-8.565992116928100586e-02
-1.758263446390628815e-02
-5.990091338753700256e-02
-1.108918804675340652e-02
1.877677254378795624e-02
-4.844319075345993042e-02
-1.231608563102781773e-03
-3.497547283768653870e-02
-4.371562227606773376e-02
-4.646939039230346680e-02
-3.393550217151641846e-02
-2.921592257916927338e-02
-7.186084240674972534e-02
-7.670540362596511841e-02
-5.998710915446281433e-02
-5.845249444246292114e-02
2.274961397051811218e-02
-6.894850730895996094e-02
-3.295697271823883057e-02
-6.238507106900215149e-02
-3.797035291790962219e-02
2.480096416547894478e-03
-2.895782003179192543e-03
-5.440670996904373169e-02
2.088272199034690857e-02
2.763536944985389709e-02
-1.966555044054985046e-02
-4.458307847380638123e-02
8.305150084197521210e-03
-4.094114899635314941e-02
-3.053162619471549988e-02
3.307559341192245483e-02
4.881739616394042969e-02
4.642884805798530579e-02
1.654304005205631256e-02
4.424996674060821533e-02
5.168006289750337601e-03
8.482262492179870605e-03
4.717008396983146667e-02
3.639998286962509155e-02
-2.939606271684169769e-02
1.938357017934322357e-02
4.249847680330276489e-02
7.094532996416091919e-02
1.140527520328760147e-02
3.549153730273246765e-02
2.770967595279216766e-02
3.439445793628692627e-02
4.119174927473068237e-02
3.907237574458122253e-02
-1.209774147719144821e-02
1.456307340413331985e-02
1.740196906030178070e-02
5.427270755171775818e-02
2.475260011851787567e-02
3.082840144634246826e-02
-6.447238381952047348e-03
-1.365973614156246185e-02
1.266220677644014359e-02
4.809037968516349792e-02
4.866477474570274353e-02
9.491679817438125610e-02
5.885064229369163513e-02
1.005608886480331421e-01
6.120394915342330933e-02
1.164626255631446838e-01
6.034904345870018005e-02
9.200790524482727051e-02
1.019298657774925232e-01
2.246856130659580231e-02
9.469279646873474121e-02
4.767989367246627808e-02
1.810245960950851440e-02
6.964707374572753906e-02
8.454354107379913330e-02
2.653258107602596283e-02
1.156312003731727600e-01
9.232643246650695801e-02
5.476601049304008484e-02
-6.754069123417139053e-03
-9.243693202733993530e-03
4.799451678991317749e-02
7.878183573484420776e-02
4.732653871178627014e-02
6.122194975614547729e-02
3.730513527989387512e-02
1.241911575198173523e-01
9.450509399175643921e-02
4.125794395804405212e-02
1.045301705598831177e-01
1.868319697678089142e-02
8.370099216699600220e-02
-3.829821944236755371e-02
-8.880203589797019958e-03
-1.918679662048816681e-02
-4.239649698138237000e-02
-5.201872065663337708e-02
2.977690473198890686e-02
-5.103085562586784363e-02
-3.511080145835876465e-02
-3.391314239706844091e-04
-9.829767979681491852e-03
3.880589827895164490e-02
-5.284639820456504822e-02
-8.788030594587326050e-02
-8.837689459323883057e-02
-5.320423096418380737e-02
-3.744417801499366760e-02
-6.844468414783477783e-02
-5.217939615249633789e-02
-3.674006089568138123e-02
1.068060006946325302e-02
3.194228187203407288e-02
-2.139534987509250641e-02
-1.062553655356168747e-02
-1.638279110193252563e-02
-9.159862250089645386e-02
-4.594654217362403870e-02
-1.373369898647069931e-02
-2.093084342777729034e-02
1.635495200753211975e-02
5.564284324645996094e-02
-1.472503528930246830e-03
4.807200655341148376e-02
2.015964686870574951e-02
-2.105042897164821625e-02
-9.286299347877502441e-02
-3.953888639807701111e-02
-5.929943546652793884e-02
-2.625066041946411133e-02
-8.031428791582584381e-03
2.037696167826652527e-02
-1.524231955409049988e-02
2.477513998746871948e-02
7.720217108726501465e-02
6.414753943681716919e-02
-8.481156826019287109e-02
-8.425209671258926392e-02
-2.129884622991085052e-02
8.048812858760356903e-03
-5.917543172836303711e-02
-4.902404546737670898e-02
4.916178062558174133e-03
3.303146362304687500e-02
-8.857622742652893066e-03
-1.535592135041952133e-02
1.757057383656501770e-02
-6.228635087609291077e-02
-3.676630184054374695e-02
-1.362130232155323029e-02
-7.102083414793014526e-02
-5.214873701333999634e-02
1.002667006105184555e-02
-2.688089944422245026e-02
6.002475321292877197e-02
1.293436740525066853e-03
7.136819511651992798e-02
8.327835798263549805e-02
-6.060880795121192932e-02
-2.658976800739765167e-02
-7.762790471315383911e-02
-1.998376101255416870e-02
-1.079938001930713654e-02
1.632159017026424408e-02
1.007608044892549515e-02
6.510258466005325317e-02
5.026466026902198792e-02
6.430573761463165283e-02
8.683831989765167236e-02
-4.929344356060028076e-02
8.611596189439296722e-03
-5.057691410183906555e-02
-1.775020547211170197e-02
1.834080740809440613e-02
-3.596768528223037720e-02
2.623561769723892212e-02
6.840070709586143494e-03
4.018075391650199890e-02
4.618674516677856445e-02
3.144930675625801086e-02
-3.423128649592399597e-02
-2.693819440901279449e-02
-1.578543521463871002e-02
-1.971680112183094025e-02
-5.166583135724067688e-02
-4.494750872254371643e-02
1.651117578148841858e-02
1.048042625188827515e-02
-1.408685278147459030e-02
4.720496013760566711e-02
-1.731309312162920833e-04
2.524554263800382614e-03
-6.285585463047027588e-02
6.822586874477565289e-04
1.405776478350162506e-02
1.999006420373916626e-02
2.392344549298286438e-02
5.771675705909729004e-02
4.088858887553215027e-02
1.350239757448434830e-02
-1.150454673916101456e-02
1.794655807316303253e-02
6.280892062932252884e-03
-5.467347800731658936e-03
-4.091568663716316223e-02
1.157931145280599594e-02
-4.274312034249305725e-02
-2.553123980760574341e-02
4.296936560422182083e-03
4.760036244988441467e-02
4.617476835846900940e-02
5.214136093854904175e-02
7.560431957244873047e-02
-2.144384384155273438e-02
-3.413314372301101685e-02
1.054435735568404198e-03
-6.921037286520004272e-02
-1.783999614417552948e-03
3.891290165483951569e-03
1.650944352149963379e-02
-2.804352436214685440e-03
-4.012277815490961075e-03
4.397683590650558472e-02
2.674226649105548859e-02
-1.059159822762012482e-02
-3.377160057425498962e-02
-4.829510301351547241e-02
2.142641507089138031e-02
-1.124112680554389954e-02
-3.450531512498855591e-02
-4.826133698225021362e-02
1.532508153468370438e-02
6.885056942701339722e-02
4.175975173711776733e-02
2.619821950793266296e-02
-5.550252646207809448e-02
-3.464766964316368103e-02
5.085399374365806580e-03
2.213629335165023804e-02
-3.861425444483757019e-02
1.189111918210983276e-02
3.530846163630485535e-02
2.180861122906208038e-02
-2.329945564270019531e-02
3.764219954609870911e-02
2.892061509191989899e-02
-1.558400876820087433e-02
-2.406387031078338623e-02
2.124359086155891418e-02
-6.915531307458877563e-02
1.935140788555145264e-02
-3.264057263731956482e-02
1.236092485487461090e-02
3.328524157404899597e-02
-1.512661017477512360e-02
5.851132050156593323e-02
3.958004061132669449e-03
1.863527856767177582e-02
1.752050034701824188e-02
8.211830630898475647e-03
-6.044300645589828491e-02
-6.625156849622726440e-03
3.018784336745738983e-02
2.471444010734558105e-02
7.095113396644592285e-02
3.813273087143898010e-02
4.388016834855079651e-02
9.422897547483444214e-02
-2.480429969727993011e-02
1.541396323591470718e-02
-1.228200737386941910e-02
-4.849583655595779419e-02
3.867499157786369324e-02
2.482709102332592010e-02
3.713546553626656532e-03
-5.566131789237260818e-03
5.872020870447158813e-02
8.501909673213958740e-02
-1.141630462370812893e-03
3.122486174106597900e-02
-6.341104954481124878e-02
2.901214733719825745e-02
-2.145443297922611237e-02
-1.524708495708182454e-04
4.781602695584297180e-02
1.674208976328372955e-02
2.966943895444273949e-03
7.028151303529739380e-02
8.263222873210906982e-02
6.269064545631408691e-02
3.791584633290767670e-03
-4.323147237300872803e-02
-4.517050459980964661e-02
-7.944040000438690186e-03
-7.758520543575286865e-03
2.317849174141883850e-02
-9.146752418018877506e-04
3.883012756705284119e-02
9.354773163795471191e-02
7.640846073627471924e-02
2.823102846741676331e-02
3.732204064726829529e-02
1.509740948677062988e-02
2.734140492975711823e-03
3.130371868610382080e-02
-1.904994435608386993e-02
4.900682717561721802e-02
1.671187579631805420e-02
6.036124005913734436e-02
5.865653604269027710e-02
-3.387957811355590820e-03
8.608929812908172607e-02
3.112879395484924316e-02
-4.569129645824432373e-02
4.110999777913093567e-02
-2.396763768047094345e-03
3.460425511002540588e-02
-3.269863780587911606e-03
6.348352879285812378e-02
1.666656695306301117e-02
1.249702833592891693e-02
9.688893705606460571e-02
1.072723884135484695e-02
-1.273834332823753357e-02
-3.049389086663722992e-02
2.982886880636215210e-02
5.043571814894676208e-02
6.254831701517105103e-02
7.504694163799285889e-02
6.710503250360488892e-02
-7.754340185783803463e-05
7.411673665046691895e-02
6.194042041897773743e-02
2.522193267941474915e-02
-1.657257042825222015e-02
-8.564204908907413483e-03
-2.617327868938446045e-02
-6.060901656746864319e-02
-4.980541393160820007e-02
-5.917820706963539124e-02
2.600133791565895081e-02
1.199328689835965633e-03
3.669853881001472473e-02
1.179376617074012756e-02
-2.436282858252525330e-02
1.860990561544895172e-02
-6.451196968555450439e-02
-2.201351150870323181e-02
-1.194735150784254074e-02
-9.212587960064411163e-03
1.175627671182155609e-02
-5.405676737427711487e-02
-5.131028220057487488e-02
5.758410319685935974e-02
-5.375933833420276642e-03
-1.795714534819126129e-02
-5.156860128045082092e-02
-1.966823451220989227e-02
-5.925108864903450012e-02
-7.611836306750774384e-03
-2.774271927773952484e-02
3.919833339750766754e-03
-6.067707389593124390e-02
1.118569262325763702e-02
4.982339590787887573e-02
3.767308965325355530e-02
-5.655459593981504440e-03
-2.642459981143474579e-02
-6.507536023855209351e-02
-7.850988954305648804e-02
-6.381130218505859375e-02
-1.173711381852626801e-02
-1.938912644982337952e-02
2.319625206291675568e-02
-1.181997940875589848e-03
-2.819543518126010895e-02
7.054912298917770386e-02
4.284719005227088928e-02
-8.274815976619720459e-02
-4.487876966595649719e-02
-6.142706423997879028e-02
-5.481383949518203735e-02
1.352405757643282413e-03
-2.841496281325817108e-02
-3.925526887178421021e-02
-1.931551471352577209e-02
-1.462174765765666962e-02
3.118468448519706726e-02
1.349499821662902832e-02
-7.291933149099349976e-02
-6.254740804433822632e-02
-6.166241690516471863e-02
-5.628758296370506287e-02
-5.565800145268440247e-02
-2.839878574013710022e-02
3.362215310335159302e-02
8.357279002666473389e-03
5.807593464851379395e-02
7.344596087932586670e-02
8.308739960193634033e-02
-1.854741573333740234e-02
-2.715429291129112244e-02
-4.604705050587654114e-02
-6.717797368764877319e-02
-1.226811949163675308e-02
2.189431153237819672e-02
-1.324071828275918961e-02
3.622272983193397522e-02
7.846580445766448975e-02
7.246711850166320801e-02
4.692884534597396851e-02
-6.106403097510337830e-02
7.962629199028015137e-03
-7.743255048990249634e-02
-5.437629297375679016e-02
7.493789307773113251e-03
-2.894576080143451691e-02
1.898677088320255280e-02
1.526076113805174828e-03
5.671011656522750854e-02
-1.048925798386335373e-02
1.971767842769622803e-02
-1.011110842227935791e-02
-7.112973928451538086e-02
-1.213587168604135513e-02
8.426621556282043457e-03
-7.760074920952320099e-03
-3.333214297890663147e-02
3.911735117435455322e-02
5.054977722465991974e-03
4.277805238962173462e-02
6.731406599283218384e-02
-1.261857524514198303e-02
-1.393494848161935806e-02
-3.349006921052932739e-02
-2.249520458281040192e-02
1.417981088161468506e-02
3.553102537989616394e-02
2.156045474112033844e-02
-6.439623888581991196e-03
8.466742932796478271e-03
-1.273920759558677673e-02
-6.214461755007505417e-03
4.001733288168907166e-02
-5.988037958741188049e-02
-3.410164266824722290e-02
2.816824615001678467e-02
-1.497262716293334961e-02
-3.919105231761932373e-02
3.962666168808937073e-02
-2.105610072612762451e-02
-2.564057521522045135e-02
-8.126022294163703918e-03
6.717301160097122192e-02
7.137689739465713501e-03
-5.860794335603713989e-02
3.869023919105529785e-02
-2.851843647658824921e-02
-2.109546959400177002e-02
2.751711755990982056e-02
3.851388767361640930e-02
4.212024062871932983e-02
4.906725138425827026e-02
-2.126608788967132568e-02
2.595282904803752899e-02
2.111284993588924408e-02
2.205003425478935242e-02
4.412502050399780273e-02
5.889036506414413452e-02
-7.017647381871938705e-03
1.223807875066995621e-02
-5.805790424346923828e-03
-3.621356189250946045e-02
5.182831361889839172e-02
4.818745329976081848e-02
3.549025207757949829e-02
-1.506476756185293198e-02
-2.945015579462051392e-02
-3.093119710683822632e-02
-2.448154985904693604e-02
1.382478047162294388e-02
5.423136800527572632e-02
-2.647800184786319733e-02
5.028079077601432800e-02
-3.320217877626419067e-02
1.677205413579940796e-02
3.053393214941024780e-02
-1.418653503060340881e-02
2.869072742760181427e-02
-5.835315212607383728e-03
1.175994286313652992e-03
2.929682098329067230e-02
1.519347541034221649e-02
5.530917644500732422e-02
3.267568722367286682e-02
5.647495388984680176e-02
-2.281971275806427002e-02
5.121896788477897644e-02
5.845003202557563782e-02
-3.948557190597057343e-03
4.146768152713775635e-02
6.094375997781753540e-02
1.744451932609081268e-02
-2.876372821629047394e-02
3.109941072762012482e-02
4.807122424244880676e-02
2.552898786962032318e-02
-6.837118417024612427e-03
6.097872182726860046e-02
4.805243760347366333e-02
-3.267103433609008789e-02
-2.182137221097946167e-02
-1.582684926688671112e-02
4.310679808259010315e-02
-2.752067893743515015e-02
-2.859539538621902466e-02
-1.357294339686632156e-02
6.038243696093559265e-02
3.829651698470115662e-02
-2.946200780570507050e-02
-3.821510821580886841e-02
-4.553948342800140381e-02
3.165007755160331726e-02
5.316750705242156982e-02
5.984225124120712280e-02
5.108930543065071106e-02
-3.618955612182617188e-02
3.017496131360530853e-02
-2.095519565045833588e-02
-1.698672771453857422e-02
4.219470545649528503e-02
3.002508170902729034e-02
-2.173444256186485291e-02
1.184425968676805496e-02
5.559293553233146667e-02
2.086672373116016388e-02
3.509593382477760315e-02
-3.883098810911178589e-02
3.212877735495567322e-02
-4.263230040669441223e-02
5.192792415618896484e-02
-1.806909963488578796e-02
-1.019351370632648468e-02
3.146219998598098755e-02
1.687401719391345978e-02
1.638148725032806396e-02
5.012726411223411560e-03
4.855557531118392944e-02
-2.792866155505180359e-02
-1.280998904258012772e-02
-1.565986545756459236e-03
2.491849660873413086e-02
4.853486083447933197e-03
3.146128356456756592e-02
-3.038792125880718231e-02
3.742503747344017029e-02
3.446841612458229065e-02
5.762922018766403198e-02
1.217008568346500397e-02
1.113502308726310730e-02
-3.046960011124610901e-02
1.434396579861640930e-02
1.929615437984466553e-02
-3.994937986135482788e-02
4.884861782193183899e-02
-7.750116288661956787e-03
-3.092205896973609924e-02
-1.482585072517395020e-02
6.224122829735279083e-03
6.225964054465293884e-03
5.320956557989120483e-02
2.742627821862697601e-02
-2.009981684386730194e-02
4.886715486645698547e-02
-1.215595379471778870e-02
-3.834774345159530640e-02
-1.186771132051944733e-02
2.932442119345068932e-03
3.017921932041645050e-03
5.055158212780952454e-02
2.571135945618152618e-02
1.277466863393783569e-02
1.116406824439764023e-02
3.123190999031066895e-02
-9.777781553566455841e-03
1.319764088839292526e-02
4.946494475007057190e-02
-2.882245182991027832e-02
1.365881878882646561e-02
1.914671994745731354e-02
-2.020597271621227264e-02
3.217795118689537048e-02
4.605045542120933533e-02
6.782503798604011536e-03
-3.219879418611526489e-02
3.286132961511611938e-02
7.756686303764581680e-03
3.138665854930877686e-02
-3.168352693319320679e-02
5.345550179481506348e-02
5.535394698381423950e-02
6.000572815537452698e-02
3.844406828284263611e-02
1.381358690559864044e-02
1.269000861793756485e-02
7.898592390120029449e-03
3.170997276902198792e-02
3.701727837324142456e-02
1.755425520241260529e-02
4.677432589232921600e-03
2.402116172015666962e-02
1.834540441632270813e-02
2.493928745388984680e-02
3.268192522227764130e-03
4.545425251126289368e-02
8.693075738847255707e-03
4.338106885552406311e-02
2.323339506983757019e-02
1.501455157995223999e-02
-3.603319823741912842e-02
6.570692639797925949e-03
-2.746603451669216156e-02
-1.840575598180294037e-02
5.400838330388069153e-02
5.349805206060409546e-02
1.518477872014045715e-02
6.360911577939987183e-02
-3.501731157302856445e-02
-4.031360894441604614e-02
-1.934132166206836700e-02
-4.550664220005273819e-03
-9.522580541670322418e-03
-1.005324814468622208e-02
5.271122977137565613e-02
3.122963570058345795e-02
5.167735740542411804e-03
2.070031501352787018e-02
9.262745268642902374e-03
-3.106328472495079041e-02
5.017798393964767456e-02
5.647920072078704834e-02
2.639978379011154175e-02
2.803415805101394653e-02
1.583422347903251648e-02
4.270951449871063232e-02
2.226128429174423218e-02
-4.321929812431335449e-02
-1.043548691086471081e-03
-1.450843061320483685e-03
1.041424274444580078e-02
4.224557429552078247e-02
-4.203829914331436157e-02
2.662441320717334747e-02
3.001227974891662598e-02
-4.918765742331743240e-03
4.377170931547880173e-03
-2.770249918103218079e-02
-3.768900409340858459e-02
-2.277651429176330566e-02
-4.547318443655967712e-02
2.298765815794467926e-02
-4.372443631291389465e-02
-9.270090959034860134e-04
4.798324778676033020e-02
-3.150496631860733032e-02
1.380246039479970932e-02
2.296001464128494263e-02
1.096172165125608444e-02
-1.310907769948244095e-02
5.534815043210983276e-02
3.945668041706085205e-02
3.232757328078150749e-03
4.722741991281509399e-02
3.587383776903152466e-02
-1.232720352709293365e-02
3.090577945113182068e-02
4.711367934942245483e-02
-3.914628550410270691e-02
1.753133838064968586e-03
-1.984086632728576660e-02
-1.208378095179796219e-02
-3.370436653494834900e-02
-3.254190832376480103e-02
1.495893020182847977e-02
1.059889607131481171e-02
5.772216711193323135e-03
3.664959967136383057e-02
-3.728870302438735962e-02
-3.526617586612701416e-02
-4.420023411512374878e-02
-1.248652231879532337e-03
1.855785585939884186e-02
5.127279832959175110e-02
-3.500057011842727661e-02
4.216343909502029419e-02
-3.491456061601638794e-02
1.196047570556402206e-02
2.862390875816345215e-02
-7.600032724440097809e-03
4.047230631113052368e-02
3.340261802077293396e-02
2.301587257534265518e-03
1.529091410338878632e-02
4.004666581749916077e-02
1.249553449451923370e-02
-2.435264177620410919e-02
-2.424397878348827362e-02
7.939071394503116608e-03
-4.746184870600700378e-02
4.283994436264038086e-02
2.874750085175037384e-02
-4.070014879107475281e-02
-3.065110929310321808e-02
-3.240855038166046143e-02
-4.225480556488037109e-02
5.818178504705429077e-02
-3.096961881965398788e-03
4.866505786776542664e-02
1.786470599472522736e-02
-3.729940217453986406e-04
-1.852300576865673065e-02
-2.615422010421752930e-02
3.980398178100585938e-02
4.734558612108230591e-02
-3.063325211405754089e-02
-2.584816329181194305e-02
-3.867053892463445663e-03
3.841337747871875763e-03
2.190711721777915955e-02
1.422063168138265610e-02
5.910034757107496262e-03
3.733372315764427185e-02
-2.764089778065681458e-02
-2.044465579092502594e-02
3.248128294944763184e-02
5.967454239726066589e-02
-7.583674509078264236e-03
-2.795380540192127228e-02
-2.190150879323482513e-02
-2.265720628201961517e-02
-1.667180657386779785e-02
-3.976899385452270508e-02
-4.665230214595794678e-02
-2.558939345180988312e-02
-7.448226679116487503e-03
3.748862072825431824e-02
-4.370925948023796082e-02
4.811603575944900513e-02
-3.217270970344543457e-02
3.091063722968101501e-02
-1.872801035642623901e-02
2.208885550498962402e-02
-6.477402523159980774e-03
4.602073505520820618e-02
5.013625696301460266e-02
-3.078445978462696075e-02
3.189614508301019669e-03
-2.170041017234325409e-02
1.471410319209098816e-02
3.675486147403717041e-02
-1.351905800402164459e-02
9.732759557664394379e-03
-5.069643631577491760e-02
-2.670264989137649536e-02
-3.289939835667610168e-02
4.347060248255729675e-02
-2.932056598365306854e-02
1.200320478528738022e-02
-3.256618976593017578e-02
1.941741630434989929e-02
-4.648394510149955750e-02
2.200621739029884338e-02
-5.160101875662803650e-02
4.521337151527404785e-02
2.974826656281948090e-02
1.222861837595701218e-02
2.967670373618602753e-02
5.433468520641326904e-02
-3.287443518638610840e-02
3.642403706908226013e-02
-2.310816384851932526e-02
-1.836989889852702618e-03
-5.725560709834098816e-03
-2.024109847843647003e-02
-1.935778744518756866e-02
-4.956126585602760315e-02
-2.723653055727481842e-02
-2.110266126692295074e-02
9.567012079060077667e-03
-4.948196467012166977e-03
1.408375054597854614e-02
1.604015752673149109e-02
-2.301553823053836823e-02
-1.623997092247009277e-02
-5.550960544496774673e-03
-1.920787803828716278e-02
-1.366281532682478428e-03
-4.938039556145668030e-02
-2.940854243934154510e-02
-4.923873022198677063e-02
4.216016456484794617e-02
4.102309793233871460e-02
4.680428653955459595e-02
-1.349510066211223602e-02
1.660960912704467773e-02
-4.467465355992317200e-02
-3.911049291491508484e-02
-2.095868624746799469e-02
1.169998850673437119e-02
4.372819140553474426e-02
8.417723700404167175e-03
-3.155019134283065796e-02
-1.881983317434787750e-02
-1.362185343168675900e-03
2.247491385787725449e-03
-4.207975417375564575e-02
-2.663318254053592682e-02
-3.435810655355453491e-02
7.300747931003570557e-02
-9.226781316101551056e-03
4.028926417231559753e-02
3.443217428866773844e-04
4.842562228441238403e-02
-1.333369221538305283e-02
5.775597691535949707e-02
6.443569064140319824e-02
-2.933214232325553894e-02
-9.448032826185226440e-03
6.676454097032546997e-02
1.619851030409336090e-02
1.589190028607845306e-02
5.080643296241760254e-02
5.236880853772163391e-02
5.715954676270484924e-02
-2.478605136275291443e-03
3.428179025650024414e-02
3.590521588921546936e-02
-2.383572235703468323e-02
2.121869474649429321e-02
9.700089693069458008e-03
1.736024580895900726e-02
3.980658948421478271e-02
2.309783920645713806e-02
1.564377802424132824e-03
1.699048466980457306e-02
4.009541124105453491e-02
2.441478893160820007e-02
1.730065606534481049e-02
-2.352632768452167511e-02
8.684961125254631042e-03
-2.942441962659358978e-03
-5.988272372633218765e-03
6.780132185667753220e-03
1.487107132561504841e-03
4.970527067780494690e-02
1.102482900023460388e-02
-2.981991693377494812e-02
2.074455656111240387e-02
-4.505850374698638916e-03
5.305717140436172485e-02
-3.440442681312561035e-02
-2.157430537045001984e-02
5.059271678328514099e-02
-2.759313501883298159e-04
-2.631822600960731506e-02
5.741461738944053650e-02
1.145388744771480560e-02
-1.309173088520765305e-02
1.041991543024778366e-02
5.051124095916748047e-02
-2.988028898835182190e-02
7.589055690914392471e-03
2.177169360220432281e-02
6.403691321611404419e-02
-2.694271691143512726e-02
7.350415922701358795e-03
5.202310159802436829e-02
-3.097561560571193695e-02
-3.239880502223968506e-02
5.729272961616516113e-03
5.365733429789543152e-02
-1.253979746252298355e-03
-1.098230574280023575e-02
2.741876430809497833e-02
6.035860627889633179e-02
3.649299591779708862e-02
5.865389108657836914e-02
4.698000848293304443e-02
1.981752552092075348e-02
4.967842996120452881e-02
2.602823311462998390e-03
2.472192235291004181e-02
-4.432277753949165344e-02
-8.000620640814304352e-03
-2.057664468884468079e-02
-1.408085040748119354e-02
4.678893089294433594e-02
4.303352534770965576e-02
2.746671251952648163e-02
3.858206793665885925e-02
7.777395658195018768e-03
-3.351397812366485596e-02
4.226580634713172913e-02
1.089282706379890442e-02
-3.112786263227462769e-02
5.686966329813003540e-02
3.979705646634101868e-02
2.328089065849781036e-02
6.207939609885215759e-02
5.195752903819084167e-02
-1.096934359520673752e-02
5.307612940669059753e-03
3.245775122195482254e-03
1.449113152921199799e-02
4.314089566469192505e-02
1.697864849120378494e-03
-4.717662557959556580e-02
5.592378601431846619e-02
5.443527363240718842e-03
3.549096174538135529e-03
1.722065173089504242e-02
-2.895673178136348724e-02
1.715032756328582764e-02
-8.041346445679664612e-03
2.187087899073958397e-03
2.823586761951446533e-02
-2.403715252876281738e-02
1.224343013018369675e-02
-3.285042941570281982e-02
3.445445001125335693e-02
-1.868452504277229309e-02
4.334193468093872070e-02
5.484328418970108032e-02
6.019915267825126648e-02
1.171112712472677231e-02
5.479081347584724426e-02
2.059335447847843170e-02
-2.629777044057846069e-02
-1.389978267252445221e-02
-3.151637036353349686e-03
-5.442545562982559204e-02
-5.669517070055007935e-02
-2.773098275065422058e-02
-1.469340454787015915e-02
-6.202853471040725708e-02
-3.149365633726119995e-02
-3.498109430074691772e-02
-5.255627632141113281e-02
-2.919702045619487762e-02
-6.484629958868026733e-02
-6.032241974025964737e-03
1.816877909004688263e-02
-6.138953566551208496e-02
2.281951531767845154e-02
3.175069019198417664e-02
-5.145767331123352051e-02
-5.993227288126945496e-02
5.884684622287750244e-03
8.278211578726768494e-03
1.727606356143951416e-02
-1.944599114358425140e-02
-2.368066925555467606e-03
-2.645606873556971550e-03
3.292256966233253479e-02
1.512554101645946503e-02
-4.799769073724746704e-02
-6.200787052512168884e-02
2.817472815513610840e-02
-3.624929487705230713e-02
1.781292073428630829e-02
7.862812839448451996e-03
-7.345628738403320312e-02
1.255038101226091385e-02
1.071292161941528320e-02
-3.393322974443435669e-02
-1.817816868424415588e-02
-3.746900334954261780e-02
-2.112914621829986572e-02
-3.947196528315544128e-02
-1.418238040059804916e-02
-6.831190735101699829e-02
1.813820563256740570e-03
2.499256515875458717e-03
-1.499018049798905849e-03
9.820208651944994926e-04
-1.113729737699031830e-02
9.369194507598876953e-03
-2.515506371855735779e-02
-3.383601084351539612e-02
-3.856345079839229584e-03
2.285441383719444275e-02
-2.412313036620616913e-02
-3.484262526035308838e-02
-2.615622803568840027e-02
3.197729215025901794e-02
8.555356413125991821e-03
1.091013755649328232e-02
-2.957394532859325409e-02
1.890576072037220001e-02
-3.935543075203895569e-02
-6.041019782423973083e-02
-3.113476373255252838e-02
-2.323760418221354485e-03
-2.257930580526590347e-03
-5.802282318472862244e-02
3.358960151672363281e-02
-5.152435600757598877e-02
9.136606822721660137e-04
-4.144690185785293579e-02
-3.231484442949295044e-02
-7.103095948696136475e-02
-3.629090636968612671e-02
1.339391153305768967e-02
-3.019315935671329498e-02
-6.347346305847167969e-02
-4.048350825905799866e-02
-4.342239722609519958e-02
-4.406341165304183960e-02
-1.726480945944786072e-02
-2.458290942013263702e-02
-6.734948605298995972e-02
2.282862737774848938e-02
-6.815066188573837280e-02
-5.961137264966964722e-02
-7.517292350530624390e-02
-7.783155888319015503e-02
-7.617148756980895996e-02
1.438803132623434067e-02
-4.497962072491645813e-02
-3.274191170930862427e-02
-4.511862248182296753e-02
-6.875011324882507324e-02
1.071109157055616379e-02
-6.110818311572074890e-02
-4.756205901503562927e-02
-4.739484935998916626e-02
1.251875516027212143e-02
-1.276474795304238796e-03
-4.510126262903213501e-02
-7.215170189738273621e-03
4.219171777367591858e-02
3.873441740870475769e-02
1.063170004636049271e-02
-3.403174132108688354e-02
-4.124891757965087891e-02
1.965045742690563202e-02
-3.039256669580936432e-02
1.296567916870117188e-02
-3.183778747916221619e-02
-2.595367655158042908e-02
9.285484440624713898e-03
-6.208594888448715210e-03
1.278139092028141022e-02
-5.237458646297454834e-02
-4.850259423255920410e-02
-2.319426275789737701e-02
-9.389519254909828305e-05
9.990269318222999573e-03
3.448711335659027100e-02
1.692873984575271606e-02
5.166631937026977539e-02
6.084175780415534973e-02
3.411349281668663025e-02
2.613230049610137939e-02
4.266179725527763367e-02
-9.625619277358055115e-03
1.958992518484592438e-02
-2.107057347893714905e-02
-2.817166969180107117e-02
2.879272587597370148e-02
-4.404630511999130249e-03
2.868568897247314453e-02
1.338864117860794067e-02
4.319183155894279480e-02
-1.468735840171575546e-02
-4.686203226447105408e-02
1.656485348939895630e-02
1.943715475499629974e-02
-5.459877476096153259e-02
-3.776131197810173035e-03
-1.890717074275016785e-02
-5.185354501008987427e-02
6.277157459408044815e-03
9.139245375990867615e-03
-8.965556509792804718e-03
-1.551951747387647629e-02
4.800614714622497559e-02
-3.373587876558303833e-02
-2.257394976913928986e-02
2.843385562300682068e-02
4.295644536614418030e-02
-2.858623676002025604e-02
-2.870920486748218536e-02
4.462742060422897339e-02
-4.967342130839824677e-03
-3.568843007087707520e-02
3.423559293150901794e-02
-4.603386670351028442e-02
-4.317008890211582184e-03
-3.970105666667222977e-03
-5.857326835393905640e-02
-3.804823383688926697e-02
-3.084336221218109131e-02
5.140487570315599442e-03
3.665396198630332947e-02
-1.750791259109973907e-02
-2.726833336055278778e-03
-4.536146670579910278e-02
-4.101978614926338196e-02
-2.353946492075920105e-02
-5.493935942649841309e-02
-2.473491057753562927e-02
-4.281273856759071350e-02
-4.346250370144844055e-02
-3.815161809325218201e-02
2.534595504403114319e-02
2.896992117166519165e-02
-4.242392256855964661e-02
4.053203016519546509e-02
-1.222757901996374130e-02
-5.608743801712989807e-02
-4.873118177056312561e-02
-2.693740278482437134e-02
3.042297437787055969e-02
2.687723003327846527e-02
-3.937053307890892029e-02
5.516842752695083618e-02
-3.765948815271258354e-03
-1.999274268746376038e-02
-2.790193259716033936e-02
1.358320377767086029e-02
8.385382592678070068e-03
2.551430277526378632e-02
-2.138810977339744568e-02
-1.687352545559406281e-02
-3.501367196440696716e-02
-4.788179695606231689e-02
-2.039087563753128052e-02
-3.510381281375885010e-02
-5.530921276658773422e-03
-1.652547344565391541e-02
-1.828347519040107727e-02
4.490236565470695496e-02
7.125098723918199539e-03
3.329649940133094788e-02
2.408771961927413940e-02
-3.583055362105369568e-02
-5.154951661825180054e-02
6.259766966104507446e-02
2.446215832605957985e-03
2.126505039632320404e-02
4.170400649309158325e-02
1.767216995358467102e-02
4.404987767338752747e-02
-2.385709621012210846e-02
3.651417791843414307e-02
4.577086120843887329e-02
4.347807914018630981e-02
1.030633132904767990e-02
6.658797711133956909e-02
9.556480683386325836e-03
-1.216748170554637909e-02
4.011056944727897644e-02
4.325699061155319214e-02
5.098685994744300842e-02
4.143479466438293457e-02
-1.207705866545438766e-02
3.298994153738021851e-02
-4.557529464364051819e-02
5.169876664876937866e-02
1.060485281050205231e-02
-2.229846455156803131e-02
3.427663445472717285e-02
-1.696474663913249969e-02
-2.770485356450080872e-02
4.988289996981620789e-02
3.473087400197982788e-02
3.570449724793434143e-02
-4.359126091003417969e-02
1.226136367768049240e-02
2.460273355245590210e-02
-2.819690667092800140e-02
3.238942101597785950e-02
-4.723474755883216858e-02
2.066281251609325409e-02
-6.903770379722118378e-03
4.362935572862625122e-02
-1.566876308061182499e-03
-1.317616272717714310e-02
4.548556357622146606e-02
-3.008176386356353760e-02
-2.029272727668285370e-03
1.005962211638689041e-02
3.327617421746253967e-02
2.870764955878257751e-02
-3.096225485205650330e-02
-4.569096863269805908e-02
-2.595927007496356964e-02
1.672225631773471832e-02
-4.671757109463214874e-03
4.684130474925041199e-02
-4.804925248026847839e-02
-1.589032635092735291e-02
-6.155411247164011002e-03
3.992979880422353745e-03
-1.390838157385587692e-02
3.222656995058059692e-02
-1.014036778360605240e-02
4.829022288322448730e-02
5.213215947151184082e-02
-4.224931448698043823e-02
-2.452847175300121307e-02
-1.316838082857429981e-03
3.899472951889038086e-02
-3.724844753742218018e-02
-8.252658881247043610e-03
5.190028995275497437e-02
3.929809108376502991e-02
2.469788305461406708e-02
-1.781728677451610565e-02
-1.509914360940456390e-02
-4.310003295540809631e-02
-4.386459663510322571e-02
3.597804158926010132e-02
3.931305371224880219e-03
-8.007036522030830383e-03
4.164835903793573380e-03
-3.754118457436561584e-02
3.136189654469490051e-02
1.806614361703395844e-02
-1.069107907824218273e-03
3.195226890966296196e-03
-2.148622088134288788e-02
4.430735856294631958e-02
-1.715201884508132935e-02
5.445728451013565063e-02
-3.006531158462166786e-03
3.741524741053581238e-02
-9.686376899480819702e-03
6.067125499248504639e-02
4.412343725562095642e-02
2.582933055236935616e-03
3.645290053100325167e-05
5.580778792500495911e-02
-3.757150098681449890e-02
5.214561149477958679e-02
-4.425246268510818481e-02
1.238282211124897003e-02
3.768322989344596863e-02
-2.414115704596042633e-03
-5.270105320960283279e-03
6.142956018447875977e-02
4.046241566538810730e-02
4.206883907318115234e-02
1.490612886846065521e-02
-1.884439960122108459e-02
5.363404005765914917e-02
-5.446294788271188736e-03
4.371380805969238281e-02
2.604851312935352325e-02
-5.175277590751647949e-03
5.177248641848564148e-02
4.494459182024002075e-02
-2.042409777641296387e-02
2.229855768382549286e-02
5.338140204548835754e-02
1.207406353205442429e-02
2.089789323508739471e-02
-1.790904672816395760e-03
-7.739220280200242996e-03
5.667725205421447754e-02
2.424371615052223206e-02
-3.881819918751716614e-02
2.706307545304298401e-02
-2.871129475533962250e-02
5.433962866663932800e-02
5.561559647321701050e-02
4.855117946863174438e-02
4.095009528100490570e-03
-1.104661170393228531e-02
6.544660427607595921e-04
3.711001947522163391e-02
1.846874691545963287e-02
6.258534733206033707e-03
1.027567125856876373e-02
-2.791142463684082031e-02
-3.800138458609580994e-02
-3.825070802122354507e-03
3.215284645557403564e-02
-5.724926944822072983e-03
2.608694694936275482e-02
4.986392334103584290e-02
-3.908099315594881773e-04
1.214077882468700409e-02
-1.383048575371503830e-02
-5.803629755973815918e-03
6.045931577682495117e-02
-4.231498390436172485e-02
1.191462390124797821e-03
5.798117071390151978e-02
1.329009328037500381e-02
-2.252438478171825409e-02
-3.914773464202880859e-02
-1.478875242173671722e-02
-4.468626156449317932e-02
-3.347972407937049866e-02
1.578273251652717590e-02
-4.428043961524963379e-02
3.686449304223060608e-02
-5.968153476715087891e-02
-4.194651171565055847e-02
-3.055232763290405273e-02
2.752976678311824799e-02
-3.894307184964418411e-03
-1.618961105123162270e-04
3.946930170059204102e-02
-6.240966916084289551e-02
9.038921445608139038e-03
-4.684712737798690796e-02
-3.483989462256431580e-02
-6.235455628484487534e-03
-5.846745520830154419e-02
2.224913053214550018e-02
-3.756000101566314697e-02
-6.586469244211912155e-03
-5.133316665887832642e-02
-5.243469402194023132e-02
3.166360780596733093e-02
3.001272119581699371e-02
-5.437397956848144531e-02
4.340922087430953979e-02
-4.167988896369934082e-02
-4.028649255633354187e-02
3.727657720446586609e-02
-1.916359737515449524e-02
3.836596012115478516e-02
4.039346799254417419e-02
1.403191499412059784e-02
-1.761774532496929169e-02
2.427490241825580597e-02
-5.602574348449707031e-02
1.571790315210819244e-02
4.040491301566362381e-03
-5.389186367392539978e-02
-6.945113651454448700e-03
-5.450415238738059998e-02
1.011181229841895401e-04
-7.960739545524120331e-03
-1.683697476983070374e-02
-1.705622486770153046e-02
2.462963387370109558e-02
-2.671068906784057617e-02
4.137832298874855042e-02
-3.253266960382461548e-02
3.404672816395759583e-02
-4.263171553611755371e-02
8.510309271514415741e-04
-8.179318159818649292e-03
4.718587547540664673e-02
-1.848451234400272369e-02
-4.856957588344812393e-03
-7.196205668151378632e-03
4.340282455086708069e-02
-1.789884082973003387e-02
2.446115948259830475e-02
2.298689074814319611e-02
-4.550592508167028427e-03
2.851933799684047699e-02
-2.659486420452594757e-02
3.880793973803520203e-02
-2.386375516653060913e-02
1.626237109303474426e-02
-2.444803901016712189e-02
-2.048543654382228851e-02
-5.664065945893526077e-03
5.780610372312366962e-04
-2.960467524826526642e-02
3.899350063875317574e-03
-1.131063513457775116e-02
2.199692884460091591e-03
3.149745985865592957e-02
-4.832625016570091248e-02
2.592562884092330933e-02
-2.571500465273857117e-02
-1.272914092987775803e-02
2.059473842382431030e-02
1.627151854336261749e-02
4.384068772196769714e-02
-4.405087977647781372e-02
3.759270533919334412e-03
-1.368986722081899643e-02
3.860181570053100586e-02
-4.037885461002588272e-03
3.105013072490692139e-02
1.047181710600852966e-02
-4.126856103539466858e-02
3.012200118973851204e-03
2.099015191197395325e-02
1.310515217483043671e-02
1.990924030542373657e-02
2.819617278873920441e-02
-2.502872608602046967e-02
2.253933623433113098e-02
-2.046986483037471771e-02
1.503493543714284897e-02
3.129608929157257080e-02
-3.116654790937900543e-02
2.436558343470096588e-02
-1.218131743371486664e-02
-3.153010085225105286e-02
-5.758666247129440308e-02
3.691389411687850952e-02
-1.912068016827106476e-02
-2.603184990584850311e-02
1.923556067049503326e-02
-4.768082499504089355e-02
2.721745707094669342e-02
4.112116247415542603e-02
3.188584744930267334e-02
-4.677641019225120544e-02
-9.934883564710617065e-03
-4.337806627154350281e-02
8.235076442360877991e-03
-1.002936065196990967e-02
-4.331906884908676147e-02
-2.917423471808433533e-02
4.548437148332595825e-02
-4.678893089294433594e-02
2.357068937271833420e-03
7.802600157447159290e-04
-5.257866531610488892e-02
-3.146446775645017624e-03
2.171867154538631439e-02
-1.820968464016914368e-02
4.349899664521217346e-02
-4.336288198828697205e-02
-3.736248984932899475e-02
-3.464525192975997925e-02
-1.073923613876104355e-02
-1.408973056823015213e-02
-1.583138830028474331e-03
2.252620086073875427e-02
5.141778290271759033e-02
-3.208485245704650879e-02
5.557525437325239182e-03
-1.228857226669788361e-02
-3.262965753674507141e-02
-1.176822278648614883e-02
-1.145903224823996425e-04
5.769916996359825134e-02
2.133245952427387238e-02
1.184243056923151016e-02
2.267182245850563049e-02
3.188563883304595947e-02
-1.694656535983085632e-02
2.988307503983378410e-03
1.316364295780658722e-02
1.092387828975915909e-02
4.411334171891212463e-02
-3.450568020343780518e-02
3.849219903349876404e-02
2.661041542887687683e-02
-2.573404088616371155e-02
-1.746261678636074066e-02
-2.902244776487350464e-02
1.030852831900119781e-02
-2.219075709581375122e-02
3.060536086559295654e-02
5.312784388661384583e-02
-1.436403486877679825e-03
5.061924830079078674e-02
4.328861460089683533e-02
-2.431331574916839600e-02
-3.056157566606998444e-02
-2.833174169063568115e-02
-2.401919104158878326e-02
3.183709084987640381e-02
2.653770335018634796e-02
-2.401150576770305634e-02
1.507940236479043961e-02
4.304980114102363586e-02
6.520238518714904785e-02
-3.638213733211159706e-03
-1.453769300132989883e-02
5.848373472690582275e-02
4.328106343746185303e-02
1.196265127509832382e-02
-2.011351473629474640e-02
2.360823564231395721e-02
-1.286531239748001099e-02
3.394048195332288742e-03
1.526046730577945709e-02
2.490372769534587860e-02
2.947194315493106842e-02
1.041423715651035309e-02
5.171599611639976501e-02
4.616154357790946960e-02
-1.290614437311887741e-02
4.587388411164283752e-02
-1.082590129226446152e-02
-1.467402745038270950e-02
1.728562079370021820e-02
9.389483369886875153e-03
-3.234610334038734436e-02
2.490431629121303558e-02
-3.017438761889934540e-02
-9.153526276350021362e-03
4.694411531090736389e-02
4.555155336856842041e-02
2.240783721208572388e-02
-2.980422601103782654e-02
-7.848748937249183655e-03
-1.678731665015220642e-02
6.155043095350265503e-02
-4.553068429231643677e-03
1.152219995856285095e-02
-1.968603208661079407e-02
-2.286225557327270508e-02
3.063637390732765198e-02
2.905946597456932068e-02
4.225873202085494995e-02
5.479609221220016479e-02
3.820398822426795959e-02
5.331813171505928040e-02
4.552273079752922058e-02
9.571702219545841217e-03
1.221244037151336670e-02
-1.056635566055774689e-02
2.365846652537584305e-03
3.520021215081214905e-02
1.937055215239524841e-02
-1.280498877167701721e-02
5.215474590659141541e-02
5.331777408719062805e-02
2.215501107275485992e-02
-2.796984510496258736e-03
2.737404592335224152e-02
2.271947637200355530e-02
-2.017252705991268158e-02
-1.263844221830368042e-02
2.525050751864910126e-02
-1.105090510100126266e-02
4.341041296720504761e-02
-2.828687615692615509e-02
-2.682781592011451721e-02
8.146638050675392151e-03
-6.161126121878623962e-02
-1.550816837698221207e-02
-2.131894230842590332e-03
1.713183708488941193e-02
7.882718928158283234e-03
2.194081619381904602e-02
-4.173563793301582336e-02
-7.885405793786048889e-03
-3.354972600936889648e-02
2.438357286155223846e-02
-3.647522628307342529e-02
-5.993659049272537231e-02
-2.165067754685878754e-02
-6.441303342580795288e-02
1.053161453455686569e-02
1.868522167205810547e-02
-5.805553123354911804e-02
2.072556689381599426e-02
-1.309858914464712143e-02
1.347564533352851868e-02
1.900278404355049133e-02
-5.984928086400032043e-02
-5.448640510439872742e-02
-3.116030246019363403e-02
-7.393641769886016846e-02
-5.438734963536262512e-02
-2.171875536441802979e-02
-2.363677509129047394e-02
-4.035347700119018555e-02
-5.472765117883682251e-02
-7.346971333026885986e-02
-6.417287886142730713e-02
-2.916513010859489441e-02
-5.214192718267440796e-02
-7.165428996086120605e-02
1.320376712828874588e-02
2.813508920371532440e-02
-2.216084115207195282e-02
1.614471711218357086e-02
-2.861699461936950684e-02
-3.490771725773811340e-02
-3.385537303984165192e-03
-6.070887204259634018e-03
2.373122982680797577e-02
-3.956587612628936768e-02
3.120720200240612030e-02
2.977175265550613403e-02
3.349643433466553688e-03
-2.530606649816036224e-02
-3.689117357134819031e-02
-5.361654236912727356e-02
-5.114318802952766418e-02
-4.567896202206611633e-02
3.032672032713890076e-02
-3.685077279806137085e-02
-4.448096081614494324e-02
-3.507130220532417297e-02
-5.146181955933570862e-02
-4.640248604118824005e-03
-2.098332904279232025e-02
-4.379277676343917847e-02
-8.727960288524627686e-03
-4.429321736097335815e-02
2.357904426753520966e-02
-5.007174611091613770e-02
-6.847885251045227051e-02
-1.703255437314510345e-02
-2.835019025951623917e-03
-4.674157500267028809e-02
-3.710488229990005493e-02
-2.580153197050094604e-02
-2.670392207801342010e-02
-4.119278397411108017e-03
2.165875211358070374e-02
-6.162129715085029602e-02
2.506398828700184822e-03
-3.194164857268333435e-02
-9.736017673276364803e-04
-4.820663854479789734e-02
-6.122763454914093018e-02
7.068276405334472656e-03
-4.977405071258544922e-02
-3.903532028198242188e-02
-6.555168330669403076e-02
-4.837397485971450806e-03
4.828402306884527206e-04
-1.120804902166128159e-02
-6.715024262666702271e-02
-5.271700769662857056e-02
1.475646160542964935e-02
-2.011663094162940979e-02
1.937377452850341797e-02
-1.469147112220525742e-02
2.070622891187667847e-02
-4.195470362901687622e-02
-6.156018935143947601e-04
-1.302744913846254349e-02
-1.845631003379821777e-02
-6.789714563637971878e-03
-4.027677699923515320e-02
-2.068461105227470398e-02
-5.180735141038894653e-02
1.941547729074954987e-02
3.435541409999132156e-03
-4.927008599042892456e-02
-6.072870641946792603e-02
-1.099651772528886795e-02
-3.651766106486320496e-02
1.898356154561042786e-02
1.456645783036947250e-02
5.775637459009885788e-03
-2.275997586548328400e-02
-4.426336672622710466e-04
-7.243202626705169678e-02
2.002327516674995422e-02
1.585660316050052643e-02
1.451770495623350143e-02
-2.361975610256195068e-02
-6.603436917066574097e-02
6.746672838926315308e-02
-1.247019786387681961e-02
9.193641692399978638e-02
2.107552252709865570e-02
1.945477351546287537e-02
3.185082226991653442e-02
2.784546278417110443e-02
1.449207402765750885e-02
8.344930410385131836e-02
5.381476879119873047e-02
8.274683356285095215e-02
2.120791003108024597e-02
5.379415303468704224e-02
5.490797758102416992e-02
1.084595080465078354e-02
5.199508368968963623e-02
9.569171816110610962e-02
6.553707271814346313e-02
3.207829967141151428e-02
6.987614929676055908e-02
5.406299605965614319e-02
8.524031192064285278e-02
2.975403890013694763e-02
8.183763362467288971e-03
1.288466528058052063e-02
6.603731960058212280e-02
7.823256403207778931e-02
2.644769661128520966e-02
5.194125697016716003e-02
4.861677065491676331e-02
3.825069870799779892e-03
8.588521927595138550e-02
-7.611280307173728943e-04
4.685210809111595154e-02
6.674627214670181274e-02
2.511668950319290161e-03
8.217857778072357178e-02
4.801955074071884155e-02
6.099055707454681396e-02
9.674749337136745453e-03
5.049064382910728455e-02
9.048504382371902466e-02
-2.563945017755031586e-03
7.046476006507873535e-02
5.006746575236320496e-02
-3.182356478646397591e-03
2.505964599549770355e-02
4.481226578354835510e-02
4.286449775099754333e-02
6.449418514966964722e-02
8.431492745876312256e-02
6.808981299400329590e-02
7.852561026811599731e-02
7.842021435499191284e-02
3.323221206665039062e-02
3.326703794300556183e-03
5.625886097550392151e-02
5.178550258278846741e-02
8.633312582969665527e-02
7.398094981908798218e-02
7.387007027864456177e-02
6.010996177792549133e-02
9.013237804174423218e-02
-1.867940649390220642e-03
9.493522346019744873e-02
5.226545780897140503e-02
6.247424706816673279e-02
9.266754239797592163e-02
7.087607681751251221e-02
4.300731793045997620e-02
1.013536937534809113e-02
4.466401785612106323e-02
8.746737986803054810e-02
1.021914184093475342e-03
8.574657887220382690e-02
1.705047860741615295e-02
4.825652018189430237e-02
5.478327348828315735e-02
4.275913909077644348e-02
8.546165376901626587e-02
1.651667989790439606e-02
8.811829239130020142e-02
4.766461625695228577e-02
2.375397272408008575e-02
2.162024937570095062e-02
6.472623348236083984e-02
4.322408512234687805e-02
-6.750343367457389832e-03
7.768957316875457764e-02
5.605563148856163025e-02
3.347278758883476257e-02
9.199402481317520142e-02
6.497021764516830444e-02
1.880935975350439548e-03
8.521944284439086914e-03
3.970093280076980591e-02
2.176067791879177094e-02
6.759027391672134399e-02
5.777578055858612061e-02
1.796706765890121460e-02
2.932468615472316742e-02
6.764085590839385986e-02
8.914833515882492065e-02
7.079172134399414062e-02
4.450489208102226257e-02
1.258893031626939774e-02
-1.777351135388016701e-03
4.846600070595741272e-02
7.666985690593719482e-02
9.589170105755329132e-03
4.915844649076461792e-02
3.912285435944795609e-03
5.509908869862556458e-02
6.010691821575164795e-02
1.366245443932712078e-03
-1.045400090515613556e-02
2.431324496865272522e-02
2.298492379486560822e-02
8.708108961582183838e-02
7.847216725349426270e-02
4.303576052188873291e-02
1.267289929091930389e-02
-1.041927374899387360e-02
-6.446550786495208740e-02
-5.160364881157875061e-02
-5.533590540289878845e-02
6.470061838626861572e-03
1.197715662419795990e-02
-1.612354256212711334e-02
-4.220169782638549805e-02
-3.674381226301193237e-02
-3.495153412222862244e-02
-4.196627438068389893e-02
-4.748220741748809814e-02
-4.935444891452789307e-02
-3.948695957660675049e-02
-4.191086813807487488e-02
-2.473092824220657349e-02
5.204692948609590530e-03
-5.383242387324571609e-03
-7.105687260627746582e-02
-2.738198824226856232e-02
2.095438539981842041e-02
-1.528166420757770538e-02
2.313063945621252060e-03
-1.257309876382350922e-02
2.093183621764183044e-02
-7.107825577259063721e-02
-6.193505600094795227e-02
-7.194907963275909424e-02
-4.605415835976600647e-02
5.228083580732345581e-03
-6.985814776271581650e-03
3.258721204474568367e-03
-7.428529858589172363e-02
1.350094843655824661e-02
1.711656898260116577e-02
-5.052925273776054382e-02
-6.990222632884979248e-02
-6.405102461576461792e-02
-6.282316148281097412e-02
-2.137359790503978729e-02
-2.651969715952873230e-02
-5.534272268414497375e-02
-4.007983952760696411e-02
-1.911593787372112274e-02
-5.247843265533447266e-02
9.119262918829917908e-03
-6.372561305761337280e-02
5.847516003996133804e-03
-2.497602626681327820e-02
1.145852636545896530e-02
-3.722060471773147583e-02
1.578858867287635803e-02
-2.604621462523937225e-02
-5.892290174961090088e-02
-6.278193555772304535e-03
-5.298424884676933289e-02
-2.857826650142669678e-02
-6.257490068674087524e-02
1.561912824399769306e-03
1.281053479760885239e-02
1.891964673995971680e-02
-1.879715360701084137e-02
-4.005401581525802612e-02
-6.634510308504104614e-02
-5.511718243360519409e-02
-5.364872515201568604e-02
1.303400844335556030e-02
-1.663449984334874898e-05
-3.530041873455047607e-02
-2.709214761853218079e-02
-3.924838081002235413e-02
-3.778018429875373840e-02
-5.165375396609306335e-02
-5.088277533650398254e-02
-7.182177901268005371e-02
-6.993380934000015259e-02
-1.615433767437934875e-02
-4.115852341055870056e-02
1.656659133732318878e-02
1.663604937493801117e-02
-2.577093616127967834e-02
-6.895273923873901367e-03
-6.690537929534912109e-02
-2.594382129609584808e-02
-1.637353375554084778e-02
-5.321345478296279907e-02
-4.181843250989913940e-02
2.533659711480140686e-02
-1.203176914714276791e-03
-3.439416363835334778e-02
-6.279792636632919312e-02
-6.147509068250656128e-02
-4.246067255735397339e-02
1.611454412341117859e-03
-1.892172358930110931e-02
-5.306216329336166382e-02
-5.638669431209564209e-02
-4.742423072457313538e-02
-6.064999848604202271e-02
-4.302598536014556885e-02
2.818612381815910339e-02
-6.593379378318786621e-02
-4.968775808811187744e-02
-4.767124727368354797e-02
-1.622018218040466309e-02
1.685733906924724579e-02
-3.415026515722274780e-02
4.510913509875535965e-03
-1.580598391592502594e-02
-4.379482939839363098e-03
-3.210667148232460022e-02
-8.058115839958190918e-03
-2.019964344799518585e-02
-4.946484789252281189e-02
-3.995122388005256653e-02
-2.575315721333026886e-02
-5.211178958415985107e-02
-4.385974258184432983e-02
2.113393507897853851e-02
-1.326194615103304386e-03
-2.323376759886741638e-02
1.214935164898633957e-02
4.367715865373611450e-02
-1.220451202243566513e-03
1.838893815875053406e-02
-3.306953608989715576e-02
4.421260207891464233e-03
-4.068927466869354248e-02
-3.607918694615364075e-02
3.713817149400711060e-02
4.447986930608749390e-02
2.437530085444450378e-02
1.901877485215663910e-02
1.593367196619510651e-02
-2.506338059902191162e-02
-2.481795847415924072e-02
5.238094553351402283e-02
-4.663807153701782227e-02
1.213541813194751740e-02
8.315402083098888397e-03
-9.790203534066677094e-03
6.441709585487842560e-03
4.533281922340393066e-02
3.319561854004859924e-02
-1.784219034016132355e-02
2.949384413659572601e-02
-4.541644454002380371e-02
-9.041758254170417786e-03
-6.826055701822042465e-03
-6.867545191198587418e-03
-2.291810931637883186e-03
-1.131993532180786133e-02
4.554613679647445679e-02
-1.019299216568470001e-02
2.397099882364273071e-02
-9.052017703652381897e-03
-5.230009555816650391e-02
3.023283928632736206e-02
7.358464412391185760e-03
-3.953027725219726562e-02
-4.610821977257728577e-02
-4.805857688188552856e-02
2.895296737551689148e-02
2.824541367590427399e-02
2.619700506329536438e-02
-2.226288244128227234e-02
4.875814914703369141e-02
-1.914790272712707520e-02
5.705919116735458374e-03
-1.442069746553897858e-02
-2.001601643860340118e-02
3.510122001171112061e-02
-4.249746352434158325e-02
3.655408509075641632e-03
3.361361846327781677e-02
-3.913478553295135498e-02
4.165823757648468018e-02
-2.593175135552883148e-02
-5.160846188664436340e-02
7.537665776908397675e-03
-1.892233826220035553e-02
-5.508916079998016357e-02
-5.202662944793701172e-02
3.315442800521850586e-02
-1.043140515685081482e-02
-1.530677732080221176e-02
-5.141368880867958069e-02
-2.064058557152748108e-02
2.017185091972351074e-02
-6.295846402645111084e-02
-6.211399100720882416e-03
3.001351840794086456e-02
-4.779439419507980347e-02
2.995050139725208282e-02
-3.968120738863945007e-02
-8.386642672121524811e-03
-2.327298745512962341e-02
-1.506361644715070724e-02
1.953453756868839264e-02
1.638304325751960278e-03
-1.529953628778457642e-02
2.473131194710731506e-02
-8.641760796308517456e-03
2.581352367997169495e-02
-5.712776258587837219e-02
-6.735567748546600342e-02
-5.037848651409149170e-02
-1.025743130594491959e-02
-7.997913286089897156e-03
3.921644017100334167e-02
-8.252711966633796692e-03
-1.896480843424797058e-02
-2.348378300666809082e-02
-5.515891686081886292e-02
2.285465830937027931e-03
-5.798120051622390747e-02
3.112624958157539368e-02
2.634764648973941803e-03
-2.800929173827171326e-02
-2.088644728064537048e-02
-2.793319709599018097e-02
1.611436903476715088e-02
-1.105081103742122650e-02
-4.632472991943359375e-03
-6.977021694183349609e-03
-2.165040001273155212e-02
-5.532101541757583618e-02
-7.902854122221469879e-03
-5.581722036004066467e-02
3.226550668478012085e-02
-1.600063405930995941e-02
3.104946948587894440e-02
-2.681270241737365723e-02
-2.490394189953804016e-02
-2.738015167415142059e-02
-8.796345442533493042e-03
-3.366781398653984070e-02
-4.881313443183898926e-02
-2.035690471529960632e-03
2.699184231460094452e-02
6.632705219089984894e-03
5.289633199572563171e-02
2.005908451974391937e-02
1.271065417677164078e-02
-1.950482279062271118e-02
-4.246990010142326355e-02
-3.111730888485908508e-02
3.339234367012977600e-02
-4.059771448373794556e-02
-3.546074405312538147e-02
5.373713094741106033e-03
2.021468244493007660e-02
1.758606289513409138e-03
-2.858386188745498657e-02
-1.840515248477458954e-02
3.522991016507148743e-02
-1.398711744695901871e-02
-3.791077807545661926e-02
7.561961538158357143e-04
-3.971712291240692139e-02
-5.831991136074066162e-02
-3.383143246173858643e-02
-4.675582982599735260e-03
5.048612505197525024e-02
-4.279001057147979736e-02
-5.874544009566307068e-02
9.630770073272287846e-04
8.166646584868431091e-03
-6.181510165333747864e-02
-6.901530432514846325e-04
-4.547973722219467163e-02
-4.192459210753440857e-02
-5.715213716030120850e-02
-4.601294547319412231e-02
-1.028901524841785431e-02
-1.851350255310535431e-02
1.703307218849658966e-02
-1.530309673398733139e-02
-4.409483075141906738e-02
-7.933316752314567566e-03
2.682300098240375519e-02
2.470936998724937439e-02
-1.802766323089599609e-02
-3.290680423378944397e-02
-1.189469359815120697e-03
2.689724043011665344e-02
-3.508116677403450012e-02
1.364025473594665527e-02
-5.657571181654930115e-02
-6.975149363279342651e-02
1.247493736445903778e-02
-5.720822885632514954e-02
-4.208812117576599121e-02
7.775354664772748947e-03
4.158275667577981949e-03
-4.378178715705871582e-02
4.139111936092376709e-02
5.062765907496213913e-03
-4.411898180842399597e-02
-2.736166678369045258e-02
-2.308791875839233398e-02
-3.045438043773174286e-02
-4.485395178198814392e-02
-5.858845636248588562e-02
1.095195021480321884e-02
8.641452528536319733e-03
-4.385041445493698120e-02
-6.067957356572151184e-02
9.329290129244327545e-03
-2.036057971417903900e-02
-3.026996180415153503e-02
-9.549573063850402832e-03
-1.426974870264530182e-02
-6.705559045076370239e-02
-2.314482443034648895e-02
-6.051012780517339706e-03
-4.623130336403846741e-02
-4.533374216407537460e-03
-3.198161721229553223e-02
1.164284814149141312e-02
-2.771758101880550385e-02
-6.692370772361755371e-02
-6.310800462961196899e-02
-2.317503839731216431e-02
2.135804481804370880e-02
-6.847075372934341431e-02
-7.504022866487503052e-02
-4.693078249692916870e-02
-5.947428196668624878e-02
-7.932658772915601730e-04
-4.119426757097244263e-02
-5.290610343217849731e-02
-4.169018566608428955e-02
-6.573291867971420288e-02
-7.982924580574035645e-02
-6.022574380040168762e-02
-2.192975394427776337e-02
1.309467852115631104e-02
-1.763947121798992157e-02
-2.235971577465534210e-02
-3.961638733744621277e-02
-3.751819580793380737e-02
-3.666736418381333351e-03
-3.970304504036903381e-03
1.063547842204570770e-02
-1.086890976876020432e-02
-3.047981858253479004e-02
-1.321875583380460739e-02
-1.274534780532121658e-02
2.093547396361827850e-02
4.318349063396453857e-02
-3.032947517931461334e-02
1.258953940123319626e-02
-1.505584549158811569e-02
-4.272850230336189270e-02
-4.493492841720581055e-02
-5.754548683762550354e-02
-1.368812378495931625e-02
-6.086483225226402283e-02
-3.325583413243293762e-02
-8.941278792917728424e-03
-2.483647875487804413e-02
6.921213120222091675e-02
7.816758751869201660e-02
2.398222871124744415e-02
5.625406652688980103e-02
-1.588354632258415222e-02
3.368949145078659058e-02
-2.241322956979274750e-02
6.019201502203941345e-02
3.172791376709938049e-02
6.230837851762771606e-02
4.647333547472953796e-02
5.102143064141273499e-02
6.409880518913269043e-02
3.114393912255764008e-02
3.601643070578575134e-02
1.442367397248744965e-02
5.551916733384132385e-02
-1.588670723140239716e-02
4.599967226386070251e-02
3.544105589389801025e-02
-4.597785416990518570e-03
6.899692118167877197e-02
6.879758834838867188e-02
-1.225064508616924286e-02
6.892826408147811890e-02
2.239953912794589996e-02
3.547927737236022949e-02
-3.192741423845291138e-03
5.412907153367996216e-02
4.753077030181884766e-02
8.412955794483423233e-04
1.535048126243054867e-03
-2.436680020764470100e-03
1.154982112348079681e-02
4.733121395111083984e-02
3.067455440759658813e-02
-2.338442951440811157e-02
-3.725861385464668274e-02
2.986125089228153229e-02
-3.180751949548721313e-02
-2.754573896527290344e-02
3.318040817975997925e-02
-3.109063208103179932e-02
6.394018232822418213e-02
-1.922121271491050720e-02
-7.161510176956653595e-03
5.259793251752853394e-02
-3.137979283928871155e-02
-1.777172088623046875e-02
4.803520441055297852e-02
-5.629892926663160324e-03
2.199997007846832275e-02
2.353567443788051605e-02
1.020091306418180466e-02
-2.408244274556636810e-02
2.618817612528800964e-02
-1.529058534651994705e-02
6.126662250608205795e-03
-4.076385870575904846e-02
-1.609496958553791046e-02
-4.804951325058937073e-02
1.432525459676980972e-02
-3.930101171135902405e-02
3.070854209363460541e-02
2.244747243821620941e-02
3.235267102718353271e-02
4.272766038775444031e-02
2.882721833884716034e-02
1.339386403560638428e-02
1.049499865621328354e-02
3.920836746692657471e-02
-1.763785257935523987e-02
-4.689462855458259583e-02
-4.605321213603019714e-02
-4.602843150496482849e-02
-4.580834356602281332e-04
-1.050733774900436401e-02
9.747654548846185207e-04
-4.035243764519691467e-02
1.617136597633361816e-02
-5.448180250823497772e-03
-1.947394758462905884e-02
-4.135803505778312683e-02
-3.549717739224433899e-02
3.917903825640678406e-02
-8.023896254599094391e-03
3.073991835117340088e-02
-7.683290634304285049e-03
3.754280880093574524e-02
4.732723534107208252e-02
2.167449705302715302e-02
-8.574083447456359863e-03
3.544877469539642334e-02
-2.977337688207626343e-02
3.224477171897888184e-02
-1.640514843165874481e-02
5.232735071331262589e-03
-4.630713723599910736e-03
9.093995206058025360e-03
1.058084797114133835e-02
1.266719214618206024e-02
5.853465292602777481e-03
-2.341245301067829132e-02
-4.221000149846076965e-02
-2.526091039180755615e-02
4.692061245441436768e-02
5.292511545121669769e-03
2.444980852305889130e-02
-1.967066153883934021e-02
-3.485264489427208900e-03
3.353494405746459961e-02
-2.713454596232622862e-04
-3.087976202368736267e-02
-4.388536885380744934e-02
4.762341082096099854e-02
-1.829941570758819580e-02
4.276282712817192078e-02
2.658939547836780548e-02
5.034384131431579590e-02
6.240430474281311035e-02
-1.361883059144020081e-02
4.237817600369453430e-03
5.951131135225296021e-02
4.184375330805778503e-02
-6.443976890295743942e-03
4.170523211359977722e-02
1.294871419668197632e-02
-3.646487370133399963e-02
1.913872733712196350e-02
-4.530147463083267212e-02
2.216272801160812378e-02
1.125556323677301407e-02
3.119315393269062042e-02
-8.295014500617980957e-03
5.789140611886978149e-02
4.344537481665611267e-02
-3.129513189196586609e-02
-5.236046388745307922e-02
-4.521721601486206055e-02
-4.619530215859413147e-02
-1.126937195658683777e-02
5.646853707730770111e-03
-1.381802000105381012e-02
5.187760293483734131e-02
-3.740981593728065491e-02
4.613960161805152893e-03
-2.045063115656375885e-02
1.205887459218502045e-02
4.169932380318641663e-02
-2.040625177323818207e-02
-1.343164127320051193e-02
-4.553407430648803711e-02
-3.730819001793861389e-02
9.160487912595272064e-03
5.766133591532707214e-02
2.610821463167667389e-02
1.886880956590175629e-02
-2.953965775668621063e-02
-2.131309546530246735e-02
4.893134348094463348e-03
-4.819155856966972351e-02
-1.011861674487590790e-02
1.014534663408994675e-02
2.868315391242504120e-02
4.912194609642028809e-02
3.428729251027107239e-02
-8.652776479721069336e-03
-1.649517007172107697e-02
1.560410019010305405e-03
-3.490488231182098389e-02
-9.556968696415424347e-03
-1.515940856188535690e-02
4.524587839841842651e-02
-2.625856362283229828e-02
4.369674250483512878e-02
3.819906711578369141e-02
-4.301814362406730652e-02
-1.842267997562885284e-02
4.239508882164955139e-02
1.759772188961505890e-02
-3.562989830970764160e-02
-7.644783472642302513e-04
1.465528272092342377e-02
2.990452200174331665e-02
3.626623004674911499e-02
-2.327179349958896637e-02
-2.083327621221542358e-02
-3.293522819876670837e-02
-2.965988591313362122e-02
-3.262043232098221779e-03
4.291609674692153931e-02
-2.425898797810077667e-02
3.009583055973052979e-02
3.958576172590255737e-02
-6.037323549389839172e-02
3.492287918925285339e-02
-3.320773690938949585e-02
-2.111309580504894257e-02
-3.054009005427360535e-02
-2.905406057834625244e-02
-1.692748977802693844e-03
-4.206033796072006226e-02
-3.725613653659820557e-02
-6.016363203525543213e-02
-1.839124225080013275e-02
5.875352304428815842e-03
3.454438969492912292e-02
7.397488690912723541e-03
1.541319582611322403e-02
-3.420536220073699951e-02
-3.961708769202232361e-02
4.349461570382118225e-02
4.789237305521965027e-02
-3.052517399191856384e-02
-1.004173606634140015e-02
5.834269337356090546e-03
-3.893638774752616882e-02
-4.605343565344810486e-02
-8.415055461227893829e-03
-4.318104311823844910e-02
-3.885631263256072998e-02
-1.077977567911148071e-02
-3.619081154465675354e-02
8.805670775473117828e-03
1.357883494347333908e-02
-2.827941067516803741e-02
2.553591877222061157e-02
1.630376651883125305e-02
-3.318152949213981628e-02
-3.053849004209041595e-02
3.739695996046066284e-02
2.342075854539871216e-02
-3.982313442975282669e-03
-8.391140960156917572e-03
-3.390382230281829834e-02
-2.986389212310314178e-02
3.104136884212493896e-02
1.028763689100742340e-02
-2.129483595490455627e-02
4.610522836446762085e-02
-1.010486669838428497e-02
1.588355749845504761e-02
4.665212705731391907e-02
2.109877206385135651e-02
3.529226034879684448e-02
2.865649387240409851e-02
-3.695319965481758118e-02
-5.392920970916748047e-02
-1.322982460260391235e-02
-3.643941134214401245e-02
-2.085858210921287537e-02
1.776911690831184387e-02
-1.281847432255744934e-02
-4.391072317957878113e-02
-2.697033993899822235e-02
1.910461112856864929e-03
-2.750072069466114044e-02
-5.377437919378280640e-02
-5.989066511392593384e-02
-1.762697286903858185e-02
-1.781106553971767426e-02
6.434971932321786880e-03
-2.654752694070339203e-02
-2.834934927523136139e-02
-3.590551018714904785e-02
-4.006592556834220886e-02
-4.811285063624382019e-02
-2.517166174948215485e-02
-4.172843415290117264e-03
-6.743849255144596100e-03
4.786337725818157196e-03
1.948379725217819214e-02
-4.344393685460090637e-02
-4.060106351971626282e-02
2.218562178313732147e-02
-3.971100598573684692e-02
-2.382132411003112793e-02
-4.559547826647758484e-02
4.394220933318138123e-02
-5.783745646476745605e-02
2.519006468355655670e-02
1.771005056798458099e-02
-3.595524281263351440e-02
2.881399542093276978e-02
-3.608901798725128174e-02
-3.310411795973777771e-02
3.892911598086357117e-02
2.966940775513648987e-02
4.083510860800743103e-02
5.941336974501609802e-03
2.330474741756916046e-02
3.404480218887329102e-02
-2.237850055098533630e-02
-2.132431790232658386e-02
4.496098309755325317e-02
4.285575076937675476e-02
-1.364645431749522686e-03
5.192967504262924194e-02
-5.545961204916238785e-03
-2.784090489149093628e-02
2.130244299769401550e-02
1.103010587394237518e-02
-2.926752902567386627e-02
-4.492544755339622498e-02
4.685233347117900848e-03
6.297584157437086105e-03
2.084992825984954834e-02
5.406861379742622375e-02
-4.729765281081199646e-02
-1.438971236348152161e-02
3.270627185702323914e-02
2.475664764642715454e-02
-4.357708245515823364e-02
-5.987249314785003662e-02
1.420513540506362915e-02
2.398334071040153503e-02
-3.961556777358055115e-02
-8.302831090986728668e-03
2.130702137947082520e-02
-4.896049201488494873e-02
2.415049262344837189e-02
-2.437116764485836029e-02
-1.109645329415798187e-02
-1.596832275390625000e-02
3.496638964861631393e-03
-5.173963308334350586e-02
-9.055136702954769135e-03
7.660702103748917580e-04
-3.633331507444381714e-02
-4.759326984640210867e-04
9.625101462006568909e-03
-4.163729399442672729e-02
-2.409824356436729431e-02
5.057522561401128769e-03
2.126251533627510071e-02
-5.099539831280708313e-02
-2.929599955677986145e-03
-4.636945575475692749e-02
2.928293868899345398e-02
8.707321248948574066e-03
-1.932366564869880676e-02
-3.177260234951972961e-02
3.979002591222524643e-03
1.664886996150016785e-02
-4.477173462510108948e-02
-4.020586609840393066e-02
-2.812783978879451752e-02
-4.526446014642715454e-02
-3.437510877847671509e-02
2.884386293590068817e-02
-4.013143945485353470e-03
5.600975081324577332e-02
4.598969593644142151e-02
-2.218518406152725220e-02
1.649633981287479401e-02
5.071530118584632874e-02
1.735519431531429291e-02
4.720669984817504883e-02
-1.250473503023386002e-02
3.417855128645896912e-03
-2.252899669110774994e-02
5.879067257046699524e-02
-2.192123979330062866e-02
-1.838440820574760437e-02
-1.758002303540706635e-02
8.420038037002086639e-03
1.175270066596567631e-03
-3.814097493886947632e-02
3.385773673653602600e-02
-4.879287630319595337e-02
1.287675183266401291e-02
4.710683226585388184e-02
-2.512314915657043457e-02
-2.088427543640136719e-02
2.916604653000831604e-02
4.178182408213615417e-02
2.708809822797775269e-02
1.489473599940538406e-02
-3.858701884746551514e-02
7.552489172667264938e-03
2.646731771528720856e-02
-4.402436316013336182e-02
-4.704473912715911865e-02
-9.502699598670005798e-03
-9.553288691677153111e-04
2.366043254733085632e-02
3.536066785454750061e-02
2.730646729469299316e-02
-5.570654571056365967e-02
-3.182634711265563965e-02
-4.776553064584732056e-02
-2.093398012220859528e-03
-2.679202891886234283e-02
-5.237935483455657959e-02
4.407101310789585114e-03
3.095252811908721924e-02
-1.496343687176704407e-02
-8.227656362578272820e-04
-1.759779267013072968e-02
1.930377073585987091e-02
-5.638912692666053772e-02
-2.447142638266086578e-02
9.162339381873607635e-03
-2.222924027591943741e-03
-2.722745202481746674e-02
-1.604901999235153198e-02
-1.026152539998292923e-02
-4.140160605311393738e-02
-1.468891045078635216e-03
-1.104518189094960690e-03
-2.434662356972694397e-02
-4.600501805543899536e-02
-2.498816698789596558e-03
-4.417238757014274597e-03
-5.744421482086181641e-02
-4.389188066124916077e-02
3.867102041840553284e-02
5.695611611008644104e-02
-3.204466775059700012e-02
2.695217169821262360e-02
1.732881553471088409e-02
-2.759804017841815948e-02
-3.155672177672386169e-02
-5.036328732967376709e-02
-4.052479937672615051e-02
-5.939262453466653824e-03
4.362947121262550354e-02
-2.233383618295192719e-02
1.651630178093910217e-02
5.117136612534523010e-02
-1.390300504863262177e-02
-1.018912531435489655e-02
9.158128872513771057e-03
2.149849943816661835e-02
2.619541250169277191e-02
-5.828556418418884277e-02
2.539813145995140076e-02
-1.083080377429723740e-02
3.765171859413385391e-03
2.051573432981967926e-02
4.766382277011871338e-02
-4.215851426124572754e-02
2.766208164393901825e-02
-1.835522241890430450e-03
4.289986565709114075e-03
-5.985934659838676453e-02
4.055257141590118408e-02
3.472474217414855957e-02
-2.362068556249141693e-02
-4.806373268365859985e-03
-3.017807565629482269e-02
-1.779593713581562042e-02
-4.353143274784088135e-02
2.589567005634307861e-02
-5.429245997220277786e-03
3.354343399405479431e-02
-9.325424209237098694e-03
-5.690273270010948181e-02
3.531817346811294556e-02
2.046048827469348907e-02
-1.352157723158597946e-02
-1.454486604779958725e-02
-3.244852647185325623e-02
-3.167459275573492050e-03
3.311582608148455620e-03
-2.679193019866943359e-02
3.307693824172019958e-02
-3.756263991817831993e-03
-4.596393182873725891e-02
4.836917296051979065e-02
4.076429083943367004e-02
9.225612506270408630e-03
6.629936397075653076e-03
-2.176309190690517426e-02
-1.191554777324199677e-02
-6.576048210263252258e-03
-3.417439758777618408e-02
3.533626720309257507e-02
-3.862915933132171631e-02
4.559374600648880005e-02
-3.130677342414855957e-02
5.329842492938041687e-02
1.012139860540628433e-02
-1.608154363930225372e-02
2.640621550381183624e-02
-3.392003849148750305e-02
-6.146080791950225830e-03
-5.024152621626853943e-02
-2.386999689042568207e-02
-3.207783028483390808e-02
-2.120464853942394257e-02
1.305432710796594620e-02
1.846699602901935577e-02
4.776737093925476074e-02
3.334067389369010925e-02
1.627377234399318695e-02
-4.196641035377979279e-03
3.662520647048950195e-02
1.823837310075759888e-02
-5.376370996236801147e-02
6.670153816230595112e-04
-4.460942372679710388e-02
-2.650219574570655823e-02
-4.738017544150352478e-02
8.544317446649074554e-03
-3.068494051694869995e-02
5.155091639608144760e-03
4.187446460127830505e-02
-4.835828393697738647e-02
-5.262539163231849670e-02
-1.763538084924221039e-02
-8.087501861155033112e-03
-3.280858322978019714e-02
4.056348465383052826e-03
-2.683389186859130859e-02
-3.157211467623710632e-02
1.583156734704971313e-02
-4.171643406152725220e-02
-2.655721642076969147e-02
4.010118544101715088e-02
3.681749105453491211e-02
3.925799205899238586e-02
4.887475073337554932e-02
-1.620349287986755371e-02
2.816638536751270294e-02
4.147266503423452377e-03
-1.389151345938444138e-02
2.570820041000843048e-02
5.537215154618024826e-03
-5.608693510293960571e-02
4.372138530015945435e-02
1.880723424255847931e-02
-1.818748004734516144e-02
4.638190381228923798e-03
2.401181124150753021e-02
5.000079050660133362e-02
4.311762750148773193e-02
2.407255396246910095e-02
6.187308579683303833e-03
-3.086244687438011169e-02
-1.770504191517829895e-02
1.677486859261989594e-02
4.296866059303283691e-02
8.206862839870154858e-04
-2.823266014456748962e-02
3.146435320377349854e-02
5.231690010987222195e-04
5.487127974629402161e-02
-4.070155695080757141e-02
1.739044301211833954e-02
-2.652340196073055267e-02
4.069255292415618896e-02
2.895255014300346375e-02
-4.903428256511688232e-03
2.327862940728664398e-02
1.780765503644943237e-02
2.766659110784530640e-02
-2.103312499821186066e-02
-4.920155555009841919e-02
5.288398265838623047e-02
-6.390193011611700058e-03
1.227656565606594086e-02
3.750306740403175354e-02
3.005861304700374603e-03
-1.096452213823795319e-02
-4.020965844392776489e-02
-8.439889177680015564e-03
2.291261777281761169e-02
-3.685617819428443909e-02
-3.314415365457534790e-02
-1.075809635221958160e-02
-4.862413927912712097e-02
1.925467140972614288e-02
-2.845070511102676392e-02
-2.648542076349258423e-02
8.925396949052810669e-03
-2.107199514284729958e-03
-4.134787246584892273e-02
2.204083092510700226e-02
-4.832978919148445129e-02
1.877188123762607574e-02
-3.208238631486892700e-02
-1.101237721741199493e-02
-2.108222804963588715e-02
3.638710826635360718e-02
4.857893101871013641e-03
4.406403377652168274e-02
-1.666520349681377411e-02
-3.096534125506877899e-02
-3.594951331615447998e-02
-1.282779686152935028e-02
-2.682480774819850922e-02
5.337365344166755676e-02
-3.623320162296295166e-02
2.184715867042541504e-02
-2.538158930838108063e-02
-3.173851408064365387e-03
-2.872599102556705475e-02
-4.156877100467681885e-02
-1.678701490163803101e-02
-1.934976875782012939e-02
1.310478523373603821e-02
3.524670749902725220e-02
1.648582704365253448e-02
2.411392331123352051e-02
-7.013418711721897125e-03
3.735192120075225830e-02
-1.112698111683130264e-02
-4.911660030484199524e-02
-1.421311032027006149e-02
3.779183328151702881e-02
-1.985656563192605972e-03
2.747895941138267517e-02
-3.126740455627441406e-02
-2.013842016458511353e-02
3.246922791004180908e-02
1.520403940230607986e-02
1.573223620653152466e-02
2.246091514825820923e-02
9.884193539619445801e-03
4.657331481575965881e-02
2.380702085793018341e-02
-4.048964753746986389e-02
4.534772038459777832e-02
-1.092379167675971985e-02
5.900698155164718628e-02
-7.632470689713954926e-03
-3.703834861516952515e-02
-2.139060571789741516e-02
-3.461338579654693604e-02
4.873161390423774719e-02
-3.411667048931121826e-02
-1.071880178642459214e-04
-1.594173163175582886e-02
-1.232109777629375458e-02
5.007459968328475952e-02
-1.134523263317532837e-04
-1.494328118860721588e-02
3.336610272526741028e-02
1.179170235991477966e-02
-2.987376227974891663e-02
1.957168243825435638e-02
4.809244722127914429e-02
5.662387609481811523e-02
-2.005500160157680511e-02
5.629413202404975891e-02
3.771286457777023315e-02
6.065310910344123840e-02
4.881002381443977356e-02
-1.316642574965953827e-02
5.389447323977947235e-06
-4.844701662659645081e-02
3.962789103388786316e-02
-1.164227537810802460e-02
8.010442368686199188e-03
8.159063756465911865e-03
4.163985699415206909e-02
-1.496304105967283249e-02
4.510260373353958130e-02
5.961971357464790344e-02
4.835688695311546326e-02
4.117034748196601868e-02
-3.186204656958580017e-02
3.173629567027091980e-02
5.403018370270729065e-02
4.368908703327178955e-02
-1.733455806970596313e-02
1.682541519403457642e-02
4.756782203912734985e-02
-3.628055378794670105e-02
4.947634786367416382e-02
-2.265767380595207214e-02
-1.658789813518524170e-02
2.790389396250247955e-02
-1.701079122722148895e-02
1.142499875277280807e-02
-8.843501098453998566e-03
1.134428381919860840e-02
4.219824820756912231e-02
4.884085431694984436e-02
1.051055174320936203e-02
1.204789616167545319e-02
-4.209401085972785950e-02
1.231096335686743259e-03
5.862565711140632629e-03
-4.622868448495864868e-02
-3.993818536400794983e-02
-1.183277368545532227e-02
-2.198921283707022667e-03
5.889120325446128845e-02
3.122957982122898102e-02
1.320805493742227554e-02
-3.859148919582366943e-02
-3.904967382550239563e-02
2.476662583649158478e-02
-1.172071043401956558e-02
-1.659490354359149933e-02
-3.366506099700927734e-02
5.664449930191040039e-02
-3.118780814111232758e-02
-2.467431686818599701e-02
4.337323084473609924e-02
5.046656727790832520e-02
-2.015028335154056549e-02
-2.279196307063102722e-02
2.622171677649021149e-02
-4.714677855372428894e-02
-2.500114589929580688e-02
7.454281672835350037e-03
2.757459878921508789e-02
-2.592811733484268188e-02
1.927851885557174683e-02
6.146875023841857910e-02
5.772075802087783813e-02
6.689272355288267136e-03
2.731054788455367088e-03
-1.552089117467403412e-03
4.897953569889068604e-02
3.933851048350334167e-02
4.757764562964439392e-02
3.385619446635246277e-02
3.230004012584686279e-02
-2.242266386747360229e-02
-3.670310229063034058e-02
5.430446192622184753e-02
5.893781036138534546e-02
-3.488530218601226807e-02
-1.716415211558341980e-02
-4.364294558763504028e-02
2.742076478898525238e-02
2.815630286931991577e-02
2.297759614884853363e-02
-4.223925247788429260e-02
2.203346416354179382e-02
2.108610980212688446e-02
-2.589560300111770630e-02
-5.180233623832464218e-03
-1.667441613972187042e-02
-3.277777135372161865e-02
-1.398763526231050491e-02
-3.696317225694656372e-02
-5.257804412394762039e-03
1.913019455969333649e-02
3.510420024394989014e-02
-5.408796016126871109e-03
-1.675425679422914982e-03
-1.256491709500551224e-02
1.449136808514595032e-02
-5.358652025461196899e-02
-4.097461700439453125e-02
2.412223629653453827e-02
4.122215136885643005e-02
8.080058731138706207e-03
-4.241416975855827332e-02
5.522587150335311890e-02
3.100179322063922882e-02
4.602417349815368652e-02
-3.177903220057487488e-02
-4.214865714311599731e-02
1.178653165698051453e-02
-4.464927315711975098e-02
-5.406494811177253723e-02
-2.342060767114162445e-02
-1.055134180933237076e-02
-2.346112579107284546e-02
3.561200201511383057e-02
-4.275492206215858459e-02
1.871004328131675720e-02
-3.329268097877502441e-02
2.772771753370761871e-02
3.501921519637107849e-02
-2.445929683744907379e-02
3.009562194347381592e-02
1.370467059314250946e-02
9.612894617021083832e-03
