-3.485712036490440369e-02
3.612228855490684509e-02
5.419217795133590698e-02
5.333554372191429138e-02
2.513953112065792084e-02
-3.676088154315948486e-02
-4.688053857535123825e-03
-5.016934871673583984e-02
8.693490177392959595e-03
-2.141156978905200958e-02
-8.973252959549427032e-03
-2.607766166329383850e-02
-2.861969871446490288e-03
3.653542697429656982e-02
5.745983798988163471e-04
6.467671133577823639e-03
-2.470352500677108765e-02
3.763687610626220703e-02
5.531316250562667847e-02
-4.606388881802558899e-02
9.549431502819061279e-02
-3.646415472030639648e-02
-8.879290893673896790e-03
-2.664589509367942810e-02
-2.995399944484233856e-02
-1.634255051612854004e-02
-3.395541757345199585e-02
4.952388629317283630e-02
5.736594554036855698e-03
-6.235159467905759811e-03
-1.879287324845790863e-02
-1.944706030189990997e-02
1.797618158161640167e-02
-5.850893259048461914e-02
-1.111434306949377060e-02
5.832226201891899109e-02
-1.760096661746501923e-02
-1.359108462929725647e-02
-7.005369290709495544e-03
3.943081013858318329e-03
1.896464382298290730e-03
-1.411995943635702133e-02
-4.020433500409126282e-02
-3.186329826712608337e-02
2.222119271755218506e-02
-6.835573352873325348e-03
1.787191443145275116e-02
1.266146451234817505e-02
-1.596522331237792969e-02
-9.216359816491603851e-03
-1.070650517940521240e-01
4.890240728855133057e-03
2.099714986979961395e-02
8.226309716701507568e-02
-2.885486558079719543e-02
-8.811878971755504608e-03
4.133604839444160461e-02
-2.192360162734985352e-02
3.024864383041858673e-02
2.311451546847820282e-02
1.011169701814651489e-01
-4.850891605019569397e-02
-3.213660791516304016e-02
2.340827696025371552e-02
-4.366728663444519043e-02
6.265978515148162842e-02
-2.017428912222385406e-02
1.699461415410041809e-02
-1.236789394170045853e-02
-3.680753579828888178e-04
1.363785564899444580e-02
2.554485388100147247e-02
3.917298279702663422e-03
4.607186838984489441e-02
-3.728462383151054382e-02
-5.869018845260143280e-03
6.615784019231796265e-02
3.978918120265007019e-02
-3.696561977267265320e-02
-1.894051022827625275e-02
1.913093030452728271e-02
1.461834553629159927e-02
-1.534042414277791977e-02
-4.301250725984573364e-02
1.031485386192798615e-02
-6.994521711021661758e-03
-3.596143051981925964e-02
-5.564406746998429298e-04
-1.141176279634237289e-02
-2.836900576949119568e-02
-1.960143819451332092e-02
-1.501076330896466970e-04
-3.211456537246704102e-02
1.154860481619834900e-02
-1.950620301067829132e-02
6.437874585390090942e-02
8.344120346009731293e-03
-5.250032059848308563e-03
5.671303253620862961e-03
-4.341571778059005737e-02
1.381871988996863365e-03
-5.479257553815841675e-03
-9.100935421884059906e-03
-1.538547035306692123e-02
-2.277587354183197021e-02
1.859213225543498993e-02
2.971092984080314636e-02
1.836286112666130066e-02
-3.195351362228393555e-02
-4.039524495601654053e-02
-1.472155377268791199e-02
-2.135185338556766510e-02
-3.920141234993934631e-02
-3.495807945728302002e-02
4.972954466938972473e-02
3.783426061272621155e-02
-3.246927261352539062e-02
3.001044970005750656e-03
-1.441051065921783447e-02
-3.699474036693572998e-02
-3.178933635354042053e-03
-2.884857915341854095e-02
-1.197282969951629639e-02
7.729532662779092789e-03
3.976716101169586182e-02
-3.051067702472209930e-02
-1.726657710969448090e-02
-1.359846536070108414e-02
5.627978593111038208e-02
1.021624077111482620e-03
-8.454727008938789368e-03
-3.037815913558006287e-02
-3.165674209594726562e-02
-5.316955596208572388e-02
-1.983164995908737183e-02
5.989716574549674988e-02
-2.170695178210735321e-02
-2.400966733694076538e-02
1.001364644616842270e-02
-5.259731411933898926e-02
-2.840273268520832062e-02
-1.808330789208412170e-02
-8.492549881339073181e-03
-4.276542458683252335e-03
1.162585336714982986e-02
-3.116034157574176788e-02
-1.662754639983177185e-02
-4.667362198233604431e-02
3.439865633845329285e-02
4.648857284337282181e-03
-2.873000130057334900e-02
1.539512164890766144e-02
-5.157494544982910156e-02
-1.422675885260105133e-02
-3.708334267139434814e-02
-2.429377846419811249e-02
4.566678311675786972e-03
5.287111923098564148e-02
1.323010947089642286e-04
4.441113770008087158e-02
1.224507391452789307e-02
-3.890431299805641174e-02
9.185683913528919220e-03
-3.507755929604172707e-03
-8.214170113205909729e-03
1.084638107568025589e-02
7.037053257226943970e-02
1.086031086742877960e-02
9.995396435260772705e-02
-1.011860091239213943e-02
-1.007415354251861572e-02
-3.569886460900306702e-02
9.301272220909595490e-03
6.150261685252189636e-02
-4.970551654696464539e-02
-6.442773155868053436e-03
2.489482797682285309e-02
-2.763052005320787430e-03
-1.963521540164947510e-02
4.590722173452377319e-02
-3.900553658604621887e-02
-5.324558541178703308e-02
4.678515251725912094e-03
1.494767982512712479e-02
5.347738508135080338e-03
8.743824809789657593e-02
-2.922025136649608612e-02
-1.468945480883121490e-02
-2.036145888268947601e-02
-1.260170061141252518e-02
-2.980130538344383240e-02
-4.034424573183059692e-02
-1.839203573763370514e-02
-7.866503670811653137e-03
7.496218383312225342e-02
-1.378618180751800537e-02
2.610013633966445923e-02
-6.597367115318775177e-03
1.300848927348852158e-02
6.285550445318222046e-02
4.635372012853622437e-02
-2.890364266932010651e-02
3.687722608447074890e-02
3.294488787651062012e-02
2.805562876164913177e-02
3.897623345255851746e-02
-2.691252902150154114e-02
-1.682721450924873352e-02
-1.665311306715011597e-02
-1.470808871090412140e-02
-2.488122694194316864e-02
-3.601832315325737000e-02
-8.874123916029930115e-03
-3.297910559922456741e-03
2.526968345046043396e-02
-3.803979605436325073e-02
-2.107901871204376221e-02
-3.865411505103111267e-02
7.113442756235599518e-03
2.511907555162906647e-02
-3.487597778439521790e-02
-5.248072370886802673e-02
7.073768228292465210e-02
1.547943055629730225e-02
8.000382035970687866e-02
4.135738592594861984e-03
3.250207751989364624e-02
4.794326052069664001e-02
5.114622786641120911e-02
9.532868862152099609e-03
-4.438243340700864792e-03
-1.751973107457160950e-02
-1.865910738706588745e-02
-2.447497472167015076e-02
-1.359827257692813873e-02
-9.870053036138415337e-04
-1.861781068146228790e-02
7.618044503033161163e-03
8.484005182981491089e-02
4.766444861888885498e-02
-3.538924828171730042e-02
8.522254228591918945e-02
-4.695999622344970703e-02
-4.818268120288848877e-02
4.072004556655883789e-02
-2.224649116396903992e-02
-2.456897310912609100e-02
7.822427898645401001e-03
-2.711066417396068573e-02
-3.283448750153183937e-03
-3.266306221485137939e-02
-2.083176746964454651e-02
-2.386929467320442200e-02
-2.757944539189338684e-02
8.205829188227653503e-03
-2.999059855937957764e-02
-3.865607455372810364e-02
-1.510462258011102676e-02
-3.071723878383636475e-02
1.038138568401336670e-02
1.828185841441154480e-02
4.219693318009376526e-02
-3.446435928344726562e-02
-4.551366716623306274e-02
-1.954947225749492645e-02
-2.091276086866855621e-02
-3.479759395122528076e-02
-1.913026161491870880e-02
5.083586648106575012e-02
-9.879588149487972260e-03
-2.332476526498794556e-02
-2.144068293273448944e-02
-1.000448013655841351e-03
2.886638976633548737e-02
9.523247927427291870e-02
-1.517629530280828476e-02
-2.471499703824520111e-02
6.139393895864486694e-02
2.896157279610633850e-02
-6.552693899720907211e-03
-2.258833264932036400e-03
-2.222403511404991150e-02
-2.513518929481506348e-02
-4.080829024314880371e-02
-2.631861343979835510e-02
-3.153422102332115173e-02
-3.892396390438079834e-02
-3.179760277271270752e-02
-1.333523634821176529e-02
6.195168569684028625e-02
-1.998861692845821381e-02
8.437162637710571289e-02
-5.081882234662771225e-03
1.028303895145654678e-02
6.687155365943908691e-02
-9.386042132973670959e-03
-3.474843502044677734e-02
1.396268326789140701e-02
-4.426179826259613037e-02
-3.020824305713176727e-02
-1.728506572544574738e-02
4.623745381832122803e-02
3.926019126083701849e-04
-3.831328079104423523e-02
-3.767477348446846008e-02
-2.407133951783180237e-02
3.773047588765621185e-03
-3.084495663642883301e-02
5.954423546791076660e-02
-6.302491575479507446e-02
1.365305297076702118e-02
-6.046252790838479996e-03
-8.045905269682407379e-03
5.569948628544807434e-02
-1.692294888198375702e-02
-2.828725986182689667e-02
-4.764356464147567749e-02
-1.514347083866596222e-02
3.405587747693061829e-02
2.345443889498710632e-02
-3.029531985521316528e-02
-1.917981170117855072e-02
-5.589994601905345917e-03
-3.378838067874312401e-03
-2.989608235657215118e-02
-4.048963263630867004e-02
-1.222553849220275879e-02
2.251740731298923492e-02
3.087541647255420685e-02
-1.326589845120906830e-03
3.671052679419517517e-02
7.197241485118865967e-02
1.029123961925506592e-01
-2.240839228034019470e-02
-3.074616938829421997e-02
-6.550195068120956421e-02
-7.576433476060628891e-03
4.958768561482429504e-02
-8.408943191170692444e-03
1.481984835118055344e-02
3.777218982577323914e-02
-2.552086487412452698e-02
5.637782812118530273e-02
-4.552976042032241821e-02
1.240178849548101425e-02
2.950211754068732262e-03
8.979263948276638985e-04
-1.000469084829092026e-02
5.170566961169242859e-02
8.543147891759872437e-02
2.428104355931282043e-02
6.979549676179885864e-02
-1.301364973187446594e-02
-3.443692624568939209e-02
-1.801147870719432831e-02
1.740263029932975769e-02
1.853490807116031647e-02
3.963606804609298706e-02
3.753988072276115417e-02
-4.492166265845298767e-02
7.871118932962417603e-02
-2.030088938772678375e-02
-3.831063583493232727e-02
-4.611622169613838196e-02
5.293687805533409119e-03
-4.548827931284904480e-02
-3.004682622849941254e-02
4.712661728262901306e-02
7.528276182711124420e-03
-3.557704016566276550e-02
2.562738209962844849e-02
-1.863298565149307251e-02
-1.756091415882110596e-02
1.742138713598251343e-02
6.739252060651779175e-02
-4.892186820507049561e-02
5.610705912113189697e-02
3.775849565863609314e-02
1.676600240170955658e-02
4.499604552984237671e-02
-1.935091800987720490e-02
-3.308221325278282166e-02
-5.209448747336864471e-03
-4.780679196119308472e-02
