7.776101678609848022e-02
-3.497630730271339417e-02
-3.436464816331863403e-02
-7.506640627980232239e-03
1.931019127368927002e-02
2.015936188399791718e-02
5.599662661552429199e-02
3.416065871715545654e-02
1.883844472467899323e-02
-6.966178119182586670e-02
-2.381745912134647369e-02
-2.535067126154899597e-02
7.369909435510635376e-02
6.204576045274734497e-02
-7.829185575246810913e-03
2.177555672824382782e-02
9.273802489042282104e-02
-3.724862262606620789e-02
-7.397881243377923965e-03
-5.545879155397415161e-02
-5.802452564239501953e-02
-5.498582869768142700e-02
1.090403553098440170e-02
1.093031987547874451e-01
-3.127282112836837769e-02
-4.132649675011634827e-02
-3.952278569340705872e-02
6.962084770202636719e-02
-1.997307687997817993e-02
2.183644287288188934e-02
1.263232994824647903e-02
6.340835243463516235e-02
-3.029900230467319489e-02
-1.424508355557918549e-02
4.179730638861656189e-02
-2.827436476945877075e-02
-8.459050208330154419e-03
6.155308336019515991e-03
-2.317014522850513458e-02
3.328407928347587585e-02
-4.164067655801773071e-02
-2.159010246396064758e-02
-3.660770878195762634e-02
8.618973940610885620e-02
4.655770584940910339e-02
-6.682991050183773041e-03
5.571549758315086365e-02
-3.125223889946937561e-02
-1.632585562765598297e-02
-1.660754345357418060e-02
6.154032051563262939e-02
1.037592142820358276e-01
7.591995596885681152e-02
6.463050842285156250e-02
1.146946335211396217e-03
-2.157310023903846741e-02
-4.030534997582435608e-02
1.980763673782348633e-02
6.006543338298797607e-02
-4.702563583850860596e-02
-2.164900489151477814e-02
-1.162223867140710354e-03
6.738099455833435059e-02
2.997632510960102081e-02
9.616412222385406494e-03
3.360630245879292488e-03
1.622814871370792389e-02
-5.150544457137584686e-03
5.270754173398017883e-02
7.584467530250549316e-02
7.509557995945215225e-03
7.142931967973709106e-02
5.349113792181015015e-02
5.430421605706214905e-02
1.109018363058567047e-02
7.186050713062286377e-02
-1.424990314990282059e-02
-9.601212106645107269e-03
6.162382778711616993e-04
1.157268285751342773e-01
9.011318907141685486e-03
-1.158010959625244141e-02
-3.634824603796005249e-02
2.620127983391284943e-03
-2.937476616352796555e-03
-3.856515884399414062e-02
-5.805094260722398758e-03
2.059250511229038239e-02
-6.340774241834878922e-03
8.774335682392120361e-02
-3.373739123344421387e-02
-7.052380591630935669e-02
2.990192361176013947e-02
6.212103366851806641e-02
2.406376600265502930e-02
9.230399876832962036e-02
5.770796537399291992e-02
-2.381146512925624847e-02
-2.083628624677658081e-02
-1.862651319243013859e-03
-1.521525066345930099e-02
2.245900966227054596e-02
-5.261377245187759399e-02
-2.349887043237686157e-03
9.011075645685195923e-02
-2.835457026958465576e-02
-4.547845944762229919e-02
-7.118330337107181549e-03
-4.239903390407562256e-02
2.416598796844482422e-02
6.675138138234615326e-04
-7.124155014753341675e-02
-2.957655675709247589e-02
-1.719777286052703857e-02
-2.577516436576843262e-02
7.584187388420104980e-02
4.951165616512298584e-02
-1.276061683893203735e-02
7.599485665559768677e-02
-2.232261747121810913e-02
1.465251203626394272e-03
1.093249693512916565e-01
3.406073153018951416e-02
8.101624995470046997e-02
-6.439400464296340942e-02
5.437315255403518677e-02
2.043276280164718628e-02
-4.661011323332786560e-02
-2.033108100295066833e-02
3.153691068291664124e-02
5.819440260529518127e-02
-1.637836801819503307e-03
-3.154330328106880188e-02
-5.296238511800765991e-02
9.763336181640625000e-02
3.382085263729095459e-02
4.353405907750129700e-02
-1.668069139122962952e-02
3.257560729980468750e-02
-3.685499355196952820e-02
8.148924261331558228e-02
4.220062866806983948e-02
9.163641929626464844e-02
2.612848766148090363e-02
-4.466941114515066147e-03
7.745893299579620361e-02
-3.772883862257003784e-02
-2.436209470033645630e-02
1.144438534975051880e-01
1.615082845091819763e-02
2.576728165149688721e-02
-2.182015031576156616e-02
-3.953031450510025024e-02
-7.207486778497695923e-03
8.852960541844367981e-03
7.812501490116119385e-02
2.745813876390457153e-02
-1.342147588729858398e-02
-3.912683576345443726e-02
3.486136673018336296e-03
-6.416614353656768799e-02
-4.457807634025812149e-03
7.551797479391098022e-02
1.002602353692054749e-01
-2.079815790057182312e-02
-1.572759076952934265e-02
7.078956812620162964e-02
6.140882149338722229e-02
-1.281827408820390701e-02
3.319960087537765503e-02
1.014256030321121216e-01
-2.691244706511497498e-02
-1.452882587909698486e-02
7.550185173749923706e-02
-3.982697147876024246e-03
3.702925518155097961e-02
-1.761741191148757935e-02
-2.260820940136909485e-02
-4.942176863551139832e-03
5.321975797414779663e-03
6.118582934141159058e-02
9.377699345350265503e-02
2.147990465164184570e-02
2.712560631334781647e-02
-1.737722940742969513e-02
-6.505757570266723633e-02
-2.668809704482555389e-02
-3.959750384092330933e-02
-1.777878403663635254e-02
7.399331312626600266e-03
3.207137435674667358e-02
8.784197270870208740e-02
-1.633934117853641510e-02
7.187530398368835449e-02
8.581698685884475708e-02
-1.096613425761461258e-02
3.113084658980369568e-02
4.515442252159118652e-02
-4.309722036123275757e-02
-4.009961336851119995e-02
8.967672288417816162e-02
-2.897530794143676758e-02
3.104218840599060059e-02
6.865467876195907593e-02
7.410404086112976074e-02
2.195927547290921211e-03
6.047173216938972473e-02
-2.486759237945079803e-02
1.119532901793718338e-02
3.331464156508445740e-02
-3.778913989663124084e-02
9.204450249671936035e-02
4.692239686846733093e-03
-3.275111317634582520e-02
3.532304253894835711e-04
5.856596678495407104e-02
1.416160762310028076e-01
-6.211918592453002930e-02
-3.486548736691474915e-02
-7.494306191802024841e-04
1.010320708155632019e-02
5.099634081125259399e-02
6.340304762125015259e-02
-5.550601333379745483e-02
1.648864522576332092e-02
5.309295281767845154e-02
-5.494120717048645020e-02
1.121534034609794617e-01
-1.089690136723220348e-03
-2.694718912243843079e-02
7.820475101470947266e-02
-6.730823777616024017e-03
-2.503444440662860870e-02
5.475315079092979431e-02
-7.398481480777263641e-03
6.810017861425876617e-03
4.945647343993186951e-02
7.514671888202428818e-03
-4.073686152696609497e-02
3.516943752765655518e-02
5.463524907827377319e-02
2.810900565236806870e-03
-2.339941635727882385e-02
7.255635410547256470e-02
-5.620945245027542114e-02
-4.112102463841438293e-02
-1.221382757648825645e-03
1.359856501221656799e-02
9.529182314872741699e-02
9.379008412361145020e-02
-2.916946075856685638e-02
3.825458511710166931e-02
-9.581044316291809082e-03
-1.779544726014137268e-02
1.079625450074672699e-02
-6.871309131383895874e-02
