6.545425206422805786e-02
2.526973746716976166e-02
3.463949076831340790e-03
-7.308819144964218140e-02
1.940567418932914734e-02
3.015025518834590912e-02
-1.806561090052127838e-02
-3.056789003312587738e-02
-1.939083449542522430e-02
1.725811138749122620e-02
-5.034745857119560242e-02
-4.564973339438438416e-02
-4.014265164732933044e-02
7.441430818289518356e-03
1.773830689489841461e-02
-3.378852084279060364e-02
1.760593056678771973e-02
1.939394697546958923e-02
1.016235798597335815e-01
-1.706434972584247589e-02
-5.037983134388923645e-02
3.828581422567367554e-02
4.290232807397842407e-02
-8.215586096048355103e-02
-7.712131366133689880e-03
7.435446977615356445e-02
1.237548887729644775e-02
-2.035394310951232910e-02
-1.820389367640018463e-02
7.091552764177322388e-02
2.904088236391544342e-02
-5.236766859889030457e-02
6.170600652694702148e-03
6.800605449825525284e-03
-3.318299725651741028e-02
-2.038251422345638275e-02
-1.229148078709840775e-02
1.660428382456302643e-02
3.834433853626251221e-02
-3.887440264225006104e-02
4.351909458637237549e-02
-4.323479533195495605e-02
-4.063696414232254028e-02
6.089796125888824463e-02
-6.435906141996383667e-02
-4.970316216349601746e-02
-8.722947910428047180e-03
8.894789963960647583e-03
-2.200881950557231903e-02
-2.105059102177619934e-02
4.855375736951828003e-02
-1.087517570704221725e-02
-9.834173135459423065e-03
1.331733912229537964e-02
1.745884888805449009e-03
-4.108000174164772034e-02
-2.978281863033771515e-02
-2.745329029858112335e-02
5.377350002527236938e-02
-3.632580628618597984e-03
3.730078414082527161e-02
-3.341191262006759644e-02
7.011795789003372192e-02
2.476636879146099091e-02
8.285747841000556946e-03
-1.441123429685831070e-02
-2.230276539921760559e-02
-2.826927788555622101e-02
2.201552502810955048e-02
-3.758670017123222351e-02
-9.582164697349071503e-03
-8.986523002386093140e-02
4.894563462585210800e-03
-3.093953989446163177e-02
7.805495057255029678e-03
-2.538716793060302734e-02
-2.738206461071968079e-02
3.481090068817138672e-02
-3.264251723885536194e-02
3.618557378649711609e-02
7.174175232648849487e-02
-1.175450999289751053e-02
6.763957208022475243e-04
-8.087622001767158508e-03
-5.970994383096694946e-02
-2.355635352432727814e-02
1.077841967344284058e-02
-9.642551839351654053e-02
-2.955376543104648590e-02
-5.798675585538148880e-03
-2.067564614117145538e-02
-3.932514041662216187e-02
-2.137982985004782677e-03
5.486724153161048889e-02
2.904277481138706207e-02
-7.339139282703399658e-02
4.163531120866537094e-04
-1.546680345200002193e-03
3.222700208425521851e-02
-8.903059177100658417e-03
5.863638967275619507e-02
-1.442607492208480835e-02
4.099131748080253601e-02
-3.872364014387130737e-02
-3.625459223985671997e-02
-6.486035883426666260e-03
-9.792044758796691895e-03
-7.132695615291595459e-02
-1.814393908716738224e-03
-1.954163983464241028e-02
-6.272321194410324097e-02
-1.230191066861152649e-02
7.112055551260709763e-03
-1.934419386088848114e-02
1.719427295029163361e-02
1.609402336180210114e-02
-4.188565164804458618e-02
-5.156049039214849472e-03
-5.413033068180084229e-02
-1.025237422436475754e-02
3.125341236591339111e-02
-4.328463226556777954e-02
-5.307969450950622559e-02
-8.960079401731491089e-03
-1.468061469495296478e-02
-1.487350277602672577e-02
2.305717207491397858e-02
-3.577281162142753601e-02
2.042320184409618378e-02
-3.595985099673271179e-02
-1.158263627439737320e-02
-4.708010330796241760e-02
7.540299091488122940e-03
-7.950807362794876099e-02
5.108886212110519409e-02
-4.823286458849906921e-02
2.021840400993824005e-02
-3.122009523212909698e-02
1.704111136496067047e-02
-3.286287561058998108e-02
9.096965193748474121e-02
-3.370776027441024780e-02
-2.057810313999652863e-02
-3.768347669392824173e-03
-3.740965947508811951e-02
-7.164176553487777710e-03
-3.063259832561016083e-02
5.798122379928827286e-03
5.628437548875808716e-02
8.004020899534225464e-02
1.981726661324501038e-02
-4.196813330054283142e-02
-5.678752809762954712e-02
-3.994045034050941467e-02
9.454905241727828979e-02
-3.724331781268119812e-02
5.656469985842704773e-02
-1.524925883859395981e-02
-2.346018142998218536e-02
5.406198278069496155e-02
-1.855314522981643677e-02
-5.025114398449659348e-03
-2.561024390161037445e-02
-5.150078609585762024e-02
1.542048063129186630e-02
-4.533983021974563599e-02
-2.439642883837223053e-02
1.332060620188713074e-02
-4.416764900088310242e-02
6.727488245815038681e-03
-1.981956185773015022e-03
-6.436016410589218140e-03
-1.493247505277395248e-02
-2.144104987382888794e-02
-3.985621780157089233e-02
6.847588345408439636e-03
-2.153779193758964539e-02
-1.251451112329959869e-02
-4.427902400493621826e-02
-5.747475475072860718e-02
-1.027070078998804092e-02
3.466148301959037781e-02
5.614405870437622070e-02
-5.257650837302207947e-02
-2.027310896664857864e-03
8.898913860321044922e-02
-3.859093785285949707e-02
-1.537180319428443909e-02
-4.030156508088111877e-02
1.518216915428638458e-02
3.414393216371536255e-02
-5.664348602294921875e-02
