-3.549529938027262688e-04
-3.934017382562160492e-03
1.034178864210844040e-02
5.575574561953544617e-02
1.426269067451357841e-03
5.376618355512619019e-02
-2.074552327394485474e-02
-1.603712327778339386e-02
-1.211174391210079193e-02
-2.665878646075725555e-02
-2.812272869050502777e-02
4.767663485836237669e-04
-9.932208806276321411e-03
-1.359453983604907990e-02
7.567521929740905762e-02
-3.111212281510233879e-03
-6.022849585860967636e-03
1.106935441493988037e-01
-1.401935797184705734e-02
-2.282731607556343079e-02
-2.513179741799831390e-02
-3.091092593967914581e-02
2.407792024314403534e-02
6.036403030157089233e-02
-7.604474667459726334e-03
-6.763979047536849976e-02
-5.725420638918876648e-02
-3.979141637682914734e-02
3.490085527300834656e-02
1.565804891288280487e-02
-3.023001590918283910e-05
3.192708641290664673e-02
5.655481480062007904e-03
-7.617831975221633911e-02
-1.513535063713788986e-02
-2.291801199316978455e-02
9.443923830986022949e-03
-4.730216227471828461e-03
-4.367119981907308102e-04
-3.246570378541946411e-02
4.089172463864088058e-03
7.429274171590805054e-02
-1.484155096113681793e-02
7.698943465948104858e-02
9.510045638307929039e-04
9.207753092050552368e-02
-1.184678915888071060e-02
-9.802560321986675262e-03
5.625932291150093079e-02
-4.277285188436508179e-02
9.905687719583511353e-02
-3.486671671271324158e-02
2.379499003291130066e-02
8.730556070804595947e-02
-5.602824036031961441e-03
8.132878690958023071e-02
-3.162617608904838562e-02
-8.058598265051841736e-03
-1.330634206533432007e-02
-4.107278957962989807e-02
-3.562215424608439207e-04
-2.373294532299041748e-02
-2.308323606848716736e-02
2.509324438869953156e-02
-1.559518510475754738e-03
-4.249186813831329346e-02
-1.639379933476448059e-02
-1.873409259133040905e-03
-1.386406272649765015e-02
-2.474951324984431267e-03
6.804279983043670654e-02
6.280333548784255981e-02
-1.607659645378589630e-02
-1.375476457178592682e-02
-3.690107027068734169e-03
2.272111363708972931e-02
5.124046280980110168e-02
-2.634031511843204498e-02
-2.648379094898700714e-02
-1.609133929014205933e-02
7.358362525701522827e-02
-1.228324696421623230e-02
-3.184022009372711182e-02
5.265862867236137390e-02
3.705540299415588379e-02
3.437979891896247864e-02
-6.931407377123832703e-03
8.802780881524085999e-03
2.974000060930848122e-03
-2.035349234938621521e-02
-1.004707068204879761e-01
1.603850163519382477e-02
4.070501774549484253e-03
3.334337472915649414e-02
-8.879415690898895264e-03
-4.606317356228828430e-02
-2.979774586856365204e-02
-5.997087573632597923e-04
4.220966622233390808e-02
5.716070905327796936e-02
-4.959088563919067383e-02
-2.613775804638862610e-02
-4.648863524198532104e-02
1.742159575223922729e-02
5.894917994737625122e-02
-8.924413472414016724e-03
-2.732549794018268585e-02
-6.457550823688507080e-02
-3.835491836071014404e-02
6.791855394840240479e-02
-1.122194156050682068e-02
-1.016261521726846695e-02
-3.294872492551803589e-02
6.455141305923461914e-02
2.532099187374114990e-02
6.587685644626617432e-02
-3.497306257486343384e-02
-7.498406339436769485e-03
-2.565919235348701477e-02
-3.478975221514701843e-02
-1.218990888446569443e-02
-2.998182550072669983e-03
9.037654101848602295e-02
5.458861123770475388e-03
7.828867528587579727e-04
-1.559316925704479218e-02
-1.607628539204597473e-02
-3.465449810028076172e-02
-7.996224798262119293e-03
-3.068474866449832916e-02
1.869826577603816986e-02
-1.464695390313863754e-02
-4.404406994581222534e-02
-8.154932409524917603e-03
-1.856424473226070404e-02
-9.705482050776481628e-03
2.197190746665000916e-02
-2.226448431611061096e-02
3.681387007236480713e-02
2.498659677803516388e-02
-2.272773534059524536e-02
-2.492568269371986389e-02
1.672222279012203217e-02
-1.260675583034753799e-02
1.665047486312687397e-03
-4.791267216205596924e-02
-3.721779584884643555e-02
4.215466976165771484e-02
-6.291171908378601074e-02
5.078668147325515747e-02
5.505691515281796455e-04
-1.558176986873149872e-02
-1.266983617097139359e-02
1.635576970875263214e-02
-1.539241522550582886e-02
5.641975440084934235e-03
3.461638465523719788e-02
-1.792009174823760986e-02
8.690384030342102051e-02
-2.173353359103202820e-02
-1.252268068492412567e-02
1.251572370529174805e-02
3.515750914812088013e-02
-1.519838254898786545e-02
-5.564589798450469971e-02
-1.643874868750572205e-02
2.847521007061004639e-02
-3.001023642718791962e-02
4.387916997075080872e-03
-1.284336019307374954e-02
-1.030920725315809250e-02
3.096752613782882690e-02
-5.362514872103929520e-03
3.281092643737792969e-02
6.481186300516128540e-02
3.644606471061706543e-02
8.115687966346740723e-02
6.999351084232330322e-03
1.160801481455564499e-02
-4.186827689409255981e-02
-2.538025565445423126e-02
3.709031967446208000e-03
6.999249104410409927e-03
-1.609648764133453369e-02
9.263705462217330933e-03
-3.340158611536026001e-02
-2.212478592991828918e-02
9.507156908512115479e-03
-3.438208997249603271e-02
-8.071624673902988434e-03
-2.061508037149906158e-02
-3.250475041568279266e-03
2.664429694414138794e-02
-7.115414366126060486e-03
-3.934628330171108246e-03
-1.286068186163902283e-02
6.902161240577697754e-02
2.961973659694194794e-02
6.769967079162597656e-02
-2.807344775646924973e-03
9.019375592470169067e-02
-2.527359314262866974e-02
3.762592375278472900e-02
7.203021552413702011e-03
5.921215191483497620e-02
6.772211194038391113e-02
-8.822081610560417175e-03
8.474481105804443359e-02
-2.728616120293736458e-03
2.897183643653988838e-03
-5.243223160505294800e-02
-8.211706764996051788e-03
-1.515569072216749191e-02
-1.784812659025192261e-02
-2.348230592906475067e-02
3.488185815513134003e-03
2.592688985168933868e-02
-2.672415226697921753e-02
-1.721596717834472656e-02
3.032675571739673615e-02
3.655293723568320274e-03
-1.072057615965604782e-02
-2.462880685925483704e-02
7.261351216584444046e-03
2.507505193352699280e-02
1.081641577184200287e-02
-7.258918602019548416e-03
4.029760882258415222e-02
4.897492378950119019e-02
2.966043725609779358e-02
-1.409217156469821930e-02
-6.929500959813594818e-03
4.571554437279701233e-02
-1.823827438056468964e-02
4.523526411503553391e-03
-2.144881756976246834e-03
7.966980338096618652e-02
-2.346605248749256134e-02
7.542585488408803940e-03
-1.841492950916290283e-02
5.802050605416297913e-02
-5.088710784912109375e-02
-2.644821815192699432e-02
-1.655244454741477966e-02
-5.694858264178037643e-03
-1.658230647444725037e-02
-2.388048171997070312e-02
-4.691867623478174210e-03
2.356145903468132019e-02
-9.518971666693687439e-03
1.139231473207473755e-01
-1.479454152286052704e-02
6.584963202476501465e-02
-3.334292024374008179e-02
4.231429100036621094e-02
3.921917825937271118e-02
