0.000000000000000000e+00
-0.000000000000000000e+00
-0.000000000000000000e+00
-0.000000000000000000e+00
0.000000000000000000e+00
0.000000000000000000e+00
0.000000000000000000e+00
0.000000000000000000e+00
0.000000000000000000e+00
0.000000000000000000e+00
-0.000000000000000000e+00
0.000000000000000000e+00
0.000000000000000000e+00
-0.000000000000000000e+00
0.000000000000000000e+00
0.000000000000000000e+00
-3.303326666355133057e-02
1.681148447096347809e-02
3.079640306532382965e-02
-1.575312204658985138e-02
1.743195205926895142e-02
1.897203549742698669e-02
4.203530400991439819e-02
-1.021128334105014801e-02
5.892745032906532288e-02
-3.600456519052386284e-03
7.002937793731689453e-02
-2.498424425721168518e-02
2.432178705930709839e-03
2.921438589692115784e-02
1.936030946671962738e-02
-2.487180382013320923e-02
-8.070861920714378357e-03
-0.000000000000000000e+00
-0.000000000000000000e+00
-0.000000000000000000e+00
0.000000000000000000e+00
0.000000000000000000e+00
-0.000000000000000000e+00
0.000000000000000000e+00
-6.405522115528583527e-03
-0.000000000000000000e+00
-0.000000000000000000e+00
0.000000000000000000e+00
-6.298002321273088455e-03
-7.401690818369388580e-03
0.000000000000000000e+00
0.000000000000000000e+00
-1.269751638174057007e-01
-2.949801683425903320e-01
-5.104504898190498352e-02
-5.102514103055000305e-02
3.810838609933853149e-02
5.749944224953651428e-02
4.098727554082870483e-02
-7.445205003023147583e-03
4.330809041857719421e-02
4.757099971175193787e-02
5.427619442343711853e-02
2.259562164545059204e-02
1.787041313946247101e-02
4.875449091196060181e-02
1.312099210917949677e-02
-6.100187823176383972e-02
-0.000000000000000000e+00
-0.000000000000000000e+00
-0.000000000000000000e+00
0.000000000000000000e+00
0.000000000000000000e+00
0.000000000000000000e+00
-0.000000000000000000e+00
-0.000000000000000000e+00
-0.000000000000000000e+00
-0.000000000000000000e+00
-0.000000000000000000e+00
0.000000000000000000e+00
-0.000000000000000000e+00
0.000000000000000000e+00
0.000000000000000000e+00
0.000000000000000000e+00
4.941884893923997879e-03
1.700999215245246887e-02
-1.437309533357620239e-01
-3.838426619768142700e-02
9.040797129273414612e-03
1.806355267763137817e-02
-6.809876114130020142e-02
-2.611447684466838837e-02
2.644940838217735291e-02
6.960298120975494385e-02
1.383796986192464828e-02
3.241949900984764099e-02
-9.049777686595916748e-02
-8.000393211841583252e-02
-1.358564794063568115e-01
2.862482145428657532e-02
3.863792400807142258e-03
4.034758731722831726e-02
3.579870611429214478e-02
2.065202966332435608e-02
-1.796101778745651245e-02
9.153974056243896484e-02
5.870150402188301086e-02
6.605701521039009094e-03
2.375147491693496704e-02
-1.908364007249474525e-03
-3.189644217491149902e-02
-3.467095270752906799e-02
-2.965147374197840691e-03
-2.003930136561393738e-02
-2.800495922565460205e-02
-7.130514830350875854e-02
-1.158473547548055649e-02
1.522815972566604614e-02
1.624746806919574738e-02
1.567075029015541077e-02
-1.044363901019096375e-02
2.015630947425961494e-03
-7.038685493171215057e-03
-2.064737025648355484e-03
5.094789434224367142e-03
-4.424050915986299515e-03
1.654228009283542633e-02
1.248767971992492676e-02
-1.524689048528671265e-01
-2.206701040267944336e-02
1.383850257843732834e-02
1.202470809221267700e-02
0.000000000000000000e+00
-0.000000000000000000e+00
-0.000000000000000000e+00
-0.000000000000000000e+00
-0.000000000000000000e+00
-0.000000000000000000e+00
0.000000000000000000e+00
-0.000000000000000000e+00
-0.000000000000000000e+00
0.000000000000000000e+00
0.000000000000000000e+00
0.000000000000000000e+00
-0.000000000000000000e+00
-0.000000000000000000e+00
-0.000000000000000000e+00
0.000000000000000000e+00
-8.369285613298416138e-03
8.742068894207477570e-03
1.419058069586753845e-03
1.136440783739089966e-02
-1.497208233922719955e-02
1.693989895284175873e-02
-2.117562666535377502e-02
2.435859292745590210e-03
-7.417975924909114838e-03
-2.049489505589008331e-02
-7.423812896013259888e-02
-6.508463062345981598e-03
4.171938076615333557e-02
-1.268138177692890167e-03
-7.143097370862960815e-02
1.514552813023328781e-02
-4.855412989854812622e-02
-3.086714632809162140e-02
-3.734607622027397156e-02
3.920231759548187256e-02
-3.108626417815685272e-02
-1.099449098110198975e-01
2.670987695455551147e-02
2.072859741747379303e-02
3.485550358891487122e-02
-1.382291689515113831e-02
8.411585539579391479e-02
-6.525161862373352051e-02
3.207651898264884949e-02
5.058504268527030945e-02
1.247903108596801758e-01
-4.143956676125526428e-02
5.543767288327217102e-02
8.530286140739917755e-03
-2.758173085749149323e-02
1.801083050668239594e-02
5.248473957180976868e-02
2.449328638613224030e-02
4.350674524903297424e-02
-2.571530453860759735e-02
-4.807977378368377686e-02
2.633757703006267548e-02
3.476206213235855103e-02
-1.744637638330459595e-02
1.697879284620285034e-02
1.532915700227022171e-02
3.996169567108154297e-02
1.857217773795127869e-02
0.000000000000000000e+00
-0.000000000000000000e+00
-0.000000000000000000e+00
-0.000000000000000000e+00
0.000000000000000000e+00
-0.000000000000000000e+00
-0.000000000000000000e+00
-0.000000000000000000e+00
0.000000000000000000e+00
0.000000000000000000e+00
0.000000000000000000e+00
-0.000000000000000000e+00
0.000000000000000000e+00
0.000000000000000000e+00
0.000000000000000000e+00
-0.000000000000000000e+00
2.831129357218742371e-02
-8.749699220061302185e-03
1.737454719841480255e-02
6.537585053592920303e-03
2.594411559402942657e-02
2.780951373279094696e-02
-1.360508147627115250e-02
-4.931766539812088013e-03
8.608780801296234131e-03
-1.385980006307363510e-02
-1.517666969448328018e-02
-5.865334346890449524e-02
-4.866581782698631287e-02
-1.016954109072685242e-01
3.534278273582458496e-02
-2.920334413647651672e-02
0.000000000000000000e+00
-0.000000000000000000e+00
-0.000000000000000000e+00
0.000000000000000000e+00
-0.000000000000000000e+00
0.000000000000000000e+00
0.000000000000000000e+00
0.000000000000000000e+00
0.000000000000000000e+00
-0.000000000000000000e+00
0.000000000000000000e+00
-0.000000000000000000e+00
-0.000000000000000000e+00
-0.000000000000000000e+00
-0.000000000000000000e+00
0.000000000000000000e+00
7.905906997621059418e-03
-5.217011552304029465e-03
-5.095980595797300339e-03
9.238357655704021454e-03
-6.029005162417888641e-03
-6.994021125137805939e-03
8.936720900237560272e-03
-9.442497976124286652e-03
3.720495849847793579e-03
-2.015336882323026657e-03
-1.128684077411890030e-02
6.153280846774578094e-03
-7.181088440120220184e-03
-5.510708782821893692e-03
-5.186862777918577194e-03
-5.660159047693014145e-03
-0.000000000000000000e+00
-1.121111586689949036e-02
6.438727956265211105e-03
9.634059853851795197e-03
-0.000000000000000000e+00
0.000000000000000000e+00
0.000000000000000000e+00
-1.446427777409553528e-02
-0.000000000000000000e+00
-0.000000000000000000e+00
0.000000000000000000e+00
-0.000000000000000000e+00
-0.000000000000000000e+00
-0.000000000000000000e+00
0.000000000000000000e+00
-2.366997301578521729e-03
8.467032457701861858e-04
8.300200849771499634e-02
-3.043967485427856445e-02
-1.421491149812936783e-02
7.929153740406036377e-02
-2.737740054726600647e-03
-6.094130873680114746e-02
-5.391812697052955627e-02
-1.979566924273967743e-02
3.592431172728538513e-02
9.712683036923408508e-03
1.668610051274299622e-02
-7.991295307874679565e-02
-2.388167753815650940e-02
1.603859476745128632e-02
-2.386240474879741669e-02
1.242708601057529449e-02
-2.048780396580696106e-02
-2.006359212100505829e-02
1.003849040716886520e-02
3.795442730188369751e-02
2.013255469501018524e-02
2.167725563049316406e-02
2.448224835097789764e-02
3.336269583087414503e-04
4.248132556676864624e-02
1.428560540080070496e-02
2.318615838885307312e-02
7.755936589092016220e-03
-1.223147753626108170e-02
-7.856078445911407471e-02
-7.492592930793762207e-02
-3.767776116728782654e-02
-6.537329172715544701e-04
-5.109708383679389954e-02
-8.217846602201461792e-02
2.248187549412250519e-02
2.832372300326824188e-02
-1.984437741339206696e-02
-1.383884251117706299e-01
-4.593926481902599335e-03
-6.900088395923376083e-03
-2.140088751912117004e-02
-1.538994908332824707e-01
-2.953306585550308228e-02
-4.130832478404045105e-02
-4.853803664445877075e-02
2.331854403018951416e-02
0.000000000000000000e+00
-0.000000000000000000e+00
-0.000000000000000000e+00
-0.000000000000000000e+00
-0.000000000000000000e+00
-0.000000000000000000e+00
-0.000000000000000000e+00
-0.000000000000000000e+00
-0.000000000000000000e+00
-0.000000000000000000e+00
-0.000000000000000000e+00
0.000000000000000000e+00
-0.000000000000000000e+00
-0.000000000000000000e+00
-0.000000000000000000e+00
-0.000000000000000000e+00
4.226867109537124634e-02
-5.088252574205398560e-02
-5.419695284217596054e-03
6.603919714689254761e-02
4.706387966871261597e-02
-4.162003844976425171e-02
-2.356941811740398407e-02
1.715320907533168793e-02
1.084493249654769897e-01
1.211697608232498169e-02
-9.491715580224990845e-02
-2.190904878079891205e-02
1.653853058815002441e-02
-1.054411940276622772e-02
-1.441091205924749374e-02
-2.497233636677265167e-02
0.000000000000000000e+00
0.000000000000000000e+00
-0.000000000000000000e+00
-0.000000000000000000e+00
-0.000000000000000000e+00
0.000000000000000000e+00
-0.000000000000000000e+00
-0.000000000000000000e+00
-0.000000000000000000e+00
0.000000000000000000e+00
-0.000000000000000000e+00
-0.000000000000000000e+00
-0.000000000000000000e+00
0.000000000000000000e+00
0.000000000000000000e+00
0.000000000000000000e+00
0.000000000000000000e+00
0.000000000000000000e+00
-0.000000000000000000e+00
-0.000000000000000000e+00
-0.000000000000000000e+00
0.000000000000000000e+00
-0.000000000000000000e+00
0.000000000000000000e+00
0.000000000000000000e+00
-0.000000000000000000e+00
-0.000000000000000000e+00
0.000000000000000000e+00
-0.000000000000000000e+00
-0.000000000000000000e+00
0.000000000000000000e+00
-0.000000000000000000e+00
-2.755393646657466888e-02
-2.125065401196479797e-02
-3.857039660215377808e-02
-3.305839747190475464e-02
-3.943378105759620667e-02
-1.889793947339057922e-02
-1.228954456746578217e-02
-4.461443983018398285e-03
2.733705565333366394e-02
-8.779205963946878910e-04
-1.456494443118572235e-03
-2.363162860274314880e-02
-4.093311727046966553e-02
2.911468781530857086e-02
5.051034316420555115e-02
2.455666102468967438e-02
-7.180233951658010483e-03
-7.180233951658010483e-03
-7.180233951658010483e-03
-7.180233951658010483e-03
-7.180233951658010483e-03
-7.180233951658010483e-03
-7.180233951658010483e-03
-7.180233951658010483e-03
-7.180233951658010483e-03
-7.180233951658010483e-03
-7.180233951658010483e-03
-7.180233951658010483e-03
-7.180233951658010483e-03
-7.180233951658010483e-03
-7.180233951658010483e-03
-7.180233951658010483e-03
-9.567821398377418518e-03
1.199166476726531982e-02
-1.103430800139904022e-02
-2.032686769962310791e-02
-3.919465094804763794e-02
3.824999788776040077e-03
-5.982706323266029358e-03
1.191618107259273529e-02
-3.727250546216964722e-02
-2.183820120990276337e-03
-1.283383928239345551e-03
6.515002809464931488e-03
-5.304736271500587463e-02
1.113593485206365585e-02
-1.269918400794267654e-02
2.509376779198646545e-02
7.802293635904788971e-03
-7.822275161743164062e-03
-1.179888751357793808e-02
-8.272033184766769409e-03
-1.099099498242139816e-02
-5.578931421041488647e-03
-5.917293019592761993e-03
-5.555825307965278625e-03
-8.325343951582908630e-03
-5.650536157190799713e-03
-5.561637226492166519e-03
-4.741185810416936874e-03
2.120177727192640305e-03
-4.706176929175853729e-03
-4.801582545042037964e-03
-2.935977187007665634e-03
-2.396943233907222748e-02
1.085055693984031677e-01
-1.216884106397628784e-01
-1.199280377477407455e-02
7.714041322469711304e-02
-4.055831953883171082e-02
-6.207330897450447083e-02
5.313616245985031128e-02
-9.547684341669082642e-02
-6.220680102705955505e-02
1.757105626165866852e-02
2.522299252450466156e-02
-7.156829535961151123e-02
-7.511081546545028687e-02
-5.755737796425819397e-02
5.742862075567245483e-02
4.438732936978340149e-02
9.997885674238204956e-03
2.473837928846478462e-03
7.009247317910194397e-03
6.950376927852630615e-02
4.068126901984214783e-02
-1.202715486288070679e-01
3.017644165083765984e-03
2.134828418493270874e-01
1.820725351572036743e-01
-1.201368216425180435e-02
2.950829826295375824e-02
6.647615227848291397e-03
6.743671000003814697e-02
2.299192175269126892e-02
2.461224980652332306e-02
5.541981384158134460e-02
3.273313865065574646e-02
1.729835348669439554e-04
5.635663866996765137e-03
-3.874894231557846069e-02
2.092661522328853607e-02
3.428980708122253418e-02
1.686372980475425720e-02
1.028520055115222931e-02
-1.760149449110031128e-01
-1.129784714430570602e-02
1.030295994132757187e-02
-2.140584960579872131e-02
-1.028799265623092651e-02
-1.413851696997880936e-02
1.880034618079662323e-02
8.006606251001358032e-03
-6.531245075166225433e-03
-6.281539797782897949e-03
-6.504357792437076569e-03
-6.847569718956947327e-03
-7.130101788789033890e-03
-6.972079630941152573e-03
-7.118691690266132355e-03
-6.936573889106512070e-03
-7.207097020000219345e-03
-7.254539057612419128e-03
-7.393177598714828491e-03
-6.716340314596891403e-03
-7.026674225926399231e-03
-7.091431412845849991e-03
-7.193655706942081451e-03
0.000000000000000000e+00
0.000000000000000000e+00
-0.000000000000000000e+00
-0.000000000000000000e+00
-0.000000000000000000e+00
0.000000000000000000e+00
-0.000000000000000000e+00
-0.000000000000000000e+00
-0.000000000000000000e+00
-0.000000000000000000e+00
0.000000000000000000e+00
0.000000000000000000e+00
-0.000000000000000000e+00
0.000000000000000000e+00
0.000000000000000000e+00
-0.000000000000000000e+00
1.766471192240715027e-02
9.131010621786117554e-03
2.545007131993770599e-02
6.219775229692459106e-02
-3.376851603388786316e-02
-4.327034950256347656e-02
1.465965807437896729e-02
-2.834954485297203064e-02
1.073234714567661285e-02
1.563074998557567596e-02
6.315691024065017700e-02
-2.560418285429477692e-02
-5.416095256805419922e-03
2.521847374737262726e-02
-1.753748208284378052e-02
4.865848273038864136e-02
-0.000000000000000000e+00
0.000000000000000000e+00
0.000000000000000000e+00
-0.000000000000000000e+00
-0.000000000000000000e+00
0.000000000000000000e+00
-0.000000000000000000e+00
0.000000000000000000e+00
0.000000000000000000e+00
-0.000000000000000000e+00
0.000000000000000000e+00
0.000000000000000000e+00
-0.000000000000000000e+00
0.000000000000000000e+00
-0.000000000000000000e+00
0.000000000000000000e+00
-0.000000000000000000e+00
-0.000000000000000000e+00
-0.000000000000000000e+00
-0.000000000000000000e+00
0.000000000000000000e+00
0.000000000000000000e+00
-0.000000000000000000e+00
-0.000000000000000000e+00
0.000000000000000000e+00
0.000000000000000000e+00
-0.000000000000000000e+00
0.000000000000000000e+00
-0.000000000000000000e+00
0.000000000000000000e+00
0.000000000000000000e+00
-0.000000000000000000e+00
1.169970724731683731e-02
1.734542474150657654e-02
-2.152142859995365143e-02
1.545591931790113449e-02
5.781836435198783875e-02
-4.916724865324795246e-04
1.012352015823125839e-02
-3.615565598011016846e-03
1.140276864171028137e-01
1.127091515809297562e-02
1.209337450563907623e-02
-1.020925417542457581e-01
4.411073401570320129e-02
1.099273841828107834e-02
-3.971736505627632141e-02
-1.100856661796569824e-01
1.186396181583404541e-02
1.438166201114654541e-02
2.993681840598583221e-02
9.387028217315673828e-02
7.718359678983688354e-02
7.959174364805221558e-02
7.211700081825256348e-02
4.640015214681625366e-02
4.390607029199600220e-02
3.433685004711151123e-02
4.407815262675285339e-02
6.449228525161743164e-02
-3.864940255880355835e-02
-4.025275260210037231e-02
-2.124409750103950500e-02
1.745100133121013641e-02
5.780532583594322205e-02
3.858672827482223511e-02
3.096800297498703003e-02
2.314729429781436920e-02
1.585630932822823524e-03
-6.622835993766784668e-02
-6.831030547618865967e-02
-8.183786645531654358e-03
-5.054374039173126221e-02
-4.011081531643867493e-02
-6.479966640472412109e-02
-4.373842105269432068e-02
-7.090127468109130859e-02
-6.804172694683074951e-02
5.488218367099761963e-02
-7.252188026905059814e-02
-1.409155502915382385e-02
1.222248096019029617e-02
-4.056780040264129639e-02
5.210440233349800110e-02
-6.019143387675285339e-03
1.396969798952341080e-02
-7.606557011604309082e-02
-2.626811899244785309e-02
-7.619909197092056274e-02
-6.716591119766235352e-02
-2.681702189147472382e-02
-2.581020444631576538e-02
-4.229097813367843628e-02
-1.250262260437011719e-01
-8.183196187019348145e-02
1.200822647660970688e-02
-8.945384621620178223e-02
9.726900607347488403e-03
9.445954114198684692e-03
-3.640579432249069214e-02
4.216066747903823853e-02
3.036947362124919891e-02
1.108676381409168243e-02
-1.710643991827964783e-02
4.425122216343879700e-02
2.882349304854869843e-02
-1.904087327420711517e-02
3.811568487435579300e-03
-1.970833167433738708e-02
4.118452779948711395e-03
2.040481381118297577e-02
-1.160475332289934158e-02
-4.110405594110488892e-02
1.625375077128410339e-02
3.110996633768081665e-02
-1.098383311182260513e-02
-5.613446608185768127e-02
-4.231232218444347382e-03
3.087027184665203094e-02
-2.713353373110294342e-02
-1.819657906889915466e-02
-1.641130447387695312e-02
3.382495418190956116e-02
-3.845819830894470215e-02
-5.759101826697587967e-03
-4.394080955535173416e-03
-1.200436521321535110e-02
1.687809266149997711e-02
2.243619970977306366e-02
1.619203984737396240e-01
-2.198616042733192444e-02
-6.207349896430969238e-02
3.639695933088660240e-04
3.216726181562989950e-04
2.388006448745727539e-02
-2.071981132030487061e-02
-3.486816957592964172e-02
6.431716494262218475e-03
3.801798075437545776e-02
5.169256404042243958e-02
-3.460167720913887024e-02
3.954766690731048584e-02
-1.827217824757099152e-02
9.246408939361572266e-02
0.000000000000000000e+00
0.000000000000000000e+00
-0.000000000000000000e+00
0.000000000000000000e+00
-0.000000000000000000e+00
0.000000000000000000e+00
-0.000000000000000000e+00
0.000000000000000000e+00
-0.000000000000000000e+00
-0.000000000000000000e+00
-0.000000000000000000e+00
0.000000000000000000e+00
0.000000000000000000e+00
0.000000000000000000e+00
-0.000000000000000000e+00
-0.000000000000000000e+00
-9.494821541011333466e-03
1.416419912129640579e-02
3.137946128845214844e-02
-2.335113938897848129e-03
-3.995255008339881897e-02
-2.677955478429794312e-02
-5.680555477738380432e-03
-1.640614494681358337e-02
-4.773333668708801270e-02
-5.380222946405410767e-02
-2.743665687739849091e-02
-1.264147739857435226e-02
-1.709843873977661133e-01
-5.824204161763191223e-02
-2.655863575637340546e-02
-1.772934570908546448e-02
3.660587593913078308e-02
5.447302013635635376e-02
-2.633424475789070129e-02
-3.805260732769966125e-02
8.681757003068923950e-02
4.836770892143249512e-02
-3.520763292908668518e-02
-1.784925162792205811e-02
1.359269674867391586e-02
-4.312763456255197525e-03
-4.598128050565719604e-02
1.125620119273662567e-02
1.555986423045396805e-02
1.491758506745100021e-02
-2.507597580552101135e-02
-4.089243710041046143e-02
-6.629872601479291916e-03
-7.053968030959367752e-03
-7.055319380015134811e-03
-6.674343254417181015e-03
-6.925981491804122925e-03
-7.180545479059219360e-03
-7.180545479059219360e-03
-7.080660667270421982e-03
-6.977754179388284683e-03
-7.180545479059219360e-03
-7.180545479059219360e-03
-7.191997487097978592e-03
-6.595792248845100403e-03
-7.157573942095041275e-03
-7.186034694314002991e-03
-6.698232609778642654e-03
-1.606859639286994934e-02
-1.084896922111511230e-02
-3.037724830210208893e-02
-3.983613848686218262e-02
5.546545982360839844e-02
-1.963796839118003845e-02
-1.175655797123908997e-01
1.607412286102771759e-02
1.158079598098993301e-02
3.319171816110610962e-02
-9.425426274538040161e-02
-4.189869761466979980e-02
-2.944130264222621918e-02
-1.573599129915237427e-02
-1.350066438317298889e-02
9.523627161979675293e-02
0.000000000000000000e+00
-0.000000000000000000e+00
-0.000000000000000000e+00
-0.000000000000000000e+00
-0.000000000000000000e+00
-0.000000000000000000e+00
0.000000000000000000e+00
-0.000000000000000000e+00
-0.000000000000000000e+00
0.000000000000000000e+00
-0.000000000000000000e+00
-0.000000000000000000e+00
-0.000000000000000000e+00
-0.000000000000000000e+00
-0.000000000000000000e+00
0.000000000000000000e+00
-7.179619278758764267e-03
-7.179619278758764267e-03
-7.179619278758764267e-03
-7.179619278758764267e-03
-7.179619278758764267e-03
-7.179619278758764267e-03
-7.179619278758764267e-03
-7.179619278758764267e-03
-7.179619278758764267e-03
-7.179619278758764267e-03
-7.179619278758764267e-03
-7.179619278758764267e-03
-7.179619278758764267e-03
-7.179619278758764267e-03
-7.179619278758764267e-03
-7.179619278758764267e-03
2.520503662526607513e-02
4.775144159793853760e-02
5.388058722019195557e-02
2.439743466675281525e-02
3.174918144941329956e-02
1.944964937865734100e-02
2.896327339112758636e-02
-3.436138853430747986e-02
9.460464119911193848e-03
7.191849499940872192e-02
4.434909671545028687e-02
3.122910670936107635e-02
-1.742908917367458344e-02
-1.164820510894060135e-02
2.075216919183731079e-02
-2.298193797469139099e-02
-1.550714578479528427e-02
-2.014459297060966492e-02
-1.623186655342578888e-02
-7.937108166515827179e-03
-8.818869479000568390e-03
-1.769256591796875000e-02
-2.282436750829219818e-02
-2.431154623627662659e-02
-1.511479821056127548e-02
-1.799046527594327927e-03
-2.213376574218273163e-02
3.338392451405525208e-02
-2.657841704785823822e-02
-4.073761403560638428e-02
-6.310668308287858963e-03
-1.484967023134231567e-01
-1.339939702302217484e-02
0.000000000000000000e+00
0.000000000000000000e+00
0.000000000000000000e+00
-1.028722245246171951e-02
-0.000000000000000000e+00
0.000000000000000000e+00
-2.505600824952125549e-02
-0.000000000000000000e+00
-0.000000000000000000e+00
-0.000000000000000000e+00
0.000000000000000000e+00
-1.913805305957794189e-02
1.744100637733936310e-02
-0.000000000000000000e+00
-1.736750639975070953e-02
1.245646737515926361e-02
-9.389987098984420300e-04
2.268246188759803772e-02
2.976496890187263489e-02
2.110844850540161133e-02
4.881101846694946289e-02
6.160682812333106995e-02
3.927281592041254044e-03
1.498535275459289551e-02
-1.823587715625762939e-02
2.514022402465343475e-02
2.392816357314586639e-02
-4.082653298974037170e-02
-3.862570971250534058e-02
1.017402261495590210e-01
-3.481806069612503052e-02
-3.507212502881884575e-03
-1.541934628039598465e-02
-1.077828556299209595e-02
-3.306031599640846252e-02
-5.860770121216773987e-03
-7.906790822744369507e-03
-1.726088300347328186e-02
-3.860146971419453621e-04
-1.907247002236545086e-03
-4.190133418887853622e-03
-7.905676029622554779e-03
-3.980937413871288300e-03
-2.013650257140398026e-03
-3.785491688176989555e-03
-3.452404635027050972e-03
-8.775120601058006287e-03
4.092237725853919983e-02
1.932453922927379608e-02
-3.343674540519714355e-02
-4.473296180367469788e-02
7.326608151197433472e-02
-2.283866889774799347e-02
-4.858583211898803711e-02
-6.433491129428148270e-03
6.730078905820846558e-02
4.182969778776168823e-02
-5.744391307234764099e-02
3.633798658847808838e-02
1.284681912511587143e-02
1.898837462067604065e-02
-3.324243798851966858e-02
-5.531438160687685013e-03
-7.112009450793266296e-03
-7.180336862802505493e-03
-7.180336862802505493e-03
-7.180336862802505493e-03
-7.180336862802505493e-03
-7.180336862802505493e-03
-7.180336862802505493e-03
-7.180336862802505493e-03
-7.180336862802505493e-03
-7.180336862802505493e-03
-7.180336862802505493e-03
-7.180336862802505493e-03
-7.193989586085081100e-03
-7.180336862802505493e-03
-7.180336862802505493e-03
-7.183175068348646164e-03
0.000000000000000000e+00
0.000000000000000000e+00
0.000000000000000000e+00
-0.000000000000000000e+00
-0.000000000000000000e+00
-0.000000000000000000e+00
-0.000000000000000000e+00
0.000000000000000000e+00
-0.000000000000000000e+00
0.000000000000000000e+00
0.000000000000000000e+00
0.000000000000000000e+00
0.000000000000000000e+00
0.000000000000000000e+00
-0.000000000000000000e+00
0.000000000000000000e+00
0.000000000000000000e+00
-0.000000000000000000e+00
-0.000000000000000000e+00
-0.000000000000000000e+00
-0.000000000000000000e+00
0.000000000000000000e+00
0.000000000000000000e+00
0.000000000000000000e+00
0.000000000000000000e+00
-0.000000000000000000e+00
-0.000000000000000000e+00
0.000000000000000000e+00
-0.000000000000000000e+00
-0.000000000000000000e+00
-0.000000000000000000e+00
-0.000000000000000000e+00
0.000000000000000000e+00
0.000000000000000000e+00
-0.000000000000000000e+00
0.000000000000000000e+00
-0.000000000000000000e+00
0.000000000000000000e+00
0.000000000000000000e+00
0.000000000000000000e+00
-0.000000000000000000e+00
0.000000000000000000e+00
0.000000000000000000e+00
0.000000000000000000e+00
-0.000000000000000000e+00
-0.000000000000000000e+00
-0.000000000000000000e+00
-0.000000000000000000e+00
-0.000000000000000000e+00
-0.000000000000000000e+00
-0.000000000000000000e+00
-0.000000000000000000e+00
-0.000000000000000000e+00
-0.000000000000000000e+00
-0.000000000000000000e+00
-0.000000000000000000e+00
-0.000000000000000000e+00
-0.000000000000000000e+00
-0.000000000000000000e+00
-0.000000000000000000e+00
-0.000000000000000000e+00
-0.000000000000000000e+00
-0.000000000000000000e+00
-0.000000000000000000e+00
-7.180086337029933929e-03
-7.180086337029933929e-03
-7.180086337029933929e-03
-7.180086337029933929e-03
-7.180086337029933929e-03
-7.180086337029933929e-03
-7.180086337029933929e-03
-7.180086337029933929e-03
-7.180086337029933929e-03
-7.180086337029933929e-03
-7.180086337029933929e-03
-7.180086337029933929e-03
-7.180086337029933929e-03
-7.180086337029933929e-03
-7.180086337029933929e-03
-7.180086337029933929e-03
-6.557869911193847656e-02
4.323762282729148865e-02
-4.632452502846717834e-02
7.813692092895507812e-02
-1.003970280289649963e-01
-4.550802707672119141e-02
1.312829274684190750e-02
5.400114133954048157e-02
-1.005712971091270447e-01
-7.287529110908508301e-02
8.494982868432998657e-02
5.617482960224151611e-02
-1.591379195451736450e-01
5.438764579594135284e-03
3.175936266779899597e-02
9.717547893524169922e-02
-3.988351300358772278e-02
-5.290270596742630005e-02
-4.125327989459037781e-02
-1.370441317558288574e-01
-1.520277466624975204e-02
2.484386041760444641e-02
2.185537666082382202e-02
-6.994410883635282516e-03
-1.457144133746623993e-02
-4.393115639686584473e-02
-3.256934881210327148e-02
-5.167180299758911133e-02
2.369112148880958557e-02
5.308443307876586914e-02
-8.973842486739158630e-04
-5.904401466250419617e-02
9.481068700551986694e-03
2.829908393323421478e-02
-6.219032686203718185e-03
3.129395842552185059e-02
4.401548579335212708e-02
6.736705079674720764e-03
4.682658705860376358e-03
-5.065573751926422119e-02
2.941776998341083527e-02
-7.853151857852935791e-02
-7.712136954069137573e-03
-7.122740149497985840e-02
-2.973122335970401764e-02
-6.322035938501358032e-02
-4.561615362763404846e-02
-4.235548153519630432e-02
-6.244793068617582321e-03
-4.246946424245834351e-02
4.321104660630226135e-02
4.590843990445137024e-02
-4.868721216917037964e-02
-2.530595846474170685e-02
-1.548482663929462433e-02
4.089320078492164612e-02
-2.520322427153587341e-02
8.674669079482555389e-03
-3.369783610105514526e-02
-2.729666046798229218e-02
-4.480945691466331482e-02
-1.619978621602058411e-02
-1.376901753246784210e-02
-3.408700926229357719e-03
0.000000000000000000e+00
0.000000000000000000e+00
0.000000000000000000e+00
-0.000000000000000000e+00
-0.000000000000000000e+00
-0.000000000000000000e+00
0.000000000000000000e+00
-0.000000000000000000e+00
-0.000000000000000000e+00
-0.000000000000000000e+00
-0.000000000000000000e+00
-0.000000000000000000e+00
-0.000000000000000000e+00
0.000000000000000000e+00
-0.000000000000000000e+00
-0.000000000000000000e+00
-5.826056748628616333e-02
2.347201295197010040e-02
3.144647693261504173e-03
-6.328695919364690781e-03
1.749228220432996750e-03
3.930597379803657532e-02
5.248193070292472839e-02
4.479356110095977783e-02
-2.681462280452251434e-02
6.607481191167607903e-05
-3.121077641844749451e-02
-1.000000387430191040e-01
-7.335586100816726685e-02
-4.067485779523849487e-02
-8.757040649652481079e-02
-4.125789925456047058e-02
1.039727777242660522e-02
6.079968530684709549e-03
3.316624555736780167e-03
6.592303514480590820e-03
-1.553892251104116440e-02
-2.301605045795440674e-02
-2.061314135789871216e-02
-3.504770994186401367e-02
6.134004797786474228e-03
-2.315017482032999396e-04
6.915584090165793896e-04
-4.463332518935203552e-02
-2.930456772446632385e-02
-5.096437782049179077e-02
-3.112155385315418243e-02
-8.928688243031501770e-03
-0.000000000000000000e+00
0.000000000000000000e+00
-0.000000000000000000e+00
0.000000000000000000e+00
-0.000000000000000000e+00
-0.000000000000000000e+00
0.000000000000000000e+00
0.000000000000000000e+00
0.000000000000000000e+00
0.000000000000000000e+00
0.000000000000000000e+00
-0.000000000000000000e+00
0.000000000000000000e+00
-0.000000000000000000e+00
0.000000000000000000e+00
-0.000000000000000000e+00
-4.493846092373132706e-03
2.199488505721092224e-02
-3.250342607498168945e-02
-3.613634500652551651e-03
-2.431368455290794373e-02
1.836169511079788208e-02
-4.493244737386703491e-02
6.535081565380096436e-02
2.415093965828418732e-02
-7.502001523971557617e-02
3.384587541222572327e-02
2.644678205251693726e-02
1.586448028683662415e-02
-9.364281594753265381e-02
1.384641602635383606e-02
7.613341324031352997e-03
-7.179409731179475784e-03
-7.179409731179475784e-03
-7.179409731179475784e-03
-7.179409731179475784e-03
-7.179409731179475784e-03
-7.179409731179475784e-03
-7.179409731179475784e-03
-7.179409731179475784e-03
-7.179409731179475784e-03
-7.179409731179475784e-03
-7.179409731179475784e-03
-7.179409731179475784e-03
-7.179409731179475784e-03
-7.179409731179475784e-03
-7.179409731179475784e-03
-7.179409731179475784e-03
0.000000000000000000e+00
0.000000000000000000e+00
0.000000000000000000e+00
0.000000000000000000e+00
-0.000000000000000000e+00
-0.000000000000000000e+00
0.000000000000000000e+00
0.000000000000000000e+00
-0.000000000000000000e+00
-0.000000000000000000e+00
-0.000000000000000000e+00
0.000000000000000000e+00
0.000000000000000000e+00
-0.000000000000000000e+00
-0.000000000000000000e+00
0.000000000000000000e+00
3.684720024466514587e-02
2.910751290619373322e-02
9.132855571806430817e-03
-3.242472186684608459e-02
5.935367662459611893e-03
2.374827489256858826e-02
1.141131576150655746e-02
-3.015503752976655960e-03
-6.976173724979162216e-03
-2.777123451232910156e-02
1.911041326820850372e-03
-6.263366434723138809e-03
3.199123218655586243e-02
2.023371122777462006e-02
1.392016839236021042e-02
-3.441743925213813782e-02
-8.175300061702728271e-02
-6.127491127699613571e-03
-7.193987257778644562e-03
-7.870858535170555115e-03
7.512014824897050858e-03
-2.285876497626304626e-02
-1.991993561387062073e-02
-6.829555612057447433e-03
-2.604311332106590271e-02
-2.947555109858512878e-02
-3.094391897320747375e-02
-4.240010865032672882e-03
-1.492932438850402832e-03
8.007291471585631371e-04
-1.076647453010082245e-02
-1.120270602405071259e-02
4.251064360141754150e-02
-9.358359500765800476e-03
5.141831561923027039e-02
-2.899616770446300507e-02
7.110817730426788330e-02
3.713715821504592896e-02
3.643163293600082397e-02
1.338978298008441925e-02
-8.824785239994525909e-03
-3.109443234279751778e-03
2.477579750120639801e-02
3.726049140095710754e-02
-5.436298996210098267e-02
4.021926969289779663e-02
-2.538029104471206665e-02
3.716334328055381775e-02
0.000000000000000000e+00
0.000000000000000000e+00
-0.000000000000000000e+00
-0.000000000000000000e+00
0.000000000000000000e+00
-0.000000000000000000e+00
0.000000000000000000e+00
0.000000000000000000e+00
-0.000000000000000000e+00
-0.000000000000000000e+00
-0.000000000000000000e+00
-0.000000000000000000e+00
-0.000000000000000000e+00
-0.000000000000000000e+00
-0.000000000000000000e+00
-0.000000000000000000e+00
-0.000000000000000000e+00
0.000000000000000000e+00
0.000000000000000000e+00
-0.000000000000000000e+00
0.000000000000000000e+00
-0.000000000000000000e+00
0.000000000000000000e+00
-0.000000000000000000e+00
-0.000000000000000000e+00
-0.000000000000000000e+00
0.000000000000000000e+00
-0.000000000000000000e+00
0.000000000000000000e+00
-0.000000000000000000e+00
-0.000000000000000000e+00
0.000000000000000000e+00
-4.355010576546192169e-03
3.375702351331710815e-02
4.294366016983985901e-02
2.346545830368995667e-02
5.175681435503065586e-04
1.465797796845436096e-02
1.261893101036548615e-02
7.930740714073181152e-03
-1.548025943338871002e-02
-8.354774676263332367e-03
-7.681804709136486053e-03
-5.433147773146629333e-03
-1.278426498174667358e-02
-5.398177541792392731e-03
2.034251019358634949e-02
-1.327495556324720383e-02
-0.000000000000000000e+00
0.000000000000000000e+00
-0.000000000000000000e+00
0.000000000000000000e+00
-0.000000000000000000e+00
0.000000000000000000e+00
-0.000000000000000000e+00
-0.000000000000000000e+00
0.000000000000000000e+00
-0.000000000000000000e+00
-0.000000000000000000e+00
-0.000000000000000000e+00
0.000000000000000000e+00
-0.000000000000000000e+00
0.000000000000000000e+00
-0.000000000000000000e+00
-0.000000000000000000e+00
0.000000000000000000e+00
-0.000000000000000000e+00
-0.000000000000000000e+00
-0.000000000000000000e+00
0.000000000000000000e+00
-0.000000000000000000e+00
0.000000000000000000e+00
-0.000000000000000000e+00
0.000000000000000000e+00
-0.000000000000000000e+00
0.000000000000000000e+00
-0.000000000000000000e+00
0.000000000000000000e+00
-0.000000000000000000e+00
-0.000000000000000000e+00
-1.145362555980682373e-01
-1.193689107894897461e-01
-5.878510326147079468e-02
-1.157286688685417175e-01
-1.391793191432952881e-01
-5.521928519010543823e-02
-3.408511355519294739e-02
-8.199167996644973755e-02
3.603450208902359009e-02
-2.228949218988418579e-02
4.218329489231109619e-02
-1.357221603393554688e-01
-1.326955202966928482e-02
5.035566911101341248e-02
-8.562751114368438721e-02
-1.490526795387268066e-01
3.310750052332878113e-02
4.032539203763008118e-02
7.252235710620880127e-02
1.727749966084957123e-02
1.112415338866412640e-03
-1.787287928164005280e-02
5.655482411384582520e-02
1.405571866780519485e-02
-3.651840239763259888e-02
-3.309200704097747803e-02
-5.201878398656845093e-02
-4.339570645242929459e-03
-5.472928285598754883e-03
2.671528421342372894e-02
-4.754533618688583374e-02
-2.787384903058409691e-03
0.000000000000000000e+00
0.000000000000000000e+00
0.000000000000000000e+00
0.000000000000000000e+00
-0.000000000000000000e+00
-0.000000000000000000e+00
-0.000000000000000000e+00
0.000000000000000000e+00
0.000000000000000000e+00
0.000000000000000000e+00
0.000000000000000000e+00
0.000000000000000000e+00
0.000000000000000000e+00
0.000000000000000000e+00
-0.000000000000000000e+00
-0.000000000000000000e+00
0.000000000000000000e+00
0.000000000000000000e+00
0.000000000000000000e+00
-0.000000000000000000e+00
-0.000000000000000000e+00
-0.000000000000000000e+00
0.000000000000000000e+00
0.000000000000000000e+00
-0.000000000000000000e+00
0.000000000000000000e+00
-0.000000000000000000e+00
-0.000000000000000000e+00
-0.000000000000000000e+00
-0.000000000000000000e+00
-0.000000000000000000e+00
-0.000000000000000000e+00
-1.659137196838855743e-02
1.211880985647439957e-02
3.478625789284706116e-02
9.693133831024169922e-02
3.805800154805183411e-02
4.387858137488365173e-02
3.202886879444122314e-02
8.052363246679306030e-02
-7.609088905155658722e-03
-2.035436453297734261e-03
-2.417775057256221771e-02
-4.462439194321632385e-02
-3.838481754064559937e-02
1.562196016311645508e-02
-3.067883290350437164e-02
-1.422044932842254639e-01
1.134723331779241562e-02
5.997727159410715103e-03
-3.239294141530990601e-02
5.841547250747680664e-02
-3.602930530905723572e-02
3.015572391450405121e-02
-1.542734354734420776e-02
-7.562925107777118683e-03
-2.423538453876972198e-02
-7.675354927778244019e-02
-8.155631273984909058e-02
5.433848127722740173e-02
-6.299370527267456055e-02
-5.501459538936614990e-02
-3.740008920431137085e-02
-7.120680809020996094e-02
0.000000000000000000e+00
-0.000000000000000000e+00
0.000000000000000000e+00
-0.000000000000000000e+00
0.000000000000000000e+00
0.000000000000000000e+00
0.000000000000000000e+00
-0.000000000000000000e+00
-0.000000000000000000e+00
0.000000000000000000e+00
-0.000000000000000000e+00
0.000000000000000000e+00
0.000000000000000000e+00
0.000000000000000000e+00
0.000000000000000000e+00
-0.000000000000000000e+00
-7.177400868386030197e-03
-7.177400868386030197e-03
-7.177400868386030197e-03
-7.177400868386030197e-03
-7.177400868386030197e-03
-7.177400868386030197e-03
-7.177400868386030197e-03
-7.177400868386030197e-03
-7.177400868386030197e-03
-7.177400868386030197e-03
-7.177400868386030197e-03
-7.177400868386030197e-03
-7.177400868386030197e-03
-7.177400868386030197e-03
-7.177400868386030197e-03
-7.177400868386030197e-03
3.200304135680198669e-02
-4.307462833821773529e-03
-5.607276409864425659e-02
-3.224639222025871277e-02
1.042605414986610413e-01
7.189963012933731079e-02
-1.566547341644763947e-02
1.376344822347164154e-02
3.423127904534339905e-02
-1.856141164898872375e-02
-5.775338411331176758e-02
-2.843995764851570129e-02
1.317849941551685333e-02
1.084543019533157349e-01
1.249973028898239136e-01
-3.821825236082077026e-02
1.494862488470971584e-03
4.234090447425842285e-03
-8.603287860751152039e-03
-7.688001543283462524e-02
-1.088446285575628281e-02
8.853590115904808044e-03
-9.762811474502086639e-03
1.287036854773759842e-02
-2.999674342572689056e-02
2.855572663247585297e-02
-5.312268156558275223e-03
7.322753220796585083e-02
2.020517596974968910e-03
-1.768972165882587433e-02
-1.369081344455480576e-02
-3.331610700115561485e-03
-0.000000000000000000e+00
0.000000000000000000e+00
-0.000000000000000000e+00
0.000000000000000000e+00
-0.000000000000000000e+00
-0.000000000000000000e+00
-0.000000000000000000e+00
-0.000000000000000000e+00
-0.000000000000000000e+00
0.000000000000000000e+00
0.000000000000000000e+00
0.000000000000000000e+00
0.000000000000000000e+00
-0.000000000000000000e+00
-0.000000000000000000e+00
-0.000000000000000000e+00
-0.000000000000000000e+00
0.000000000000000000e+00
-0.000000000000000000e+00
0.000000000000000000e+00
-0.000000000000000000e+00
0.000000000000000000e+00
-0.000000000000000000e+00
-0.000000000000000000e+00
-0.000000000000000000e+00
0.000000000000000000e+00
-0.000000000000000000e+00
-0.000000000000000000e+00
0.000000000000000000e+00
0.000000000000000000e+00
-0.000000000000000000e+00
-0.000000000000000000e+00
-4.492399096488952637e-02
3.312123939394950867e-02
-7.930137217044830322e-02
2.755770087242126465e-02
1.681701838970184326e-02
2.484651841223239899e-02
-1.290767490863800049e-01
2.663614973425865173e-02
-1.031220797449350357e-02
-1.252041198313236237e-02
-1.482452601194381714e-01
-1.973438076674938202e-02
2.442067302763462067e-02
7.616709172725677490e-02
-2.672990597784519196e-02
2.783645316958427429e-02
0.000000000000000000e+00
0.000000000000000000e+00
0.000000000000000000e+00
-0.000000000000000000e+00
0.000000000000000000e+00
-0.000000000000000000e+00
-0.000000000000000000e+00
0.000000000000000000e+00
0.000000000000000000e+00
-0.000000000000000000e+00
0.000000000000000000e+00
0.000000000000000000e+00
-0.000000000000000000e+00
0.000000000000000000e+00
0.000000000000000000e+00
-0.000000000000000000e+00
-0.000000000000000000e+00
-0.000000000000000000e+00
-0.000000000000000000e+00
-0.000000000000000000e+00
0.000000000000000000e+00
0.000000000000000000e+00
0.000000000000000000e+00
-0.000000000000000000e+00
-0.000000000000000000e+00
0.000000000000000000e+00
0.000000000000000000e+00
0.000000000000000000e+00
-0.000000000000000000e+00
0.000000000000000000e+00
-0.000000000000000000e+00
0.000000000000000000e+00
-0.000000000000000000e+00
-0.000000000000000000e+00
-0.000000000000000000e+00
-0.000000000000000000e+00
-0.000000000000000000e+00
-0.000000000000000000e+00
0.000000000000000000e+00
-0.000000000000000000e+00
-0.000000000000000000e+00
-0.000000000000000000e+00
0.000000000000000000e+00
-0.000000000000000000e+00
-0.000000000000000000e+00
-0.000000000000000000e+00
-0.000000000000000000e+00
0.000000000000000000e+00
-7.525693625211715698e-02
-6.793346256017684937e-02
-1.750549674034118652e-02
-1.493718847632408142e-02
-4.481062293052673340e-02
4.685571417212486267e-02
-4.616223741322755814e-03
-1.901671476662158966e-02
-2.015186287462711334e-02
-8.332598023116588593e-03
9.553581476211547852e-03
-1.653155125677585602e-02
2.336785569787025452e-02
4.871645197272300720e-02
9.198949672281742096e-03
-3.737423568964004517e-02
-1.579611562192440033e-02
-3.589478437788784504e-04
-9.283105842769145966e-03
-5.602267337962985039e-04
-0.000000000000000000e+00
0.000000000000000000e+00
0.000000000000000000e+00
-5.278601776808500290e-03
0.000000000000000000e+00
-0.000000000000000000e+00
0.000000000000000000e+00
-3.960881754755973816e-02
0.000000000000000000e+00
0.000000000000000000e+00
0.000000000000000000e+00
0.000000000000000000e+00
0.000000000000000000e+00
-0.000000000000000000e+00
0.000000000000000000e+00
-0.000000000000000000e+00
0.000000000000000000e+00
0.000000000000000000e+00
0.000000000000000000e+00
-0.000000000000000000e+00
0.000000000000000000e+00
-0.000000000000000000e+00
0.000000000000000000e+00
0.000000000000000000e+00
0.000000000000000000e+00
-0.000000000000000000e+00
-0.000000000000000000e+00
-0.000000000000000000e+00
-1.784860505722463131e-03
-4.922455176711082458e-03
-4.667112603783607483e-03
-2.753534121438860893e-03
-2.651449758559465408e-03
-9.381681680679321289e-03
-5.240447819232940674e-03
-5.172715056687593460e-03
-4.095285665243864059e-03
-4.077564459294080734e-03
-4.953607451170682907e-03
-7.845547050237655640e-03
-6.410500966012477875e-03
-1.024394668638706207e-02
-1.468882896006107330e-02
-1.152203883975744247e-02
-0.000000000000000000e+00
-0.000000000000000000e+00
-0.000000000000000000e+00
0.000000000000000000e+00
-0.000000000000000000e+00
-0.000000000000000000e+00
-0.000000000000000000e+00
-0.000000000000000000e+00
-0.000000000000000000e+00
-0.000000000000000000e+00
-0.000000000000000000e+00
-0.000000000000000000e+00
0.000000000000000000e+00
-0.000000000000000000e+00
-0.000000000000000000e+00
-0.000000000000000000e+00
-3.314223140478134155e-02
-1.084552612155675888e-02
2.802263572812080383e-02
8.908323012292385101e-03
-5.227980762720108032e-02
-4.719639196991920471e-02
-2.802673727273941040e-02
1.770305074751377106e-02
2.036487683653831482e-02
1.169214156107045710e-04
-2.547638304531574249e-02
-8.420881815254688263e-03
4.714696109294891357e-02
2.213058993220329285e-02
3.641805052757263184e-02
-1.455975696444511414e-02
2.372183091938495636e-02
1.474225707352161407e-02
9.915870428085327148e-02
4.731041938066482544e-02
-4.352432116866111755e-02
-3.622893616557121277e-02
-5.963342846371233463e-04
-9.961509704589843750e-02
-3.827206417918205261e-02
-5.398550629615783691e-02
-4.406712949275970459e-02
7.223537564277648926e-02
-3.536526486277580261e-02
-2.577216327190399170e-01
-1.763525605201721191e-01
-1.858581602573394775e-02
5.803346633911132812e-03
-1.005535274744033813e-01
-2.024029754102230072e-02
1.055318396538496017e-02
-3.852635994553565979e-02
1.814757473766803741e-02
8.124553412199020386e-02
3.667632117867469788e-02
-4.927492141723632812e-02
4.063289985060691833e-02
4.577102512121200562e-02
-8.238610625267028809e-02
-1.133892126381397247e-02
1.628933101892471313e-01
1.998822093009948730e-01
-2.256700210273265839e-02
-0.000000000000000000e+00
0.000000000000000000e+00
-0.000000000000000000e+00
-0.000000000000000000e+00
-0.000000000000000000e+00
0.000000000000000000e+00
-0.000000000000000000e+00
0.000000000000000000e+00
0.000000000000000000e+00
-0.000000000000000000e+00
0.000000000000000000e+00
0.000000000000000000e+00
0.000000000000000000e+00
-0.000000000000000000e+00
0.000000000000000000e+00
-0.000000000000000000e+00
-0.000000000000000000e+00
0.000000000000000000e+00
0.000000000000000000e+00
-0.000000000000000000e+00
-0.000000000000000000e+00
-0.000000000000000000e+00
-0.000000000000000000e+00
-0.000000000000000000e+00
0.000000000000000000e+00
-0.000000000000000000e+00
-0.000000000000000000e+00
-0.000000000000000000e+00
-0.000000000000000000e+00
-0.000000000000000000e+00
-0.000000000000000000e+00
-0.000000000000000000e+00
0.000000000000000000e+00
0.000000000000000000e+00
-0.000000000000000000e+00
-0.000000000000000000e+00
0.000000000000000000e+00
0.000000000000000000e+00
-0.000000000000000000e+00
0.000000000000000000e+00
0.000000000000000000e+00
-0.000000000000000000e+00
0.000000000000000000e+00
0.000000000000000000e+00
0.000000000000000000e+00
-0.000000000000000000e+00
-0.000000000000000000e+00
0.000000000000000000e+00
2.421417087316513062e-02
-9.197394363582134247e-03
-2.967564389109611511e-02
-2.654501609504222870e-02
4.550168290734291077e-02
-2.264987304806709290e-02
1.813900098204612732e-02
-1.926238276064395905e-02
7.604703307151794434e-02
9.826075285673141479e-03
4.086000472307205200e-02
6.996171921491622925e-02
4.618714004755020142e-02
7.616877090185880661e-03
-1.733807660639286041e-02
2.543659321963787079e-02
-4.823787882924079895e-02
-2.348356880247592926e-03
1.806084439158439636e-02
2.770013920962810516e-02
6.063411012291908264e-03
-2.857129275798797607e-02
1.608048565685749054e-02
4.035163670778274536e-02
-3.246087580919265747e-02
-2.742007141932845116e-03
1.319662574678659439e-02
4.048996418714523315e-02
-4.051359370350837708e-02
-2.999811666086316109e-03
-3.030489757657051086e-02
-1.738368906080722809e-02
-5.462388973683118820e-03
-5.824079737067222595e-03
-5.851408001035451889e-03
-5.929743405431509018e-03
-6.007568910717964172e-03
-6.005011033266782761e-03
-6.004832684993743896e-03
-6.004958879202604294e-03
-5.902438890188932419e-03
-6.004943978041410446e-03
-6.004638969898223877e-03
-6.004960276186466217e-03
-6.099337711930274963e-03
-6.005106493830680847e-03
-6.005020812153816223e-03
-5.874610971659421921e-03
-1.472024321556091309e-01
7.668054196983575821e-03
-2.413453534245491028e-02
-2.918377146124839783e-02
-1.721103042364120483e-01
6.295747309923171997e-02
7.877235859632492065e-02
-5.947495996952056885e-02
-1.218978315591812134e-01
3.244675695896148682e-02
9.064178913831710815e-02
-2.168594859540462494e-02
-8.845672011375427246e-02
-3.842020407319068909e-02
-5.512694269418716431e-02
-3.908818121999502182e-03
8.268027566373348236e-03
3.029855713248252869e-02
1.130649447441101074e-02
1.556993578560650349e-03
2.100095897912979126e-02
3.602800518274307251e-02
6.330396281555294991e-04
-1.989081688225269318e-02
1.321468595415353775e-02
-2.165984362363815308e-02
-5.689940601587295532e-02
-7.355868816375732422e-03
5.270897597074508667e-02
4.328199848532676697e-02
3.078389680013060570e-03
2.677862718701362610e-02
-1.951393857598304749e-02
-6.026544421911239624e-02
-5.736926570534706116e-02
3.751201182603836060e-02
-1.180434152483940125e-01
-1.159807294607162476e-02
5.326242372393608093e-02
2.528123790398240089e-03
-8.036217093467712402e-02
8.782333135604858398e-02
7.717870175838470459e-02
-6.921011954545974731e-02
-4.379598796367645264e-02
2.254270475532393903e-05
-6.121936812996864319e-02
8.387632668018341064e-02
-2.622704254463315010e-03
-2.783894073218107224e-03
-6.407369510270655155e-04
4.525294527411460876e-03
-2.870413009077310562e-03
1.416042563505470753e-03
3.966465592384338379e-03
2.474575489759445190e-02
2.382795326411724091e-03
-1.028619240969419479e-03
1.475497701903805137e-04
2.967521920800209045e-02
2.911617280915379524e-03
1.356541411951184273e-03
3.833127266261726618e-04
2.472490014042705297e-04
1.351579837501049042e-02
-5.501379724591970444e-03
-1.794426119886338711e-03
-4.824538249522447586e-03
-2.463123761117458344e-03
-4.956637509167194366e-03
-4.590668249875307083e-03
8.514582179486751556e-03
-5.708791781216859818e-03
-4.078331403434276581e-03
-5.277560092508792877e-03
-8.929542265832424164e-03
3.724469104781746864e-03
-6.575461942702531815e-03
-5.295763257890939713e-03
-5.703533068299293518e-03
-0.000000000000000000e+00
0.000000000000000000e+00
0.000000000000000000e+00
-0.000000000000000000e+00
-0.000000000000000000e+00
-0.000000000000000000e+00
0.000000000000000000e+00
0.000000000000000000e+00
0.000000000000000000e+00
-0.000000000000000000e+00
-0.000000000000000000e+00
-0.000000000000000000e+00
0.000000000000000000e+00
0.000000000000000000e+00
0.000000000000000000e+00
-0.000000000000000000e+00
-0.000000000000000000e+00
0.000000000000000000e+00
0.000000000000000000e+00
-0.000000000000000000e+00
-0.000000000000000000e+00
0.000000000000000000e+00
0.000000000000000000e+00
0.000000000000000000e+00
0.000000000000000000e+00
-0.000000000000000000e+00
0.000000000000000000e+00
0.000000000000000000e+00
0.000000000000000000e+00
-0.000000000000000000e+00
0.000000000000000000e+00
-0.000000000000000000e+00
-5.967372655868530273e-02
-2.426342107355594635e-02
-5.245269834995269775e-02
-3.952936083078384399e-02
-5.275297909975051880e-02
-2.937286347150802612e-02
-1.728120073676109314e-02
-8.321655541658401489e-02
1.038945745676755905e-03
-2.732221223413944244e-02
-6.099451333284378052e-03
-6.686957925558090210e-02
-5.018619820475578308e-02
-5.887413024902343750e-02
-5.740603432059288025e-02
-7.032828778028488159e-02
0.000000000000000000e+00
-0.000000000000000000e+00
0.000000000000000000e+00
-0.000000000000000000e+00
0.000000000000000000e+00
0.000000000000000000e+00
-0.000000000000000000e+00
-0.000000000000000000e+00
-0.000000000000000000e+00
-0.000000000000000000e+00
0.000000000000000000e+00
-0.000000000000000000e+00
0.000000000000000000e+00
0.000000000000000000e+00
-0.000000000000000000e+00
-0.000000000000000000e+00
-5.514564365148544312e-02
-3.955041617155075073e-02
-4.026693850755691528e-02
2.001265250146389008e-02
-5.827151611447334290e-02
-1.191859319806098938e-02
6.515800952911376953e-02
1.322841085493564606e-02
1.637472771108150482e-02
-3.392251580953598022e-02
1.567368768155574799e-02
2.966932766139507294e-02
-9.181550121866166592e-04
-9.703856706619262695e-02
-2.239258028566837311e-02
-3.042399138212203979e-02
-5.199386179447174072e-02
-8.775082975625991821e-02
-8.499836921691894531e-02
-3.572512045502662659e-02
6.678504496812820435e-02
-1.170101389288902283e-01
-4.319818690419197083e-02
-2.026775106787681580e-02
-2.867442741990089417e-02
-3.980212658643722534e-02
-1.146674230694770813e-01
-8.608990907669067383e-02
-6.586853414773941040e-03
-2.694207476451992989e-03
-1.244747936725616455e-01
-7.658676058053970337e-02
5.863326415419578552e-02
4.410283640027046204e-02
-2.521632798016071320e-02
1.708053424954414368e-02
-3.045895323157310486e-02
-1.266684830188751221e-01
-1.380280852317810059e-01
-1.177654564380645752e-01
-4.334517568349838257e-02
-1.251116394996643066e-01
-7.153914868831634521e-02
-5.724494531750679016e-02
-2.820278704166412354e-02
-2.593456022441387177e-02
-4.718369245529174805e-02
-5.481988936662673950e-02
1.832591183483600616e-02
-1.296363305300474167e-02
-3.620075061917304993e-02
3.648608177900314331e-02
8.236780762672424316e-02
-2.494182251393795013e-02
-4.221313074231147766e-02
1.450155116617679596e-02
5.891494825482368469e-02
-4.210626706480979919e-02
-1.024108938872814178e-02
3.135214000940322876e-02
-6.962744891643524170e-02
-1.835493184626102448e-02
-1.533482223749160767e-03
-1.631408371031284332e-02
-3.717638552188873291e-02
-1.042744982987642288e-02
4.489181563258171082e-03
2.872745133936405182e-02
-1.045120134949684143e-02
-8.499220944941043854e-03
4.489212483167648315e-02
3.806512430310249329e-02
3.682244336232542992e-03
1.305717881768941879e-02
-5.607904400676488876e-03
-2.474411390721797943e-02
-2.224765950813889503e-03
-6.513281911611557007e-02
-7.398201525211334229e-02
-2.723287791013717651e-02
-2.745222859084606171e-02
-1.045896932482719421e-01
-8.768779784440994263e-02
5.709805339574813843e-02
-4.836227372288703918e-02
-9.423119574785232544e-02
-6.252335011959075928e-02
-2.073296904563903809e-02
-7.444293051958084106e-02
-9.850972145795822144e-02
-7.759000360965728760e-02
-2.673065289855003357e-02
-4.106886312365531921e-02
-1.697588860988616943e-01
-1.229816153645515442e-01
8.540008217096328735e-02
0.000000000000000000e+00
0.000000000000000000e+00
0.000000000000000000e+00
-0.000000000000000000e+00
-0.000000000000000000e+00
-0.000000000000000000e+00
0.000000000000000000e+00
0.000000000000000000e+00
0.000000000000000000e+00
0.000000000000000000e+00
-0.000000000000000000e+00
0.000000000000000000e+00
0.000000000000000000e+00
-0.000000000000000000e+00
0.000000000000000000e+00
-0.000000000000000000e+00
-0.000000000000000000e+00
0.000000000000000000e+00
0.000000000000000000e+00
-0.000000000000000000e+00
-0.000000000000000000e+00
0.000000000000000000e+00
0.000000000000000000e+00
0.000000000000000000e+00
-0.000000000000000000e+00
0.000000000000000000e+00
0.000000000000000000e+00
-0.000000000000000000e+00
-0.000000000000000000e+00
-0.000000000000000000e+00
-0.000000000000000000e+00
-0.000000000000000000e+00
1.456410158425569534e-02
-1.963040791451931000e-02
5.975278094410896301e-02
4.961488768458366394e-02
8.853813633322715759e-03
-2.970519363880157471e-01
-1.918885507620871067e-03
1.874976232647895813e-02
6.636015325784683228e-02
-6.606097333133220673e-03
3.081910870969295502e-02
1.436745468527078629e-02
4.331724345684051514e-02
1.329527050256729126e-01
6.616794317960739136e-02
-2.411895617842674255e-02
-3.630084684118628502e-04
-3.349381964653730392e-03
-3.321530297398567200e-03
-1.260910299606621265e-03
7.879342883825302124e-03
-3.473510500043630600e-03
-4.814089275896549225e-03
-4.134503193199634552e-03
3.679677844047546387e-03
-4.215490072965621948e-03
-5.098398774862289429e-03
-4.877357278019189835e-03
-2.248062938451766968e-02
-1.316863461397588253e-03
-5.387900397181510925e-03
-1.951781101524829865e-03
6.691846996545791626e-03
-4.526681825518608093e-02
-1.145832147449254990e-02
4.773274704348295927e-04
6.000653374940156937e-03
-1.821193099021911621e-02
-8.293324150145053864e-03
-2.496181055903434753e-02
6.001228466629981995e-03
-1.782723143696784973e-02
-2.510521560907363892e-02
3.050649911165237427e-02
-1.251922734081745148e-02
1.501296367496252060e-02
-5.224448814988136292e-02
4.916019365191459656e-02
-4.823521152138710022e-02
-2.110581845045089722e-01
-3.224490210413932800e-02
-8.461068384349346161e-03
-5.899627879261970520e-02
5.397843196988105774e-02
-3.424650430679321289e-02
-2.343101426959037781e-02
9.740351140499114990e-02
1.437160968780517578e-01
6.764221191406250000e-02
-1.263542938977479935e-02
1.219577491283416748e-01
3.835619986057281494e-02
4.294176772236824036e-02
-5.135670676827430725e-02
0.000000000000000000e+00
0.000000000000000000e+00
0.000000000000000000e+00
-0.000000000000000000e+00
-0.000000000000000000e+00
-0.000000000000000000e+00
-0.000000000000000000e+00
-0.000000000000000000e+00
-0.000000000000000000e+00
0.000000000000000000e+00
-0.000000000000000000e+00
0.000000000000000000e+00
0.000000000000000000e+00
-0.000000000000000000e+00
-0.000000000000000000e+00
0.000000000000000000e+00
-0.000000000000000000e+00
0.000000000000000000e+00
0.000000000000000000e+00
0.000000000000000000e+00
-0.000000000000000000e+00
0.000000000000000000e+00
0.000000000000000000e+00
0.000000000000000000e+00
-0.000000000000000000e+00
0.000000000000000000e+00
-0.000000000000000000e+00
0.000000000000000000e+00
-0.000000000000000000e+00
-0.000000000000000000e+00
0.000000000000000000e+00
-0.000000000000000000e+00
7.233460992574691772e-02
2.870059013366699219e-02
-1.408282294869422913e-02
3.826200962066650391e-03
4.647386819124221802e-02
-1.136823743581771851e-02
-4.836157336831092834e-02
-1.238152477890253067e-02
4.315064474940299988e-02
4.054699093103408813e-02
-7.322744349949061871e-04
-1.060247048735618591e-02
3.291080519556999207e-02
7.473846897482872009e-03
3.885186277329921722e-03
4.341514408588409424e-02
-0.000000000000000000e+00
0.000000000000000000e+00
0.000000000000000000e+00
0.000000000000000000e+00
-0.000000000000000000e+00
0.000000000000000000e+00
-0.000000000000000000e+00
-0.000000000000000000e+00
-0.000000000000000000e+00
0.000000000000000000e+00
0.000000000000000000e+00
0.000000000000000000e+00
0.000000000000000000e+00
0.000000000000000000e+00
-0.000000000000000000e+00
-0.000000000000000000e+00
-2.523768506944179535e-02
-1.471129152923822403e-02
1.574561931192874908e-02
5.265498161315917969e-02
4.190195817500352859e-03
-1.305498997680842876e-03
3.554749488830566406e-02
5.020108073949813843e-02
2.433122880756855011e-02
2.707074582576751709e-02
1.977008581161499023e-02
-1.619489118456840515e-02
-9.976156055927276611e-03
2.664246037602424622e-02
1.294555980712175369e-02
-2.609998732805252075e-02
-1.256555169820785522e-01
2.316725440323352814e-02
7.469797879457473755e-02
3.460482880473136902e-02
-3.845888003706932068e-02
-5.257242545485496521e-02
4.189404845237731934e-02
-1.298324763774871826e-02
9.584901481866836548e-02
1.000578105449676514e-01
7.084954530000686646e-02
3.467099741101264954e-02
3.749348223209381104e-03
1.299607455730438232e-01
5.867329984903335571e-02
3.186177089810371399e-02
1.113401073962450027e-02
-1.382536906749010086e-02
-4.082608502358198166e-03
5.332599207758903503e-02
-8.990927599370479584e-03
-7.513938844203948975e-02
7.774908840656280518e-02
4.186187684535980225e-02
-1.286496780812740326e-02
-7.953124493360519409e-02
2.517868950963020325e-02
2.320782281458377838e-02
3.467518463730812073e-02
-2.378465235233306885e-02
-3.645643219351768494e-02
3.365166485309600830e-02
1.016060356050729752e-02
-5.799077451229095459e-02
-7.236137241125106812e-02
-1.142360549420118332e-02
-2.123770304024219513e-02
-1.174800284206867218e-02
-1.484593283385038376e-02
-8.020710200071334839e-03
-1.348797604441642761e-02
-7.034153677523136139e-03
-1.920627988874912262e-02
-2.243463322520256042e-02
-1.109075360000133514e-02
-4.087371344212442636e-04
1.541449222713708878e-02
-1.614405773580074310e-03
-0.000000000000000000e+00
0.000000000000000000e+00
0.000000000000000000e+00
0.000000000000000000e+00
0.000000000000000000e+00
-0.000000000000000000e+00
-0.000000000000000000e+00
-0.000000000000000000e+00
0.000000000000000000e+00
-0.000000000000000000e+00
0.000000000000000000e+00
-0.000000000000000000e+00
0.000000000000000000e+00
0.000000000000000000e+00
-0.000000000000000000e+00
-0.000000000000000000e+00
2.068300545215606689e-02
3.668164461851119995e-02
5.872872658073902130e-03
-1.711658015847206116e-02
4.754083231091499329e-02
5.968408286571502686e-02
7.471231371164321899e-02
2.806801814585924149e-03
7.496480830013751984e-03
-6.062414962798357010e-03
-9.226793050765991211e-02
-8.612320572137832642e-02
-4.221259616315364838e-03
-4.911978915333747864e-02
-2.697854489088058472e-02
8.754855021834373474e-03
-0.000000000000000000e+00
-0.000000000000000000e+00
0.000000000000000000e+00
0.000000000000000000e+00
-0.000000000000000000e+00
-0.000000000000000000e+00
-0.000000000000000000e+00
-0.000000000000000000e+00
-0.000000000000000000e+00
-0.000000000000000000e+00
0.000000000000000000e+00
0.000000000000000000e+00
-0.000000000000000000e+00
0.000000000000000000e+00
-0.000000000000000000e+00
-0.000000000000000000e+00
-6.005182396620512009e-03
-6.225049495697021484e-03
-6.040870212018489838e-03
-7.423669099807739258e-03
7.218451239168643951e-03
-6.900829728692770004e-03
-7.927029393613338470e-03
-3.961703274399042130e-03
-4.064183216542005539e-03
1.685108756646513939e-03
5.470473784953355789e-03
4.421138146426528692e-04
1.036620326340198517e-02
2.481344854459166527e-03
5.916257388889789581e-03
-7.664538919925689697e-03
-0.000000000000000000e+00
0.000000000000000000e+00
-0.000000000000000000e+00
0.000000000000000000e+00
-0.000000000000000000e+00
-0.000000000000000000e+00
-0.000000000000000000e+00
-0.000000000000000000e+00
0.000000000000000000e+00
-0.000000000000000000e+00
-0.000000000000000000e+00
-0.000000000000000000e+00
-0.000000000000000000e+00
-0.000000000000000000e+00
0.000000000000000000e+00
0.000000000000000000e+00
-0.000000000000000000e+00
0.000000000000000000e+00
-0.000000000000000000e+00
-0.000000000000000000e+00
-0.000000000000000000e+00
0.000000000000000000e+00
0.000000000000000000e+00
-0.000000000000000000e+00
-0.000000000000000000e+00
0.000000000000000000e+00
0.000000000000000000e+00
0.000000000000000000e+00
-0.000000000000000000e+00
0.000000000000000000e+00
0.000000000000000000e+00
-0.000000000000000000e+00
-2.410805551335215569e-03
-5.335101485252380371e-02
-5.152197927236557007e-02
-2.835462801158428192e-02
2.590982429683208466e-02
-2.576457522809505463e-02
2.153805270791053772e-02
1.650247909128665924e-02
6.287915259599685669e-02
2.283766306936740875e-02
4.936117678880691528e-02
7.675166428089141846e-02
5.430486798286437988e-02
-2.588489465415477753e-02
-1.792419143021106720e-02
1.143818348646163940e-01
8.164929598569869995e-02
-6.345512811094522476e-03
-3.944792598485946655e-02
4.008391872048377991e-02
3.804169595241546631e-02
-5.216619372367858887e-02
-3.344806842505931854e-03
1.065274998545646667e-01
5.964875686913728714e-03
-4.032212495803833008e-02
6.424760073423385620e-02
1.112841740250587463e-01
3.028115257620811462e-02
-4.579630494117736816e-02
-9.952161461114883423e-02
2.738987468183040619e-02
-6.378187797963619232e-03
-6.498627364635467529e-03
-6.415016017854213715e-03
-5.878561642020940781e-03
6.817463319748640060e-03
-6.005378440022468567e-03
-6.005370989441871643e-03
-6.226000376045703888e-03
-3.197617596015334129e-03
-6.005363538861274719e-03
-6.005338393151760101e-03
-5.094283260405063629e-03
-6.825520657002925873e-03
-6.049199961125850677e-03
-6.015794351696968079e-03
-1.159252040088176727e-02
0.000000000000000000e+00
-0.000000000000000000e+00
0.000000000000000000e+00
0.000000000000000000e+00
0.000000000000000000e+00
0.000000000000000000e+00
0.000000000000000000e+00
0.000000000000000000e+00
0.000000000000000000e+00
-0.000000000000000000e+00
-0.000000000000000000e+00
0.000000000000000000e+00
-0.000000000000000000e+00
0.000000000000000000e+00
0.000000000000000000e+00
0.000000000000000000e+00
-1.976697705686092377e-02
-3.519999235868453979e-02
-2.440110594034194946e-02
-4.080270975828170776e-02
-2.270592190325260162e-02
-1.153795048594474792e-01
-3.351517766714096069e-02
-6.453507393598556519e-02
-3.910038620233535767e-03
-1.793872192502021790e-02
-5.557751283049583435e-02
1.530724670737981796e-02
-4.082091152667999268e-02
1.677683368325233459e-02
-8.679328486323356628e-03
3.179249167442321777e-02
-3.098117886111140251e-04
-4.368343204259872437e-02
-5.399079993367195129e-02
2.704749070107936859e-02
1.005122321657836437e-04
-7.275032997131347656e-02
-1.162253841757774353e-01
5.559567362070083618e-03
-4.796556383371353149e-02
1.680504530668258667e-03
-2.341998368501663208e-02
5.531684029847383499e-03
-3.890396282076835632e-02
1.154731679707765579e-02
-2.135863341391086578e-02
-3.068770654499530792e-02
1.074029039591550827e-02
-1.042358484119176865e-02
-3.228684421628713608e-03
1.321913581341505051e-02
2.190060913562774658e-02
4.469047114253044128e-02
2.499463036656379700e-02
2.303988672792911530e-02
3.598546981811523438e-02
3.722475469112396240e-02
2.175842784345149994e-02
4.824310168623924255e-02
3.955215215682983398e-02
6.968923844397068024e-03
-4.230821970850229263e-03
6.326922029256820679e-02
0.000000000000000000e+00
-0.000000000000000000e+00
-0.000000000000000000e+00
0.000000000000000000e+00
-0.000000000000000000e+00
0.000000000000000000e+00
-0.000000000000000000e+00
0.000000000000000000e+00
0.000000000000000000e+00
-0.000000000000000000e+00
0.000000000000000000e+00
-0.000000000000000000e+00
-0.000000000000000000e+00
-0.000000000000000000e+00
0.000000000000000000e+00
-0.000000000000000000e+00
1.966045936569571495e-03
-4.619691026164218783e-05
8.779721101745963097e-04
1.333422143943607807e-03
-6.148697575554251671e-04
-2.621799474582076073e-03
-2.710868371650576591e-03
-4.989406093955039978e-03
-3.277747193351387978e-03
-3.867450403049588203e-03
-3.044887213036417961e-03
-5.285292398184537888e-03
-3.326048143208026886e-03
-5.499643739312887192e-03
-5.276796873658895493e-03
-5.077972076833248138e-03
-0.000000000000000000e+00
0.000000000000000000e+00
-0.000000000000000000e+00
-0.000000000000000000e+00
0.000000000000000000e+00
-0.000000000000000000e+00
0.000000000000000000e+00
0.000000000000000000e+00
0.000000000000000000e+00
-0.000000000000000000e+00
0.000000000000000000e+00
0.000000000000000000e+00
0.000000000000000000e+00
0.000000000000000000e+00
-0.000000000000000000e+00
0.000000000000000000e+00
-7.029436528682708740e-03
-7.180391810834407806e-03
-7.180391810834407806e-03
-7.092698011547327042e-03
-7.180391810834407806e-03
-7.180391810834407806e-03
-7.180391810834407806e-03
-7.180391810834407806e-03
-7.180391810834407806e-03
-7.180391810834407806e-03
-7.180391810834407806e-03
-7.180391810834407806e-03
-7.101759314537048340e-03
-7.180391810834407806e-03
-7.180391810834407806e-03
-7.161745801568031311e-03
-0.000000000000000000e+00
-0.000000000000000000e+00
-0.000000000000000000e+00
-0.000000000000000000e+00
-0.000000000000000000e+00
0.000000000000000000e+00
0.000000000000000000e+00
0.000000000000000000e+00
-0.000000000000000000e+00
-0.000000000000000000e+00
-0.000000000000000000e+00
0.000000000000000000e+00
0.000000000000000000e+00
0.000000000000000000e+00
0.000000000000000000e+00
-0.000000000000000000e+00
2.508682198822498322e-03
2.308948710560798645e-02
1.324156578630208969e-02
1.940896734595298767e-02
7.904580794274806976e-03
-1.546937506645917892e-02
-1.673979684710502625e-02
-1.936858333647251129e-02
2.585440408438444138e-03
-1.065650805830955505e-01
-2.427284792065620422e-02
-4.460000619292259216e-02
-7.622461416758596897e-04
-2.471642196178436279e-02
-1.465992629528045654e-02
-5.628475919365882874e-02
-0.000000000000000000e+00
-0.000000000000000000e+00
-0.000000000000000000e+00
6.004441995173692703e-03
-0.000000000000000000e+00
-4.859049804508686066e-03
-5.921443458646535873e-03
4.372015129774808884e-03
0.000000000000000000e+00
0.000000000000000000e+00
-1.771608181297779083e-02
3.590047592297196388e-03
-6.177489459514617920e-02
1.938913390040397644e-02
3.551258891820907593e-02
-1.508193463087081909e-02
-6.385059561580419540e-03
-6.291378755122423172e-03
-6.837053690105676651e-03
-5.396129097789525986e-03
-4.999584052711725235e-03
-5.796673707664012909e-03
-6.306333933025598526e-03
-6.249940954148769379e-03
-5.247219465672969818e-03
-6.161296740174293518e-03
-6.121286656707525253e-03
-6.083459593355655670e-03
-6.770284380763769150e-03
-5.491555668413639069e-03
-5.329683888703584671e-03
-4.535373300313949585e-03
0.000000000000000000e+00
0.000000000000000000e+00
0.000000000000000000e+00
0.000000000000000000e+00
-0.000000000000000000e+00
0.000000000000000000e+00
-0.000000000000000000e+00
0.000000000000000000e+00
0.000000000000000000e+00
-0.000000000000000000e+00
0.000000000000000000e+00
-0.000000000000000000e+00
-0.000000000000000000e+00
0.000000000000000000e+00
-0.000000000000000000e+00
-0.000000000000000000e+00
-4.663221165537834167e-02
-3.798283264040946960e-02
-3.507949411869049072e-02
-1.627089232206344604e-01
-8.810082077980041504e-02
6.577426940202713013e-02
4.609206691384315491e-02
-4.446167498826980591e-02
-1.008464545011520386e-01
-6.105181574821472168e-02
4.672068729996681213e-02
2.749625826254487038e-03
-7.335641980171203613e-02
-2.988813072443008423e-02
-1.933215185999870300e-02
-3.409143909811973572e-02
-6.005182862281799316e-03
-6.001596339046955109e-03
-6.003385875374078751e-03
-5.427457392215728760e-03
-5.956784356385469437e-03
6.004394963383674622e-03
5.999304819852113724e-03
4.124161321669816971e-03
-6.022448185831308365e-03
-6.002762820571660995e-03
-6.004502065479755402e-03
6.004216615110635757e-03
-1.642013899981975555e-02
-6.394176278263330460e-03
-5.914539564400911331e-03
-4.012162331491708755e-03
-1.764665171504020691e-02
8.269222453236579895e-03
2.050432562828063965e-02
-7.065890356898307800e-03
4.386464878916740417e-02
-2.980066230520606041e-03
-1.127748005092144012e-02
-5.034978501498699188e-03
-3.386049997061491013e-03
5.553305521607398987e-02
1.149481534957885742e-02
-5.406067147850990295e-02
2.228640392422676086e-02
4.327267780900001526e-02
1.002096161246299744e-01
9.701428934931755066e-03
-5.538847763091325760e-03
1.464082486927509308e-02
-4.692057147622108459e-03
2.011757169384509325e-04
2.508416026830673218e-02
6.814679596573114395e-03
-5.271927919238805771e-03
2.704283595085144043e-02
1.166925393044948578e-02
1.476398203521966934e-02
2.309684082865715027e-02
-7.787661743350327015e-04
1.218500360846519470e-02
2.473719976842403412e-02
6.739777512848377228e-03
7.661109790205955505e-03
0.000000000000000000e+00
-0.000000000000000000e+00
-0.000000000000000000e+00
-0.000000000000000000e+00
0.000000000000000000e+00
-0.000000000000000000e+00
-0.000000000000000000e+00
0.000000000000000000e+00
-0.000000000000000000e+00
-0.000000000000000000e+00
-0.000000000000000000e+00
-0.000000000000000000e+00
0.000000000000000000e+00
-0.000000000000000000e+00
0.000000000000000000e+00
0.000000000000000000e+00
-1.408687420189380646e-02
1.350402459502220154e-02
3.499896079301834106e-02
-3.517639590427279472e-03
-1.813375391066074371e-02
-5.508258938789367676e-03
-2.195547707378864288e-02
-9.786654263734817505e-03
-1.279066316783428192e-02
1.171401794999837875e-02
6.732074078172445297e-03
-3.378870710730552673e-02
2.964528044685721397e-03
-1.010747998952865601e-02
-2.016074396669864655e-02
-2.355724386870861053e-02
-0.000000000000000000e+00
0.000000000000000000e+00
0.000000000000000000e+00
-0.000000000000000000e+00
-0.000000000000000000e+00
0.000000000000000000e+00
0.000000000000000000e+00
0.000000000000000000e+00
-0.000000000000000000e+00
-0.000000000000000000e+00
-0.000000000000000000e+00
0.000000000000000000e+00
-0.000000000000000000e+00
-0.000000000000000000e+00
0.000000000000000000e+00
0.000000000000000000e+00
-1.103176083415746689e-02
1.781404018402099609e-02
1.741537079215049744e-02
3.067234996706247330e-03
2.344980463385581970e-02
6.280130892992019653e-02
2.290477231144905090e-02
-6.479106843471527100e-02
8.581778965890407562e-03
3.036903589963912964e-02
1.496971677988767624e-02
-5.743596702814102173e-02
3.491245582699775696e-02
2.708204649388790131e-02
3.419914469122886658e-02
1.265042182058095932e-02
1.196809392422437668e-02
1.672410964965820312e-02
1.215618010610342026e-02
4.745890852063894272e-03
-1.302582398056983948e-02
3.046403639018535614e-02
3.784043481573462486e-03
3.106490708887577057e-02
1.359195355325937271e-02
3.181958198547363281e-02
-2.357237972319126129e-02
-1.661304011940956116e-02
1.467775646597146988e-02
-2.448602207005023956e-02
-3.793817758560180664e-02
-6.126287393271923065e-03
1.732715666294097900e-01
-1.218086760491132736e-02
-9.682564064860343933e-03
-3.351936489343643188e-02
-1.272578374482691288e-03
-9.958031773567199707e-02
4.572803899645805359e-02
-6.469395011663436890e-02
-2.121916227042675018e-02
-3.570212051272392273e-02
6.247596320463344455e-05
6.549086421728134155e-02
1.796373166143894196e-02
-4.542191326618194580e-02
-2.382505871355533600e-02
7.573446724563837051e-03
-0.000000000000000000e+00
-0.000000000000000000e+00
-0.000000000000000000e+00
8.280861191451549530e-03
-0.000000000000000000e+00
-0.000000000000000000e+00
0.000000000000000000e+00
0.000000000000000000e+00
-0.000000000000000000e+00
0.000000000000000000e+00
-0.000000000000000000e+00
0.000000000000000000e+00
-2.606921456754207611e-02
-0.000000000000000000e+00
-1.057621184736490250e-02
0.000000000000000000e+00
4.417065158486366272e-02
1.862611807882785797e-02
-7.924835383892059326e-02
-5.115890502929687500e-02
-8.821519440971314907e-04
-1.212096661329269409e-01
-6.547798216342926025e-02
-9.925616905093193054e-03
-7.097522914409637451e-02
-6.385399401187896729e-02
-8.620833605527877808e-02
-1.840026676654815674e-02
3.723582625389099121e-02
5.949128419160842896e-03
-8.565101772546768188e-02
-3.831344097852706909e-02
-1.237300038337707520e-02
1.952258870005607605e-02
5.477298982441425323e-03
8.325488306581974030e-04
-7.504762150347232819e-03
4.900467395782470703e-02
2.081604301929473877e-02
5.028333514928817749e-03
-5.487236659973859787e-03
7.161970436573028564e-02
2.748099714517593384e-02
-1.949759200215339661e-02
4.190772026777267456e-02
1.679735817015171051e-02
1.043956261128187180e-02
4.135152325034141541e-02
1.663584262132644653e-03
-1.649269834160804749e-03
-7.857269374653697014e-04
1.089757774025201797e-03
-5.944559234194457531e-04
-5.014303606003522873e-03
-4.852048587054014206e-03
-2.678095130249857903e-03
1.029265671968460083e-02
8.250134065747261047e-03
4.274285864084959030e-03
1.254779053851962090e-03
-2.054641299764625728e-06
-2.995916409417986870e-03
-3.322571283206343651e-03
-9.728666918817907572e-05
-0.000000000000000000e+00
-0.000000000000000000e+00
-0.000000000000000000e+00
-0.000000000000000000e+00
-0.000000000000000000e+00
-0.000000000000000000e+00
0.000000000000000000e+00
-0.000000000000000000e+00
-0.000000000000000000e+00
-0.000000000000000000e+00
-0.000000000000000000e+00
-0.000000000000000000e+00
0.000000000000000000e+00
0.000000000000000000e+00
0.000000000000000000e+00
0.000000000000000000e+00
-1.408481784164905548e-02
-4.109502956271171570e-02
1.473622396588325500e-02
5.642258003354072571e-02
1.732559315860271454e-02
1.696907542645931244e-02
1.414630562067031860e-02
1.800860650837421417e-02
2.992255613207817078e-02
5.471004173159599304e-02
6.394644826650619507e-02
1.315240282565355301e-02
2.384382113814353943e-02
-9.743770584464073181e-03
2.175237797200679779e-02
-7.854343391954898834e-03
-9.661044925451278687e-03
5.634669680148363113e-03
-1.635902444832026958e-03
9.007250890135765076e-03
-2.800098806619644165e-02
-1.894547976553440094e-02
4.655949771404266357e-03
2.863454446196556091e-02
9.996232576668262482e-03
1.937696593813598156e-03
1.487370487302541733e-02
-2.263635210692882538e-02
3.301807213574647903e-03
-1.285130437463521957e-02
-2.143735066056251526e-02
1.451430935412645340e-02
7.921554148197174072e-03
-0.000000000000000000e+00
0.000000000000000000e+00
3.713623620569705963e-03
-1.054074522107839584e-02
-0.000000000000000000e+00
-0.000000000000000000e+00
0.000000000000000000e+00
3.978570923209190369e-03
-0.000000000000000000e+00
0.000000000000000000e+00
-0.000000000000000000e+00
-7.866301573812961578e-03
-0.000000000000000000e+00
-0.000000000000000000e+00
0.000000000000000000e+00
1.587257161736488342e-02
-5.952063575387001038e-02
-1.025673821568489075e-01
6.883234251290559769e-03
7.175331562757492065e-02
2.474498003721237183e-02
-6.046135723590850830e-02
-1.007021963596343994e-02
6.955341994762420654e-02
-3.527347743511199951e-02
-2.572633512318134308e-02
-9.566877037286758423e-02
3.745234012603759766e-02
-6.651007384061813354e-02
-1.003554090857505798e-02
-9.908852726221084595e-02
-1.748426258563995361e-02
1.450231950730085373e-02
1.539361476898193359e-02
-1.125577557832002640e-02
-2.297029085457324982e-02
4.291987512260675430e-03
1.251022145152091980e-02
-2.130446210503578186e-02
-9.482021443545818329e-03
-3.128923848271369934e-02
2.159268828108906746e-03
1.383785530924797058e-02
2.662519365549087524e-02
-6.764041259884834290e-03
-1.147454883903264999e-02
-1.211452763527631760e-02
1.218833029270172119e-02
-1.968536712229251862e-02
-8.082953281700611115e-03
-7.646732497960329056e-03
-1.184316235594451427e-03
2.196760848164558411e-02
1.669614948332309723e-02
2.126052975654602051e-02
-2.018565498292446136e-02
1.619013771414756775e-02
-4.736694321036338806e-02
-2.099040523171424866e-02
2.762025967240333557e-02
-1.078570261597633362e-03
4.212590400129556656e-03
-1.158989779651165009e-02
-3.733903402462601662e-03
5.589826032519340515e-02
-4.863811284303665161e-02
-1.271913945674896240e-01
9.541010856628417969e-02
4.343340918421745300e-02
-2.052539784926921129e-04
-5.585714802145957947e-02
-2.451631054282188416e-02
2.315008779987692833e-03
-2.670375397428870201e-03
-2.303123101592063904e-02
-1.694720685482025146e-01
-5.535245314240455627e-02
-5.068794637918472290e-02
2.328991293907165527e-01
1.105097867548465729e-02
-4.099616780877113342e-03
4.871618002653121948e-02
-4.482067655771970749e-03
3.846849873661994934e-02
-2.852417342364788055e-02
2.269090153276920319e-02
1.788374781608581543e-02
2.874354831874370575e-02
2.317408099770545959e-02
1.778652891516685486e-02
2.142795361578464508e-02
-2.381577342748641968e-02
2.394471317529678345e-02
2.828793041408061981e-02
7.581586949527263641e-03
-1.383308786898851395e-02
-9.813323616981506348e-02
-1.551850438117980957e-01
-2.788511104881763458e-02
6.061174347996711731e-02
-1.471061632037162781e-02
-1.110105067491531372e-01
-1.238571852445602417e-01
5.696505680680274963e-02
-6.514596939086914062e-02
-3.098787553608417511e-02
-1.208887174725532532e-01
-2.732735127210617065e-02
-3.575643524527549744e-02
-1.692858710885047913e-02
-1.286349073052406311e-02
3.897132119163870811e-04
2.497922815382480621e-02
2.003740519285202026e-02
-1.922408118844032288e-02
1.214585006237030029e-01
2.242910861968994141e-02
-1.772115193307399750e-02
-3.339244052767753601e-02
1.224435027688741684e-02
-2.251366525888442993e-02
-4.504136368632316589e-02
-2.201128005981445312e-02
6.377979367971420288e-02
7.749750465154647827e-02
9.882066398859024048e-02
4.388607293367385864e-02
9.978126734495162964e-03
1.503774896264076233e-02
-1.563632301986217499e-02
-1.153185963630676270e-02
-2.700527384877204895e-02
-2.149739861488342285e-02
-2.314595878124237061e-02
-3.180724009871482849e-02
-2.317555435001850128e-02
-1.612029783427715302e-02
-2.544370852410793304e-02
-3.146759793162345886e-02
-3.317274153232574463e-02
-2.669292129576206207e-02
-4.861621186137199402e-02
-3.458941727876663208e-02
-0.000000000000000000e+00
-0.000000000000000000e+00
-0.000000000000000000e+00
0.000000000000000000e+00
-0.000000000000000000e+00
-0.000000000000000000e+00
-0.000000000000000000e+00
-0.000000000000000000e+00
0.000000000000000000e+00
0.000000000000000000e+00
-0.000000000000000000e+00
-0.000000000000000000e+00
-0.000000000000000000e+00
0.000000000000000000e+00
-0.000000000000000000e+00
-0.000000000000000000e+00
0.000000000000000000e+00
0.000000000000000000e+00
-0.000000000000000000e+00
0.000000000000000000e+00
0.000000000000000000e+00
0.000000000000000000e+00
0.000000000000000000e+00
-0.000000000000000000e+00
0.000000000000000000e+00
0.000000000000000000e+00
0.000000000000000000e+00
0.000000000000000000e+00
-0.000000000000000000e+00
-0.000000000000000000e+00
0.000000000000000000e+00
-0.000000000000000000e+00
-7.179499603807926178e-03
-7.179499603807926178e-03
-7.179499603807926178e-03
-7.179499603807926178e-03
-7.179499603807926178e-03
-7.179499603807926178e-03
-7.179499603807926178e-03
-7.179499603807926178e-03
-7.179499603807926178e-03
-7.179499603807926178e-03
-7.179499603807926178e-03
-7.179499603807926178e-03
-7.179499603807926178e-03
-7.179499603807926178e-03
-7.179499603807926178e-03
-7.179499603807926178e-03
-3.647340461611747742e-02
-8.318316191434860229e-03
-6.104075815528631210e-03
-6.025615148246288300e-03
-2.728311903774738312e-02
-5.452699959278106689e-03
-6.848153192549943924e-03
-8.425455540418624878e-03
6.312998477369546890e-03
-3.112975740805268288e-03
-5.963093135505914688e-03
-7.228416390717029572e-03
-8.303537964820861816e-03
2.769538201391696930e-03
6.252039020182564855e-05
6.080876570194959641e-03
-1.926149614155292511e-02
-3.435754403471946716e-02
-4.440195485949516296e-02
-7.362869102507829666e-03
-3.197890892624855042e-02
-6.592913996428251266e-03
-6.101094186305999756e-02
-6.968573667109012604e-03
1.474464684724807739e-02
-1.723696663975715637e-02
8.922719862312078476e-04
1.650312915444374084e-02
-5.838549695909023285e-03
-5.251033580861985683e-04
-1.810426451265811920e-02
-4.776422865688800812e-04
-3.505812212824821472e-02
-2.645839750766754150e-02
-5.679563619196414948e-03
4.245127364993095398e-02
-3.469240665435791016e-02
-1.803027582354843616e-03
4.112543538212776184e-02
1.310016773641109467e-02
6.166142411530017853e-03
4.529426619410514832e-02
-1.021364331245422363e-02
4.326227307319641113e-02
-2.933821640908718109e-03
7.039073854684829712e-02
6.150683388113975525e-02
7.390594482421875000e-02
-0.000000000000000000e+00
-0.000000000000000000e+00
-0.000000000000000000e+00
-0.000000000000000000e+00
0.000000000000000000e+00
-0.000000000000000000e+00
-0.000000000000000000e+00
0.000000000000000000e+00
0.000000000000000000e+00
-0.000000000000000000e+00
0.000000000000000000e+00
0.000000000000000000e+00
-0.000000000000000000e+00
0.000000000000000000e+00
0.000000000000000000e+00
-0.000000000000000000e+00
5.037553980946540833e-02
-2.406106516718864441e-02
-4.236130788922309875e-02
-1.005374174565076828e-02
2.669195458292961121e-02
5.085801705718040466e-03
2.191470935940742493e-03
6.823136936873197556e-04
1.954127289354801178e-02
1.826295442879199982e-02
2.559071406722068787e-02
4.105123877525329590e-02
-1.508662849664688110e-02
-1.173972338438034058e-02
-4.058889113366603851e-03
4.156351462006568909e-02
6.244939938187599182e-02
4.625138361006975174e-03
-1.910055428743362427e-02
2.971537038683891296e-02
6.295408308506011963e-02
1.667228527367115021e-02
4.275811463594436646e-02
4.013044759631156921e-02
1.361893676221370697e-02
1.924243569374084473e-02
1.046783477067947388e-02
6.717680487781763077e-03
-6.735012400895357132e-03
1.641501858830451965e-02
-2.895236946642398834e-02
2.988180331885814667e-02
-3.122641646768897772e-04
4.996075108647346497e-02
3.295274823904037476e-02
1.060756505466997623e-03
-1.481897532939910889e-01
-2.998498082160949707e-02
4.080409556627273560e-02
-6.392262130975723267e-02
-7.558262348175048828e-02
5.501193180680274963e-02
6.535130739212036133e-02
6.651556584984064102e-03
1.941922307014465332e-02
-4.146236926317214966e-02
1.887484453618526459e-02
-1.142719946801662445e-02
-0.000000000000000000e+00
-0.000000000000000000e+00
-0.000000000000000000e+00
-0.000000000000000000e+00
0.000000000000000000e+00
-0.000000000000000000e+00
-0.000000000000000000e+00
-0.000000000000000000e+00
-0.000000000000000000e+00
0.000000000000000000e+00
0.000000000000000000e+00
-0.000000000000000000e+00
-0.000000000000000000e+00
0.000000000000000000e+00
0.000000000000000000e+00
-0.000000000000000000e+00
-2.627759240567684174e-02
2.643880248069763184e-02
2.743622101843357086e-02
1.056605577468872070e-02
-2.643409417942166328e-03
2.997119538486003876e-02
9.851642884314060211e-03
3.812768729403614998e-03
1.578779146075248718e-02
1.573377288877964020e-03
-1.426478195935487747e-02
-5.244582518935203552e-02
1.893005333840847015e-02
1.607468165457248688e-02
5.643679294735193253e-03
2.333295904099941254e-02
1.670205406844615936e-02
-1.700696535408496857e-02
-1.224001962691545486e-02
-1.173227443359792233e-03
-1.250108331441879272e-02
1.455194316804409027e-02
1.525939349085092545e-02
3.851290792226791382e-02
1.246300246566534042e-02
-1.517327595502138138e-02
3.985092975199222565e-03
-8.867637068033218384e-02
-2.563517354428768158e-02
-2.265249937772750854e-02
-1.879322342574596405e-02
-1.319402363151311874e-02
2.672043396160006523e-03
1.829652901506051421e-04
2.432681620121002197e-03
2.753176726400852203e-02
-1.450331765227019787e-03
-5.299228709191083908e-03
1.960019208490848541e-02
1.622669771313667297e-02
6.733161397278308868e-03
-2.368551492691040039e-02
-1.123614236712455750e-02
-7.711370475590229034e-03
-5.397995561361312866e-02
-6.898791342973709106e-02
-4.161362722516059875e-02
-7.325167302042245865e-03
-0.000000000000000000e+00
0.000000000000000000e+00
0.000000000000000000e+00
0.000000000000000000e+00
0.000000000000000000e+00
0.000000000000000000e+00
-0.000000000000000000e+00
-0.000000000000000000e+00
0.000000000000000000e+00
0.000000000000000000e+00
0.000000000000000000e+00
0.000000000000000000e+00
0.000000000000000000e+00
0.000000000000000000e+00
0.000000000000000000e+00
0.000000000000000000e+00
0.000000000000000000e+00
0.000000000000000000e+00
0.000000000000000000e+00
0.000000000000000000e+00
0.000000000000000000e+00
0.000000000000000000e+00
0.000000000000000000e+00
0.000000000000000000e+00
-0.000000000000000000e+00
0.000000000000000000e+00
-0.000000000000000000e+00
0.000000000000000000e+00
0.000000000000000000e+00
0.000000000000000000e+00
0.000000000000000000e+00
-0.000000000000000000e+00
5.792098492383956909e-02
4.038510471582412720e-02
-3.454951941967010498e-02
-1.139151398092508316e-02
5.591768026351928711e-02
6.066501140594482422e-02
-2.621337212622165680e-02
-2.250405587255954742e-02
-1.245625689625740051e-02
-8.902753144502639771e-02
-1.507386844605207443e-02
-8.558063209056854248e-02
-2.942085638642311096e-02
7.404176518321037292e-03
-2.784068137407302856e-02
-5.186861753463745117e-02
-0.000000000000000000e+00
-0.000000000000000000e+00
-0.000000000000000000e+00
-0.000000000000000000e+00
-0.000000000000000000e+00
0.000000000000000000e+00
-0.000000000000000000e+00
-0.000000000000000000e+00
0.000000000000000000e+00
-0.000000000000000000e+00
-0.000000000000000000e+00
0.000000000000000000e+00
0.000000000000000000e+00
-0.000000000000000000e+00
-0.000000000000000000e+00
-0.000000000000000000e+00
6.805717200040817261e-02
-5.915315356105566025e-03
-2.001502551138401031e-02
-8.119007200002670288e-02
3.769076615571975708e-02
4.888518527150154114e-02
-2.068258821964263916e-02
4.144079238176345825e-02
-8.566208928823471069e-02
-4.979125037789344788e-02
5.661443993449211121e-02
-2.029922604560852051e-02
-8.139410614967346191e-02
4.953341092914342880e-03
7.546880841255187988e-02
3.472504764795303345e-02
-2.043549157679080963e-02
-1.044263839721679688e-01
-3.814198076725006104e-02
1.543984562158584595e-02
-1.771043613553047180e-02
-5.319648981094360352e-02
-8.506140671670436859e-03
-5.578129738569259644e-02
6.622978299856185913e-02
-3.214846178889274597e-02
-4.266772046685218811e-02
-3.686525300145149231e-02
4.229803010821342468e-02
-1.116264984011650085e-02
-6.682527251541614532e-03
-2.326531149446964264e-02
-5.483826994895935059e-02
7.887920364737510681e-03
-1.620710245333611965e-03
-6.509305909276008606e-03
-2.628553658723831177e-02
3.741831704974174500e-02
2.378338761627674103e-02
1.510337181389331818e-02
-6.870893388986587524e-02
-1.194138545542955399e-03
2.298931404948234558e-02
-2.154567278921604156e-02
-6.850214302539825439e-02
2.403189800679683685e-02
3.490757662802934647e-04
-1.031893957406282425e-02
-0.000000000000000000e+00
-0.000000000000000000e+00
-0.000000000000000000e+00
0.000000000000000000e+00
0.000000000000000000e+00
-0.000000000000000000e+00
-0.000000000000000000e+00
-0.000000000000000000e+00
-0.000000000000000000e+00
-0.000000000000000000e+00
-0.000000000000000000e+00
-0.000000000000000000e+00
-0.000000000000000000e+00
0.000000000000000000e+00
-0.000000000000000000e+00
-0.000000000000000000e+00
1.726875640451908112e-02
-1.108683552592992783e-02
1.204521104227751493e-04
2.068224176764488220e-02
-1.306789182126522064e-02
-2.248127013444900513e-03
4.041869938373565674e-02
-5.441359803080558777e-02
-1.641431450843811035e-02
-1.085294708609580994e-01
-1.712990365922451019e-02
-1.410995144397020340e-02
3.317438438534736633e-02
4.829427972435951233e-02
2.242068760097026825e-02
1.515891682356595993e-02
-3.992834687232971191e-02
-1.667365431785583496e-02
-4.180512204766273499e-02
2.596438862383365631e-03
-6.043033674359321594e-03
-3.103085421025753021e-02
-4.435848444700241089e-02
-7.287607342004776001e-02
1.301714219152927399e-02
-6.965504027903079987e-03
-1.415746007114648819e-02
-5.257003009319305420e-02
-6.151495035737752914e-03
-3.855773806571960449e-02
-5.897223204374313354e-02
-5.857421830296516418e-02
0.000000000000000000e+00
0.000000000000000000e+00
-0.000000000000000000e+00
-0.000000000000000000e+00
0.000000000000000000e+00
-0.000000000000000000e+00
-0.000000000000000000e+00
-0.000000000000000000e+00
-0.000000000000000000e+00
0.000000000000000000e+00
0.000000000000000000e+00
-0.000000000000000000e+00
-0.000000000000000000e+00
-0.000000000000000000e+00
0.000000000000000000e+00
0.000000000000000000e+00
-1.612432766705751419e-03
-7.790419738739728928e-03
1.471154391765594482e-02
4.665811732411384583e-02
-6.663799285888671875e-03
2.243677526712417603e-02
4.367902874946594238e-02
6.588381528854370117e-02
-4.120658338069915771e-02
2.044311026111245155e-03
-1.591794751584529877e-02
-3.095685737207531929e-03
-1.445349492132663727e-02
4.160962067544460297e-03
3.791443631052970886e-02
1.065206713974475861e-02
-1.051404420286417007e-02
5.556937772780656815e-03
5.553351715207099915e-03
-7.196427788585424423e-03
5.556909833103418350e-03
5.557263735681772232e-03
5.550394766032695770e-03
-6.970243528485298157e-03
5.552720278501510620e-03
-0.000000000000000000e+00
5.440951324999332428e-03
-5.373370833694934845e-03
-6.793155800551176071e-03
0.000000000000000000e+00
-0.000000000000000000e+00
-6.074483972042798996e-03
-4.837607964873313904e-03
-7.640930823981761932e-03
-4.762555472552776337e-03
-3.836267814040184021e-02
-5.571626126766204834e-03
-8.537703193724155426e-03
6.600626744329929352e-03
-5.777398124337196350e-03
-6.362090352922677994e-03
-4.495808389037847519e-03
-6.511608138680458069e-03
-2.212454564869403839e-02
-1.063100900501012802e-02
-4.990337765775620937e-04
-9.515652433037757874e-03
4.475549794733524323e-03
-5.896947346627712250e-03
-8.188854902982711792e-03
-8.537855930626392365e-03
-7.310157641768455505e-03
-1.690853387117385864e-03
-8.634077385067939758e-03
-8.280167356133460999e-03
-6.035979837179183960e-03
-6.342705804854631424e-03
-7.198394741863012314e-03
-6.988761946558952332e-03
-5.591215100139379501e-03
-6.895457394421100616e-03
-6.713369395583868027e-03
-6.798252929002046585e-03
-6.570155266672372818e-03
-3.268639789894223213e-03
8.227320387959480286e-03
-5.018115974962711334e-03
1.732945628464221954e-02
-4.583238065242767334e-02
-9.430966526269912720e-02
-4.013511911034584045e-02
1.939333416521549225e-02
3.549861162900924683e-02
1.340109016746282578e-02
5.575742572546005249e-03
-1.255438663065433502e-02
2.603631094098091125e-02
-4.390145465731620789e-02
9.527401416562497616e-04
-9.148196130990982056e-02
0.000000000000000000e+00
0.000000000000000000e+00
-0.000000000000000000e+00
0.000000000000000000e+00
0.000000000000000000e+00
-0.000000000000000000e+00
-0.000000000000000000e+00
0.000000000000000000e+00
0.000000000000000000e+00
0.000000000000000000e+00
0.000000000000000000e+00
0.000000000000000000e+00
-0.000000000000000000e+00
-0.000000000000000000e+00
-0.000000000000000000e+00
0.000000000000000000e+00
2.525536902248859406e-02
2.631220221519470215e-02
2.494551427662372589e-02
-1.668773964047431946e-02
2.503796713426709175e-03
1.822808757424354553e-02
-1.000257357954978943e-01
-2.019768767058849335e-02
-2.052651398116722703e-04
-2.171730436384677887e-02
-1.765373395755887032e-03
2.587034553289413452e-02
-1.637164503335952759e-02
-2.284556999802589417e-02
2.054361160844564438e-03
1.233647111803293228e-02
7.327617146074771881e-03
2.331769652664661407e-02
1.376059204339981079e-01
5.759548395872116089e-03
-9.170410037040710449e-02
-3.129743784666061401e-02
-6.438634544610977173e-02
3.273222967982292175e-02
1.730793341994285583e-02
-6.940131634473800659e-02
-6.534695625305175781e-02
7.413931936025619507e-02
-4.805286601185798645e-02
-6.531907618045806885e-02
-9.946112334728240967e-02
6.937405467033386230e-02
-0.000000000000000000e+00
-0.000000000000000000e+00
-0.000000000000000000e+00
-0.000000000000000000e+00
-0.000000000000000000e+00
0.000000000000000000e+00
-0.000000000000000000e+00
-0.000000000000000000e+00
0.000000000000000000e+00
-0.000000000000000000e+00
-0.000000000000000000e+00
0.000000000000000000e+00
0.000000000000000000e+00
-0.000000000000000000e+00
0.000000000000000000e+00
0.000000000000000000e+00
-0.000000000000000000e+00
-0.000000000000000000e+00
0.000000000000000000e+00
0.000000000000000000e+00
-0.000000000000000000e+00
0.000000000000000000e+00
0.000000000000000000e+00
0.000000000000000000e+00
-0.000000000000000000e+00
-0.000000000000000000e+00
0.000000000000000000e+00
-0.000000000000000000e+00
0.000000000000000000e+00
-0.000000000000000000e+00
0.000000000000000000e+00
0.000000000000000000e+00
-2.250241115689277649e-02
-0.000000000000000000e+00
-0.000000000000000000e+00
0.000000000000000000e+00
-1.119247078895568848e-02
2.589222043752670288e-03
0.000000000000000000e+00
0.000000000000000000e+00
-0.000000000000000000e+00
0.000000000000000000e+00
0.000000000000000000e+00
-0.000000000000000000e+00
-1.047345902770757675e-02
9.793744422495365143e-03
0.000000000000000000e+00
-0.000000000000000000e+00
-8.022379130125045776e-02
-1.311137974262237549e-01
-5.943957716226577759e-02
-9.624286741018295288e-02
2.926144935190677643e-02
-1.378110200166702271e-01
-5.321782454848289490e-02
-1.154013797640800476e-01
4.169729351997375488e-02
-9.532868862152099609e-02
-7.069318741559982300e-02
-5.327941477298736572e-02
-4.826935008168220520e-02
-4.816199094057083130e-02
-4.817159846425056458e-02
-3.735041618347167969e-02
-0.000000000000000000e+00
-0.000000000000000000e+00
-0.000000000000000000e+00
-0.000000000000000000e+00
-0.000000000000000000e+00
-0.000000000000000000e+00
-0.000000000000000000e+00
-0.000000000000000000e+00
-0.000000000000000000e+00
0.000000000000000000e+00
0.000000000000000000e+00
-0.000000000000000000e+00
-0.000000000000000000e+00
-0.000000000000000000e+00
-0.000000000000000000e+00
-0.000000000000000000e+00
4.163866862654685974e-02
4.983827099204063416e-02
7.449604570865631104e-02
5.173815786838531494e-02
4.321436863392591476e-03
2.501407824456691742e-02
1.041484400629997253e-01
3.766002878546714783e-02
-4.585092514753341675e-02
-3.751402348279953003e-02
4.675315693020820618e-02
-5.911214277148246765e-03
-1.281534694135189056e-02
-2.836502343416213989e-02
-3.547967225313186646e-02
-3.153655305504798889e-02
-4.632613807916641235e-02
-2.062967047095298767e-02
-7.869929075241088867e-02
2.293274272233247757e-03
3.237920999526977539e-02
-8.981092832982540131e-03
-1.149382349103689194e-02
-4.411359317600727081e-03
-5.289859604090452194e-03
-3.088596276938915253e-03
-2.806839719414710999e-02
-3.646012023091316223e-02
-8.657722920179367065e-02
-7.889071851968765259e-02
-9.016798436641693115e-02
-3.138352185487747192e-02
-7.179718464612960815e-03
-7.179718464612960815e-03
-7.179718464612960815e-03
-7.179718464612960815e-03
-7.179718464612960815e-03
-7.179718464612960815e-03
-7.179718464612960815e-03
-7.179718464612960815e-03
-7.179718464612960815e-03
-7.179718464612960815e-03
-7.179718464612960815e-03
-7.179718464612960815e-03
-7.179718464612960815e-03
-7.179718464612960815e-03
-7.179718464612960815e-03
-7.179718464612960815e-03
8.268804848194122314e-02
-3.197824954986572266e-02
-4.389894008636474609e-02
4.856543987989425659e-02
-2.956402674317359924e-02
9.818077087402343750e-03
-2.000064030289649963e-02
-2.918934449553489685e-02
-9.624923113733530045e-04
-2.875697985291481018e-02
-3.469708608463406563e-03
-5.491245910525321960e-02
-4.918691515922546387e-02
-2.678931504487991333e-02
-1.475451327860355377e-02
2.655991353094577789e-03
5.204154178500175476e-03
-9.546131826937198639e-03
6.519370712339878082e-03
1.134224515408277512e-02
-2.036478929221630096e-02
-4.051959887146949768e-02
3.058002330362796783e-02
4.097237437963485718e-02
-6.202363595366477966e-02
-2.797949500381946564e-02
-6.399569660425186157e-02
-2.764729317277669907e-03
-8.741910010576248169e-02
-2.962514758110046387e-02
-1.003724709153175354e-01
-6.112839281558990479e-02
8.656050777062773705e-04
5.197080969810485840e-02
8.721302449703216553e-02
2.980190329253673553e-02
-8.617145940661430359e-03
-4.528032988309860229e-02
4.355687648057937622e-02
4.964496567845344543e-02
-5.576879531145095825e-02
-4.664053022861480713e-02
-4.112198948860168457e-02
-1.832223497331142426e-02
-2.279854007065296173e-02
-1.769169978797435760e-02
-1.529617514461278915e-02
3.162714838981628418e-02
-6.191228050738573074e-03
-2.066786773502826691e-02
5.469177383929491043e-03
2.585516683757305145e-02
-1.671441830694675446e-02
-3.702381253242492676e-02
-1.297979615628719330e-02
-1.602452364750206470e-03
-1.956927962601184845e-02
-2.235097251832485199e-02
-5.680708214640617371e-02
1.562093943357467651e-02
2.197776548564434052e-02
3.946787212044000626e-03
-4.960661754012107849e-02
2.010986767709255219e-02
3.673309087753295898e-02
9.303975105285644531e-02
4.380793124437332153e-02
-6.417950987815856934e-02
1.208791285753250122e-01
9.782069176435470581e-02
2.513585425913333893e-02
-5.561849847435951233e-02
-1.995776034891605377e-02
1.460889633744955063e-02
-7.881037890911102295e-02
-1.208789274096488953e-01
1.728860475122928619e-02
-2.742148190736770630e-02
6.745918095111846924e-02
4.330210760235786438e-02
-2.340191788971424103e-02
-1.517682615667581558e-02
-2.110029757022857666e-02
1.451923884451389313e-02
-6.931086070835590363e-03
-8.348871953785419464e-03
-6.177200470119714737e-03
-8.145143277943134308e-03
-5.701635964214801788e-03
-6.776838563382625580e-03
-6.255858577787876129e-03
1.241695042699575424e-02
-7.060111965984106064e-03
-6.005185656249523163e-03
-6.181331351399421692e-03
-6.542370188981294632e-03
-0.000000000000000000e+00
-0.000000000000000000e+00
-0.000000000000000000e+00
-0.000000000000000000e+00
-0.000000000000000000e+00
-0.000000000000000000e+00
-0.000000000000000000e+00
-0.000000000000000000e+00
0.000000000000000000e+00
0.000000000000000000e+00
-0.000000000000000000e+00
0.000000000000000000e+00
-0.000000000000000000e+00
-0.000000000000000000e+00
-0.000000000000000000e+00
-0.000000000000000000e+00
-1.273036748170852661e-02
-2.006540074944496155e-02
-6.062917038798332214e-02
-1.801957488059997559e-01
6.187874451279640198e-02
-5.473296623677015305e-03
9.002816863358020782e-03
-4.536346346139907837e-02
-2.313601598143577576e-02
-1.054575201123952866e-02
-7.741602137684822083e-03
-1.876288279891014099e-02
1.323116448475047946e-04
-1.053229123353958130e-01
-8.518587797880172729e-02
-3.023220784962177277e-02
-0.000000000000000000e+00
-0.000000000000000000e+00
0.000000000000000000e+00
-0.000000000000000000e+00
0.000000000000000000e+00
-0.000000000000000000e+00
0.000000000000000000e+00
0.000000000000000000e+00
-0.000000000000000000e+00
-0.000000000000000000e+00
-0.000000000000000000e+00
-0.000000000000000000e+00
-0.000000000000000000e+00
-0.000000000000000000e+00
0.000000000000000000e+00
-0.000000000000000000e+00
4.844457283616065979e-02
-3.524026274681091309e-02
-5.264592915773391724e-02
-4.498418420553207397e-02
3.805841132998466492e-02
-6.485246121883392334e-02
-2.083272486925125122e-02
-1.054819766432046890e-02
6.563990563154220581e-02
5.827858671545982361e-02
5.097783356904983521e-02
1.148092560470104218e-02
4.322304204106330872e-02
-2.095560915768146515e-02
7.750249002128839493e-03
7.382290065288543701e-02
-0.000000000000000000e+00
0.000000000000000000e+00
-0.000000000000000000e+00
0.000000000000000000e+00
0.000000000000000000e+00
-0.000000000000000000e+00
-0.000000000000000000e+00
0.000000000000000000e+00
0.000000000000000000e+00
-0.000000000000000000e+00
-0.000000000000000000e+00
-0.000000000000000000e+00
-0.000000000000000000e+00
0.000000000000000000e+00
0.000000000000000000e+00
-0.000000000000000000e+00
1.818181201815605164e-02
-1.775798387825489044e-02
-4.105169326066970825e-02
-7.895417511463165283e-03
6.641624122858047485e-02
1.001683715730905533e-02
-1.372172683477401733e-02
-6.040308624505996704e-03
-1.367067079991102219e-02
-6.005286239087581635e-03
-6.005076691508293152e-03
-2.528511220589280128e-03
-4.444576799869537354e-02
-6.645919289439916611e-03
-6.093827541917562485e-03
-1.521862484514713287e-02
-0.000000000000000000e+00
0.000000000000000000e+00
0.000000000000000000e+00
0.000000000000000000e+00
0.000000000000000000e+00
-0.000000000000000000e+00
-0.000000000000000000e+00
-0.000000000000000000e+00
0.000000000000000000e+00
0.000000000000000000e+00
0.000000000000000000e+00
-0.000000000000000000e+00
0.000000000000000000e+00
0.000000000000000000e+00
-0.000000000000000000e+00
0.000000000000000000e+00
-7.980242371559143066e-02
-9.028619527816772461e-02
-6.084907799959182739e-02
-3.289361670613288879e-02
-2.328671701252460480e-02
-7.802137732505798340e-02
-1.785300299525260925e-02
-3.878837823867797852e-02
-2.159463800489902496e-02
-1.660265177488327026e-01
-1.368198636919260025e-02
-9.008704684674739838e-03
4.760200530290603638e-02
6.175132095813751221e-02
6.847159564495086670e-02
-2.354983612895011902e-02
0.000000000000000000e+00
-0.000000000000000000e+00
0.000000000000000000e+00
0.000000000000000000e+00
-0.000000000000000000e+00
0.000000000000000000e+00
0.000000000000000000e+00
0.000000000000000000e+00
0.000000000000000000e+00
-0.000000000000000000e+00
-0.000000000000000000e+00
-0.000000000000000000e+00
0.000000000000000000e+00
0.000000000000000000e+00
0.000000000000000000e+00
-0.000000000000000000e+00
9.344983100891113281e-02
2.049314416944980621e-02
-2.414107695221900940e-02
