2.185939997434616089e-02
-4.808412340935319662e-04
-1.871340908110141754e-02
6.131249666213989258e-02
-1.736967265605926514e-02
-9.059254825115203857e-02
2.849972546100616455e-01
-4.105080291628837585e-02
-1.358101367950439453e-01
3.294476121664047241e-02
-4.310403950512409210e-03
-2.773662097752094269e-02
8.919105678796768188e-02
-8.164372295141220093e-03
-8.449240773916244507e-02
8.094494789838790894e-02
-1.762466132640838623e-02
-1.154580190777778625e-01
3.909288346767425537e-02
2.531913574784994125e-03
-2.610979229211807251e-02
9.543833136558532715e-02
-4.521968367043882608e-04
-7.337870448827743530e-02
1.110824346542358398e-01
4.078908823430538177e-03
-9.032091498374938965e-02
6.183897494338452816e-04
-1.970591582357883453e-02
-1.771935634315013885e-02
-2.465451881289482117e-02
-2.712703123688697815e-02
-1.075516827404499054e-02
-2.488930337131023407e-02
-9.709101170301437378e-03
1.875532418489456177e-02
-2.449751459062099457e-02
-4.448092728853225708e-02
-3.411812335252761841e-02
-4.665248468518257141e-02
-4.625515267252922058e-02
-2.026893943548202515e-02
-3.233843669295310974e-02
-1.743692904710769653e-02
1.959136128425598145e-02
1.183296553790569305e-02
-7.414532359689474106e-03
-2.478680759668350220e-01
-1.060580182820558548e-02
-1.738909818232059479e-02
7.551740389317274094e-03
5.940642207860946655e-03
9.415550157427787781e-03
4.037360474467277527e-02
0.000000000000000000e+00
-0.000000000000000000e+00
-0.000000000000000000e+00
0.000000000000000000e+00
0.000000000000000000e+00
-0.000000000000000000e+00
0.000000000000000000e+00
-0.000000000000000000e+00
0.000000000000000000e+00
-0.000000000000000000e+00
-0.000000000000000000e+00
0.000000000000000000e+00
-0.000000000000000000e+00
0.000000000000000000e+00
0.000000000000000000e+00
-0.000000000000000000e+00
-0.000000000000000000e+00
0.000000000000000000e+00
-0.000000000000000000e+00
-0.000000000000000000e+00
-0.000000000000000000e+00
-0.000000000000000000e+00
0.000000000000000000e+00
0.000000000000000000e+00
0.000000000000000000e+00
0.000000000000000000e+00
0.000000000000000000e+00
6.653574109077453613e-02
-6.026300042867660522e-02
9.401337243616580963e-03
4.599711298942565918e-02
-1.050314977765083313e-01
4.023356363177299500e-02
-6.537487264722585678e-03
-6.412632018327713013e-02
6.361977010965347290e-02
5.460359156131744385e-02
-6.168854609131813049e-02
8.414577692747116089e-03
5.233105272054672241e-02
-9.049767255783081055e-02
4.601669311523437500e-02
-3.251436632126569748e-03
-5.916339159011840820e-02
6.095553189516067505e-02
3.036238811910152435e-02
-4.041463881731033325e-02
1.136155147105455399e-02
3.391361981630325317e-02
-6.274632364511489868e-02
3.769413381814956665e-02
-6.056671496480703354e-03
-3.458366170525550842e-02
5.654474720358848572e-02
1.027643680572509766e-02
1.595394127070903778e-02
1.527167949825525284e-02
-6.163681671023368835e-02
-4.597603157162666321e-02
-1.488634571433067322e-02
-6.449560821056365967e-02
-6.106009334325790405e-02
-4.236656427383422852e-02
3.858293220400810242e-02
4.486406967043876648e-02
4.058062657713890076e-02
-7.224584463983774185e-03
1.049484033137559891e-02
3.538379073143005371e-02
-2.624853141605854034e-02
-2.771524898707866669e-02
-1.106575969606637955e-02
2.173534594476222992e-02
2.523138746619224548e-02
2.164509333670139313e-02
1.333875209093093872e-02
2.853384241461753845e-02
4.746711254119873047e-02
-3.868049243465065956e-03
2.530233003199100494e-03
1.420487929135560989e-02
2.441114000976085663e-02
3.570273146033287048e-02
4.214498400688171387e-02
4.075902048498392105e-03
2.456107549369335175e-02
1.797188073396682739e-02
-8.062977343797683716e-03
-2.023170143365859985e-02
-2.903579361736774445e-02
-2.718230336904525757e-02
-3.157464554533362389e-03
1.998968422412872314e-02
-3.257395699620246887e-02
1.733998884446918964e-03
9.662675671279430389e-03
-2.990773618221282959e-01
-2.798595838248729706e-02
-1.994359306991100311e-02
1.342383865267038345e-02
2.192971855401992798e-02
3.015286661684513092e-02
8.906786330044269562e-03
3.234650939702987671e-02
2.744614705443382263e-02
1.038088928908109665e-03
-9.397938993060961366e-05
-3.972750157117843628e-03
1.066650673747062683e-01
-1.654676720499992371e-02
-1.042269542813301086e-02
-5.602341890335083008e-02
-1.353095918893814087e-01
7.512815296649932861e-03
-1.727611385285854340e-02
2.163065038621425629e-02
1.036860868334770203e-01
1.030547991394996643e-01
-3.513250127434730530e-02
-2.430789358913898468e-02
-5.351819843053817749e-02
-1.426548957824707031e-01
-2.686773892492055893e-03
-1.106463838368654251e-02
1.620615273714065552e-02
9.508538246154785156e-02
6.966658681631088257e-02
-1.960784941911697388e-02
-1.281760632991790771e-02
-4.832492396235466003e-02
-1.035493463277816772e-01
1.486116671003401279e-03
1.426671631634235382e-03
3.244625404477119446e-02
8.937408030033111572e-02
-0.000000000000000000e+00
-0.000000000000000000e+00
0.000000000000000000e+00
-0.000000000000000000e+00
0.000000000000000000e+00
-0.000000000000000000e+00
-0.000000000000000000e+00
0.000000000000000000e+00
0.000000000000000000e+00
0.000000000000000000e+00
-0.000000000000000000e+00
0.000000000000000000e+00
-0.000000000000000000e+00
0.000000000000000000e+00
0.000000000000000000e+00
-0.000000000000000000e+00
0.000000000000000000e+00
-0.000000000000000000e+00
0.000000000000000000e+00
0.000000000000000000e+00
-0.000000000000000000e+00
-0.000000000000000000e+00
-0.000000000000000000e+00
0.000000000000000000e+00
0.000000000000000000e+00
-0.000000000000000000e+00
-0.000000000000000000e+00
8.168984204530715942e-03
4.933453351259231567e-02
1.522605400532484055e-02
-1.485314406454563141e-02
6.511096656322479248e-02
4.679563269019126892e-02
-1.907105743885040283e-02
1.269054599106311798e-02
3.069928847253322601e-03
-4.239061474800109863e-02
1.937596686184406281e-02
2.246188372373580933e-02
-6.700357049703598022e-02
2.648888528347015381e-02
4.290881752967834473e-02
-3.170394897460937500e-01
-2.718344330787658691e-02
-4.543400835245847702e-03
1.664759824052453041e-03
4.258967563509941101e-02
2.476689033210277557e-02
-2.318704687058925629e-02
5.056958273053169250e-02
4.542007669806480408e-02
-3.027725405991077423e-02
1.050333958119153976e-03
4.587981849908828735e-03
-8.399104699492454529e-03
1.054966729134321213e-02
-4.384135082364082336e-02
-3.684233874082565308e-02
3.306404501199722290e-02
6.757683306932449341e-02
-4.498768970370292664e-02
-6.236310303211212158e-02
-7.443254580721259117e-04
-4.484239500015974045e-03
2.319235540926456451e-02
-3.495832905173301697e-02
-1.477546617388725281e-02
6.708741188049316406e-02
9.323431551456451416e-02
-4.963931813836097717e-02
-5.826038867235183716e-02
-1.724701840430498123e-03
1.306957472115755081e-02
2.380901947617530823e-02
-4.969477653503417969e-02
1.819636672735214233e-02
7.844106853008270264e-02
7.705193758010864258e-02
-3.578413277864456177e-02
-4.932819306850433350e-02
-1.689389720559120178e-02
0.000000000000000000e+00
-0.000000000000000000e+00
-0.000000000000000000e+00
0.000000000000000000e+00
-0.000000000000000000e+00
0.000000000000000000e+00
-0.000000000000000000e+00
-0.000000000000000000e+00
0.000000000000000000e+00
0.000000000000000000e+00
-0.000000000000000000e+00
-0.000000000000000000e+00
-0.000000000000000000e+00
0.000000000000000000e+00
0.000000000000000000e+00
0.000000000000000000e+00
-0.000000000000000000e+00
-0.000000000000000000e+00
-0.000000000000000000e+00
0.000000000000000000e+00
0.000000000000000000e+00
0.000000000000000000e+00
0.000000000000000000e+00
0.000000000000000000e+00
-0.000000000000000000e+00
0.000000000000000000e+00
0.000000000000000000e+00
0.000000000000000000e+00
-0.000000000000000000e+00
0.000000000000000000e+00
0.000000000000000000e+00
-0.000000000000000000e+00
-0.000000000000000000e+00
0.000000000000000000e+00
-0.000000000000000000e+00
-0.000000000000000000e+00
0.000000000000000000e+00
-0.000000000000000000e+00
-0.000000000000000000e+00
-0.000000000000000000e+00
-0.000000000000000000e+00
0.000000000000000000e+00
0.000000000000000000e+00
-0.000000000000000000e+00
0.000000000000000000e+00
-0.000000000000000000e+00
0.000000000000000000e+00
-0.000000000000000000e+00
-0.000000000000000000e+00
-0.000000000000000000e+00
0.000000000000000000e+00
-0.000000000000000000e+00
0.000000000000000000e+00
-0.000000000000000000e+00
6.443571299314498901e-02
-7.244291901588439941e-02
1.421951036900281906e-02
-1.498408336192369461e-02
-9.584137797355651855e-02
7.666502147912979126e-02
-4.354887455701828003e-02
-4.787547886371612549e-02
8.646497875452041626e-02
5.327263846993446350e-02
-6.816162168979644775e-02
1.401559449732303619e-02
1.247691805474460125e-03
-7.305286079645156860e-02
9.154822677373886108e-02
-2.642772346735000610e-02
-3.390610590577125549e-02
9.234963357448577881e-02
2.621060609817504883e-02
-4.626899585127830505e-02
1.448864210397005081e-02
-1.124133821576833725e-02
-5.181233957409858704e-02
7.250084728002548218e-02
-3.183684870600700378e-02
-2.110142633318901062e-02
7.863517850637435913e-02
3.871946036815643311e-02
-3.411470353603363037e-02
-4.411862790584564209e-02
-7.893455028533935547e-02
-1.248875483870506287e-01
-2.141810767352581024e-02
-4.920568317174911499e-02
2.124982886016368866e-03
4.465211927890777588e-02
1.384787857532501221e-01
5.402903258800506592e-02
2.127393148839473724e-02
3.603099659085273743e-02
-2.568689547479152679e-02
4.423886165022850037e-02
4.738422110676765442e-02
7.603576779365539551e-02
8.815538138151168823e-02
2.152467705309391022e-02
-2.525780722498893738e-02
-3.004723228514194489e-02
-6.042698025703430176e-02
-9.287619590759277344e-02
-2.490947954356670380e-02
-4.430437088012695312e-02
-1.107256952673196793e-02
1.099269744008779526e-02
0.000000000000000000e+00
-0.000000000000000000e+00
-0.000000000000000000e+00
0.000000000000000000e+00
-0.000000000000000000e+00
-0.000000000000000000e+00
0.000000000000000000e+00
0.000000000000000000e+00
0.000000000000000000e+00
0.000000000000000000e+00
-0.000000000000000000e+00
0.000000000000000000e+00
0.000000000000000000e+00
-0.000000000000000000e+00
-0.000000000000000000e+00
-0.000000000000000000e+00
-0.000000000000000000e+00
-0.000000000000000000e+00
-0.000000000000000000e+00
-0.000000000000000000e+00
0.000000000000000000e+00
0.000000000000000000e+00
0.000000000000000000e+00
-0.000000000000000000e+00
0.000000000000000000e+00
0.000000000000000000e+00
0.000000000000000000e+00
-3.989213705062866211e-02
1.976305246353149414e-02
7.244800031185150146e-02
-4.663003236055374146e-02
3.860878944396972656e-02
6.736487150192260742e-02
-1.807552762329578400e-02
3.439490869641304016e-02
2.435969561338424683e-02
-7.532863318920135498e-02
-2.170326747000217438e-02
3.219942003488540649e-02
-8.330392092466354370e-02
-5.668984726071357727e-03
2.846808731555938721e-02
-5.487829074263572693e-02
-2.124478924088180065e-04
-5.574536044150590897e-04
-3.698894679546356201e-01
1.421299204230308533e-02
6.140347570180892944e-02
-4.743503406643867493e-02
2.698434330523014069e-02
5.899795517325401306e-02
-2.148006483912467957e-02
3.162749484181404114e-02
3.481877967715263367e-02
3.049628436565399170e-01
7.441675662994384766e-02
7.467126473784446716e-03
3.469877690076828003e-02
3.459545969963073730e-02
-7.961323484778404236e-03
3.231279784813523293e-03
1.753462292253971100e-02
-2.066776389256119728e-03
2.214745618402957916e-02
1.767509803175926208e-02
-7.411775738000869751e-02
1.671989075839519501e-02
-6.926292087882757187e-03
-7.436753809452056885e-02
-5.179639905691146851e-03
-1.302397251129150391e-02
-5.582050979137420654e-02
3.109540045261383057e-02
8.408523164689540863e-03
-7.986609637737274170e-02
3.930300101637840271e-02
4.948518238961696625e-03
-6.366816163063049316e-02
5.129926651716232300e-02
3.139526396989822388e-02
-2.194607257843017578e-02
9.258195757865905762e-02
7.397161424160003662e-02
-9.382743388414382935e-03
-5.599348992109298706e-02
-3.278091251850128174e-01
-2.094718068838119507e-02
-4.198456183075904846e-02
2.315083891153335571e-02
5.393049865961074829e-02
8.574383705854415894e-02
6.279411911964416504e-02
-2.359041571617126465e-02
-5.559726431965827942e-02
-8.180977404117584229e-02
-2.562164701521396637e-02
-6.205809861421585083e-02
5.658769514411687851e-03
3.992826119065284729e-02
3.242657482624053955e-01
6.107001379132270813e-02
-1.065517216920852661e-02
-3.277741372585296631e-02
-4.486222565174102783e-02
-5.948737263679504395e-03
-5.070649087429046631e-02
1.102893613278865814e-02
3.035746701061725616e-02
-0.000000000000000000e+00
0.000000000000000000e+00
-0.000000000000000000e+00
-0.000000000000000000e+00
0.000000000000000000e+00
-0.000000000000000000e+00
-0.000000000000000000e+00
-0.000000000000000000e+00
-0.000000000000000000e+00
0.000000000000000000e+00
0.000000000000000000e+00
0.000000000000000000e+00
0.000000000000000000e+00
0.000000000000000000e+00
-0.000000000000000000e+00
0.000000000000000000e+00
-0.000000000000000000e+00
-0.000000000000000000e+00
0.000000000000000000e+00
-0.000000000000000000e+00
-0.000000000000000000e+00
0.000000000000000000e+00
-0.000000000000000000e+00
0.000000000000000000e+00
0.000000000000000000e+00
-0.000000000000000000e+00
0.000000000000000000e+00
-2.262786775827407837e-02
-1.636885106563568115e-03
7.897805422544479370e-03
-4.934314265847206116e-02
1.583084696903824806e-03
3.291304409503936768e-02
-4.244615882635116577e-02
-6.197670008987188339e-03
3.259484842419624329e-02
4.901383072137832642e-03
3.313130140304565430e-02
4.459434002637863159e-02
-3.050622530281543732e-02
2.493047714233398438e-02
6.329543143510818481e-02
-2.738402597606182098e-02
1.040172763168811798e-02
5.576977133750915527e-02
-2.902448363602161407e-02
-6.192578934133052826e-03
1.294163521379232407e-02
-5.470212921500205994e-02
-9.536971338093280792e-03
3.180055320262908936e-02
-5.285056680440902710e-02
-2.132720313966274261e-02
2.321591787040233612e-02
0.000000000000000000e+00
0.000000000000000000e+00
-0.000000000000000000e+00
0.000000000000000000e+00
-0.000000000000000000e+00
-0.000000000000000000e+00
-0.000000000000000000e+00
0.000000000000000000e+00
0.000000000000000000e+00
0.000000000000000000e+00
0.000000000000000000e+00
-0.000000000000000000e+00
0.000000000000000000e+00
0.000000000000000000e+00
-0.000000000000000000e+00
-0.000000000000000000e+00
0.000000000000000000e+00
-0.000000000000000000e+00
-0.000000000000000000e+00
-0.000000000000000000e+00
-0.000000000000000000e+00
0.000000000000000000e+00
-0.000000000000000000e+00
-0.000000000000000000e+00
-0.000000000000000000e+00
0.000000000000000000e+00
-0.000000000000000000e+00
0.000000000000000000e+00
0.000000000000000000e+00
0.000000000000000000e+00
0.000000000000000000e+00
0.000000000000000000e+00
0.000000000000000000e+00
-0.000000000000000000e+00
0.000000000000000000e+00
-0.000000000000000000e+00
-0.000000000000000000e+00
0.000000000000000000e+00
-0.000000000000000000e+00
-0.000000000000000000e+00
-0.000000000000000000e+00
-0.000000000000000000e+00
-0.000000000000000000e+00
0.000000000000000000e+00
-0.000000000000000000e+00
0.000000000000000000e+00
-0.000000000000000000e+00
-0.000000000000000000e+00
0.000000000000000000e+00
-0.000000000000000000e+00
-0.000000000000000000e+00
0.000000000000000000e+00
0.000000000000000000e+00
0.000000000000000000e+00
-1.108358497731387615e-03
-1.323571486864238977e-04
6.175040733069181442e-03
-2.044379524886608124e-02
1.748395152390003204e-04
3.723473101854324341e-02
-1.238617859780788422e-02
2.491143299266695976e-03
7.519248872995376587e-02
3.040327504277229309e-02
4.174245521426200867e-02
5.934658274054527283e-02
-5.416148924268782139e-04
2.838393487036228180e-02
7.742428779602050781e-02
5.674788728356361389e-03
2.538835629820823669e-02
1.081555411219596863e-01
-1.837719045579433441e-02
-1.523357164114713669e-02
-8.817734851618297398e-06
-5.436594411730766296e-02
-3.633382543921470642e-02
3.075606655329465866e-04
-3.032973408699035645e-01
-3.070872128009796143e-01
2.359999716281890869e-02
0.000000000000000000e+00
-0.000000000000000000e+00
-0.000000000000000000e+00
-0.000000000000000000e+00
-0.000000000000000000e+00
0.000000000000000000e+00
-0.000000000000000000e+00
0.000000000000000000e+00
0.000000000000000000e+00
-0.000000000000000000e+00
0.000000000000000000e+00
0.000000000000000000e+00
-0.000000000000000000e+00
0.000000000000000000e+00
-0.000000000000000000e+00
-0.000000000000000000e+00
-0.000000000000000000e+00
0.000000000000000000e+00
0.000000000000000000e+00
0.000000000000000000e+00
-0.000000000000000000e+00
-0.000000000000000000e+00
0.000000000000000000e+00
0.000000000000000000e+00
-0.000000000000000000e+00
0.000000000000000000e+00
0.000000000000000000e+00
0.000000000000000000e+00
0.000000000000000000e+00
0.000000000000000000e+00
0.000000000000000000e+00
-0.000000000000000000e+00
-0.000000000000000000e+00
0.000000000000000000e+00
0.000000000000000000e+00
0.000000000000000000e+00
-0.000000000000000000e+00
-0.000000000000000000e+00
-0.000000000000000000e+00
-0.000000000000000000e+00
-0.000000000000000000e+00
0.000000000000000000e+00
0.000000000000000000e+00
0.000000000000000000e+00
-0.000000000000000000e+00
-0.000000000000000000e+00
0.000000000000000000e+00
-0.000000000000000000e+00
0.000000000000000000e+00
-0.000000000000000000e+00
-0.000000000000000000e+00
0.000000000000000000e+00
0.000000000000000000e+00
0.000000000000000000e+00
-0.000000000000000000e+00
0.000000000000000000e+00
0.000000000000000000e+00
-0.000000000000000000e+00
0.000000000000000000e+00
0.000000000000000000e+00
-0.000000000000000000e+00
0.000000000000000000e+00
-0.000000000000000000e+00
0.000000000000000000e+00
0.000000000000000000e+00
-0.000000000000000000e+00
-0.000000000000000000e+00
0.000000000000000000e+00
-0.000000000000000000e+00
0.000000000000000000e+00
-0.000000000000000000e+00
-0.000000000000000000e+00
0.000000000000000000e+00
-0.000000000000000000e+00
-0.000000000000000000e+00
0.000000000000000000e+00
-0.000000000000000000e+00
0.000000000000000000e+00
-0.000000000000000000e+00
-0.000000000000000000e+00
0.000000000000000000e+00
0.000000000000000000e+00
0.000000000000000000e+00
-0.000000000000000000e+00
0.000000000000000000e+00
-0.000000000000000000e+00
-0.000000000000000000e+00
-0.000000000000000000e+00
0.000000000000000000e+00
-0.000000000000000000e+00
0.000000000000000000e+00
-0.000000000000000000e+00
-0.000000000000000000e+00
-0.000000000000000000e+00
0.000000000000000000e+00
0.000000000000000000e+00
-0.000000000000000000e+00
-0.000000000000000000e+00
-0.000000000000000000e+00
-0.000000000000000000e+00
0.000000000000000000e+00
0.000000000000000000e+00
-0.000000000000000000e+00
0.000000000000000000e+00
-0.000000000000000000e+00
0.000000000000000000e+00
0.000000000000000000e+00
0.000000000000000000e+00
-2.875234931707382202e-02
-7.854612916707992554e-02
-2.393779903650283813e-02
-3.073289059102535248e-02
5.875625647604465485e-03
3.415866568684577942e-02
3.534982353448867798e-02
1.333117038011550903e-01
8.048298209905624390e-02
-3.175842016935348511e-02
-3.512820601463317871e-01
-2.836985141038894653e-02
-3.714209049940109253e-02
-1.924229552969336510e-03
2.088706195354461670e-02
3.620773926377296448e-02
1.319827139377593994e-01
7.232022285461425781e-02
-1.118174381554126740e-02
-5.054272338747978210e-02
-1.618262566626071930e-02
-2.855634689331054688e-02
-1.188998296856880188e-02
-8.662617765367031097e-04
2.514691092073917389e-02
8.488488942384719849e-02
3.240917995572090149e-02
9.645093232393264771e-02
1.074192672967910767e-01
3.050215840339660645e-01
3.569805994629859924e-02
5.858597531914710999e-02
5.579502135515213013e-02
-1.052868086844682693e-02
3.666084725409746170e-03
-9.675572073319926858e-05
-5.489541217684745789e-02
-7.365579158067703247e-02
-1.155998036265373230e-01
-8.553271740674972534e-02
-8.880551904439926147e-02
-7.958711683750152588e-02
-5.298985540866851807e-02
-5.079363659024238586e-02
-3.732011094689369202e-02
-2.024250291287899017e-02
-4.321464151144027710e-02
-6.275434792041778564e-02
-3.021399118006229401e-02
-4.367256909608840942e-02
-3.060727566480636597e-02
1.135451160371303558e-02
6.012958008795976639e-03
1.156770810484886169e-02
-2.737446874380111694e-02
-3.214242681860923767e-02
-4.606896266341209412e-02
-2.329907752573490143e-02
-2.094346098601818085e-02
-4.051275178790092468e-02
-1.808943413197994232e-02
-2.501881681382656097e-02
-3.309549018740653992e-02
-1.832351647317409515e-02
-2.104404941201210022e-02
-5.940860137343406677e-02
1.860299147665500641e-02
2.598686143755912781e-02
-1.729909889400005341e-02
1.505801919847726822e-02
1.856511272490024567e-02
-7.978595793247222900e-03
1.816008239984512329e-02
1.061161793768405914e-02
-4.605067893862724304e-02
8.441489934921264648e-02
9.019231796264648438e-02
2.881340496242046356e-02
6.808964908123016357e-02
7.360705733299255371e-02
3.543407097458839417e-02
-0.000000000000000000e+00
-0.000000000000000000e+00
0.000000000000000000e+00
-0.000000000000000000e+00
0.000000000000000000e+00
0.000000000000000000e+00
-0.000000000000000000e+00
0.000000000000000000e+00
-0.000000000000000000e+00
0.000000000000000000e+00
0.000000000000000000e+00
-0.000000000000000000e+00
-0.000000000000000000e+00
-0.000000000000000000e+00
-0.000000000000000000e+00
-0.000000000000000000e+00
-0.000000000000000000e+00
-0.000000000000000000e+00
-0.000000000000000000e+00
0.000000000000000000e+00
0.000000000000000000e+00
-0.000000000000000000e+00
0.000000000000000000e+00
-0.000000000000000000e+00
-0.000000000000000000e+00
0.000000000000000000e+00
0.000000000000000000e+00
-0.000000000000000000e+00
0.000000000000000000e+00
-0.000000000000000000e+00
-0.000000000000000000e+00
-0.000000000000000000e+00
-0.000000000000000000e+00
0.000000000000000000e+00
-0.000000000000000000e+00
-0.000000000000000000e+00
-0.000000000000000000e+00
0.000000000000000000e+00
0.000000000000000000e+00
0.000000000000000000e+00
-0.000000000000000000e+00
0.000000000000000000e+00
0.000000000000000000e+00
-0.000000000000000000e+00
-0.000000000000000000e+00
0.000000000000000000e+00
0.000000000000000000e+00
0.000000000000000000e+00
-0.000000000000000000e+00
-0.000000000000000000e+00
0.000000000000000000e+00
-0.000000000000000000e+00
0.000000000000000000e+00
0.000000000000000000e+00
-0.000000000000000000e+00
0.000000000000000000e+00
0.000000000000000000e+00
0.000000000000000000e+00
-0.000000000000000000e+00
0.000000000000000000e+00
0.000000000000000000e+00
0.000000000000000000e+00
0.000000000000000000e+00
0.000000000000000000e+00
-0.000000000000000000e+00
0.000000000000000000e+00
-0.000000000000000000e+00
0.000000000000000000e+00
-0.000000000000000000e+00
0.000000000000000000e+00
0.000000000000000000e+00
-0.000000000000000000e+00
-0.000000000000000000e+00
0.000000000000000000e+00
-0.000000000000000000e+00
-0.000000000000000000e+00
0.000000000000000000e+00
-0.000000000000000000e+00
-0.000000000000000000e+00
0.000000000000000000e+00
-0.000000000000000000e+00
4.739475436508655548e-03
3.229349479079246521e-02
-8.038942702114582062e-03
4.777634982019662857e-03
2.798507176339626312e-02
9.035211056470870972e-03
-1.912136678583920002e-03
2.540660649538040161e-02
6.075124256312847137e-03
-2.757856994867324829e-02
1.866401918232440948e-02
2.252920717000961304e-01
-3.138536959886550903e-02
9.448570199310779572e-03
-9.810147807002067566e-03
-5.600055307149887085e-02
-1.303458958864212036e-02
-3.476262092590332031e-02
3.225160390138626099e-02
9.059677273035049438e-02
4.403174296021461487e-02
2.051069587469100952e-02
7.223536074161529541e-02
5.062124133110046387e-02
-1.687902770936489105e-02
3.675068542361259460e-02
1.090680900961160660e-02
0.000000000000000000e+00
-0.000000000000000000e+00
-0.000000000000000000e+00
0.000000000000000000e+00
0.000000000000000000e+00
-0.000000000000000000e+00
-0.000000000000000000e+00
-0.000000000000000000e+00
0.000000000000000000e+00
0.000000000000000000e+00
-0.000000000000000000e+00
-0.000000000000000000e+00
0.000000000000000000e+00
-0.000000000000000000e+00
0.000000000000000000e+00
-0.000000000000000000e+00
-0.000000000000000000e+00
0.000000000000000000e+00
0.000000000000000000e+00
-0.000000000000000000e+00
0.000000000000000000e+00
0.000000000000000000e+00
0.000000000000000000e+00
-0.000000000000000000e+00
-0.000000000000000000e+00
0.000000000000000000e+00
0.000000000000000000e+00
6.366868037730455399e-03
-7.220572233200073242e-02
5.270578339695930481e-02
5.058098956942558289e-02
-1.013489738106727600e-01
2.884651347994804382e-02
5.253681167960166931e-02
-5.518059432506561279e-02
-6.311848759651184082e-03
1.800116524100303650e-02
-6.703288853168487549e-02
5.649817734956741333e-02
6.645265221595764160e-02
-9.234109520912170410e-02
3.569066897034645081e-02
6.705566495656967163e-02
-4.456918686628341675e-02
6.013684440404176712e-03
6.593916565179824829e-03
-5.783911421895027161e-02
2.903631143271923065e-02
4.716995730996131897e-02
-7.676401734352111816e-02
1.483100280165672302e-02
5.230842903256416321e-02
-3.643818199634552002e-02
-5.139629356563091278e-03
-3.717859834432601929e-02
-3.599101305007934570e-02
-2.022617869079113007e-02
-3.028882853686809540e-02
-2.487442642450332642e-02
-4.611013282556086779e-04
-4.437420517206192017e-02
-3.185925260186195374e-02
-6.216568406671285629e-03
-2.558289468288421631e-02
-8.806538768112659454e-03
-4.281121771782636642e-03
6.115199066698551178e-04
1.932091265916824341e-02
2.930678240954875946e-02
-3.317285701632499695e-02
-9.375492110848426819e-03
-3.409797558560967445e-03
4.655223805457353592e-03
2.586320787668228149e-02
2.211257815361022949e-02
5.521801859140396118e-02
7.623289525508880615e-02
7.496576756238937378e-02
1.118574570864439011e-02
3.516009822487831116e-02
3.292932361364364624e-02
-0.000000000000000000e+00
0.000000000000000000e+00
0.000000000000000000e+00
-0.000000000000000000e+00
0.000000000000000000e+00
0.000000000000000000e+00
0.000000000000000000e+00
-0.000000000000000000e+00
-0.000000000000000000e+00
-0.000000000000000000e+00
0.000000000000000000e+00
-0.000000000000000000e+00
0.000000000000000000e+00
-0.000000000000000000e+00
-0.000000000000000000e+00
0.000000000000000000e+00
-0.000000000000000000e+00
0.000000000000000000e+00
-0.000000000000000000e+00
-0.000000000000000000e+00
-0.000000000000000000e+00
-0.000000000000000000e+00
0.000000000000000000e+00
0.000000000000000000e+00
0.000000000000000000e+00
-0.000000000000000000e+00
-0.000000000000000000e+00
1.250339578837156296e-02
-6.403689831495285034e-02
-9.092799387872219086e-03
5.181483551859855652e-02
-6.301932781934738159e-02
-2.761458605527877808e-02
9.770136326551437378e-03
-3.388373926281929016e-02
-1.685324683785438538e-02
5.979517847299575806e-02
-2.709067612886428833e-02
1.368664577603340149e-02
9.490019083023071289e-02
-2.919647470116615295e-02
-5.860781297087669373e-03
4.978787526488304138e-02
-1.417905092239379883e-03
7.479431107640266418e-03
3.260471299290657043e-02
-3.928160294890403748e-02
-1.451868005096912384e-02
6.433927267789840698e-02
-3.803875669836997986e-02
-2.833691425621509552e-02
2.950717322528362274e-02
-1.470139902085065842e-02
-1.583074405789375305e-02
-0.000000000000000000e+00
0.000000000000000000e+00
0.000000000000000000e+00
-0.000000000000000000e+00
0.000000000000000000e+00
0.000000000000000000e+00
-0.000000000000000000e+00
0.000000000000000000e+00
0.000000000000000000e+00
0.000000000000000000e+00
0.000000000000000000e+00
0.000000000000000000e+00
-0.000000000000000000e+00
0.000000000000000000e+00
-0.000000000000000000e+00
0.000000000000000000e+00
0.000000000000000000e+00
-0.000000000000000000e+00
-0.000000000000000000e+00
0.000000000000000000e+00
0.000000000000000000e+00
-0.000000000000000000e+00
-0.000000000000000000e+00
0.000000000000000000e+00
0.000000000000000000e+00
-0.000000000000000000e+00
0.000000000000000000e+00
4.891533777117729187e-02
-7.491785287857055664e-02
3.320726752281188965e-02
6.859589368104934692e-02
-1.304085999727249146e-01
5.860729515552520752e-02
3.733124211430549622e-02
-9.635188430547714233e-02
4.942375048995018005e-02
3.798535093665122986e-02
-9.091569483280181885e-02
3.298811987042427063e-02
7.295063138008117676e-02
-1.302368789911270142e-01
7.100895047187805176e-02
3.932136669754981995e-02
-1.018097251653671265e-01
5.897074192762374878e-02
2.328448928892612457e-02
-5.832093209028244019e-02
2.874439582228660583e-02
4.996363073587417603e-02
-8.834481984376907349e-02
5.408856272697448730e-02
3.119756653904914856e-02
-6.896263360977172852e-02
4.693846404552459717e-02
-3.854561597108840942e-02
-7.825662381947040558e-03
-3.940261155366897583e-02
1.357572618871927261e-02
2.676764875650405884e-02
2.312654629349708557e-02
2.999649010598659515e-02
3.356362506747245789e-02
2.074742503464221954e-02
-5.214306339621543884e-02
-1.325015351176261902e-02
-5.804659053683280945e-02
-5.932217463850975037e-03
2.660344839096069336e-01
-7.147783762775361538e-04
-7.251038914546370506e-04
8.296362124383449554e-03
-1.549494359642267227e-02
-1.314092986285686493e-02
3.046138212084770203e-02
-2.409077063202857971e-02
4.061009362339973450e-02
6.376097351312637329e-02
4.846531897783279419e-02
3.973801806569099426e-02
5.168781057000160217e-02
2.786053903400897980e-02
-9.297604672610759735e-03
-3.751676902174949646e-02
5.672924593091011047e-02
-4.438828304409980774e-02
-4.827183112502098083e-02
8.796181529760360718e-02
-4.330655187368392944e-02
-3.335572779178619385e-02
7.889953255653381348e-02
-3.281322866678237915e-02
-4.966424405574798584e-02
5.826700851321220398e-02
-5.359988659620285034e-02
-5.019727721810340881e-02
9.994405508041381836e-02
-5.326514318585395813e-02
-3.695793077349662781e-02
8.916242420673370361e-02
-2.522881142795085907e-02
-2.856812439858913422e-02
5.532628670334815979e-02
-4.771193861961364746e-02
-3.504008054733276367e-02
8.583092689514160156e-02
-4.555327445268630981e-02
-2.612036280333995819e-02
7.520563900470733643e-02
-5.907834507524967194e-03
8.566729724407196045e-03
3.766951337456703186e-02
-7.163814455270767212e-02
-4.969270154833793640e-02
-1.174877211451530457e-02
-4.106878489255905151e-02
-5.663350597023963928e-02
-2.662396430969238281e-02
1.611139625310897827e-02
4.420617967844009399e-02
7.233566790819168091e-02
-2.616912685334682465e-02
6.905848160386085510e-03
3.786464780569076538e-02
-1.122794300317764282e-02
-1.808737777173519135e-02
8.094703778624534607e-03
1.249179989099502563e-02
3.009139373898506165e-02
4.142721369862556458e-02
3.933261905331164598e-04
2.196556143462657928e-02
3.547813743352890015e-02
6.904434412717819214e-03
-3.849890548735857010e-03
9.641503915190696716e-03
6.025906652212142944e-02
-6.545632332563400269e-02
1.613570190966129303e-02
5.201062932610511780e-02
-1.135285124182701111e-01
4.951881244778633118e-02
4.124514758586883545e-03
-7.211960852146148682e-02
6.352411210536956787e-02
5.153027549386024475e-02
-6.507503241300582886e-02
1.594786904752254486e-02
5.893428251147270203e-02
-9.853982180356979370e-02
5.602456629276275635e-02
7.059555035084486008e-03
-6.639391183853149414e-02
6.320580095052719116e-02
2.784258499741554260e-02
-4.409650713205337524e-02
1.204258017241954803e-02
3.919918835163116455e-02
-6.800195574760437012e-02
4.081858322024345398e-02
3.762157866731286049e-03
-4.120824486017227173e-02
5.311444029211997986e-02
3.754515945911407471e-02
7.377105206251144409e-02
4.025205969810485840e-02
4.156781733036041260e-02
8.930219709873199463e-02
5.912214890122413635e-02
-1.025729477405548096e-01
-1.129444688558578491e-01
-9.378523379564285278e-02
7.702087610960006714e-02
1.207583472132682800e-01
6.781719624996185303e-02
1.986590027809143066e-02
6.223111972212791443e-02
3.118788264691829681e-02
-7.146120071411132812e-02
-8.231844007968902588e-02
-6.073988601565361023e-02
3.623528778553009033e-02
7.729694992303848267e-02
3.144257143139839172e-02
5.938404356129467487e-04
2.293847501277923584e-02
5.988586228340864182e-03
-4.442977905273437500e-02
-3.046779632568359375e-01
-3.620271384716033936e-02
0.000000000000000000e+00
-0.000000000000000000e+00
0.000000000000000000e+00
0.000000000000000000e+00
0.000000000000000000e+00
0.000000000000000000e+00
-0.000000000000000000e+00
0.000000000000000000e+00
-0.000000000000000000e+00
-0.000000000000000000e+00
-0.000000000000000000e+00
0.000000000000000000e+00
0.000000000000000000e+00
0.000000000000000000e+00
-0.000000000000000000e+00
-0.000000000000000000e+00
-0.000000000000000000e+00
-0.000000000000000000e+00
0.000000000000000000e+00
0.000000000000000000e+00
-0.000000000000000000e+00
-0.000000000000000000e+00
0.000000000000000000e+00
0.000000000000000000e+00
-0.000000000000000000e+00
-0.000000000000000000e+00
-0.000000000000000000e+00
-2.257372811436653137e-02
-6.730463821440935135e-03
2.014352753758430481e-02
-5.891685560345649719e-02
-4.739898815751075745e-02
-6.371550727635622025e-03
-5.261134356260299683e-02
-5.489206314086914062e-02
-3.511783108115196228e-02
1.754416967742145061e-03
2.220872417092323303e-02
4.251332953572273254e-02
-1.658754795789718628e-02
-3.931229584850370884e-04
3.295788168907165527e-02
-2.667122520506381989e-02
-2.827950753271579742e-02
-1.349319424480199814e-02
2.629023790359497070e-02
3.809188306331634521e-02
4.417013004422187805e-02
2.959392219781875610e-02
3.907112032175064087e-02
5.693459510803222656e-02
5.473858676850795746e-03
1.740520470775663853e-03
8.509092964231967926e-03
-3.163291886448860168e-02
-3.236189484596252441e-02
-2.746724709868431091e-02
-3.952476754784584045e-02
-4.092464596033096313e-02
-3.830522671341896057e-02
-3.461071848869323730e-02
-3.329428657889366150e-02
-3.018196672201156616e-02
-1.400204468518495560e-02
-4.133373498916625977e-03
-1.262021623551845551e-02
-3.629232291132211685e-03
2.665853127837181091e-03
-8.845528587698936462e-03
-8.671947754919528961e-03
-2.134383190423250198e-03
-1.432625204324722290e-02
2.595092914998531342e-02
4.306281730532646179e-02
2.911359257996082306e-02
5.132871866226196289e-02
6.264160573482513428e-02
4.877555370330810547e-02
3.459345549345016479e-02
4.590190574526786804e-02
3.281661868095397949e-02
0.000000000000000000e+00
0.000000000000000000e+00
0.000000000000000000e+00
0.000000000000000000e+00
0.000000000000000000e+00
-0.000000000000000000e+00
0.000000000000000000e+00
-0.000000000000000000e+00
0.000000000000000000e+00
0.000000000000000000e+00
-0.000000000000000000e+00
-0.000000000000000000e+00
-0.000000000000000000e+00
-0.000000000000000000e+00
0.000000000000000000e+00
0.000000000000000000e+00
-0.000000000000000000e+00
-0.000000000000000000e+00
0.000000000000000000e+00
0.000000000000000000e+00
-0.000000000000000000e+00
0.000000000000000000e+00
-0.000000000000000000e+00
-0.000000000000000000e+00
0.000000000000000000e+00
0.000000000000000000e+00
0.000000000000000000e+00
1.741956546902656555e-02
3.879723325371742249e-02
5.849448218941688538e-02
3.761487081646919250e-03
3.672936186194419861e-02
4.368686303496360779e-02
-2.695146203041076660e-01
-4.769448190927505493e-03
-9.528672322630882263e-03
-6.016003713011741638e-02
-3.840935602784156799e-02
-1.815211027860641479e-02
-3.051343560218811035e-02
-9.065091726370155811e-04
2.541482914239168167e-03
-2.090596593916416168e-02
-1.657283492386341095e-02
-2.221409231424331665e-02
-1.559265702962875366e-02
-4.431985318660736084e-03
2.663144608959555626e-03
1.788745750673115253e-03
2.093750238418579102e-02
1.421067677438259125e-02
-9.167923708446323872e-04
-1.895013614557683468e-03
-1.568501442670822144e-02
6.412761658430099487e-02
-6.052807718515396118e-02
1.028584875166416168e-02
4.932167381048202515e-02
-1.111615970730781555e-01
4.370266944169998169e-02
-2.211337676271796227e-03
-7.069978863000869751e-02
6.336858868598937988e-02
5.980220064520835876e-02
-5.667489394545555115e-02
1.350443251430988312e-02
6.046271324157714844e-02
-9.251482039690017700e-02
5.289162322878837585e-02
4.976741038262844086e-03
-6.077821925282478333e-02
6.525079905986785889e-02
3.255506604909896851e-02
-3.879245743155479431e-02
1.138212624937295914e-02
3.865373879671096802e-02
-6.429639458656311035e-02
3.926896676421165466e-02
3.382737922947853804e-04
-3.684528917074203491e-02
5.597468838095664978e-02
-0.000000000000000000e+00
-0.000000000000000000e+00
0.000000000000000000e+00
-0.000000000000000000e+00
-0.000000000000000000e+00
-0.000000000000000000e+00
0.000000000000000000e+00
0.000000000000000000e+00
0.000000000000000000e+00
-0.000000000000000000e+00
0.000000000000000000e+00
0.000000000000000000e+00
0.000000000000000000e+00
-0.000000000000000000e+00
-0.000000000000000000e+00
-0.000000000000000000e+00
0.000000000000000000e+00
0.000000000000000000e+00
0.000000000000000000e+00
0.000000000000000000e+00
0.000000000000000000e+00
0.000000000000000000e+00
-0.000000000000000000e+00
-0.000000000000000000e+00
-0.000000000000000000e+00
0.000000000000000000e+00
-0.000000000000000000e+00
-0.000000000000000000e+00
-0.000000000000000000e+00
0.000000000000000000e+00
0.000000000000000000e+00
-0.000000000000000000e+00
-0.000000000000000000e+00
0.000000000000000000e+00
-0.000000000000000000e+00
0.000000000000000000e+00
-0.000000000000000000e+00
-0.000000000000000000e+00
-0.000000000000000000e+00
0.000000000000000000e+00
0.000000000000000000e+00
-0.000000000000000000e+00
0.000000000000000000e+00
-0.000000000000000000e+00
0.000000000000000000e+00
-0.000000000000000000e+00
-0.000000000000000000e+00
-0.000000000000000000e+00
-0.000000000000000000e+00
-0.000000000000000000e+00
0.000000000000000000e+00
0.000000000000000000e+00
0.000000000000000000e+00
0.000000000000000000e+00
8.968773484230041504e-02
1.198346838355064392e-01
5.032525956630706787e-02
-8.578140288591384888e-02
-1.036852598190307617e-01
-7.130209356546401978e-02
-3.074846230447292328e-02
-4.455314204096794128e-02
-8.551338687539100647e-03
9.434670209884643555e-02
1.166008710861206055e-01
4.656841233372688293e-02
-4.053689539432525635e-02
-6.420249491930007935e-02
-4.084842652082443237e-02
4.148594569414854050e-03
-1.406135316938161850e-02
1.289194636046886444e-02
3.074786439538002014e-02
4.958886280655860901e-02
8.143831975758075714e-03
-3.719950094819068909e-02
-5.018784478306770325e-02
-2.889914251863956451e-02
3.227037843316793442e-03
-3.320614108815789223e-03
1.796197332441806793e-02
-3.698496520519256592e-02
-2.874549925327301025e-01
-3.037445619702339172e-02
-4.526020213961601257e-02
-4.154223203659057617e-02
-4.122924804687500000e-02
1.550065074115991592e-02
3.562367334961891174e-02
3.300379216670989990e-02
-2.988098189234733582e-02
-2.003882266581058502e-02
-1.600728183984756470e-02
-3.727766498923301697e-02
-3.060425072908401489e-02
-2.888588234782218933e-02
3.010542830452322960e-03
2.156708203256130219e-02
1.805936545133590698e-02
4.833363927900791168e-03
1.359990984201431274e-02
2.045879699289798737e-02
8.707229280844330788e-04
2.579917199909687042e-03
4.515979439020156860e-03
3.222328051924705505e-02
4.239008948206901550e-02
3.749912977218627930e-02
-3.834627568721771240e-03
-5.248101800680160522e-02
-5.330669879913330078e-02
1.002174764871597290e-01
4.634144529700279236e-02
-1.327233575284481049e-02
3.655781745910644531e-01
1.059139594435691833e-01
3.417445719242095947e-02
-2.514763735234737396e-02
-9.474032372236251831e-02
-9.604617953300476074e-02
3.313959389925003052e-02
-6.210584938526153564e-02
-1.122501716017723083e-01
-1.170973572880029678e-02
9.190740995109081268e-03
-7.010647654533386230e-02
3.885205090045928955e-02
-2.871997654438018799e-02
-3.243600577116012573e-02
5.518390238285064697e-02
-3.038458153605461121e-02
-6.606290489435195923e-02
3.131831064820289612e-03
1.540033798664808273e-02
-4.380559176206588745e-02
-4.631780460476875305e-02
-4.216930642724037170e-02
-1.032054238021373749e-02
-4.469626024365425110e-02
-3.957152739167213440e-02
-8.735599927604198456e-03
-6.010583043098449707e-02
-5.148611217737197876e-02
-2.892054989933967590e-02
-2.406979538500308990e-02
-8.070424199104309082e-03
1.341055799275636673e-02
-6.542350631207227707e-03
1.140697300434112549e-02
3.304684162139892578e-02
-3.449280187487602234e-02
-1.450164150446653366e-02
3.351011255290359259e-04
9.962214156985282898e-03
3.104196302592754364e-02
4.587120935320854187e-02
3.734025359153747559e-02
5.664233863353729248e-02
7.133661210536956787e-02
5.688892997568473220e-05
2.162127755582332611e-02
3.160675242543220520e-02
-0.000000000000000000e+00
-0.000000000000000000e+00
0.000000000000000000e+00
-0.000000000000000000e+00
0.000000000000000000e+00
-0.000000000000000000e+00
0.000000000000000000e+00
0.000000000000000000e+00
-0.000000000000000000e+00
-0.000000000000000000e+00
0.000000000000000000e+00
0.000000000000000000e+00
-0.000000000000000000e+00
-0.000000000000000000e+00
-0.000000000000000000e+00
0.000000000000000000e+00
-0.000000000000000000e+00
0.000000000000000000e+00
0.000000000000000000e+00
0.000000000000000000e+00
-0.000000000000000000e+00
-0.000000000000000000e+00
-0.000000000000000000e+00
-0.000000000000000000e+00
0.000000000000000000e+00
0.000000000000000000e+00
-0.000000000000000000e+00
0.000000000000000000e+00
0.000000000000000000e+00
-0.000000000000000000e+00
0.000000000000000000e+00
-0.000000000000000000e+00
0.000000000000000000e+00
0.000000000000000000e+00
0.000000000000000000e+00
-0.000000000000000000e+00
0.000000000000000000e+00
-0.000000000000000000e+00
-0.000000000000000000e+00
0.000000000000000000e+00
-0.000000000000000000e+00
0.000000000000000000e+00
0.000000000000000000e+00
-0.000000000000000000e+00
-0.000000000000000000e+00
-0.000000000000000000e+00
-0.000000000000000000e+00
0.000000000000000000e+00
-0.000000000000000000e+00
0.000000000000000000e+00
0.000000000000000000e+00
0.000000000000000000e+00
-0.000000000000000000e+00
0.000000000000000000e+00
1.847172155976295471e-02
-7.654079794883728027e-02
-1.159375254064798355e-02
1.059078332036733627e-02
-1.016184315085411072e-01
2.349360100924968719e-02
-3.295141085982322693e-02
-9.996826201677322388e-02
2.250720560550689697e-02
7.054717838764190674e-02
-1.686046458780765533e-02
4.355322569608688354e-02
8.599318563938140869e-02
-2.373355999588966370e-02
9.411659836769104004e-02
4.276801645755767822e-02
-2.421127445995807648e-02
8.815872669219970703e-02
-7.249994814628735185e-05
-5.104034766554832458e-02
-4.616202786564826965e-03
1.509552542120218277e-02
-5.686360225081443787e-02
3.030575625598430634e-02
-2.570584043860435486e-02
-6.575765460729598999e-02
2.160499244928359985e-02
-0.000000000000000000e+00
0.000000000000000000e+00
0.000000000000000000e+00
0.000000000000000000e+00
0.000000000000000000e+00
-0.000000000000000000e+00
0.000000000000000000e+00
0.000000000000000000e+00
0.000000000000000000e+00
0.000000000000000000e+00
0.000000000000000000e+00
-0.000000000000000000e+00
0.000000000000000000e+00
-0.000000000000000000e+00
0.000000000000000000e+00
0.000000000000000000e+00
0.000000000000000000e+00
-0.000000000000000000e+00
-0.000000000000000000e+00
0.000000000000000000e+00
0.000000000000000000e+00
0.000000000000000000e+00
-0.000000000000000000e+00
-0.000000000000000000e+00
-0.000000000000000000e+00
-0.000000000000000000e+00
-0.000000000000000000e+00
-0.000000000000000000e+00
-0.000000000000000000e+00
0.000000000000000000e+00
0.000000000000000000e+00
-0.000000000000000000e+00
-0.000000000000000000e+00
-0.000000000000000000e+00
0.000000000000000000e+00
0.000000000000000000e+00
0.000000000000000000e+00
-0.000000000000000000e+00
0.000000000000000000e+00
0.000000000000000000e+00
-0.000000000000000000e+00
0.000000000000000000e+00
0.000000000000000000e+00
-0.000000000000000000e+00
-0.000000000000000000e+00
0.000000000000000000e+00
0.000000000000000000e+00
0.000000000000000000e+00
-0.000000000000000000e+00
0.000000000000000000e+00
0.000000000000000000e+00
-0.000000000000000000e+00
-0.000000000000000000e+00
0.000000000000000000e+00
-0.000000000000000000e+00
0.000000000000000000e+00
-0.000000000000000000e+00
0.000000000000000000e+00
0.000000000000000000e+00
0.000000000000000000e+00
0.000000000000000000e+00
0.000000000000000000e+00
0.000000000000000000e+00
-0.000000000000000000e+00
-0.000000000000000000e+00
-0.000000000000000000e+00
-0.000000000000000000e+00
0.000000000000000000e+00
0.000000000000000000e+00
-0.000000000000000000e+00
-0.000000000000000000e+00
0.000000000000000000e+00
0.000000000000000000e+00
0.000000000000000000e+00
0.000000000000000000e+00
0.000000000000000000e+00
-0.000000000000000000e+00
-0.000000000000000000e+00
0.000000000000000000e+00
0.000000000000000000e+00
-0.000000000000000000e+00
