1.026472598314285278e-01
1.075804531574249268e-01
-2.487625926733016968e-02
6.037857383489608765e-03
-1.963683590292930603e-02
-4.726607352495193481e-03
2.272299490869045258e-02
-1.345016411505639553e-03
-5.896887276321649551e-03
1.008669510483741760e-01
-1.823701150715351105e-02
-6.591968983411788940e-02
-3.376787900924682617e-02
7.634593546390533447e-02
-2.662242203950881958e-02
-1.501683592796325684e-01
1.124711055308580399e-02
3.202809020876884460e-02
-1.879044622182846069e-02
-2.672449918463826180e-03
-2.743251621723175049e-03
-2.099784463644027710e-02
1.209021918475627899e-02
-2.627627365291118622e-02
2.212134655565023422e-03
-8.353370241820812225e-03
-1.451057847589254379e-02
-3.444324061274528503e-02
-1.474745199084281921e-02
-3.315327689051628113e-02
-2.223126031458377838e-02
-1.001634374260902405e-01
-4.138245247304439545e-03
-1.203848980367183685e-02
-1.790443249046802521e-02
-4.676670301705598831e-03
-3.081074170768260956e-02
-1.089125499129295349e-02
-2.541208826005458832e-02
6.731016188859939575e-02
4.158690944314002991e-02
-3.093335963785648346e-02
1.858525502029806376e-04
-1.980812288820743561e-02
-1.107111107558012009e-03
5.579508841037750244e-03
5.910165980458259583e-02
-1.666722004301846027e-03
6.887444108724594116e-02
-1.556186750531196594e-02
-3.735872358083724976e-02
6.400850415229797363e-02
1.191413626074790955e-01
-2.201414480805397034e-02
-1.234137918800115585e-03
8.270809799432754517e-02
1.088348105549812317e-01
-4.624330997467041016e-02
-1.963338255882263184e-02
5.772705748677253723e-02
4.254450649023056030e-02
-2.200130932033061981e-02
-2.795392647385597229e-02
-1.027404237538576126e-02
-3.322869539260864258e-02
-2.647197339683771133e-03
-6.587135791778564453e-02
-3.809748589992523193e-02
2.047173678874969482e-02
5.581957474350929260e-02
-1.573633216321468353e-02
-2.062581246718764305e-03
-3.352513536810874939e-02
-6.957829929888248444e-03
9.815994650125503540e-03
-3.744311630725860596e-02
-6.620164029300212860e-03
-5.878998897969722748e-03
-2.681750990450382233e-02
-1.170324813574552536e-02
1.877512782812118530e-03
-5.746215581893920898e-02
5.036592110991477966e-02
-2.311714488314464688e-04
-1.562231802381575108e-03
-1.722761988639831543e-02
2.811529859900474548e-02
-3.679911792278289795e-02
-3.328793495893478394e-02
1.589937210083007812e-01
1.875147521495819092e-01
-8.386800996959209442e-03
-1.901244744658470154e-02
-4.290096927434206009e-03
-9.789807721972465515e-03
-7.967026904225349426e-03
-1.479217410087585449e-02
-1.440470200031995773e-02
-9.858006611466407776e-03
-1.746597513556480408e-02
-2.021961286664009094e-02
-3.256897255778312683e-02
-1.099765021353960037e-02
3.706381469964981079e-02
-3.428266150876879692e-03
2.006605081260204315e-02
1.395848244428634644e-01
4.902313277125358582e-02
-1.960865966975688934e-02
-1.045565828680992126e-01
1.503447443246841431e-01
4.455600865185260773e-03
-2.580863796174526215e-02
-1.250211801379919052e-02
1.454353053122758865e-02
-3.025799291208386421e-03
-4.184565506875514984e-03
5.909177660942077637e-02
-1.787274889647960663e-02
8.662208914756774902e-02
-4.077633377164602280e-03
2.922396408393979073e-03
-1.761787831783294678e-01
-1.305442303419113159e-02
-3.459306061267852783e-02
-6.004698947072029114e-02
-9.484405629336833954e-03
-2.127781324088573456e-02
-3.007368832186330110e-06
-2.859745360910892487e-02
1.280393153429031372e-01
-1.798274554312229156e-02
-1.881917752325534821e-02
-3.734756261110305786e-03
-2.148776128888130188e-02
-2.595185115933418274e-02
-3.998225927352905273e-02
-4.461254552006721497e-02
3.597829490900039673e-02
1.805516034364700317e-01
1.032638475298881531e-01
-4.759099334478378296e-02
-2.121673896908760071e-03
6.825309246778488159e-02
7.101812958717346191e-02
-4.000915214419364929e-02
1.196175161749124527e-02
-1.265230122953653336e-02
-3.244719281792640686e-02
-1.335878390818834305e-02
-2.894777245819568634e-02
4.310211911797523499e-02
-4.732239618897438049e-02
-1.836801134049892426e-02
-3.944725915789604187e-02
-2.324051596224308014e-02
9.706359356641769409e-02
-2.554553747177124023e-02
-3.293006867170333862e-02
-3.261136636137962341e-02
-3.343493491411209106e-02
-1.641933061182498932e-02
8.325115591287612915e-02
1.333983540534973145e-01
-1.245257556438446045e-01
-3.804716095328330994e-02
-2.129277028143405914e-02
-1.528218854218721390e-02
2.878141216933727264e-02
-1.835872791707515717e-02
5.248887464404106140e-02
-2.393295429646968842e-02
-3.073120675981044769e-02
1.397541016340255737e-01
-2.567389281466603279e-03
-3.121072193607687950e-03
-6.297433283179998398e-03
-1.724347658455371857e-02
-5.311775486916303635e-03
-4.168905690312385559e-02
-6.932275742292404175e-02
-1.438496401533484459e-03
-5.820761620998382568e-02
-1.771324314177036285e-02
-4.921251907944679260e-03
-9.732724726200103760e-02
2.933635190129280090e-02
-1.233909092843532562e-02
6.474441289901733398e-02
6.512269377708435059e-02
1.337161660194396973e-01
-2.402403624728322029e-03
4.983423650264739990e-02
7.216494530439376831e-02
-1.850304566323757172e-02
4.879442229866981506e-02
-5.273420363664627075e-03
3.578365966677665710e-02
-1.907086372375488281e-02
-4.177176207304000854e-02
1.932397671043872833e-02
1.067567989230155945e-01
-3.523553023114800453e-03
5.059850960969924927e-02
-8.223156444728374481e-03
-5.601209588348865509e-03
-2.763561345636844635e-02
-2.879091538488864899e-03
-1.674909517168998718e-02
-1.624290272593498230e-02
1.436043083667755127e-01
-1.826338842511177063e-02
-1.027668546885251999e-02
8.833728730678558350e-02
1.129462942481040955e-01
9.769828990101814270e-03
-1.185878718388266861e-04
-1.655767858028411865e-02
1.095059886574745178e-01
-1.175944507122039795e-02
-3.048328869044780731e-02
6.458985805511474609e-02
1.869597844779491425e-02
-3.333967551589012146e-02
-2.043492347002029419e-02
-2.317913062870502472e-02
1.266154944896697998e-01
1.038432642817497253e-01
6.035967543721199036e-02
-2.823164686560630798e-02
-2.608633367344737053e-03
-3.223632276058197021e-02
4.458377510309219360e-02
2.415136434137821198e-02
6.981696933507919312e-02
4.203676804900169373e-02
-1.324466662481427193e-03
3.380964742973446846e-03
-2.050080709159374237e-02
1.210905704647302628e-02
-4.616905935108661652e-03
-6.123272236436605453e-03
-2.212718594819307327e-03
-6.109364796429872513e-03
4.987439513206481934e-02
-7.275506388396024704e-03
-7.885023020207881927e-03
-3.570014610886573792e-02
-1.593876630067825317e-02
-1.984427496790885925e-02
-1.586543470621109009e-01
-3.239836310967803001e-03
6.344119459390640259e-02
1.720123551785945892e-02
9.534618258476257324e-02
-8.820563554763793945e-03
