-1.527988072484731674e-02
7.408280670642852783e-02
-5.466394871473312378e-02
1.090120673179626465e-01
-3.303046151995658875e-02
6.199121847748756409e-02
6.578288972377777100e-02
-5.153103545308113098e-02
-2.349959127604961395e-02
9.612646698951721191e-02
8.229046314954757690e-02
9.376383572816848755e-02
-9.669166989624500275e-03
6.377181410789489746e-02
-1.828874088823795319e-02
1.850015670061111450e-02
-5.173191055655479431e-02
1.370954420417547226e-02
-6.002667825669050217e-03
3.134083002805709839e-02
-3.535244613885879517e-02
7.034563273191452026e-02
-4.484536871314048767e-02
-4.134706250624731183e-05
-3.891947120428085327e-02
1.016717986203730106e-03
1.143370009958744049e-02
2.459946461021900177e-02
1.232362836599349976e-01
1.182221993803977966e-01
-6.531750410795211792e-02
1.170009840279817581e-02
-2.633259817957878113e-02
-5.046422407031059265e-02
-1.362630445510149002e-02
-1.949946163222193718e-03
9.184263646602630615e-02
8.435142040252685547e-02
7.527472823858261108e-02
7.842774689197540283e-02
1.224113926291465759e-01
-8.887089788913726807e-03
-2.021899260580539703e-02
-7.719236426055431366e-03
3.080720268189907074e-02
6.464932113885879517e-02
5.331701599061489105e-03
-1.955775544047355652e-02
-2.694549411535263062e-02
-2.095303498208522797e-03
4.770194366574287415e-02
-5.944903194904327393e-02
-2.764348313212394714e-02
8.383848518133163452e-02
3.695758059620857239e-02
1.639355272054672241e-01
2.180148614570498466e-03
-1.381420157849788666e-02
-1.218505203723907471e-02
-3.516932204365730286e-02
-3.946314752101898193e-02
-1.431660930393263698e-04
1.145294383168220520e-01
8.350022882223129272e-02
1.199090927839279175e-01
8.122020214796066284e-02
-5.535150691866874695e-02
1.012848764657974243e-01
-1.593987829983234406e-02
-1.151064760051667690e-03
8.054949343204498291e-02
-2.577918348833918571e-03
-8.845017291605472565e-03
-5.582322925329208374e-02
-9.464536560699343681e-04
-1.596468128263950348e-02
-2.472453564405441284e-02
-2.639087615534663200e-03
-1.143818628042936325e-02
-2.577351173385977745e-03
-1.967445574700832367e-02
2.888921834528446198e-02
1.643607467412948608e-01
-4.955639317631721497e-02
-3.273469209671020508e-02
4.291915893554687500e-02
4.230487346649169922e-02
-1.276730746030807495e-02
-4.276836756616830826e-03
8.062679320573806763e-02
-4.862868785858154297e-02
-4.910376295447349548e-02
-4.428619984537363052e-03
1.246213987469673157e-01
-2.904324978590011597e-02
-2.025651372969150543e-02
-4.114890471100807190e-02
9.353300556540489197e-03
-4.313163086771965027e-02
-5.296805873513221741e-03
3.752167522907257080e-02
-2.531372942030429840e-02
8.782306313514709473e-02
-1.148288398981094360e-01
2.180244587361812592e-02
-2.576562017202377319e-02
-3.713237494230270386e-02
-1.405134331434965134e-03
4.174070060253143311e-02
6.750200688838958740e-02
2.640812844038009644e-02
9.335128217935562134e-02
4.338945820927619934e-02
4.016349837183952332e-02
-2.488931827247142792e-02
1.630092784762382507e-02
-2.871127426624298096e-02
-3.319234400987625122e-02
4.654882848262786865e-02
-3.604264557361602783e-02
2.869683876633644104e-02
9.970574080944061279e-02
1.174981445074081421e-01
-5.356485396623611450e-02
-3.477071225643157959e-02
6.442257761955261230e-02
-2.070721983909606934e-02
-3.060944378376007080e-02
7.194821536540985107e-02
4.138366878032684326e-02
-2.617751434445381165e-02
1.208389550447463989e-01
-2.137816138565540314e-02
-2.885443158447742462e-02
1.674413830041885376e-01
-2.092723920941352844e-02
7.258612662553787231e-03
1.012433916330337524e-01
1.896811574697494507e-01
-1.722969859838485718e-02
-1.624173251911997795e-03
-3.756229951977729797e-02
-5.996779724955558777e-02
2.069109678268432617e-02
-8.338537067174911499e-03
-1.426773332059383392e-02
1.350160688161849976e-01
8.784127235412597656e-02
3.134468942880630493e-02
-3.051408380270004272e-02
1.330283433198928833e-01
-9.455969929695129395e-02
6.644379347562789917e-02
-2.459503710269927979e-02
2.972104959189891815e-02
-1.952084153890609741e-02
2.667629625648260117e-03
-5.055101960897445679e-02
8.459475636482238770e-02
-1.714284345507621765e-02
9.279775433242321014e-03
-5.445086862891912460e-03
7.374161481857299805e-02
7.072750478982925415e-03
8.436357602477073669e-03
4.245319962501525879e-02
-1.695550233125686646e-02
-6.349337100982666016e-02
-4.016932472586631775e-02
6.820936501026153564e-02
-4.513777419924736023e-02
-9.071324765682220459e-02
-9.596451371908187866e-02
-1.107054576277732849e-01
6.217867508530616760e-02
6.699797511100769043e-02
-7.272791862487792969e-02
-4.313169792294502258e-02
-2.677555754780769348e-02
-1.716963760554790497e-02
8.723262697458267212e-02
-2.272881753742694855e-02
1.149683631956577301e-02
1.004307270050048828e-01
-6.499600596725940704e-03
1.705624349415302277e-02
7.247129082679748535e-02
1.190670859068632126e-02
-1.573086716234683990e-02
-8.197912946343421936e-03
-2.383580897003412247e-03
9.943391196429729462e-03
-6.831445544958114624e-02
7.955792546272277832e-02
-6.461262702941894531e-02
9.417596273124217987e-03
4.599507432430982590e-03
8.085661381483078003e-02
-2.436620928347110748e-02
7.609455287456512451e-02
2.706241793930530548e-04
2.649059705436229706e-02
-3.901300951838493347e-02
-8.126685023307800293e-02
1.223453655838966370e-01
-3.415819630026817322e-02
4.587544873356819153e-02
-3.716282919049263000e-02
-1.976482011377811432e-02
-2.345043467357754707e-03
4.913511220365762711e-03
8.663131296634674072e-02
-4.280149936676025391e-03
5.196689814329147339e-02
1.357014942914247513e-02
2.141742222011089325e-02
8.878127555362880230e-04
-7.524738553911447525e-03
-2.895501442253589630e-02
-6.562549620866775513e-02
6.372061371803283691e-02
-2.572735585272312164e-02
-7.817920297384262085e-03
-1.932317204773426056e-02
7.878438383340835571e-02
-2.114721015095710754e-02
9.511844813823699951e-02
-2.290179580450057983e-02
-1.808079425245523453e-03
3.242695005610585213e-03
1.212458908557891846e-01
1.818300038576126099e-01
1.323201358318328857e-01
1.493407785892486572e-01
-2.106869593262672424e-02
-2.314790338277816772e-02
1.364757418632507324e-01
-4.900272935628890991e-02
4.570271412376314402e-04
-3.308789804577827454e-02
2.975774370133876801e-02
-3.117203712463378906e-02
9.065906703472137451e-02
-1.494247931987047195e-02
1.125952675938606262e-01
8.736234158277511597e-03
-2.987588569521903992e-02
5.969372391700744629e-02
-1.232919190078973770e-02
-4.815604165196418762e-02
1.048502102494239807e-01
-3.145840391516685486e-02
-2.008334733545780182e-02
-1.809916272759437561e-02
-5.209785699844360352e-02
-2.408792637288570404e-02
